{"learner":{"attributes":{"scikit_learn":"{\"_estimator_type\": \"regressor\"}"},"feature_names":["pre_tax_profit","price_to_book","ADX_window_14_2","roa","asset","equity","fixed_asset","debt_to_equity_ratio","EMA_window_12","earning_per_share"],"feature_types":["float","float","float","float","float","float","float","float","float","float"],"gradient_booster":{"model":{"gbtree_model_param":{"num_parallel_tree":"1","num_trees":"100"},"iteration_indptr":[0,1,2,3,4,5,6,7,8,9,10,11,12,13,14,15,16,17,18,19,20,21,22,23,24,25,26,27,28,29,30,31,32,33,34,35,36,37,38,39,40,41,42,43,44,45,46,47,48,49,50,51,52,53,54,55,56,57,58,59,60,61,62,63,64,65,66,67,68,69,70,71,72,73,74,75,76,77,78,79,80,81,82,83,84,85,86,87,88,89,90,91,92,93,94,95,96,97,98,99,100],"tree_info":[0,0,0,0,0,0,0,0,0,0,0,0,0,0,0,0,0,0,0,0,0,0,0,0,0,0,0,0,0,0,0,0,0,0,0,0,0,0,0,0,0,0,0,0,0,0,0,0,0,0,0,0,0,0,0,0,0,0,0,0,0,0,0,0,0,0,0,0,0,0,0,0,0,0,0,0,0,0,0,0,0,0,0,0,0,0,0,0,0,0,0,0,0,0,0,0,0,0,0,0],"trees":[{"base_weights":[-4.435888E-5,2.237851E-5,-4.7219708E-3,-1.0458155E-4,2.1218874E-3,-7.1655517E-3,-1.2739969E-3,5.481369E-4,-1.3844944E-4,3.24623E-5,3.9122435E-3,9.189363E-8,-5.985357E-4,-2.4543018E-3,5.808623E-5,-4.9297186E-3,-7.897182E-5,3.713488E-4,-1.6425195E-4,4.2082537E-3,-6.601542E-5,-6.049072E-5,-2.523808E-4,-8.3329383E-4,-9.352456E-3,7.863847E-6,-1.0581324E-3,6.6352484E-4,-1.8150338E-4,3.694391E-3,4.4348164E-4,-5.3363957E-4,5.112177E-4,-1.7125602E-4,-8.988426E-4,-1.3857601E-3,7.538273E-5,-4.919448E-4,-2.2173212E-3,1.6441014E-4,1.5333843E-4,1.3390253E-4,3.9464263E-3,-4.108955E-5,-2.8558532E-4,1.4172443E-4,-1.820136E-6,-6.9647016E-5,5.195678E-5,-7.4612745E-4,-8.768522E-5,2.9088169E-5,-5.2271327E-5,2.1893295E-4,3.5775392E-4],"categories":[],"categories_nodes":[],"categories_segments":[],"categories_sizes":[],"default_left":[0,0,0,0,0,0,0,0,0,0,0,0,0,0,0,0,0,0,0,0,0,0,0,0,0,0,0,0,0,0,0,0,0,0,0,0,0,0,0,0,0,0,0,0,0,0,0,0,0,0,0,0,0,0,0],"id":0,"left_children":[1,3,5,7,9,11,13,-1,15,17,19,-1,-1,21,-1,23,25,27,-1,29,-1,-1,-1,31,33,35,37,39,-1,41,-1,-1,-1,-1,-1,43,45,47,49,-1,51,-1,53,-1,-1,-1,-1,-1,-1,-1,-1,-1,-1,-1,-1],"loss_changes":[5.7699875E-4,4.8614945E-4,2.0993158E-4,4.8508428E-4,3.8891775E-4,1.926428E-4,3.24903E-5,0E0,4.8805488E-4,4.226996E-5,8.538616E-5,0E0,0E0,1.297205E-5,0E0,3.7267234E-4,1.4404247E-4,4.1496256E-5,0E0,4.162488E-5,0E0,0E0,0E0,7.8931614E-4,2.4383963E-4,1.4661183E-4,8.948111E-5,3.7210844E-5,0E0,1.1690368E-5,0E0,0E0,0E0,0E0,0E0,1.5766548E-4,3.120038E-4,6.648672E-5,3.4981628E-4,0E0,9.046705E-6,0E0,1.9236119E-5,0E0,0E0,0E0,0E0,0E0,0E0,0E0,0E0,0E0,0E0,0E0,0E0],"parents":[2147483647,0,0,1,1,2,2,3,3,4,4,5,5,6,6,8,8,9,9,10,10,13,13,15,15,16,16,17,17,19,19,23,23,24,24,25,25,26,26,27,27,29,29,35,35,36,36,37,37,38,38,40,40,42,42],"right_children":[2,4,6,8,10,12,14,-1,16,18,20,-1,-1,22,-1,24,26,28,-1,30,-1,-1,-1,32,34,36,38,40,-1,42,-1,-1,-1,-1,-1,44,46,48,50,-1,52,-1,54,-1,-1,-1,-1,-1,-1,-1,-1,-1,-1,-1,-1],"split_conditions":[1.4399937E0,1.2623932E0,1.4832554E0,-3.3311603E0,-1.6702063E0,-1.6229734E0,1.4977E0,5.481369E-4,-2.5089333E0,-9.277009E-1,1.3722906E0,9.189363E-8,-5.985357E-4,-1.5874453E0,5.808623E-5,-3.0201259E0,1.3027874E0,1.3824797E0,-1.6425195E-4,1.3485489E0,-6.601542E-5,-6.049072E-5,-2.523808E-4,6.41761E-1,6.41761E-1,-1.5399361E0,4.915037E-1,-1.0700935E0,-1.8150338E-4,1.1331948E0,4.4348164E-4,-5.3363957E-4,5.112177E-4,-1.7125602E-4,-8.988426E-4,8.317462E-1,-1.3844329E0,3.3188564E-1,6.002843E-1,1.6441014E-4,-1.7040943E0,1.3390253E-4,-2.4065442E0,-4.108955E-5,-2.8558532E-4,1.4172443E-4,-1.820136E-6,-6.9647016E-5,5.195678E-5,-7.4612745E-4,-8.768522E-5,2.9088169E-5,-5.2271327E-5,2.1893295E-4,3.5775392E-4],"split_indices":[3,5,3,8,7,7,3,0,8,8,9,0,0,7,0,8,7,3,0,9,0,0,0,3,3,7,8,8,0,3,0,0,0,0,0,3,7,8,8,0,7,0,8,0,0,0,0,0,0,0,0,0,0,0,0],"split_type":[0,0,0,0,0,0,0,0,0,0,0,0,0,0,0,0,0,0,0,0,0,0,0,0,0,0,0,0,0,0,0,0,0,0,0,0,0,0,0,0,0,0,0,0,0,0,0,0,0,0,0,0,0,0,0],"sum_hessian":[1.847E3,1.822E3,2.5E1,1.719E3,1.03E2,1.4E1,1.1E1,6E0,1.713E3,4.8E1,5.5E1,3E0,1.1E1,7E0,4E0,2E1,1.693E3,4.3E1,5E0,5.2E1,3E0,4E0,3E0,1.1E1,9E0,1.556E3,1.37E2,4E1,3E0,4.5E1,7E0,6E0,5E0,4E0,5E0,7.1E1,1.485E3,9.3E1,4.4E1,8E0,3.2E1,7E0,3.8E1,5.7E1,1.4E1,7E1,1.415E3,6.5E1,2.8E1,3E0,4.1E1,2.5E1,7E0,2.8E1,1E1],"tree_param":{"num_deleted":"0","num_feature":"10","num_nodes":"55","size_leaf_vector":"1"}},{"base_weights":[-1.5632217E-4,-5.616092E-4,1.7077192E-4,-3.359916E-3,-2.8796215E-4,2.131193E-3,-2.9788273E-5,-1.4214439E-3,-7.96526E-3,-2.0862058E-4,-6.2891254E-3,6.333289E-4,1.454455E-3,-7.2248424E-3,2.365305E-5,-2.267027E-3,3.8228263E-4,-1.1298649E-2,-5.25342E-3,-2.543443E-4,1.6903437E-3,-8.9535996E-4,-1.3275922E-3,1.0986829E-3,4.866416E-4,-1.0591328E-4,-7.3892705E-4,7.3355567E-3,-3.886712E-5,-4.947921E-3,-1.1614842E-3,-1.4954896E-4,-1.2094127E-3,-1.8791418E-3,-7.317683E-4,3.6443546E-4,-3.9233727E-4,2.7906646E-3,-1.9100207E-4,-3.4002398E-5,-1.21240206E-4,2.3889185E-3,-2.47109E-4,9.009799E-5,8.6770515E-4,2.7278062E-5,-3.2326782E-3,-6.62936E-4,-2.6896512E-3,9.261753E-4,-3.5492314E-3,-2.4046167E-4,-6.2812614E-4,2.6879652E-4,1.6464973E-4,-2.8768114E-3,-3.2464092E-4,1.2464566E-3,3.76184E-4,2.8548238E-3,-1.9938101E-4,7.080196E-4,-4.1796558E-4,1.2071003E-3,-8.52524E-5,-6.255124E-4,-3.752982E-4,2.2202071E-4,-5.515132E-4,1.861355E-4,1.9191755E-5,-1.4419827E-4,-4.3143047E-4,1.2512332E-4,-1.9857354E-4,4.5661935E-5,-1.1231335E-5,-1.0147639E-6,-2.5588291E-4,-4.7530743E-6,-6.4163614E-5,1.4053428E-4,-1.35131495E-5,8.901432E-6,2.6570496E-4,8.656586E-5,7.65154E-6,-1.3937702E-4,1.2944479E-4,-6.950556E-5,7.735409E-6,2.97335E-5,-6.9902475E-5],"categories":[],"categories_nodes":[],"categories_segments":[],"categories_sizes":[],"default_left":[0,0,0,0,0,0,0,0,0,0,0,0,0,0,0,0,0,0,0,0,0,0,0,0,0,0,0,0,0,0,0,0,0,0,0,0,0,0,0,0,0,0,0,0,0,0,0,0,0,0,0,0,0,0,0,0,0,0,0,0,0,0,0,0,0,0,0,0,0,0,0,0,0,0,0,0,0,0,0,0,0,0,0,0,0,0,0,0,0,0,0,0,0],"id":1,"left_children":[1,3,5,7,9,11,13,15,17,19,21,-1,23,25,27,29,-1,31,33,35,37,-1,39,41,-1,-1,-1,43,45,47,49,-1,-1,51,-1,53,55,57,-1,-1,-1,59,61,-1,-1,63,65,-1,67,69,71,-1,73,-1,75,77,79,81,-1,83,-1,85,-1,87,89,-1,91,-1,-1,-1,-1,-1,-1,-1,-1,-1,-1,-1,-1,-1,-1,-1,-1,-1,-1,-1,-1,-1,-1,-1,-1,-1,-1],"loss_changes":[2.5024984E-4,6.4455846E-4,4.1093913E-4,6.5822765E-4,3.6484096E-4,4.6849166E-4,3.650739E-4,3.3910703E-4,1.3951503E-4,6.641902E-5,3.349959E-4,0E0,1.7862055E-4,1.338163E-4,4.3136952E-4,1.3948139E-4,0E0,5.140676E-4,2.4858786E-4,6.35857E-5,9.806924E-5,0E0,1.8667815E-6,1.4991971E-4,0E0,0E0,0E0,2.5311668E-4,1.9782307E-4,1.3054896E-4,1.8274013E-4,0E0,0E0,1.9250721E-5,0E0,9.873531E-5,1.0132545E-4,5.874568E-5,0E0,0E0,0E0,1.1865902E-4,2.5117895E-4,0E0,0E0,1.2198205E-4,3.2920117E-4,0E0,3.9540345E-4,2.2962104E-5,5.482811E-5,0E0,4.6589103E-5,0E0,2.255156E-5,4.355803E-5,9.548199E-5,1.40775155E-5,0E0,1.2462394E-4,0E0,1.31014E-5,0E0,1.9637753E-4,1.6117307E-4,0E0,8.169205E-6,0E0,0E0,0E0,0E0,0E0,0E0,0E0,0E0,0E0,0E0,0E0,0E0,0E0,0E0,0E0,0E0,0E0,0E0,0E0,0E0,0E0,0E0,0E0,0E0,0E0,0E0],"parents":[2147483647,0,0,1,1,2,2,3,3,4,4,5,5,6,6,7,7,8,8,9,9,10,10,12,12,13,13,14,14,15,15,17,17,18,18,19,19,20,20,22,22,23,23,27,27,28,28,29,29,30,30,33,33,35,35,36,36,37,37,41,41,42,42,45,45,46,46,48,48,49,49,50,50,52,52,54,54,55,55,56,56,57,57,59,59,61,61,63,63,64,64,66,66],"right_children":[2,4,6,8,10,12,14,16,18,20,22,-1,24,26,28,30,-1,32,34,36,38,-1,40,42,-1,-1,-1,44,46,48,50,-1,-1,52,-1,54,56,58,-1,-1,-1,60,62,-1,-1,64,66,-1,68,70,72,-1,74,-1,76,78,80,82,-1,84,-1,86,-1,88,90,-1,92,-1,-1,-1,-1,-1,-1,-1,-1,-1,-1,-1,-1,-1,-1,-1,-1,-1,-1,-1,-1,-1,-1,-1,-1,-1,-1],"split_conditions":[-7.882225E-2,-4.0199596E-1,-1.7204423E0,8.755419E-1,1.1010467E0,9.7567546E-1,-1.613676E0,-2.2620693E-1,8.873113E-1,1.0829289E0,2.4153338E-1,6.333289E-4,1.8085967E0,1.79606E0,-1.5030268E0,-3.0835164E0,3.8228263E-4,-1.4326531E0,-6.411332E-1,-1.646326E0,-1.6796729E-1,-8.9535996E-4,3.5399836E-1,-2.3169267E0,4.866416E-4,-1.0591328E-4,-7.3892705E-4,1.0987775E0,1.7710177E0,7.700576E-1,8.285623E-1,-1.4954896E-4,-1.2094127E-3,-9.4536936E-1,-7.317683E-4,9.2580026E-1,-1.3310728E0,-2.3389679E-1,-1.9100207E-4,-3.4002398E-5,-1.21240206E-4,1.2994201E0,1.2160683E0,9.009799E-5,8.6770515E-4,-1.0193844E0,-1.0700935E0,-6.62936E-4,-2.663894E-1,7.934302E-1,-2.220204E0,-2.4046167E-4,-8.28844E-1,2.6879652E-4,1.2039385E0,8.780763E-2,3.910819E-1,1.0890993E0,3.76184E-4,-3.6544014E-2,-1.9938101E-4,1.088492E0,-4.1796558E-4,7.932311E-1,-3.8197532E-1,-6.255124E-4,1.1157697E0,2.2202071E-4,-5.515132E-4,1.861355E-4,1.9191755E-5,-1.4419827E-4,-4.3143047E-4,1.2512332E-4,-1.9857354E-4,4.5661935E-5,-1.1231335E-5,-1.0147639E-6,-2.5588291E-4,-4.7530743E-6,-6.4163614E-5,1.4053428E-4,-1.35131495E-5,8.901432E-6,2.6570496E-4,8.656586E-5,7.65154E-6,-1.3937702E-4,1.2944479E-4,-6.950556E-5,7.735409E-6,2.97335E-5,-6.9902475E-5],"split_indices":[0,8,8,4,4,5,8,0,4,4,8,0,4,4,8,8,0,8,8,0,8,0,8,8,0,0,0,0,4,4,4,0,0,8,0,8,5,8,0,0,0,4,0,0,0,8,8,0,0,4,8,0,8,0,8,8,8,4,0,0,0,0,0,5,8,0,0,0,0,0,0,0,0,0,0,0,0,0,0,0,0,0,0,0,0,0,0,0,0,0,0,0,0],"split_type":[0,0,0,0,0,0,0,0,0,0,0,0,0,0,0,0,0,0,0,0,0,0,0,0,0,0,0,0,0,0,0,0,0,0,0,0,0,0,0,0,0,0,0,0,0,0,0,0,0,0,0,0,0,0,0,0,0,0,0,0,0,0,0,0,0,0,0,0,0,0,0,0,0,0,0,0,0,0,0,0,0,0,0,0,0,0,0,0,0,0,0,0,0],"sum_hessian":[1.886E3,8.42E2,1.044E3,7.4E1,7.68E2,9.6E1,9.48E2,5.3E1,2.1E1,7.59E2,9E0,7E0,8.9E1,6E0,9.42E2,4.8E1,5E0,8E0,1.3E1,7.42E2,1.7E1,3E0,6E0,8.5E1,4E0,3E0,3E0,7E0,9.35E2,1.3E1,3.5E1,4E0,4E0,9E0,4E0,1.35E2,6.07E2,1.4E1,3E0,3E0,3E0,4.3E1,4.2E1,4E0,3E0,9.17E2,1.8E1,3E0,1E1,1.9E1,1.6E1,3E0,6E0,6E0,1.29E2,1.5E1,5.92E2,1E1,4E0,4E1,3E0,3.7E1,5E0,7.9E1,8.38E2,5E0,1.3E1,5E0,5E0,4E0,1.5E1,1.2E1,4E0,3E0,3E0,5E1,7.9E1,4E0,1.1E1,4.24E2,1.68E2,6E0,4E0,1.2E1,2.8E1,1.8E1,1.9E1,1.4E1,6.5E1,1.45E2,6.93E2,6E0,7E0],"tree_param":{"num_deleted":"0","num_feature":"10","num_nodes":"93","size_leaf_vector":"1"}},{"base_weights":[-7.186163E-6,3.0534065E-5,-3.6597142E-3,-1.809494E-4,8.57212E-4,-5.906715E-3,-5.06745E-4,-8.755163E-5,-6.9292304E-3,6.2327756E-4,5.2076E-3,-4.83652E-4,-1.1808875E-4,9.0939946E-5,-1.1141788E-4,2.2269973E-4,-8.242849E-4,-1.2411927E-3,-1.8089359E-3,3.256781E-3,2.5226668E-4,1.0684647E-3,2.1454434E-4,1.8769916E-4,2.1586928E-3,-4.0498737E-4,-2.1142603E-3,1.7300984E-4,-3.1494566E-3,5.601961E-4,2.0602527E-3,1.6096894E-4,3.9171858E-4,2.2995404E-3,-1.970334E-4,2.5610588E-4,-9.099898E-4,3.128484E-4,1.1033413E-3,-4.8589602E-4,4.1491413E-4,-5.5821436E-3,-1.017824E-3,-2.0444942E-5,4.067593E-5,-1.0331993E-4,-2.754856E-4,-1.3267233E-3,2.8947713E-3,-1.8621377E-3,3.9243288E-4,2.439063E-4,3.267433E-5,2.4378363E-5,-1.7920586E-6,-1.746957E-4,1.6809921E-5,-6.5657755E-6,2.7609535E-4,-4.1958505E-5,7.2782175E-5,-2.8333694E-4,-7.728989E-4,-1.4983513E-4,-8.6357995E-6,1.2817953E-4,-3.375284E-4,3.3313248E-4,3.151742E-5,1.2444933E-4,-1.866484E-4,2.1507913E-4,9.2188675E-6],"categories":[],"categories_nodes":[],"categories_segments":[],"categories_sizes":[],"default_left":[0,0,0,0,0,0,0,0,0,0,0,0,0,0,0,0,0,0,0,0,0,0,0,0,0,0,0,0,0,0,0,0,0,0,0,0,0,0,0,0,0,0,0,0,0,0,0,0,0,0,0,0,0,0,0,0,0,0,0,0,0,0,0,0,0,0,0,0,0,0,0,0,0],"id":2,"left_children":[1,3,5,7,9,11,13,15,17,19,21,-1,-1,-1,-1,23,25,-1,27,29,31,-1,33,35,37,39,41,43,45,-1,47,49,-1,51,-1,53,55,-1,57,59,-1,61,63,-1,-1,-1,-1,65,67,69,71,-1,-1,-1,-1,-1,-1,-1,-1,-1,-1,-1,-1,-1,-1,-1,-1,-1,-1,-1,-1,-1,-1],"loss_changes":[2.5609622E-4,3.218399E-4,1.3161654E-4,9.2337554E-4,3.7839377E-4,4.7831854E-5,2.177964E-5,3.3092801E-4,1.1590042E-3,3.479883E-4,1.0194872E-3,0E0,0E0,0E0,0E0,6.8643145E-5,2.3118278E-4,0E0,4.0397474E-5,2.5264182E-4,1.5988114E-4,0E0,9.911581E-5,7.547255E-5,4.2766624E-5,1.7694465E-4,3.935612E-4,1.647182E-6,7.6693395E-6,0E0,1.0842086E-4,1.4589641E-4,0E0,2.0223808E-5,0E0,2.9049246E-5,1.1746514E-4,0E0,5.1353865E-5,7.272239E-5,0E0,1.5171862E-4,8.784669E-5,0E0,0E0,0E0,0E0,1.06379346E-4,1.4962969E-4,1.1618342E-4,2.0021602E-4,0E0,0E0,0E0,0E0,0E0,0E0,0E0,0E0,0E0,0E0,0E0,0E0,0E0,0E0,0E0,0E0,0E0,0E0,0E0,0E0,0E0,0E0],"parents":[2147483647,0,0,1,1,2,2,3,3,4,4,5,5,6,6,7,7,8,8,9,9,10,10,15,15,16,16,18,18,19,19,20,20,22,22,23,23,24,24,25,25,26,26,27,27,28,28,30,30,31,31,33,33,35,35,36,36,38,38,39,39,41,41,42,42,47,47,48,48,49,49,50,50],"right_children":[2,4,6,8,10,12,14,16,18,20,22,-1,-1,-1,-1,24,26,-1,28,30,32,-1,34,36,38,40,42,44,46,-1,48,50,-1,52,-1,54,56,-1,58,60,-1,62,64,-1,-1,-1,-1,66,68,70,72,-1,-1,-1,-1,-1,-1,-1,-1,-1,-1,-1,-1,-1,-1,-1,-1,-1,-1,-1,-1,-1,-1],"split_conditions":[1.4544023E0,9.8178446E-1,1.1157697E0,9.712832E-1,1.1096538E0,1.1096538E0,4.972675E-1,5.682205E-1,-1.4859602E0,5.55822E-1,-7.909077E-3,-4.83652E-4,-1.1808875E-4,9.0939946E-5,-1.1141788E-4,9.3977505E-1,6.074535E-1,-1.2411927E-3,1.1364219E0,-1.0385466E0,1.4399937E0,1.0684647E-3,1.2966655E0,1.1088972E0,-9.279023E-1,6.0060054E-1,-2.2044742E-1,-7.230891E-1,5.367806E-1,5.601961E-4,-6.644951E-1,-6.1160382E-2,3.9171858E-4,1.2270056E0,-1.970334E-4,-1.00444235E-1,-3.1185237E-1,3.128484E-4,-4.5907393E-2,2.378187E0,4.1491413E-4,7.2785395E-1,9.926968E-1,-2.0444942E-5,4.067593E-5,-1.0331993E-4,-2.754856E-4,-8.633658E-1,2.9723185E-1,-1.13026135E-1,5.776557E-1,2.439063E-4,3.267433E-5,2.4378363E-5,-1.7920586E-6,-1.746957E-4,1.6809921E-5,-6.5657755E-6,2.7609535E-4,-4.1958505E-5,7.2782175E-5,-2.8333694E-4,-7.728989E-4,-1.4983513E-4,-8.6357995E-6,1.2817953E-4,-3.375284E-4,3.3313248E-4,3.151742E-5,1.2444933E-4,-1.866484E-4,2.1507913E-4,9.2188675E-6],"split_indices":[3,3,0,3,2,2,2,2,2,4,0,0,0,0,0,3,3,0,0,2,3,0,3,0,2,3,0,2,2,0,2,0,0,2,0,4,2,0,2,2,0,3,2,0,0,0,0,2,2,0,9,0,0,0,0,0,0,0,0,0,0,0,0,0,0,0,0,0,0,0,0,0,0],"split_type":[0,0,0,0,0,0,0,0,0,0,0,0,0,0,0,0,0,0,0,0,0,0,0,0,0,0,0,0,0,0,0,0,0,0,0,0,0,0,0,0,0,0,0,0,0,0,0,0,0,0,0,0,0,0,0,0,0,0,0,0,0,0,0,0,0,0,0,0,0,0,0,0,0],"sum_hessian":[1.857E3,1.839E3,1.8E1,1.465E3,3.74E2,1E1,8E0,1.446E3,1.9E1,3.56E2,1.8E1,7E0,3E0,3E0,5E0,1.018E3,4.28E2,5E0,1.4E1,4.3E1,3.13E2,5E0,1.3E1,1.001E3,1.7E1,3.24E2,1.04E2,6E0,8E0,7E0,3.6E1,3.09E2,4E0,8E0,5E0,9.43E2,5.8E1,4E0,1.3E1,3.21E2,3E0,2.4E1,8E1,3E0,3E0,4E0,4E0,7E0,2.9E1,3.1E1,2.78E2,4E0,4E0,6.81E2,2.62E2,2.3E1,3.5E1,1E1,3E0,2.95E2,2.6E1,2.1E1,3E0,3.3E1,4.7E1,4E0,3E0,1.5E1,1.4E1,6E0,2.5E1,2.2E1,2.56E2],"tree_param":{"num_deleted":"0","num_feature":"10","num_nodes":"73","size_leaf_vector":"1"}},{"base_weights":[-4.7951136E-5,-4.225756E-3,4.30947E-5,-2.479536E-3,-8.093642E-3,3.863713E-4,2.1118107E-5,-4.785808E-3,3.3331267E-4,-7.8245346E-4,-3.2219556E-4,-5.6479448E-3,4.910957E-5,-1.9441059E-4,-3.7557486E-4,-5.8166686E-5,7.4075966E-4,-1.3585332E-4,-4.7552685E-4,-5.615473E-5,5.8979716E-4,1.06787156E-4,-1.6041271E-5,-1.5320031E-4,1.0140812E-3,2.393855E-3,1.133506E-4,-8.885537E-5,-4.0016402E-3,1.3986628E-3,-8.849977E-4,4.5065134E-4,1.8939233E-3,-6.61613E-4,6.3101394E-4,-1.453837E-4,-4.6850104E-7,-4.7689368E-4,-1.2386282E-4,3.2977553E-6,1.5027923E-4,-3.900706E-4,6.114332E-5,-3.323578E-5,2.0115307E-4,-2.7163362E-4,-3.122749E-5,1.0789128E-4,1.0560435E-5],"categories":[],"categories_nodes":[],"categories_segments":[],"categories_sizes":[],"default_left":[0,0,0,0,0,0,0,0,0,0,0,0,0,0,0,0,0,0,0,0,0,0,0,0,0,0,0,0,0,0,0,0,0,0,0,0,0,0,0,0,0,0,0,0,0,0,0,0,0],"id":3,"left_children":[1,3,5,7,9,-1,11,13,15,-1,-1,17,19,-1,-1,-1,21,-1,-1,23,25,-1,-1,27,29,31,33,35,37,39,41,-1,43,45,47,-1,-1,-1,-1,-1,-1,-1,-1,-1,-1,-1,-1,-1,-1],"loss_changes":[7.133792E-4,2.5009876E-4,2.314471E-4,1.8972377E-4,8.5515145E-5,0E0,2.906716E-4,8.710922E-6,7.511656E-6,0E0,0E0,3.3308723E-5,1.0373244E-4,0E0,0E0,0E0,9.633843E-6,0E0,0E0,1.5864825E-4,2.550112E-4,0E0,0E0,3.463231E-4,9.399238E-5,1.22070254E-4,9.509365E-5,2.3534604E-4,1.4166563E-4,1.2151108E-4,2.0146936E-4,0E0,1.5367316E-4,6.0916856E-5,6.580769E-5,0E0,0E0,0E0,0E0,0E0,0E0,0E0,0E0,0E0,0E0,0E0,0E0,0E0,0E0],"parents":[2147483647,0,0,1,1,2,2,3,3,4,4,6,6,7,7,8,8,11,11,12,12,16,16,19,19,20,20,23,23,24,24,25,25,26,26,27,27,28,28,29,29,30,30,32,32,33,33,34,34],"right_children":[2,4,6,8,10,-1,12,14,16,-1,-1,18,20,-1,-1,-1,22,-1,-1,24,26,-1,-1,28,30,32,34,36,38,40,42,-1,44,46,48,-1,-1,-1,-1,-1,-1,-1,-1,-1,-1,-1,-1,-1,-1],"split_conditions":[-2.065312E0,7.8362864E-1,-2.0590146E0,-2.606634E-1,-2.4345669E-1,3.863713E-4,-2.0558622E0,-2.663894E-1,7.686927E-1,-7.8245346E-4,-3.2219556E-4,8.6213255E-1,1.1433173E0,-1.9441059E-4,-3.7557486E-4,-5.8166686E-5,-2.549326E-1,-1.3585332E-4,-4.7552685E-4,1.2872875E0,1.08149186E-1,1.06787156E-4,-1.6041271E-5,1.1633359E0,1.0953476E0,1.1469468E0,1.2579268E0,-1.5518283E0,-9.057232E-2,-1.6702063E0,1.0987775E0,4.5065134E-4,1.167497E0,-1.0984814E0,-5.6372535E-1,-1.453837E-4,-4.6850104E-7,-4.7689368E-4,-1.2386282E-4,3.2977553E-6,1.5027923E-4,-3.900706E-4,6.114332E-5,-3.323578E-5,2.0115307E-4,-2.7163362E-4,-3.122749E-5,1.0789128E-4,1.0560435E-5],"split_indices":[1,6,1,0,0,0,1,0,6,0,0,6,0,0,0,0,0,0,0,6,6,0,0,6,0,0,0,7,0,7,0,0,0,1,1,0,0,0,0,0,0,0,0,0,0,0,0,0,0],"split_type":[0,0,0,0,0,0,0,0,0,0,0,0,0,0,0,0,0,0,0,0,0,0,0,0,0,0,0,0,0,0,0,0,0,0,0,0,0,0,0,0,0,0,0,0,0,0,0,0,0],"sum_hessian":[1.874E3,3.9E1,1.835E3,2.8E1,1.1E1,6E0,1.829E3,1.5E1,1.3E1,4E0,7E0,8E0,1.821E3,6E0,9E0,3E0,1E1,3E0,5E0,1.525E3,2.96E2,5E0,5E0,1.399E3,1.26E2,6.1E1,2.35E2,1.377E3,2.2E1,1.05E2,2.1E1,5E0,5.6E1,9.4E1,1.41E2,5.1E1,1.326E3,8E0,1.4E1,4.1E1,6.4E1,5E0,1.6E1,1.8E1,3.8E1,4E0,9E1,4.5E1,9.6E1],"tree_param":{"num_deleted":"0","num_feature":"10","num_nodes":"49","size_leaf_vector":"1"}},{"base_weights":[4.4732165E-5,-1.5868531E-3,1.4702957E-4,5.9512397E-3,-2.0789665E-3,1.9653725E-4,-2.4408265E-3,1.9176255E-4,5.041484E-4,-6.958765E-4,-1.552804E-3,6.652496E-5,8.3301344E-4,-3.8895146E-3,5.4133903E-5,2.0045706E-4,-2.4729786E-3,9.399445E-5,-2.330745E-4,2.6370975E-4,7.200508E-4,-2.4282872E-3,-5.789492E-4,-3.4318265E-4,1.9279291E-4,-5.273865E-3,-7.0480414E-4,1.4885026E-4,-6.4002804E-4,-1.1583989E-3,8.44457E-4,-4.13732E-3,3.3509795E-4,1.3933396E-4,-1.8600306E-4,-6.6936784E-4,-4.1716765E-3,-7.721453E-5,-1.9562664E-4,7.7796656E-5,1.2518732E-3,-1.9593656E-3,-2.1497371E-4,6.964585E-5,-2.3455988E-3,2.2602417E-3,5.6890707E-4,-1.4849146E-3,-6.4652803E-4,-1.6070307E-4,5.744224E-5,-5.6280012E-5,-3.7882102E-4,1.1899853E-4,-2.6388137E-5,9.759237E-6,-9.173094E-5,3.0164616E-4,6.189888E-5,-1.8150937E-4,9.759587E-5,1.1011156E-5,-7.715105E-5,-2.0755241E-4,-1.0538004E-4,1.06027524E-4,4.1087365E-4,2.245834E-5,8.903768E-5,-2.7730166E-5,-1.463268E-4],"categories":[],"categories_nodes":[],"categories_segments":[],"categories_sizes":[],"default_left":[0,0,0,0,0,0,0,0,0,0,0,0,0,0,0,0,0,0,0,0,0,0,0,0,0,0,0,0,0,0,0,0,0,0,0,0,0,0,0,0,0,0,0,0,0,0,0,0,0,0,0,0,0,0,0,0,0,0,0,0,0,0,0,0,0,0,0,0,0,0,0],"id":4,"left_children":[1,3,5,7,9,11,13,-1,-1,-1,15,17,19,21,-1,23,25,27,-1,-1,29,31,-1,33,-1,35,37,39,41,43,45,47,-1,49,-1,-1,51,53,-1,55,57,59,61,-1,63,65,67,69,-1,-1,-1,-1,-1,-1,-1,-1,-1,-1,-1,-1,-1,-1,-1,-1,-1,-1,-1,-1,-1,-1,-1],"loss_changes":[3.1118095E-4,4.2042808E-4,2.252E-4,1.2721459E-5,4.3993772E-4,1.4243962E-4,1.5856916E-4,0E0,0E0,0E0,1.6021305E-4,1.400553E-4,9.985865E-5,1.3943194E-4,0E0,5.207469E-5,3.181926E-4,5.7312398E-5,0E0,0E0,6.7112705E-5,2.6244114E-4,0E0,3.5714584E-5,0E0,8.8918314E-5,5.6970493E-5,1.0359108E-4,5.509702E-5,4.947254E-5,1.0248592E-4,2.2066993E-4,0E0,4.97186E-5,0E0,0E0,1.0491829E-4,2.018354E-5,0E0,1.2337037E-4,8.077794E-5,6.610224E-5,2.7309796E-5,0E0,2.1153392E-6,1.02859136E-4,3.9372215E-5,8.141984E-6,0E0,0E0,0E0,0E0,0E0,0E0,0E0,0E0,0E0,0E0,0E0,0E0,0E0,0E0,0E0,0E0,0E0,0E0,0E0,0E0,0E0,0E0,0E0],"parents":[2147483647,0,0,1,1,2,2,3,3,4,4,5,5,6,6,10,10,11,11,12,12,13,13,15,15,16,16,17,17,20,20,21,21,23,23,25,25,26,26,27,27,28,28,29,29,30,30,31,31,33,33,36,36,37,37,39,39,40,40,41,41,42,42,44,44,45,45,46,46,47,47],"right_children":[2,4,6,8,10,12,14,-1,-1,-1,16,18,20,22,-1,24,26,28,-1,-1,30,32,-1,34,-1,36,38,40,42,44,46,48,-1,50,-1,-1,52,54,-1,56,58,60,62,-1,64,66,68,70,-1,-1,-1,-1,-1,-1,-1,-1,-1,-1,-1,-1,-1,-1,-1,-1,-1,-1,-1,-1,-1,-1,-1],"split_conditions":[-2.0241916E0,-2.0810091E0,1.4255973E0,6.074535E-1,1.004525E0,1.0767016E0,-5.040263E-1,1.9176255E-4,5.041484E-4,-6.958765E-4,7.0025885E-1,1.2065437E0,2.2088569E-2,1.3895565E0,5.4133903E-5,-2.065312E0,7.831824E-1,9.677697E-1,-2.330745E-4,2.6370975E-4,-1.9665153E0,-5.1291305E-1,-5.789492E-4,8.13538E-1,1.9279291E-4,-2.0590146E0,-2.030547E0,8.607479E-1,9.8178446E-1,-1.9745778E0,-1.1103216E0,1.3792918E0,3.3509795E-4,-2.077875E0,-1.8600306E-4,-6.6936784E-4,-2.0558622E0,-2.0432255E0,-1.9562664E-4,8.2159406E-1,8.769574E-1,1.1843015E0,9.538877E-1,6.964585E-5,1.1119878E0,1.2253988E0,1.3252555E0,1.3722906E0,-6.4652803E-4,-1.6070307E-4,5.744224E-5,-5.6280012E-5,-3.7882102E-4,1.1899853E-4,-2.6388137E-5,9.759237E-6,-9.173094E-5,3.0164616E-4,6.189888E-5,-1.8150937E-4,9.759587E-5,1.1011156E-5,-7.715105E-5,-2.0755241E-4,-1.0538004E-4,1.06027524E-4,4.1087365E-4,2.245834E-5,8.903768E-5,-2.7730166E-5,-1.463268E-4],"split_indices":[1,1,3,3,5,3,1,0,0,0,3,5,6,9,0,1,3,3,0,0,1,1,0,6,0,1,1,5,3,1,1,9,0,1,0,0,1,1,0,5,3,5,5,0,3,3,3,9,0,0,0,0,0,0,0,0,0,0,0,0,0,0,0,0,0,0,0,0,0,0,0],"split_type":[0,0,0,0,0,0,0,0,0,0,0,0,0,0,0,0,0,0,0,0,0,0,0,0,0,0,0,0,0,0,0,0,0,0,0,0,0,0,0,0,0,0,0,0,0,0,0,0,0,0,0,0,0,0,0,0,0,0,0,0,0,0,0,0,0,0,0,0,0,0,0],"sum_hessian":[1.862E3,1.09E2,1.753E3,6E0,1.03E2,1.721E3,3.2E1,3E0,3E0,5E0,9.8E1,1.43E3,2.91E2,2.2E1,1E1,3.4E1,6.4E1,1.42E3,1E1,9E0,2.82E2,1.8E1,4E0,2.9E1,5E0,2.4E1,4E1,1.322E3,9.8E1,1.7E1,2.65E2,1.5E1,3E0,2.5E1,4E0,3E0,2.1E1,3.2E1,8E0,1.243E3,7.9E1,2.3E1,7.5E1,6E0,1.1E1,4.2E1,2.23E2,1.1E1,4E0,5E0,2E1,7E0,1.4E1,4E0,2.8E1,1.188E3,5.5E1,6E0,7.3E1,1.9E1,4E0,5.4E1,2.1E1,4E0,7E0,3.7E1,5E0,1.72E2,5.1E1,5E0,6E0],"tree_param":{"num_deleted":"0","num_feature":"10","num_nodes":"71","size_leaf_vector":"1"}},{"base_weights":[1.779016E-4,-2.280462E-3,2.7913405E-4,-4.2512137E-4,-5.425668E-3,6.0422273E-5,8.507858E-4,-2.9682124E-3,8.5970917E-4,-8.203942E-3,-1.2691622E-3,2.4992472E-4,-3.900544E-4,6.3347345E-4,3.5737394E-3,-1.0262116E-2,3.845059E-3,2.6310892E-3,-1.6057144E-3,-6.4585253E-4,-1.5681302E-2,1.074332E-3,-3.1839323E-4,1.3155237E-4,1.2099228E-3,-2.795883E-3,-2.7662268E-4,7.1071775E-4,-5.51501E-4,7.610988E-3,-3.6608522E-5,-1.1732515E-3,-1.5854642E-4,4.321663E-4,-7.0161725E-5,7.6484634E-4,5.147566E-4,-2.891316E-4,3.8689186E-4,-1.0514113E-4,6.061062E-5,-5.611484E-4,-1.2276071E-3,-5.6731093E-5,2.1448816E-4,2.0314829E-4,-1.3189007E-3,3.6809656E-3,9.818983E-4,-4.0083593E-3,6.35128E-6,-1.327924E-4,-2.4032893E-3,1.6385489E-3,2.1136843E-4,3.8277232E-3,1.2662217E-3,1.8200502E-4,-6.8396295E-4,3.2993935E-3,-1.8653065E-3,1.5231142E-4,-1.7029965E-4,7.7937046E-5,7.6425343E-4,-3.1634278E-4,-7.7785464E-4,3.9921358E-4,-7.0908195E-6,1.3130183E-3,4.9824757E-4,-2.4018865E-3,-4.424058E-4,3.2413837E-3,-2.0269252E-4,-3.2376118E-3,3.342526E-5,1.1327536E-3,4.415375E-3,3.2020768E-4,-2.1742375E-3,4.7657575E-4,1.7927105E-3,-1.2653387E-3,1.0168997E-4,4.807818E-5,3.8083497E-4,-1.5169875E-4,-5.96571E-5,1.0873655E-5,-1.0443967E-4,1.0828044E-4,1.4969226E-5,-2.9036384E-5,-2.1676788E-4,7.39245E-5,2.4190173E-4,-1.409811E-5,1.18927084E-4,-2.8805964E-4,-8.308008E-7,-1.2275428E-4,5.01787E-4,-1.7341154E-5,1.2634724E-4,-5.6289147E-5,-3.7013265E-4,3.139353E-4,5.8211437E-5,3.9928037E-4,1.7611633E-4,5.1299776E-6,1.4037284E-4,-3.3514856E-4,1.3208466E-4,2.6661488E-5,2.0758499E-4,-1.356418E-4,-4.1094765E-5],"categories":[],"categories_nodes":[],"categories_segments":[],"categories_sizes":[],"default_left":[0,0,0,0,0,0,0,0,0,0,0,0,0,0,0,0,0,0,0,0,0,0,0,0,0,0,0,0,0,0,0,0,0,0,0,0,0,0,0,0,0,0,0,0,0,0,0,0,0,0,0,0,0,0,0,0,0,0,0,0,0,0,0,0,0,0,0,0,0,0,0,0,0,0,0,0,0,0,0,0,0,0,0,0,0,0,0,0,0,0,0,0,0,0,0,0,0,0,0,0,0,0,0,0,0,0,0,0,0,0,0,0,0,0,0,0,0,0,0],"id":5,"left_children":[1,3,5,7,9,11,13,15,17,19,21,23,25,27,29,31,33,35,37,39,41,43,-1,45,47,49,51,53,-1,55,57,-1,-1,-1,-1,59,-1,-1,61,-1,-1,-1,-1,-1,-1,63,65,67,69,71,-1,73,75,77,79,81,-1,-1,83,85,87,-1,-1,89,91,-1,93,-1,-1,95,97,99,-1,101,103,105,-1,107,109,111,113,-1,115,117,-1,-1,-1,-1,-1,-1,-1,-1,-1,-1,-1,-1,-1,-1,-1,-1,-1,-1,-1,-1,-1,-1,-1,-1,-1,-1,-1,-1,-1,-1,-1,-1,-1,-1,-1],"loss_changes":[4.5929686E-4,4.2367968E-4,2.2137136E-4,1.5612152E-4,3.0138157E-4,1.0953724E-4,2.8768455E-4,8.34584E-4,1.4397524E-4,8.9410506E-4,1.03426566E-4,1.0245526E-4,1.0292756E-4,3.1820877E-4,5.2500993E-4,4.188394E-4,1.2232829E-4,1.7397212E-4,7.758852E-5,1.4392227E-5,2.4833716E-6,3.5585097E-5,0E0,8.386439E-5,5.216805E-5,5.9969185E-5,1.1102083E-4,2.0907063E-4,0E0,6.5671885E-4,3.760223E-5,0E0,0E0,0E0,0E0,1.0614807E-4,0E0,0E0,5.580927E-5,0E0,0E0,0E0,0E0,0E0,0E0,5.3897562E-5,6.653585E-5,7.0118585E-5,1.4079262E-5,3.4459925E-5,0E0,8.131952E-5,5.733632E-5,2.1691035E-4,7.729224E-5,8.135929E-5,0E0,0E0,2.3726487E-5,4.543287E-5,1.1236116E-6,0E0,0E0,8.7772925E-5,6.439492E-5,0E0,2.7377015E-5,0E0,0E0,2.1747022E-5,3.5823527E-5,4.100123E-5,0E0,1.6552405E-4,4.046448E-5,9.4565374E-5,0E0,1.21819365E-4,5.0885486E-5,1.2250415E-4,1.6324519E-4,0E0,1.7072467E-5,5.7131165E-6,0E0,0E0,0E0,0E0,0E0,0E0,0E0,0E0,0E0,0E0,0E0,0E0,0E0,0E0,0E0,0E0,0E0,0E0,0E0,0E0,0E0,0E0,0E0,0E0,0E0,0E0,0E0,0E0,0E0,0E0,0E0,0E0,0E0,0E0,0E0],"parents":[2147483647,0,0,1,1,2,2,3,3,4,4,5,5,6,6,7,7,8,8,9,9,10,10,11,11,12,12,13,13,14,14,15,15,16,16,17,17,18,18,19,19,20,20,21,21,23,23,24,24,25,25,26,26,27,27,29,29,30,30,35,35,38,38,45,45,46,46,47,47,48,48,49,49,51,51,52,52,53,53,54,54,55,55,58,58,59,59,60,60,63,63,64,64,66,66,69,69,70,70,71,71,73,73,74,74,75,75,77,77,78,78,79,79,80,80,82,82,83,83],"right_children":[2,4,6,8,10,12,14,16,18,20,22,24,26,28,30,32,34,36,38,40,42,44,-1,46,48,50,52,54,-1,56,58,-1,-1,-1,-1,60,-1,-1,62,-1,-1,-1,-1,-1,-1,64,66,68,70,72,-1,74,76,78,80,82,-1,-1,84,86,88,-1,-1,90,92,-1,94,-1,-1,96,98,100,-1,102,104,106,-1,108,110,112,114,-1,116,118,-1,-1,-1,-1,-1,-1,-1,-1,-1,-1,-1,-1,-1,-1,-1,-1,-1,-1,-1,-1,-1,-1,-1,-1,-1,-1,-1,-1,-1,-1,-1,-1,-1,-1,-1],"split_conditions":[-2.0432255E0,1.0554584E0,8.6776525E-1,-2.077875E0,1.3402468E0,5.421426E-1,1.0228703E0,3.8497683E-1,4.972675E-1,5.782792E-1,2.2722306E0,1.0024035E0,-1.2174892E0,9.671558E-1,1.2504596E0,1.004525E0,9.902244E-1,3.094069E-1,7.553078E-1,1.0848966E0,1.0228703E0,1.9033681E0,-3.1839323E-4,9.79411E-1,-3.9370042E-1,1.3402468E0,1.4552221E0,-1.287898E0,-5.51501E-4,-1.2105194E0,1.1105609E0,-1.1732515E-3,-1.5854642E-4,4.321663E-4,-7.0161725E-5,3.5593244E-3,5.147566E-4,-2.891316E-4,1.032856E0,-1.0514113E-4,6.061062E-5,-5.611484E-4,-1.2276071E-3,-5.6731093E-5,2.1448816E-4,2.2318117E-1,-4.1975138E-1,-1.709291E0,-4.0726346E-1,1.1766998E0,6.35128E-6,-1.1943161E0,1.3127896E0,-1.361875E0,7.883593E-1,-1.5992979E0,1.2662217E-3,1.8200502E-4,1.7424436E0,-6.644951E-1,2.4439491E-1,1.5231142E-4,-1.7029965E-4,8.1804353E-1,-1.4045762E-1,-3.1634278E-4,-1.4600217E-1,3.9921358E-4,-7.0908195E-6,-4.6198705E-1,1.4447668E-1,1.0228703E0,-4.424058E-4,8.547941E-1,1.440835E0,9.926968E-1,3.342526E-5,-1.5966359E0,9.7567546E-1,4.1392896E-1,8.7497747E-1,4.7657575E-4,1.1499872E0,-1.7158498E0,1.0168997E-4,4.807818E-5,3.8083497E-4,-1.5169875E-4,-5.96571E-5,1.0873655E-5,-1.0443967E-4,1.0828044E-4,1.4969226E-5,-2.9036384E-5,-2.1676788E-4,7.39245E-5,2.4190173E-4,-1.409811E-5,1.18927084E-4,-2.8805964E-4,-8.308008E-7,-1.2275428E-4,5.01787E-4,-1.7341154E-5,1.2634724E-4,-5.6289147E-5,-3.7013265E-4,3.139353E-4,5.8211437E-5,3.9928037E-4,1.7611633E-4,5.1299776E-6,1.4037284E-4,-3.3514856E-4,1.3208466E-4,2.6661488E-5,2.0758499E-4,-1.356418E-4,-4.1094765E-5],"split_indices":[1,5,5,1,2,2,2,2,2,2,2,1,1,2,2,5,5,2,2,5,2,2,0,1,5,2,7,7,0,7,5,0,0,0,0,2,0,0,2,0,0,0,0,0,0,2,5,2,2,2,0,1,2,7,2,7,0,0,2,2,2,0,0,5,1,0,5,0,0,2,2,2,0,2,7,2,0,2,5,2,2,0,2,7,0,0,0,0,0,0,0,0,0,0,0,0,0,0,0,0,0,0,0,0,0,0,0,0,0,0,0,0,0,0,0,0,0,0,0],"split_type":[0,0,0,0,0,0,0,0,0,0,0,0,0,0,0,0,0,0,0,0,0,0,0,0,0,0,0,0,0,0,0,0,0,0,0,0,0,0,0,0,0,0,0,0,0,0,0,0,0,0,0,0,0,0,0,0,0,0,0,0,0,0,0,0,0,0,0,0,0,0,0,0,0,0,0,0,0,0,0,0,0,0,0,0,0,0,0,0,0,0,0,0,0,0,0,0,0,0,0,0,0,0,0,0,0,0,0,0,0,0,0,0,0,0,0,0,0,0,0],"sum_hessian":[1.842E3,7.2E1,1.77E3,4.6E1,2.6E1,1.281E3,4.89E2,1.5E1,3.1E1,1.5E1,1.1E1,9.02E2,3.79E2,4.54E2,3.5E1,7E0,8E0,1.8E1,1.3E1,8E0,7E0,7E0,4E0,8.04E2,9.8E1,1.6E1,3.63E2,4.51E2,3E0,1.6E1,1.9E1,3E0,4E0,5E0,3E0,1.4E1,4E0,5E0,8E0,5E0,3E0,3E0,4E0,4E0,3E0,7.67E2,3.7E1,7E0,9.1E1,1.1E1,5E0,3.41E2,2.2E1,1.57E2,2.94E2,1.3E1,3E0,3E0,1.6E1,7E0,7E0,5E0,3E0,6.28E2,1.39E2,4E0,3.3E1,4E0,3E0,5.3E1,3.8E1,8E0,3E0,6E0,3.35E2,1.7E1,5E0,1.34E2,2.3E1,2.82E2,1.2E1,4E0,9E0,1.3E1,3E0,4E0,3E0,4E0,3E0,5.98E2,3E1,5.3E1,8.6E1,3E1,3E0,5E1,3E0,2.5E1,1.3E1,4E0,4E0,3E0,3E0,3.27E2,8E0,9E0,8E0,8E0,1.26E2,1.1E1,1.2E1,2.49E2,3.3E1,7E0,5E0,5E0,4E0,5E0,8E0],"tree_param":{"num_deleted":"0","num_feature":"10","num_nodes":"119","size_leaf_vector":"1"}},{"base_weights":[2.4139117E-4,-1.5234912E-3,3.0901996E-4,-1.3914311E-5,-6.0514035E-3,8.938033E-4,1.1268417E-4,-7.529237E-4,1.6786547E-4,-6.9130113E-4,-3.3999812E-3,7.3976145E-4,4.613408E-4,-2.3428455E-3,1.4633825E-4,7.537688E-4,-1.2632686E-3,5.240299E-5,-3.2620705E-4,1.4439833E-4,1.615072E-3,2.5790874E-4,-3.8406784E-3,-6.318143E-5,2.7785456E-4,-1.1975502E-4,2.1209457E-4,-4.1986647E-4,-2.8680472E-4,2.3627859E-4,-3.8722393E-4,4.3027843E-3,1.0107832E-3,-4.095182E-4,-2.0838256E-3,-2.26103E-5,-1.9725965E-4,6.4712326E-4,-3.4589408E-5,1.0190647E-3,-1.1149081E-3,1.3405109E-3,1.2201425E-4,2.3297577E-3,6.6731214E-3,7.91044E-4,3.1238058E-4,-4.1844756E-5,-1.9719901E-4,7.4676966E-5,-1.2073838E-3,-2.5215297E-4,7.6030154E-4,5.7020684E-4,-1.5545389E-4,-5.363213E-5,1.453138E-4,-3.1648247E-5,-1.4778247E-4,2.3612058E-5,1.9688513E-4,-2.1887374E-4,1.8206867E-5,2.9967076E-4,-3.888242E-6,5.262197E-4,1.9607983E-4,6.292379E-5,-2.2748313E-4,-3.575092E-6,7.1315146E-5,-3.2086112E-4,-1.6092385E-5,5.748635E-5,-6.969637E-5,8.193238E-5,3.598511E-5,2.9460418E-5,1.1536458E-4,-8.203031E-5,1.2448228E-6],"categories":[],"categories_nodes":[],"categories_segments":[],"categories_sizes":[],"default_left":[0,0,0,0,0,0,0,0,0,0,0,0,0,0,0,0,0,0,0,0,0,0,0,0,0,0,0,0,0,0,0,0,0,0,0,0,0,0,0,0,0,0,0,0,0,0,0,0,0,0,0,0,0,0,0,0,0,0,0,0,0,0,0,0,0,0,0,0,0,0,0,0,0,0,0,0,0,0,0,0,0],"id":6,"left_children":[1,3,5,7,9,11,13,15,-1,-1,17,19,-1,21,23,25,27,-1,-1,29,31,-1,33,35,37,-1,-1,-1,39,41,-1,43,45,-1,47,49,-1,51,53,55,57,59,61,63,65,67,-1,-1,-1,69,71,73,75,77,79,-1,-1,-1,-1,-1,-1,-1,-1,-1,-1,-1,-1,-1,-1,-1,-1,-1,-1,-1,-1,-1,-1,-1,-1,-1,-1],"loss_changes":[2.198487E-4,4.6471157E-4,2.0323474E-4,9.896602E-5,1.583859E-4,4.0689734E-4,1.1000428E-4,3.2478463E-5,0E0,0E0,7.823453E-5,2.2645728E-4,0E0,1.8205182E-4,3.6114943E-5,7.347164E-5,1.5016281E-4,0E0,0E0,1.432549E-4,2.81502E-4,0E0,4.7523485E-5,5.92397E-5,9.289988E-5,0E0,0E0,0E0,3.033383E-5,3.226325E-5,0E0,1.3410888E-4,1.1304996E-4,0E0,1.0794498E-5,5.7721863E-5,0E0,3.7748003E-5,3.2032633E-5,2.4902807E-5,1.0908738E-5,3.700676E-5,1.2051384E-4,9.803418E-5,3.9806997E-5,9.042406E-5,0E0,0E0,0E0,5.896479E-5,1.308649E-4,3.785053E-5,3.322585E-5,1.01542355E-5,6.814914E-5,0E0,0E0,0E0,0E0,0E0,0E0,0E0,0E0,0E0,0E0,0E0,0E0,0E0,0E0,0E0,0E0,0E0,0E0,0E0,0E0,0E0,0E0,0E0,0E0,0E0,0E0],"parents":[2147483647,0,0,1,1,2,2,3,3,4,4,5,5,6,6,7,7,10,10,11,11,13,13,14,14,15,15,16,16,19,19,20,20,22,22,23,23,24,24,28,28,29,29,31,31,32,32,34,34,35,35,37,37,38,38,39,39,40,40,41,41,42,42,43,43,44,44,45,45,49,49,50,50,51,51,52,52,53,53,54,54],"right_children":[2,4,6,8,10,12,14,16,-1,-1,18,20,-1,22,24,26,28,-1,-1,30,32,-1,34,36,38,-1,-1,-1,40,42,-1,44,46,-1,48,50,-1,52,54,56,58,60,62,64,66,68,-1,-1,-1,70,72,74,76,78,80,-1,-1,-1,-1,-1,-1,-1,-1,-1,-1,-1,-1,-1,-1,-1,-1,-1,-1,-1,-1,-1,-1,-1,-1,-1,-1],"split_conditions":[-2.0463886E0,8.755419E-1,-5.1291305E-1,-2.065312E0,8.873113E-1,-9.2787206E-1,-4.995774E-1,-2.0810091E0,1.6786547E-4,-6.9130113E-4,-2.052707E0,9.67506E-1,4.613408E-4,-1.5992979E0,-5.032397E-1,7.700576E-1,7.934302E-1,5.240299E-5,-3.2620705E-4,1.2572727E0,2.2088569E-2,2.5790874E-4,-5.040263E-1,-4.4466925E-1,-1.4950264E-1,-1.1975502E-4,2.1209457E-4,-4.1986647E-4,-2.074738E0,-2.030547E0,-3.8722393E-4,-1.1299899E0,-5.1735085E-1,-4.095182E-4,-1.5874453E0,-5.7733184E-1,-1.9725965E-4,-1.2473658E0,4.8566103E-1,-2.077875E0,8.402925E-1,9.6749306E-1,-2.0241916E0,-1.1397932E0,-1.1260628E0,1.3722906E0,3.1238058E-4,-4.1844756E-5,-1.9719901E-4,-7.0153505E-1,-5.5620676E-1,9.230334E-1,-5.7566714E-1,9.297937E-1,5.3758556E-1,-5.363213E-5,1.453138E-4,-3.1648247E-5,-1.4778247E-4,2.3612058E-5,1.9688513E-4,-2.1887374E-4,1.8206867E-5,2.9967076E-4,-3.888242E-6,5.262197E-4,1.9607983E-4,6.292379E-5,-2.2748313E-4,-3.575092E-6,7.1315146E-5,-3.2086112E-4,-1.6092385E-5,5.748635E-5,-6.969637E-5,8.193238E-5,3.598511E-5,2.9460418E-5,1.1536458E-4,-8.203031E-5,1.2448228E-6],"split_indices":[1,4,1,1,4,7,1,1,0,0,1,9,0,7,4,4,4,0,0,4,6,0,1,6,4,0,0,0,1,1,0,1,1,0,7,4,0,9,1,1,4,6,1,1,1,9,0,0,0,9,4,1,9,6,1,0,0,0,0,0,0,0,0,0,0,0,0,0,0,0,0,0,0,0,0,0,0,0,0,0,0],"split_type":[0,0,0,0,0,0,0,0,0,0,0,0,0,0,0,0,0,0,0,0,0,0,0,0,0,0,0,0,0,0,0,0,0,0,0,0,0,0,0,0,0,0,0,0,0,0,0,0,0,0,0,0,0,0,0,0,0,0,0,0,0,0,0,0,0,0,0,0,0,0,0,0,0,0,0,0,0,0,0,0,0],"sum_hessian":[1.837E3,6.7E1,1.77E3,5.1E1,1.6E1,4.44E2,1.326E3,4E1,1.1E1,5E0,1.1E1,4.34E2,1E1,1.7E1,1.309E3,1E1,3E1,3E0,8E0,2.59E2,1.75E2,3E0,1.4E1,5.05E2,8.04E2,5E0,5E0,4E0,2.6E1,2.56E2,3E0,3.1E1,1.44E2,5E0,9E0,4.99E2,6E0,3.68E2,4.36E2,1E1,1.6E1,2.3E1,2.33E2,1.8E1,1.3E1,1.37E2,7E0,4E0,5E0,4.62E2,3.7E1,4.1E1,3.27E2,7.2E1,3.64E2,4E0,6E0,1.1E1,5E0,1.5E1,8E0,9E0,2.24E2,9E0,9E0,9E0,4E0,1.33E2,4E0,4.1E2,5.2E1,7E0,3E1,1.7E1,2.4E1,1.04E2,2.23E2,6.6E1,6E0,5E1,3.14E2],"tree_param":{"num_deleted":"0","num_feature":"10","num_nodes":"81","size_leaf_vector":"1"}},{"base_weights":[-1.6200224E-4,-3.5153228E-4,6.5815565E-4,-1.5348101E-4,-2.0285586E-3,9.250331E-4,-1.9043874E-3,-5.5248704E-5,-9.7215275E-4,-4.490012E-3,-9.925386E-4,6.573337E-4,1.6032378E-3,3.2318028E-4,-3.5216105E-3,-1.2811349E-3,-2.806417E-7,-4.4452874E-3,-6.0477474E-4,-3.0094062E-3,-5.800697E-4,-5.3004094E-4,-5.359104E-3,1.8249349E-3,4.1445484E-4,7.14862E-4,4.596234E-4,-5.8174616E-4,-1.0124944E-3,-6.642267E-4,-3.3335525E-3,-1.4802127E-5,1.631379E-4,-1.797031E-4,-3.8869554E-4,-4.012588E-4,-2.5294363E-4,-4.3409388E-3,2.2166265E-4,-8.8749843E-4,1.4001678E-4,-5.461643E-4,-1.1034638E-4,9.444927E-4,4.371812E-3,2.6097053E-4,1.6993466E-4,4.6166158E-4,2.4847276E-4,-2.0332998E-3,1.641494E-4,-2.4819208E-4,-3.3436477E-4,-5.75342E-4,-6.1794027E-4,2.6836922E-6,-2.2905308E-4,1.3696992E-4,-1.0330343E-3,-4.3961394E-4,-3.414029E-3,-4.57592E-4,-1.289959E-3,1.7371231E-3,-1.7691696E-4,1.9984221E-4,3.805902E-4,-1.7182852E-4,3.2246456E-4,3.005354E-3,1.9302175E-4,-2.1665874E-4,-1.1889392E-3,-6.222592E-5,3.8879418E-5,9.5325246E-5,-1.6964893E-4,5.3994827E-6,-2.979261E-5,-2.2502196E-5,2.262002E-4,-5.957101E-4,-1.989235E-5,-4.736575E-5,-3.3342495E-4,-1.2402408E-4,-5.1802854E-6,-2.7941662E-4,-4.0565734E-5,1.4626344E-4,4.2800988E-5,2.1775646E-4,1.6991322E-5,4.8672275E-5,3.0276016E-4,-4.3818483E-5,3.7442416E-5,8.991647E-6,-1.8736781E-4],"categories":[],"categories_nodes":[],"categories_segments":[],"categories_sizes":[],"default_left":[0,0,0,0,0,0,0,0,0,0,0,0,0,0,0,0,0,0,0,0,0,0,0,0,0,0,0,0,0,0,0,0,0,0,0,0,0,0,0,0,0,0,0,0,0,0,0,0,0,0,0,0,0,0,0,0,0,0,0,0,0,0,0,0,0,0,0,0,0,0,0,0,0,0,0,0,0,0,0,0,0,0,0,0,0,0,0,0,0,0,0,0,0,0,0,0,0,0,0],"id":7,"left_children":[1,3,5,7,9,11,13,15,17,19,21,23,25,-1,27,29,31,33,35,37,-1,39,41,43,45,47,-1,-1,49,51,53,55,-1,-1,-1,57,-1,59,-1,61,-1,-1,-1,63,65,67,-1,69,-1,71,-1,-1,73,-1,75,77,-1,79,81,-1,83,85,87,89,-1,-1,-1,-1,91,93,95,-1,97,-1,-1,-1,-1,-1,-1,-1,-1,-1,-1,-1,-1,-1,-1,-1,-1,-1,-1,-1,-1,-1,-1,-1,-1,-1,-1],"loss_changes":[2.95576E-4,5.125084E-4,2.4590857E-4,1.11086745E-4,4.1121227E-4,5.776997E-5,3.8768756E-4,8.321961E-5,1.8615273E-4,2.717281E-4,2.3142452E-4,6.5602675E-5,4.2154687E-4,0E0,3.5542506E-4,6.4891894E-5,4.198232E-5,1.8077699E-5,8.586852E-5,3.2609608E-4,0E0,1.0133983E-4,1.01292215E-4,8.556599E-5,6.3047286E-5,5.836505E-5,0E0,0E0,7.581998E-5,4.101472E-5,1.6663427E-4,7.025349E-5,0E0,0E0,0E0,4.3666572E-5,0E0,4.184927E-5,0E0,1.5673635E-5,0E0,0E0,0E0,9.28639E-5,1.2497621E-6,3.2704193E-5,0E0,4.9986847E-5,0E0,1.2479773E-5,0E0,0E0,2.1869744E-5,0E0,3.8968843E-5,4.1104606E-5,0E0,1.08854314E-4,3.39308E-4,0E0,9.877366E-5,2.4837547E-5,9.2243645E-5,1.1478856E-5,0E0,0E0,0E0,0E0,3.5207988E-5,2.101576E-5,2.1568485E-5,0E0,2.3891087E-5,0E0,0E0,0E0,0E0,0E0,0E0,0E0,0E0,0E0,0E0,0E0,0E0,0E0,0E0,0E0,0E0,0E0,0E0,0E0,0E0,0E0,0E0,0E0,0E0,0E0,0E0],"parents":[2147483647,0,0,1,1,2,2,3,3,4,4,5,5,6,6,7,7,8,8,9,9,10,10,11,11,12,12,14,14,15,15,16,16,17,17,18,18,19,19,21,21,22,22,23,23,24,24,25,25,28,28,29,29,30,30,31,31,35,35,37,37,39,39,43,43,44,44,45,45,47,47,49,49,52,52,54,54,55,55,57,57,58,58,60,60,61,61,62,62,63,63,68,68,69,69,70,70,72,72],"right_children":[2,4,6,8,10,12,14,16,18,20,22,24,26,-1,28,30,32,34,36,38,-1,40,42,44,46,48,-1,-1,50,52,54,56,-1,-1,-1,58,-1,60,-1,62,-1,-1,-1,64,66,68,-1,70,-1,72,-1,-1,74,-1,76,78,-1,80,82,-1,84,86,88,90,-1,-1,-1,-1,92,94,96,-1,98,-1,-1,-1,-1,-1,-1,-1,-1,-1,-1,-1,-1,-1,-1,-1,-1,-1,-1,-1,-1,-1,-1,-1,-1,-1,-1],"split_conditions":[1.0344552E0,9.973955E-1,1.4399937E0,1.3313433E0,7.4166876E-1,1.2736051E0,-1.6229734E0,-1.5518283E0,1.3456391E0,7.2785395E-1,1.0133715E0,1.08149186E-1,-9.2787206E-1,3.2318028E-4,-1.5992979E0,8.039781E-1,9.902244E-1,1.3384897E0,-9.562617E-1,7.0025885E-1,-5.800697E-4,9.7829056E-1,1.0203965E0,1.1367209E0,1.3252555E0,1.4255973E0,4.596234E-4,-5.8174616E-4,1.4977E0,7.03695E-1,8.2131696E-1,9.5028204E-1,1.631379E-4,-1.797031E-4,-3.8869554E-4,-1.0859526E0,-2.5294363E-4,6.41761E-1,2.2166265E-4,8.4564763E-1,1.4001678E-4,-5.461643E-4,-1.1034638E-4,1.1119878E0,1.1650441E0,6.249831E-1,1.6993466E-4,1.1685988E0,2.4847276E-4,1.4832554E0,1.641494E-4,-2.4819208E-4,7.7278346E-1,-5.75342E-4,8.317462E-1,8.4569186E-1,-2.2905308E-4,-1.098245E0,-1.0798025E0,-4.3961394E-4,8.285623E-1,7.5549513E-1,8.7348527E-1,1.0872688E0,-1.7691696E-4,1.9984221E-4,3.805902E-4,-1.7182852E-4,-1.251531E0,1.1473476E0,1.2823884E0,-2.1665874E-4,-1.5874453E0,-6.222592E-5,3.8879418E-5,9.5325246E-5,-1.6964893E-4,5.3994827E-6,-2.979261E-5,-2.2502196E-5,2.262002E-4,-5.957101E-4,-1.989235E-5,-4.736575E-5,-3.3342495E-4,-1.2402408E-4,-5.1802854E-6,-2.7941662E-4,-4.0565734E-5,1.4626344E-4,4.2800988E-5,2.1775646E-4,1.6991322E-5,4.8672275E-5,3.0276016E-4,-4.3818483E-5,3.7442416E-5,8.991647E-6,-1.8736781E-4],"split_indices":[3,5,3,7,3,5,7,7,7,3,3,6,7,0,7,3,5,7,3,3,0,3,3,3,3,3,0,0,3,3,3,5,0,0,0,3,0,3,0,3,0,0,0,3,3,4,0,3,0,3,0,0,3,0,3,6,0,3,3,0,4,3,3,3,0,0,0,0,7,3,3,0,7,0,0,0,0,0,0,0,0,0,0,0,0,0,0,0,0,0,0,0,0,0,0,0,0,0,0],"split_type":[0,0,0,0,0,0,0,0,0,0,0,0,0,0,0,0,0,0,0,0,0,0,0,0,0,0,0,0,0,0,0,0,0,0,0,0,0,0,0,0,0,0,0,0,0,0,0,0,0,0,0,0,0,0,0,0,0,0,0,0,0,0,0,0,0,0,0,0,0,0,0,0,0,0,0,0,0,0,0,0,0,0,0,0,0,0,0,0,0,0,0,0,0,0,0,0,0,0,0],"sum_hessian":[1.899E3,1.543E3,3.56E2,1.381E3,1.62E2,3.23E2,3.3E1,1.234E3,1.47E2,4.7E1,1.15E2,2.33E2,9E1,6E0,2.7E1,5.2E1,1.182E3,1.3E1,1.34E2,3.6E1,1.1E1,1.05E2,1E1,3.9E1,1.94E2,7.8E1,1.2E1,8E0,1.9E1,4.1E1,1.1E1,1.176E3,6E0,7E0,6E0,1.27E2,7E0,3E1,6E0,9.3E1,1.2E1,5E0,5E0,3E1,9E0,1.82E2,1.2E1,7.3E1,5E0,1.5E1,4E0,3E0,3.8E1,3E0,8E0,1.171E3,5E0,6.9E1,5.8E1,7E0,2.3E1,4.6E1,4.7E1,2.5E1,5E0,6E0,3E0,3E0,1.79E2,6E0,6.7E1,5E0,1E1,2.3E1,1.5E1,4E0,4E0,9.98E2,1.73E2,6.1E1,8E0,4E0,5.4E1,9E0,1.4E1,9E0,3.7E1,8E0,3.9E1,1.7E1,8E0,3E0,1.76E2,3E0,3E0,2E1,4.7E1,6E0,4E0],"tree_param":{"num_deleted":"0","num_feature":"10","num_nodes":"99","size_leaf_vector":"1"}},{"base_weights":[3.709858E-5,-2.2548172E-3,1.154888E-4,8.1568136E-4,-4.5590643E-3,2.9602841E-5,6.230333E-4,-7.619922E-4,3.5739257E-3,-5.244249E-3,1.3779545E-4,5.3600343E-5,-2.0063108E-4,3.4247866E-4,4.1340906E-3,9.777333E-6,-1.7393377E-4,4.3861044E-4,3.2509048E-5,-3.5585316E-3,-5.183404E-4,9.702926E-4,9.850952E-6,5.219825E-4,-1.2948051E-3,3.9532417E-4,1.4965744E-3,-5.031614E-4,7.365115E-4,1.1984071E-3,5.9346756E-4,-7.4365636E-4,7.669607E-5,3.6352425E-4,4.6162633E-3,-2.605696E-3,-4.7650363E-4,-1.4147651E-4,2.4431993E-4,-8.078613E-5,1.7101159E-4,9.217448E-4,1.637124E-4,-3.3768028E-4,9.5083524E-5,-3.107306E-4,-5.0544395E-4,3.5121763E-4,-3.7574806E-5,8.973945E-4,-2.5577025E-4,1.5910005E-4,3.6625584E-4,-2.0888707E-5,-2.925152E-4,8.476655E-6,-8.5120613E-4,7.273303E-5,-6.239965E-6,-3.432927E-5,1.543189E-5,1.0225958E-5,-1.8316298E-4,3.7061065E-5,-3.0682873E-5,-7.1514194E-5,7.8687606E-8,1.8279086E-5,1.3859016E-4,-2.0942681E-4,5.8482708E-9,-1.2943476E-4,1.3065931E-5],"categories":[],"categories_nodes":[],"categories_segments":[],"categories_sizes":[],"default_left":[0,0,0,0,0,0,0,0,0,0,0,0,0,0,0,0,0,0,0,0,0,0,0,0,0,0,0,0,0,0,0,0,0,0,0,0,0,0,0,0,0,0,0,0,0,0,0,0,0,0,0,0,0,0,0,0,0,0,0,0,0,0,0,0,0,0,0,0,0,0,0,0,0],"id":8,"left_children":[1,3,5,7,9,11,13,15,17,19,-1,21,-1,23,25,-1,-1,-1,-1,27,-1,29,31,33,35,-1,37,-1,39,41,43,45,47,49,51,53,55,-1,-1,-1,-1,57,-1,59,-1,61,-1,63,65,67,69,-1,-1,-1,-1,-1,71,-1,-1,-1,-1,-1,-1,-1,-1,-1,-1,-1,-1,-1,-1,-1,-1],"loss_changes":[3.3138075E-4,4.3530515E-4,7.7704215E-5,1.2021673E-4,1.6960176E-4,1.1119888E-4,2.5272535E-4,3.0480904E-5,8.912342E-5,1.079535E-4,0E0,6.0749106E-5,0E0,7.121155E-5,8.045399E-5,0E0,0E0,0E0,0E0,3.637627E-4,0E0,5.2199684E-6,7.293995E-5,1.3910551E-4,2.4503272E-5,0E0,7.798817E-5,0E0,4.210265E-5,1.2285447E-5,2.2107528E-5,3.4608028E-4,4.173506E-5,6.966034E-5,2.4161127E-6,3.5200523E-5,3.725277E-6,0E0,0E0,0E0,0E0,6.1952087E-6,0E0,1.5203433E-6,0E0,1.2665913E-4,0E0,6.471201E-5,3.761869E-5,8.238114E-5,7.217374E-5,0E0,0E0,0E0,0E0,0E0,1.1744867E-5,0E0,0E0,0E0,0E0,0E0,0E0,0E0,0E0,0E0,0E0,0E0,0E0,0E0,0E0,0E0,0E0],"parents":[2147483647,0,0,1,1,2,2,3,3,4,4,5,5,6,6,7,7,8,8,9,9,11,11,13,13,14,14,19,19,21,21,22,22,23,23,24,24,26,26,28,28,29,29,30,30,31,31,32,32,33,33,34,34,35,35,36,36,41,41,43,43,45,45,47,47,48,48,49,49,50,50,56,56],"right_children":[2,4,6,8,10,12,14,16,18,20,-1,22,-1,24,26,-1,-1,-1,-1,28,-1,30,32,34,36,-1,38,-1,40,42,44,46,48,50,52,54,56,-1,-1,-1,-1,58,-1,60,-1,62,-1,64,66,68,70,-1,-1,-1,-1,-1,72,-1,-1,-1,-1,-1,-1,-1,-1,-1,-1,-1,-1,-1,-1,-1,-1],"split_conditions":[-2.052707E0,8.285623E-1,1.073721E0,8.051312E-1,7.4166876E-1,1.0556574E0,-9.4027406E-1,-2.077875E0,-2.074738E0,-2.0590146E0,1.3779545E-4,-1.6558876E0,-2.0063108E-4,-5.1291305E-1,-1.9470968E0,9.777333E-6,-1.7393377E-4,4.3861044E-4,3.2509048E-5,-2.065312E0,-5.183404E-4,6.9158256E-1,-1.3151269E0,-5.1735085E-1,-5.040263E-1,3.9532417E-4,1.2253988E0,-5.031614E-4,7.0025885E-1,-1.7266462E0,-1.6913111E0,-1.3177873E0,-7.0759916E-1,1.1010467E0,-1.6229734E0,-1.5992979E0,-1.5874453E0,-1.4147651E-4,2.4431993E-4,-8.078613E-5,1.7101159E-4,6.8614143E-1,1.637124E-4,7.0247847E-1,9.5083524E-5,8.6252683E-1,-5.0544395E-4,1.4029416E0,-6.6971326E-1,-2.0018647E0,-1.977798E0,1.5910005E-4,3.6625584E-4,-2.0888707E-5,-2.925152E-4,8.476655E-6,-4.995774E-1,7.273303E-5,-6.239965E-6,-3.432927E-5,1.543189E-5,1.0225958E-5,-1.8316298E-4,3.7061065E-5,-3.0682873E-5,-7.1514194E-5,7.8687606E-8,1.8279086E-5,1.3859016E-4,-2.0942681E-4,5.8482708E-9,-1.2943476E-4,1.3065931E-5],"split_indices":[1,4,5,4,3,5,7,1,1,1,0,3,0,1,1,0,0,0,0,1,0,1,5,1,1,0,3,0,3,3,3,5,3,4,7,7,7,0,0,0,0,1,0,1,0,1,0,7,3,1,1,0,0,0,0,0,1,0,0,0,0,0,0,0,0,0,0,0,0,0,0,0,0],"split_type":[0,0,0,0,0,0,0,0,0,0,0,0,0,0,0,0,0,0,0,0,0,0,0,0,0,0,0,0,0,0,0,0,0,0,0,0,0,0,0,0,0,0,0,0,0,0,0,0,0,0,0,0,0,0,0,0,0,0,0,0,0,0,0,0,0,0,0,0,0,0,0,0,0],"sum_hessian":[1.842E3,6E1,1.782E3,2.6E1,3.4E1,1.525E3,2.57E2,1.7E1,9E0,3.1E1,3E0,1.514E3,1.1E1,2.39E2,1.8E1,1.2E1,5E0,4E0,5E0,2E1,1.1E1,6.8E1,1.446E3,2.16E2,2.3E1,1E1,8E0,1E1,1E1,4.1E1,2.7E1,1.17E2,1.329E3,2.09E2,7E0,8E0,1.5E1,3E0,5E0,5E0,5E0,3.5E1,6E0,1.3E1,1.4E1,1.11E2,6E0,3.9E2,9.39E2,1.12E2,9.7E1,3E0,4E0,4E0,4E0,6E0,9E0,3E1,5E0,1E1,3E0,9.4E1,1.7E1,3.12E2,7.8E1,3.3E1,9.06E2,7.4E1,3.8E1,7E0,9E1,4E0,5E0],"tree_param":{"num_deleted":"0","num_feature":"10","num_nodes":"73","size_leaf_vector":"1"}},{"base_weights":[-9.0711765E-5,2.4410035E-3,-2.088942E-4,1.4497901E-3,9.234517E-3,-2.2474874E-3,-1.1287675E-4,6.218818E-4,5.967315E-4,1.0147479E-3,1.640824E-5,-1.0187967E-3,-6.8681957E-3,4.856543E-3,-1.4026281E-4,1.4703852E-3,-3.248207E-3,1.4761265E-4,-5.0284583E-3,-1.0268653E-3,-1.1297357E-2,7.537861E-5,6.1709195E-4,8.499072E-5,-6.893194E-4,3.8554997E-3,6.2009285E-4,-2.0989403E-3,-2.965077E-4,-2.4947838E-3,2.5810704E-3,-5.989521E-3,-7.540141E-5,-3.9150895E-4,3.5215536E-4,-1.1161139E-3,-2.4269243E-4,-2.5395653E-4,2.2360374E-4,-8.7755313E-4,8.551458E-4,5.9050056E-3,6.430926E-5,-1.9209586E-3,2.6922617E-3,-1.8268405E-4,-5.214844E-5,-6.2420913E-3,1.1561756E-3,4.747887E-4,1.6819995E-3,-2.943489E-3,-7.072393E-4,6.4423145E-4,-5.9019873E-4,9.7379467E-4,1.3564175E-4,-5.138904E-4,-1.8470682E-3,3.0254126E-3,5.4148888E-5,4.6787006E-4,2.043105E-4,-2.1841892E-4,2.639706E-4,-6.0598627E-6,3.2340802E-4,-2.1614635E-4,-6.5520144E-4,-4.02027E-5,1.16513824E-4,-4.4095224E-5,2.5951257E-4,-2.9620854E-4,-7.7728706E-5,7.504049E-5,-1.1360799E-4,-2.1575867E-4,-2.5344149E-5,1.411626E-4,3.33369E-5,-1.5762439E-6,3.4026096E-5,-9.410867E-6,-1.3980347E-4,-4.0501004E-4,-8.037953E-5,1.2384578E-4,3.6698015E-4,4.2333006E-5,-9.877689E-5],"categories":[],"categories_nodes":[],"categories_segments":[],"categories_sizes":[],"default_left":[0,0,0,0,0,0,0,0,0,0,0,0,0,0,0,0,0,0,0,0,0,0,0,0,0,0,0,0,0,0,0,0,0,0,0,0,0,0,0,0,0,0,0,0,0,0,0,0,0,0,0,0,0,0,0,0,0,0,0,0,0,0,0,0,0,0,0,0,0,0,0,0,0,0,0,0,0,0,0,0,0,0,0,0,0,0,0,0,0,0,0],"id":9,"left_children":[1,3,5,7,9,11,13,15,-1,-1,-1,17,19,21,23,25,27,29,31,33,35,-1,-1,37,39,41,43,45,-1,47,49,51,-1,-1,-1,-1,-1,53,55,57,59,61,-1,63,65,-1,-1,67,69,-1,71,73,-1,75,77,79,81,83,85,87,89,-1,-1,-1,-1,-1,-1,-1,-1,-1,-1,-1,-1,-1,-1,-1,-1,-1,-1,-1,-1,-1,-1,-1,-1,-1,-1,-1,-1,-1,-1],"loss_changes":[5.3668395E-4,5.2531756E-4,3.3504984E-4,4.341676E-4,5.312681E-4,4.3016416E-4,2.2346522E-4,2.1822203E-4,0E0,0E0,0E0,2.9071045E-4,4.0235417E-4,1.3650973E-4,2.0152832E-4,1.0712366E-4,7.086477E-6,3.2151706E-4,4.571583E-5,2.7431123E-4,3.1227386E-4,0E0,0E0,5.4368556E-5,1.3855196E-4,7.732821E-5,2.2105673E-4,4.564601E-6,0E0,3.3556734E-4,9.381004E-5,1.2279657E-4,0E0,0E0,0E0,0E0,0E0,1.0185514E-4,5.4044292E-5,1.4819068E-4,9.023177E-5,3.5775884E-6,0E0,1.632688E-4,1.3790914E-4,0E0,0E0,9.6876436E-5,1.4474854E-5,0E0,1.21157194E-4,1.6055674E-5,0E0,1.0517825E-4,1.351271E-4,4.5454362E-5,4.3792952E-5,1.816455E-4,3.0487767E-4,3.0293391E-5,3.5562665E-5,0E0,0E0,0E0,0E0,0E0,0E0,0E0,0E0,0E0,0E0,0E0,0E0,0E0,0E0,0E0,0E0,0E0,0E0,0E0,0E0,0E0,0E0,0E0,0E0,0E0,0E0,0E0,0E0,0E0,0E0],"parents":[2147483647,0,0,1,1,2,2,3,3,4,4,5,5,6,6,7,7,11,11,12,12,13,13,14,14,15,15,16,16,17,17,18,18,19,19,20,20,23,23,24,24,25,25,26,26,27,27,29,29,30,30,31,31,37,37,38,38,39,39,40,40,41,41,43,43,44,44,47,47,48,48,50,50,51,51,53,53,54,54,55,55,56,56,57,57,58,58,59,59,60,60],"right_children":[2,4,6,8,10,12,14,16,-1,-1,-1,18,20,22,24,26,28,30,32,34,36,-1,-1,38,40,42,44,46,-1,48,50,52,-1,-1,-1,-1,-1,54,56,58,60,62,-1,64,66,-1,-1,68,70,-1,72,74,-1,76,78,80,82,84,86,88,90,-1,-1,-1,-1,-1,-1,-1,-1,-1,-1,-1,-1,-1,-1,-1,-1,-1,-1,-1,-1,-1,-1,-1,-1,-1,-1,-1,-1,-1,-1],"split_conditions":[-2.3169267E0,1.0228703E0,-1.613676E0,-2.3658807E0,-2.4247344E0,-1.8170085E0,-1.5030268E0,1.355066E0,5.967315E-4,1.0147479E-3,1.640824E-5,1.1953977E0,3.3936405E-1,-4.2935736E-3,4.9056038E-1,-3.0201259E0,-2.5703907E-2,-5.8212444E-2,3.8497683E-1,2.2493895E-2,1.032856E0,7.537861E-5,6.1709195E-4,-3.6653692E-1,1.1123328E0,3.8497683E-1,-5.1316533E-2,-3.0626385E-2,-2.965077E-4,-4.0726346E-1,-8.633658E-1,-1.989461E-1,-7.540141E-5,-3.9150895E-4,3.5215536E-4,-1.1161139E-3,-2.4269243E-4,-8.8703406E-1,-1.5966359E0,-1.7705402E-1,5.093174E-1,3.5593244E-3,6.430926E-5,7.553078E-1,-4.8856968E-1,-1.8268405E-4,-5.214844E-5,-8.863446E-1,2.4439491E-1,4.747887E-4,1.7244698E-1,-6.056115E-1,-7.072393E-4,1.8908994E-1,-1.5518283E0,-1.9675747E-3,-4.86373E-1,1.3313433E0,-2.0025128E-1,9.5550334E-1,7.1787494E-1,4.6787006E-4,2.043105E-4,-2.1841892E-4,2.639706E-4,-6.0598627E-6,3.2340802E-4,-2.1614635E-4,-6.5520144E-4,-4.02027E-5,1.16513824E-4,-4.4095224E-5,2.5951257E-4,-2.9620854E-4,-7.7728706E-5,7.504049E-5,-1.1360799E-4,-2.1575867E-4,-2.5344149E-5,1.411626E-4,3.33369E-5,-1.5762439E-6,3.4026096E-5,-9.410867E-6,-1.3980347E-4,-4.0501004E-4,-8.037953E-5,1.2384578E-4,3.6698015E-4,4.2333006E-5,-9.877689E-5],"split_indices":[8,2,8,8,8,8,8,6,0,0,0,0,2,2,2,8,0,0,2,2,2,0,0,7,0,2,0,0,0,2,2,2,0,0,0,0,0,8,2,6,6,2,0,2,2,0,0,2,2,0,2,2,0,2,7,0,6,7,0,2,8,0,0,0,0,0,0,0,0,0,0,0,0,0,0,0,0,0,0,0,0,0,0,0,0,0,0,0,0,0,0],"split_type":[0,0,0,0,0,0,0,0,0,0,0,0,0,0,0,0,0,0,0,0,0,0,0,0,0,0,0,0,0,0,0,0,0,0,0,0,0,0,0,0,0,0,0,0,0,0,0,0,0,0,0,0,0,0,0,0,0,0,0,0,0,0,0,0,0,0,0,0,0,0,0,0,0,0,0,0,0,0,0,0,0,0,0,0,0,0,0,0,0,0,0],"sum_hessian":[1.791E3,7.9E1,1.712E3,7E1,9E0,7.6E1,1.636E3,6.4E1,6E0,5E0,4E0,6.1E1,1.5E1,8E0,1.628E3,5.3E1,1.1E1,4.8E1,1.3E1,7E0,8E0,5E0,3E0,1.155E3,4.73E2,1.3E1,4E1,7E0,4E0,2.3E1,2.5E1,1E1,3E0,4E0,3E0,4E0,4E0,3.35E2,8.2E2,4.22E2,5.1E1,7E0,6E0,1.8E1,2.2E1,4E0,3E0,1.1E1,1.2E1,3E0,2.2E1,7E0,3E0,9.1E1,2.44E2,8.5E1,7.35E2,3.08E2,1.14E2,1.3E1,3.8E1,4E0,3E0,1.5E1,3E0,1E1,1.2E1,7E0,4E0,3E0,9E0,1.1E1,1.1E1,3E0,4E0,7.6E1,1.5E1,1.7E1,2.27E2,2.4E1,6.1E1,5.16E2,2.19E2,2.5E2,5.8E1,1.4E1,1E2,1E1,3E0,2.8E1,1E1],"tree_param":{"num_deleted":"0","num_feature":"10","num_nodes":"91","size_leaf_vector":"1"}},{"base_weights":[-7.3108386E-5,-3.0020054E-5,-3.1212817E-3,-1.6624071E-3,1.7418015E-5,2.5102493E-4,-4.181748E-3,-3.693208E-3,7.236278E-3,6.134277E-4,-1.0686297E-4,-6.045729E-3,1.4080056E-4,-6.284701E-3,-2.0804545E-3,5.636395E-5,1.1101882E-3,7.854008E-4,-8.483412E-4,-5.4090694E-3,-2.6948252E-5,-7.6058373E-4,-6.380339E-4,-1.1343659E-2,-2.1149607E-3,4.0717106E-4,-4.122343E-3,6.173902E-4,6.2611517E-3,-1.2238381E-3,-2.407265E-3,4.5180973E-6,-1.9111842E-3,-2.1687649E-4,1.7498461E-4,-2.3583532E-4,-1.0906407E-3,3.61399E-4,-6.1119576E-3,-9.941969E-3,-9.548833E-4,8.6187955E-4,-2.0869088E-3,1.0879824E-3,-9.776391E-5,-4.1590487E-3,5.2131864E-4,1.9672148E-4,-2.2944984E-4,1.13937036E-4,-2.5089965E-3,7.5759766E-5,-7.904644E-4,-9.358703E-4,-3.1422375E-4,-4.1213795E-4,4.8281763E-5,9.217719E-5,-3.540666E-5,-3.2861464E-4,1.3118408E-4,-4.0613746E-4,-1.7160994E-5,-6.5301756E-5,1.0797685E-4,7.2820053E-6,9.136326E-5,2.037873E-4,-1.873168E-5,-7.178943E-5,-2.874917E-4],"categories":[],"categories_nodes":[],"categories_segments":[],"categories_sizes":[],"default_left":[0,0,0,0,0,0,0,0,0,0,0,0,0,0,0,0,0,0,0,0,0,0,0,0,0,0,0,0,0,0,0,0,0,0,0,0,0,0,0,0,0,0,0,0,0,0,0,0,0,0,0,0,0,0,0,0,0,0,0,0,0,0,0,0,0,0,0,0,0,0,0],"id":10,"left_children":[1,3,5,7,9,-1,11,13,15,17,19,21,-1,23,25,-1,-1,27,-1,29,31,-1,33,35,37,-1,39,41,43,-1,45,47,49,-1,-1,-1,-1,-1,51,53,55,57,59,-1,-1,61,63,65,67,-1,69,-1,-1,-1,-1,-1,-1,-1,-1,-1,-1,-1,-1,-1,-1,-1,-1,-1,-1,-1,-1],"loss_changes":[2.4498804E-4,1.4259099E-4,2.0535069E-4,9.66441E-4,1.3265564E-4,0E0,2.8235433E-4,1.6664085E-4,5.8551546E-4,7.172229E-4,6.278137E-4,5.122141E-4,0E0,3.135213E-4,4.924496E-4,0E0,0E0,2.7764955E-4,0E0,8.0823846E-4,8.6631364E-5,0E0,9.342423E-5,2.1470775E-4,3.3377015E-4,0E0,4.144755E-4,1.98828E-4,7.204687E-4,0E0,9.964285E-5,6.471119E-5,5.6163153E-5,0E0,0E0,0E0,0E0,0E0,3.0341788E-4,1.0447472E-4,1.4436833E-4,1.9811356E-4,2.963021E-4,0E0,0E0,8.829993E-5,1.4702222E-5,8.099139E-5,1.0913781E-4,0E0,4.9409777E-5,0E0,0E0,0E0,0E0,0E0,0E0,0E0,0E0,0E0,0E0,0E0,0E0,0E0,0E0,0E0,0E0,0E0,0E0,0E0,0E0],"parents":[2147483647,0,0,1,1,2,2,3,3,4,4,6,6,7,7,8,8,9,9,10,10,11,11,13,13,14,14,17,17,19,19,20,20,22,22,23,23,24,24,26,26,27,27,28,28,30,30,31,31,32,32,38,38,39,39,40,40,41,41,42,42,45,45,46,46,47,47,48,48,50,50],"right_children":[2,4,6,8,10,-1,12,14,16,18,20,22,-1,24,26,-1,-1,28,-1,30,32,-1,34,36,38,-1,40,42,44,-1,46,48,50,-1,-1,-1,-1,-1,52,54,56,58,60,-1,-1,62,64,66,68,-1,70,-1,-1,-1,-1,-1,-1,-1,-1,-1,-1,-1,-1,-1,-1,-1,-1,-1,-1,-1,-1],"split_conditions":[1.4399937E0,-2.5089333E0,-1.7204423E0,1.1898766E0,-7.578556E-1,2.5102493E-4,1.1096538E0,6.41761E-1,-3.5465112E0,2.1690981E0,-6.411332E-1,-1.0056034E0,1.4080056E-4,3.8497683E-1,-3.0201259E0,5.636395E-5,1.1101882E-3,-7.830998E-1,-8.483412E-4,-8.3143187E-1,1.1917094E0,-7.6058373E-4,-8.28844E-1,-1.3745533E-1,6.074535E-1,4.0717106E-4,6.830245E-1,1.2035065E0,1.0554584E0,-1.2238381E-3,3.094069E-1,5.9973434E-2,9.9231416E-1,-2.1687649E-4,1.7498461E-4,-2.3583532E-4,-1.0906407E-3,3.61399E-4,1.0228703E0,4.972675E-1,-8.7584627E-1,-9.604601E-1,-1.0453414E0,1.0879824E-3,-9.776391E-5,1.2681231E0,-6.7114174E-1,-2.240128E-2,-3.8197532E-1,1.13937036E-4,1.9889374E-1,7.5759766E-5,-7.904644E-4,-9.358703E-4,-3.1422375E-4,-4.1213795E-4,4.8281763E-5,9.217719E-5,-3.540666E-5,-3.2861464E-4,1.3118408E-4,-4.0613746E-4,-1.7160994E-5,-6.5301756E-5,1.0797685E-4,7.2820053E-6,9.136326E-5,2.037873E-4,-1.873168E-5,-7.178943E-5,-2.874917E-4],"split_indices":[3,8,8,3,8,0,2,3,8,2,8,8,0,2,8,0,0,8,0,2,5,0,8,2,3,0,3,2,5,0,2,2,3,0,0,0,0,0,2,2,2,8,8,0,0,3,8,2,8,0,2,0,0,0,0,0,0,0,0,0,0,0,0,0,0,0,0,0,0,0,0],"split_type":[0,0,0,0,0,0,0,0,0,0,0,0,0,0,0,0,0,0,0,0,0,0,0,0,0,0,0,0,0,0,0,0,0,0,0,0,0,0,0,0,0,0,0,0,0,0,0,0,0,0,0,0,0,0,0,0,0,0,0,0,0,0,0,0,0,0,0,0,0,0,0],"sum_hessian":[1.865E3,1.84E3,2.5E1,5.1E1,1.789E3,3E0,2.2E1,4.2E1,9E0,3.08E2,1.481E3,1.7E1,5E0,1.5E1,2.7E1,6E0,3E0,3.05E2,3E0,2.1E1,1.46E3,8E0,9E0,6E0,9E0,5E0,2.2E1,2.97E2,8E0,3E0,1.8E1,1.437E3,2.3E1,5E0,4E0,3E0,3E0,3E0,6E0,7E0,1.5E1,2.73E2,2.4E1,3E0,5E0,1.1E1,7E0,7.89E2,6.48E2,3E0,2E1,3E0,3E0,3E0,4E0,3E0,1.2E1,1.99E2,7.4E1,1.4E1,1E1,7E0,4E0,3E0,4E0,7.35E2,5.4E1,9E0,6.39E2,1.2E1,8E0],"tree_param":{"num_deleted":"0","num_feature":"10","num_nodes":"71","size_leaf_vector":"1"}},{"base_weights":[8.955823E-5,3.7213727E-3,4.3635544E-5,3.3076835E-4,2.0801148E-3,-6.477343E-5,9.3059766E-4,2.5611142E-5,2.9260738E-4,4.928471E-5,-5.9066154E-4,3.8880238E-4,5.7305617E-4,-9.707067E-6,1.0306126E-3,-8.606142E-3,-3.432806E-4,8.939471E-4,-2.6142076E-3,-7.8077277E-4,5.784886E-5,2.3443515E-3,-1.4086816E-5,-1.3550146E-3,4.0746017E-5,2.5231414E-3,-5.39363E-4,5.320505E-4,5.071814E-4,-2.8080706E-4,-8.162003E-5,-1.1244066E-3,1.5577069E-3,8.843763E-5,-8.8790036E-4,1.4998956E-3,3.085249E-4,-3.77391E-4,1.2037334E-5,7.863621E-4,4.365523E-3,1.5437752E-3,-8.188884E-4,2.9674498E-3,3.1007844E-4,-5.1242878E-5,-4.130015E-4,1.6080444E-4,5.4709188E-5,5.025294E-6,1.3403295E-4,-1.9856532E-4,-3.2216307E-5,3.1160584E-4,2.4990071E-5,1.2036344E-5,-6.397562E-5,7.2644856E-5,1.3896038E-5,4.362496E-4,8.8820125E-5,-6.417111E-5,3.348252E-4,-5.748003E-4,-3.235435E-5,3.483768E-4,1.2568125E-4,-1.5539306E-4,3.1289073E-5],"categories":[],"categories_nodes":[],"categories_segments":[],"categories_sizes":[],"default_left":[0,0,0,0,0,0,0,0,0,0,0,0,0,0,0,0,0,0,0,0,0,0,0,0,0,0,0,0,0,0,0,0,0,0,0,0,0,0,0,0,0,0,0,0,0,0,0,0,0,0,0,0,0,0,0,0,0,0,0,0,0,0,0,0,0,0,0,0,0],"id":11,"left_children":[1,3,5,-1,7,9,11,-1,-1,13,15,-1,17,19,21,23,25,27,29,31,33,35,37,-1,-1,39,41,43,-1,-1,-1,45,47,49,51,53,-1,55,-1,57,59,61,63,65,67,-1,-1,-1,-1,-1,-1,-1,-1,-1,-1,-1,-1,-1,-1,-1,-1,-1,-1,-1,-1,-1,-1,-1,-1],"loss_changes":[3.2056074E-4,3.8103783E-5,1.827541E-4,0E0,4.513186E-5,1.0163832E-4,3.5843416E-4,0E0,0E0,8.065116E-5,5.958745E-4,0E0,2.0075316E-4,6.854359E-5,1.0845755E-4,9.805097E-4,1.6660502E-4,4.2489686E-4,3.468177E-5,8.6931046E-5,3.508298E-5,6.0251914E-5,3.2434202E-6,0E0,0E0,5.7363504E-5,1.6197622E-4,9.043966E-5,0E0,0E0,0E0,1.6338617E-4,6.8109694E-6,2.9608775E-5,3.069663E-5,9.4423085E-5,0E0,5.3465915E-6,0E0,1.6877602E-6,5.0434013E-5,2.9131683E-4,6.314504E-4,2.4362584E-5,6.612516E-5,0E0,0E0,0E0,0E0,0E0,0E0,0E0,0E0,0E0,0E0,0E0,0E0,0E0,0E0,0E0,0E0,0E0,0E0,0E0,0E0,0E0,0E0,0E0,0E0],"parents":[2147483647,0,0,1,1,2,2,4,4,5,5,6,6,9,9,10,10,12,12,13,13,14,14,15,15,16,16,17,17,18,18,19,19,20,20,21,21,22,22,25,25,26,26,27,27,31,31,32,32,33,33,34,34,35,35,37,37,39,39,40,40,41,41,42,42,43,43,44,44],"right_children":[2,4,6,-1,8,10,12,-1,-1,14,16,-1,18,20,22,24,26,28,30,32,34,36,38,-1,-1,40,42,44,-1,-1,-1,46,48,50,52,54,-1,56,-1,58,60,62,64,66,68,-1,-1,-1,-1,-1,-1,-1,-1,-1,-1,-1,-1,-1,-1,-1,-1,-1,-1,-1,-1,-1,-1,-1,-1],"split_conditions":[-2.074738E0,1.004525E0,1.1792233E0,3.3076835E-4,1.0119058E0,9.214908E-1,6.054319E-1,2.5611142E-5,2.9260738E-4,8.6776525E-1,9.250845E-1,3.8880238E-4,1.4544023E0,-3.0891964E-1,-1.163238E0,-1.1515303E0,9.359961E-1,1.4399937E0,-5.040263E-1,8.3520967E-1,8.9089656E-1,9.2929995E-1,8.927954E-1,-1.3550146E-3,4.0746017E-5,9.95811E-1,7.2785395E-1,1.8019581E-1,5.071814E-4,-2.8080706E-4,-8.162003E-5,8.317462E-1,8.4564763E-1,8.769574E-1,4.9520633E-1,-1.1826862E0,3.085249E-4,5.3492856E-1,1.2037334E-5,-1.1515303E0,-1.1437088E0,-2.065312E0,7.4166876E-1,1.1898766E0,1.1505824E0,-5.1242878E-5,-4.130015E-4,1.6080444E-4,5.4709188E-5,5.025294E-6,1.3403295E-4,-1.9856532E-4,-3.2216307E-5,3.1160584E-4,2.4990071E-5,1.2036344E-5,-6.397562E-5,7.2644856E-5,1.3896038E-5,4.362496E-4,8.8820125E-5,-6.417111E-5,3.348252E-4,-5.748003E-4,-3.235435E-5,3.483768E-4,1.2568125E-4,-1.5539306E-4,3.1289073E-5],"split_indices":[1,5,3,0,5,5,9,0,0,5,5,0,3,1,1,1,5,3,1,3,3,3,5,0,0,3,3,6,0,0,0,3,3,3,1,1,0,1,0,1,1,1,3,3,9,0,0,0,0,0,0,0,0,0,0,0,0,0,0,0,0,0,0,0,0,0,0,0,0],"split_type":[0,0,0,0,0,0,0,0,0,0,0,0,0,0,0,0,0,0,0,0,0,0,0,0,0,0,0,0,0,0,0,0,0,0,0,0,0,0,0,0,0,0,0,0,0,0,0,0,0,0,0,0,0,0,0,0,0,0,0,0,0,0,0,0,0,0,0,0,0],"sum_hessian":[1.922E3,2.3E1,1.899E3,1.2E1,1.1E1,1.693E3,2.06E2,7E0,4E0,1.392E3,3.01E2,1.3E1,1.93E2,1.314E3,7.8E1,8E0,2.93E2,1.76E2,1.7E1,1.05E2,1.209E3,3.4E1,4.4E1,3E0,5E0,1.8E1,2.75E2,1.68E2,8E0,7E0,1E1,9.2E1,1.3E1,1.172E3,3.7E1,2.6E1,8E0,1.5E1,2.9E1,1E1,8E0,3.2E1,2.43E2,1.3E1,1.55E2,8.7E1,5E0,5E0,8E0,1.165E3,7E0,5E0,3.2E1,6E0,2E1,8E0,7E0,6E0,4E0,4E0,4E0,1.9E1,1.3E1,9E0,2.34E2,3E0,1E1,8E0,1.47E2],"tree_param":{"num_deleted":"0","num_feature":"10","num_nodes":"69","size_leaf_vector":"1"}},{"base_weights":[1.4010936E-5,1.9958685E-3,-8.2255225E-5,-2.0982851E-3,2.5925012E-3,-5.99685E-4,-4.3673972E-5,-3.902821E-4,9.417099E-5,-2.5295715E-3,3.205264E-3,8.5711845E-6,-3.5637668E-3,-7.494637E-5,-2.2930159E-4,7.7328196E-4,2.5329986E-3,1.8826887E-3,-2.176251E-5,2.7635135E-4,-4.698528E-3,3.8904138E-3,1.8287348E-3,6.925462E-4,1.11056295E-4,-5.435046E-4,5.4865986E-6,-8.418325E-3,-9.0344367E-4,1.1823026E-4,3.489834E-4,1.128025E-3,4.2384877E-3,1.1019456E-3,-1.4854722E-3,-7.226069E-4,9.2052476E-5,-3.870913E-4,-7.3068927E-4,-1.2735778E-4,-2.4609885E-4,-4.6266447E-5,1.1612631E-4,3.9282875E-4,2.0591866E-5,2.5000494E-5,9.346489E-5,-1.816132E-4,-1.4088418E-5,-1.7813746E-4,-3.3659868E-5,2.9095412E-5,-9.530179E-6,7.6257646E-5,-7.550501E-5],"categories":[],"categories_nodes":[],"categories_segments":[],"categories_sizes":[],"default_left":[0,0,0,0,0,0,0,0,0,0,0,0,0,0,0,0,0,0,0,0,0,0,0,0,0,0,0,0,0,0,0,0,0,0,0,0,0,0,0,0,0,0,0,0,0,0,0,0,0,0,0,0,0,0,0],"id":12,"left_children":[1,3,5,7,9,-1,11,-1,-1,13,15,17,19,-1,-1,-1,21,23,25,-1,27,29,31,-1,33,-1,35,37,39,-1,-1,41,43,45,47,49,51,-1,-1,-1,53,-1,-1,-1,-1,-1,-1,-1,-1,-1,-1,-1,-1,-1,-1],"loss_changes":[3.7067023E-4,2.2528338E-4,6.3533115E-4,1.657575E-4,2.5605859E-4,0E0,3.3952433E-4,0E0,0E0,7.581457E-6,3.7006504E-4,1.0350599E-4,2.553337E-4,0E0,0E0,0E0,5.6935998E-5,4.3461227E-4,3.9616006E-4,0E0,3.3120118E-4,5.292808E-5,7.2891606E-5,0E0,4.1186486E-5,0E0,1.1269764E-4,1.594139E-5,8.098059E-6,0E0,0E0,4.2281303E-5,6.2661245E-5,2.9329021E-6,1.5136322E-5,7.947014E-5,1.2883243E-4,0E0,0E0,0E0,1.23256095E-5,0E0,0E0,0E0,0E0,0E0,0E0,0E0,0E0,0E0,0E0,0E0,0E0,0E0,0E0],"parents":[2147483647,0,0,1,1,2,2,3,3,4,4,6,6,9,9,10,10,11,11,12,12,16,16,17,17,18,18,20,20,21,21,22,22,24,24,26,26,27,27,28,28,31,31,32,32,33,33,34,34,35,35,36,36,40,40],"right_children":[2,4,6,8,10,-1,12,-1,-1,14,16,18,20,-1,-1,-1,22,24,26,-1,28,30,32,-1,34,-1,36,38,40,-1,-1,42,44,46,48,50,52,-1,-1,-1,54,-1,-1,-1,-1,-1,-1,-1,-1,-1,-1,-1,-1,-1,-1],"split_conditions":[-2.3027365E0,9.902244E-1,-2.0590146E0,-2.663894E-1,-3.5465112E0,-5.99685E-4,1.8085967E0,-3.902821E-4,9.417099E-5,-1.6812053E-2,-3.3311603E0,-2.0356593E0,1.0953476E0,-7.494637E-5,-2.2930159E-4,7.7328196E-4,-2.880404E0,-5.8212444E-2,-2.0558622E0,2.7635135E-4,-1.0056034E0,8.051312E-1,-2.3658807E0,6.925462E-4,1.1953977E0,-5.435046E-4,-1.1943161E0,-1.3185737E0,-9.089351E-1,1.1823026E-4,3.489834E-4,-5.1316533E-2,-2.3169267E0,-2.265241E0,-2.2849312E0,-2.0025128E-1,2.2063418E-1,-3.870913E-4,-7.3068927E-4,-1.2735778E-4,1.1157697E0,-4.6266447E-5,1.1612631E-4,3.9282875E-4,2.0591866E-5,2.5000494E-5,9.346489E-5,-1.816132E-4,-1.4088418E-5,-1.7813746E-4,-3.3659868E-5,2.9095412E-5,-9.530179E-6,7.6257646E-5,-7.550501E-5],"split_indices":[8,5,1,0,8,0,4,0,0,0,8,8,0,0,0,0,8,0,1,0,8,4,8,0,0,0,1,8,8,0,0,0,8,8,8,0,8,0,0,0,0,0,0,0,0,0,0,0,0,0,0,0,0,0,0],"split_type":[0,0,0,0,0,0,0,0,0,0,0,0,0,0,0,0,0,0,0,0,0,0,0,0,0,0,0,0,0,0,0,0,0,0,0,0,0,0,0,0,0,0,0,0,0,0,0,0,0,0,0,0,0,0,0],"sum_hessian":[1.941E3,8.9E1,1.852E3,1.1E1,7.8E1,7E0,1.845E3,5E0,6E0,8E0,7E1,1.819E3,2.6E1,4E0,4E0,4E0,6.6E1,2.8E1,1.791E3,3E0,2.3E1,2.1E1,4.5E1,4E0,2.4E1,5E0,1.786E3,1.1E1,1.2E1,9E0,1.2E1,3.6E1,9E0,1.5E1,9E0,1.89E2,1.597E3,7E0,4E0,4E0,8E0,9E0,2.7E1,6E0,3E0,5E0,1E1,4E0,5E0,1.8E1,1.71E2,6.48E2,9.49E2,3E0,5E0],"tree_param":{"num_deleted":"0","num_feature":"10","num_nodes":"55","size_leaf_vector":"1"}},{"base_weights":[-1.9722195E-6,1.115937E-4,-1.1731522E-3,5.8079866E-4,-1.5687829E-4,-4.759807E-4,-3.2360533E-3,5.3540495E-4,4.909148E-4,-5.220432E-5,-1.009033E-3,-7.5378345E-4,5.330318E-4,-7.2667346E-4,-1.6157961E-3,-1.0938611E-3,6.8627665E-4,3.635798E-4,-2.0117359E-4,-2.4819137E-3,-8.727036E-5,-1.2766946E-3,3.649985E-4,-7.7491556E-4,-3.1629077E-3,9.6511625E-4,-4.4364803E-3,1.0424656E-3,7.7268014E-5,2.3475314E-4,1.9310461E-3,-5.8586444E-3,-1.3585614E-4,-8.199668E-3,-1.2128624E-3,8.85069E-4,-5.8158085E-4,-4.1648877E-4,-2.3642774E-3,4.7072873E-4,-3.8732943E-4,1.163006E-3,-1.6412954E-3,-1.1917887E-3,-3.2978444E-4,5.305225E-3,-1.7675755E-3,-8.533534E-3,5.139257E-4,9.53554E-4,4.7464697E-3,-8.498701E-4,3.2779152E-4,3.0648723E-4,-1.5926533E-3,7.330894E-4,3.4336976E-4,-6.1887753E-4,-9.355386E-6,-2.1705055E-3,-6.30962E-5,-1.796138E-4,-8.712907E-4,-2.4294606E-3,6.1180117E-4,1.6479047E-3,1.6799063E-4,-2.1570493E-3,2.476478E-4,-1.7780545E-3,2.1502565E-4,-3.6799733E-3,-2.7697158E-4,-9.6670265E-4,2.2706362E-4,4.4074412E-7,1.2398718E-4,-2.8934574E-4,-7.557988E-4,-1.8370397E-4,4.4341617E-5,4.536178E-4,1.051789E-4,-1.9209145E-4,5.7294958E-5,-8.648045E-4,-1.8058594E-4,-1.1697891E-4,2.0905599E-4,1.09194785E-4,1.2858668E-5,-2.9064986E-4,7.3997653E-4,7.982612E-6,3.2262705E-4,4.2393785E-5,-7.0617493E-6,3.0655967E-5,-1.800696E-4,1.5763042E-4,8.688057E-6,-2.1919835E-4,-6.5417684E-5,1.5034478E-5,-2.2130786E-5,2.2697499E-5,-2.0248647E-4,-2.2343396E-5,5.7189616E-5,5.9772112E-5,1.9585303E-4,4.1507E-5,-8.068638E-7,-2.3142546E-5,-2.0802641E-4,-1.0396637E-4,5.927111E-5,-3.169994E-5,-3.5043797E-4,-3.9955834E-5,4.3346197E-5,-5.130443E-4,-1.7671326E-4,-7.477744E-5,8.7524995E-6,-3.8259306E-5,-1.7234152E-4,-1.7073781E-4,3.5265482E-5],"categories":[],"categories_nodes":[],"categories_segments":[],"categories_sizes":[],"default_left":[0,0,0,0,0,0,0,0,0,0,0,0,0,0,0,0,0,0,0,0,0,0,0,0,0,0,0,0,0,0,0,0,0,0,0,0,0,0,0,0,0,0,0,0,0,0,0,0,0,0,0,0,0,0,0,0,0,0,0,0,0,0,0,0,0,0,0,0,0,0,0,0,0,0,0,0,0,0,0,0,0,0,0,0,0,0,0,0,0,0,0,0,0,0,0,0,0,0,0,0,0,0,0,0,0,0,0,0,0,0,0,0,0,0,0,0,0,0,0,0,0,0,0,0,0,0,0,0,0],"id":13,"left_children":[1,3,5,7,9,11,13,15,-1,17,19,21,-1,-1,23,25,27,29,31,33,35,37,39,41,43,45,47,49,51,53,55,57,59,61,63,65,67,69,71,-1,73,75,77,79,-1,81,83,85,87,89,91,-1,93,95,97,99,-1,-1,-1,101,103,-1,-1,105,107,109,111,113,115,117,119,121,123,125,-1,-1,-1,-1,127,-1,-1,-1,-1,-1,-1,-1,-1,-1,-1,-1,-1,-1,-1,-1,-1,-1,-1,-1,-1,-1,-1,-1,-1,-1,-1,-1,-1,-1,-1,-1,-1,-1,-1,-1,-1,-1,-1,-1,-1,-1,-1,-1,-1,-1,-1,-1,-1,-1,-1],"loss_changes":[2.4526124E-4,2.1184396E-4,2.3288565E-4,1.8403241E-4,9.538962E-5,2.948525E-4,4.898906E-4,1.5044908E-4,0E0,5.9162998E-5,1.5862801E-4,7.066882E-5,0E0,0E0,4.3081774E-5,3.6216536E-4,1.2096204E-4,5.0433406E-5,2.5898474E-4,3.165804E-4,3.560128E-5,7.573E-5,1.9871636E-4,4.2204258E-5,3.6043457E-5,4.007633E-4,4.100271E-4,1.11397734E-4,6.6774955E-4,3.116257E-5,6.9243004E-5,1.5439565E-4,1.0289957E-4,1.7834594E-4,8.584187E-5,1.3398492E-5,6.454895E-5,4.0795203E-5,9.784612E-5,0E0,8.223985E-5,6.39452E-6,3.7204638E-5,2.205188E-5,0E0,6.126697E-5,6.349843E-5,2.4780072E-4,6.468914E-5,1.7840191E-4,5.0863076E-4,0E0,1.9068875E-4,3.061645E-5,2.158584E-5,1.4401492E-5,0E0,0E0,0E0,2.8527364E-5,5.205635E-5,0E0,0E0,3.9297913E-5,3.9811584E-6,8.97847E-6,1.1499396E-6,2.835477E-5,3.9434097E-5,6.529711E-5,1.2022693E-5,7.07616E-5,5.2997675E-6,1.8860183E-5,0E0,0E0,0E0,0E0,3.3683264E-5,0E0,0E0,0E0,0E0,0E0,0E0,0E0,0E0,0E0,0E0,0E0,0E0,0E0,0E0,0E0,0E0,0E0,0E0,0E0,0E0,0E0,0E0,0E0,0E0,0E0,0E0,0E0,0E0,0E0,0E0,0E0,0E0,0E0,0E0,0E0,0E0,0E0,0E0,0E0,0E0,0E0,0E0,0E0,0E0,0E0,0E0,0E0,0E0,0E0,0E0],"parents":[2147483647,0,0,1,1,2,2,3,3,4,4,5,5,6,6,7,7,9,9,10,10,11,11,14,14,15,15,16,16,17,17,18,18,19,19,20,20,21,21,22,22,23,23,24,24,25,25,26,26,27,27,28,28,29,29,30,30,31,31,32,32,33,33,34,34,35,35,36,36,37,37,38,38,40,40,41,41,42,42,43,43,45,45,46,46,47,47,48,48,49,49,50,50,52,52,53,53,54,54,55,55,59,59,60,60,63,63,64,64,65,65,66,66,67,67,68,68,69,69,70,70,71,71,72,72,73,73,78,78],"right_children":[2,4,6,8,10,12,14,16,-1,18,20,22,-1,-1,24,26,28,30,32,34,36,38,40,42,44,46,48,50,52,54,56,58,60,62,64,66,68,70,72,-1,74,76,78,80,-1,82,84,86,88,90,92,-1,94,96,98,100,-1,-1,-1,102,104,-1,-1,106,108,110,112,114,116,118,120,122,124,126,-1,-1,-1,-1,128,-1,-1,-1,-1,-1,-1,-1,-1,-1,-1,-1,-1,-1,-1,-1,-1,-1,-1,-1,-1,-1,-1,-1,-1,-1,-1,-1,-1,-1,-1,-1,-1,-1,-1,-1,-1,-1,-1,-1,-1,-1,-1,-1,-1,-1,-1,-1,-1,-1,-1],"split_conditions":[1.2681592E0,8.780763E-2,7.700576E-1,1.2504596E0,7.883593E-1,3.3342186E-1,7.4166876E-1,-1.120479E0,4.909148E-4,-1.0628302E0,9.131791E-1,1.9896048E0,5.330318E-4,-7.2667346E-4,9.677697E-1,-1.4544026E0,8.755419E-1,-1.3494285E0,-1.0196584E0,2.2454554E-1,-1.4212948E0,1.5480053E0,-1.3149103E0,1.6990566E0,1.3942575E0,-1.0453414E0,-1.053371E0,8.5203254E-1,-2.146831E-1,-1.3638737E0,-2.7637827E-1,8.1740975E-1,-4.8976803E-1,8.3952504E-1,-7.3807794E-1,1.0485774E0,-4.8976803E-1,1.3402468E0,-5.50402E-1,4.7072873E-4,4.7668484E-1,1.3942575E0,1.8616102E0,1.3127896E0,-3.2978444E-4,1.1469468E0,-1.7381867E0,-1.2719468E0,1.0116832E0,1.0869812E-1,-2.2620693E-1,-8.498701E-4,1.1362531E0,1.2039385E0,3.5593244E-3,2.0699246E-1,3.4336976E-4,-6.1887753E-4,-9.355386E-6,-5.620052E-1,-3.2096526E-1,-1.796138E-4,-8.712907E-4,-1.7729065E0,3.0559254E-1,1.0228703E0,6.529578E-1,1.6865641E-1,1.0228703E0,-2.364946E-1,-1.3686808E0,1.6330698E0,1.1913755E-1,-6.2436503E-1,2.2706362E-4,4.4074412E-7,1.2398718E-4,-2.8934574E-4,-2.0602763E-1,-1.8370397E-4,4.4341617E-5,4.536178E-4,1.051789E-4,-1.9209145E-4,5.7294958E-5,-8.648045E-4,-1.8058594E-4,-1.1697891E-4,2.0905599E-4,1.09194785E-4,1.2858668E-5,-2.9064986E-4,7.3997653E-4,7.982612E-6,3.2262705E-4,4.2393785E-5,-7.0617493E-6,3.0655967E-5,-1.800696E-4,1.5763042E-4,8.688057E-6,-2.1919835E-4,-6.5417684E-5,1.5034478E-5,-2.2130786E-5,2.2697499E-5,-2.0248647E-4,-2.2343396E-5,5.7189616E-5,5.9772112E-5,1.9585303E-4,4.1507E-5,-8.068638E-7,-2.3142546E-5,-2.0802641E-4,-1.0396637E-4,5.927111E-5,-3.169994E-5,-3.5043797E-4,-3.9955834E-5,4.3346197E-5,-5.130443E-4,-1.7671326E-4,-7.477744E-5,8.7524995E-6,-3.8259306E-5,-1.7234152E-4,-1.7073781E-4,3.5265482E-5],"split_indices":[2,8,4,2,2,4,3,2,0,3,2,2,0,0,3,2,4,0,3,8,0,2,3,2,2,8,8,4,0,0,2,8,0,2,3,2,0,2,0,0,0,2,2,2,0,0,2,2,4,2,0,0,2,8,2,8,0,0,0,2,2,0,0,0,8,2,8,8,2,4,0,2,8,3,0,0,0,0,0,0,0,0,0,0,0,0,0,0,0,0,0,0,0,0,0,0,0,0,0,0,0,0,0,0,0,0,0,0,0,0,0,0,0,0,0,0,0,0,0,0,0,0,0,0,0,0,0,0,0],"split_type":[0,0,0,0,0,0,0,0,0,0,0,0,0,0,0,0,0,0,0,0,0,0,0,0,0,0,0,0,0,0,0,0,0,0,0,0,0,0,0,0,0,0,0,0,0,0,0,0,0,0,0,0,0,0,0,0,0,0,0,0,0,0,0,0,0,0,0,0,0,0,0,0,0,0,0,0,0,0,0,0,0,0,0,0,0,0,0,0,0,0,0,0,0,0,0,0,0,0,0,0,0,0,0,0,0,0,0,0,0,0,0,0,0,0,0,0,0,0,0,0,0,0,0,0,0,0,0,0,0],"sum_hessian":[1.842E3,1.68E3,1.62E2,6.11E2,1.069E3,1.22E2,4E1,6.08E2,3E0,9.53E2,1.16E2,1.19E2,3E0,6E0,3.4E1,5.1E1,5.57E2,2.51E2,7.02E2,4.4E1,7.2E1,8.1E1,3.8E1,2.3E1,1.1E1,3.2E1,1.9E1,3.51E2,2.06E2,2.33E2,1.8E1,7E0,6.95E2,7E0,3.7E1,2.4E1,4.8E1,4.6E1,3.5E1,3E0,3.5E1,7E0,1.6E1,6E0,5E0,1.2E1,2E1,1E1,9E0,3.44E2,7E0,3E0,2.03E2,2.25E2,8E0,1.4E1,4E0,4E0,3E0,2.3E1,6.72E2,4E0,3E0,2.2E1,1.5E1,1.1E1,1.3E1,1.6E1,3.2E1,1.4E1,3.2E1,2.1E1,1.4E1,3.1E1,4E0,3E0,4E0,3E0,1.3E1,3E0,3E0,8E0,4E0,1.4E1,6E0,5E0,5E0,5E0,4E0,1.81E2,1.63E2,3E0,4E0,1.95E2,8E0,1.25E2,1E2,3E0,5E0,3E0,1.1E1,1.1E1,1.2E1,3.24E2,3.48E2,4E0,1.8E1,3E0,1.2E1,8E0,3E0,3E0,1E1,6E0,1E1,8E0,2.4E1,1.1E1,3E0,1.1E1,2.1E1,3E0,1.8E1,4E0,1E1,2.6E1,5E0,5E0,8E0],"tree_param":{"num_deleted":"0","num_feature":"10","num_nodes":"129","size_leaf_vector":"1"}},{"base_weights":[4.0454186E-5,1.3620614E-5,2.6397693E-3,4.1420724E-5,-2.0939636E-3,5.5455684E-4,2.5730613E-5,-2.3778804E-5,8.0574374E-4,-5.952374E-4,-5.648693E-3,7.6431275E-4,-4.167881E-5,1.10387504E-4,-4.0121996E-4,3.927246E-3,1.4319492E-4,-1.8561064E-3,2.8611306E-4,-5.8554957E-4,-7.4982985E-5,-2.0753576E-5,1.1012884E-4,2.409497E-4,-5.154846E-4,-2.9908612E-4,-5.259065E-3,1.1250577E-3,1.2266511E-3,4.5500667E-4,-4.240069E-3,-2.6025582E-4,-4.4724133E-4,1.686242E-4,3.0134318E-3,-1.963723E-3,-2.1711974E-6,-1.3466303E-3,5.8588626E-5,-6.5740885E-4,2.4867126E-5,3.1420728E-3,-1.0755174E-4,1.59964E-3,-6.382664E-4,-3.2939202E-5,-4.2696466E-4,2.018055E-5,-1.10027926E-4,-7.7141056E-5,1.9248608E-5,7.2032213E-4,9.653048E-6,-9.528461E-5,-3.0827356E-4,2.2834206E-4,-2.2053813E-5,-3.6436584E-4,-4.9452774E-5,1.2197643E-4,-1.815488E-5,7.255783E-5,3.1735701E-4,-1.3372885E-5,2.7478978E-4,-7.9616104E-5,2.3805539E-4],"categories":[],"categories_nodes":[],"categories_segments":[],"categories_sizes":[],"default_left":[0,0,0,0,0,0,0,0,0,0,0,0,0,0,0,0,0,0,0,0,0,0,0,0,0,0,0,0,0,0,0,0,0,0,0,0,0,0,0,0,0,0,0,0,0,0,0,0,0,0,0,0,0,0,0,0,0,0,0,0,0,0,0,0,0,0,0],"id":14,"left_children":[1,3,5,7,9,-1,11,13,15,17,19,21,-1,23,25,27,29,31,-1,-1,-1,-1,-1,33,35,37,39,41,-1,43,45,-1,47,49,51,53,55,57,59,-1,-1,61,-1,63,65,-1,-1,-1,-1,-1,-1,-1,-1,-1,-1,-1,-1,-1,-1,-1,-1,-1,-1,-1,-1,-1,-1],"loss_changes":[1.2969703E-4,1.08011496E-4,2.8087344E-4,9.06663E-5,1.2449926E-4,0E0,7.192412E-6,8.496738E-5,2.9518278E-4,1.18635726E-4,8.8847286E-5,7.162043E-6,0E0,1.0128767E-4,2.1673326E-4,9.902521E-4,1.6457289E-4,4.134307E-5,0E0,0E0,0E0,0E0,0E0,2.05026E-4,1.5908337E-4,1.619407E-4,2.3574967E-4,1.2640456E-4,0E0,1.4117743E-4,6.129095E-5,0E0,9.483729E-6,1.5836288E-4,5.777755E-4,7.321428E-5,1.7939026E-4,2.699356E-4,1.8898789E-4,0E0,0E0,3.7808088E-5,0E0,2.4955202E-4,1.390402E-4,0E0,0E0,0E0,0E0,0E0,0E0,0E0,0E0,0E0,0E0,0E0,0E0,0E0,0E0,0E0,0E0,0E0,0E0,0E0,0E0,0E0,0E0],"parents":[2147483647,0,0,1,1,2,2,3,3,4,4,6,6,7,7,8,8,9,9,10,10,11,11,13,13,14,14,15,15,16,16,17,17,23,23,24,24,25,25,26,26,27,27,29,29,30,30,32,32,33,33,34,34,35,35,36,36,37,37,38,38,41,41,43,43,44,44],"right_children":[2,4,6,8,10,-1,12,14,16,18,20,22,-1,24,26,28,30,32,-1,-1,-1,-1,-1,34,36,38,40,42,-1,44,46,-1,48,50,52,54,56,58,60,-1,-1,62,-1,64,66,-1,-1,-1,-1,-1,-1,-1,-1,-1,-1,-1,-1,-1,-1,-1,-1,-1,-1,-1,-1,-1,-1],"split_conditions":[2.378187E0,2.0747852E0,2.5633678E0,1.3319527E0,7.347599E-1,5.5455684E-4,2.7583697E0,5.079799E-1,-7.909077E-3,7.3140705E-1,-2.0602763E-1,6.199385E-1,-4.167881E-5,1.0133715E0,1.1480837E0,9.5550334E-1,1.1499872E0,2.1690981E0,2.8611306E-4,-5.8554957E-4,-7.4982985E-5,-2.0753576E-5,1.1012884E-4,9.7829056E-1,1.171137E0,7.325483E-1,-1.0131352E-1,-3.2096526E-1,1.2266511E-3,1.0953476E0,1.2966655E0,-2.6025582E-4,-7.001894E-1,-1.3784183E0,1.1364219E0,1.1640384E0,1.1882786E0,-1.3196542E0,-1.3362459E0,-6.5740885E-4,2.4867126E-5,-6.769145E-1,-1.0755174E-4,1.0674696E0,8.939855E-1,-3.2939202E-5,-4.2696466E-4,2.018055E-5,-1.10027926E-4,-7.7141056E-5,1.9248608E-5,7.2032213E-4,9.653048E-6,-9.528461E-5,-3.0827356E-4,2.2834206E-4,-2.2053813E-5,-3.6436584E-4,-4.9452774E-5,1.2197643E-4,-1.815488E-5,7.255783E-5,3.1735701E-4,-1.3372885E-5,2.7478978E-4,-7.9616104E-5,2.3805539E-4],"split_indices":[2,2,2,6,3,0,2,2,0,6,0,7,0,3,6,2,2,2,0,0,0,0,0,3,0,2,0,2,0,0,3,0,6,7,0,0,0,7,7,0,0,2,0,0,2,0,0,0,0,0,0,0,0,0,0,0,0,0,0,0,0,0,0,0,0,0,0],"split_type":[0,0,0,0,0,0,0,0,0,0,0,0,0,0,0,0,0,0,0,0,0,0,0,0,0,0,0,0,0,0,0,0,0,0,0,0,0,0,0,0,0,0,0,0,0,0,0,0,0,0,0,0,0,0,0,0,0,0,0,0,0,0,0,0,0,0,0],"sum_hessian":[1.859E3,1.841E3,1.8E1,1.818E3,2.3E1,5E0,1.3E1,1.676E3,1.42E2,1.7E1,6E0,6E0,7E0,1.237E3,4.39E2,2.4E1,1.18E2,1.4E1,3E0,3E0,3E0,3E0,3E0,1.024E3,2.13E2,4.31E2,8E0,2.1E1,3E0,1.11E2,7E0,5E0,9E0,9.99E2,2.5E1,5.5E1,1.58E2,1.09E2,3.22E2,4E0,4E0,1.2E1,9E0,5.4E1,5.7E1,3E0,4E0,6E0,3E0,8.2E1,9.17E2,6E0,1.9E1,4.7E1,8E0,1.3E1,1.45E2,1.3E1,9.6E1,5E1,2.72E2,6E0,6E0,3.2E1,2.2E1,5.1E1,6E0],"tree_param":{"num_deleted":"0","num_feature":"10","num_nodes":"67","size_leaf_vector":"1"}},{"base_weights":[-7.633042E-5,-4.4882607E-5,-3.094613E-3,-4.6307067E-4,9.916221E-5,-6.3102803E-4,-1.5254808E-4,-2.1324072E-3,-1.8369603E-4,4.8345677E-3,5.3386826E-5,-1.1201663E-3,4.76553E-5,-2.5484225E-4,-5.276522E-3,-4.7106526E-4,4.6436614E-4,1.0751167E-3,6.0414925E-4,2.3255117E-4,-4.4410687E-4,-1.05327745E-4,-2.565941E-5,-1.7256079E-3,4.273462E-4,-6.5318192E-3,-1.1154985E-3,-1.4148989E-4,-4.1843913E-4,4.9850657E-3,-3.0046527E-4,-2.352706E-4,3.0315982E-4,2.8179067E-3,1.8453377E-4,-2.1182501E-4,-2.1353785E-3,-3.8507984E-3,-5.025627E-4,-4.7295745E-3,-8.090493E-4,4.1905972E-5,-1.723473E-4,-3.2016306E-4,3.3252055E-4,1.5040056E-3,1.1220977E-3,-8.2272636E-5,-2.2757308E-4,5.360862E-4,1.2420723E-3,1.20555684E-4,1.7152763E-3,-3.285244E-4,3.0431875E-3,-5.0716405E-3,-5.429887E-4,-4.3782842E-5,-7.2680484E-4,2.0468017E-4,-2.1838819E-4,-5.594805E-4,-1.14013936E-4,-1.1619219E-5,-1.3663624E-4,1.6695578E-4,-6.580856E-5,-5.198051E-5,8.364139E-5,5.096395E-5,1.5834163E-4,3.7934416E-5,-4.8059326E-7,4.146214E-5,2.7575443E-4,-7.8454184E-5,-4.1554986E-6,1.0478561E-4,3.0066265E-4,-2.4134187E-4,-4.4498444E-4,3.4131357E-5,-7.513904E-5],"categories":[],"categories_nodes":[],"categories_segments":[],"categories_sizes":[],"default_left":[0,0,0,0,0,0,0,0,0,0,0,0,0,0,0,0,0,0,0,0,0,0,0,0,0,0,0,0,0,0,0,0,0,0,0,0,0,0,0,0,0,0,0,0,0,0,0,0,0,0,0,0,0,0,0,0,0,0,0,0,0,0,0,0,0,0,0,0,0,0,0,0,0,0,0,0,0,0,0,0,0,0,0],"id":15,"left_children":[1,3,5,7,9,-1,11,13,15,17,19,21,-1,23,25,27,29,31,-1,33,35,-1,-1,37,-1,39,41,43,-1,45,47,-1,-1,49,51,53,55,57,59,61,-1,-1,-1,63,-1,65,-1,67,-1,-1,69,71,73,75,77,79,81,-1,-1,-1,-1,-1,-1,-1,-1,-1,-1,-1,-1,-1,-1,-1,-1,-1,-1,-1,-1,-1,-1,-1,-1,-1,-1],"loss_changes":[1.748906E-4,1.10040186E-4,3.5346637E-4,2.1786956E-4,2.9432552E-4,0E0,1.25266915E-5,3.9417512E-4,7.508447E-5,1.9587975E-4,1.2016561E-4,1.7451284E-6,0E0,4.316205E-4,1.2329675E-4,5.3161394E-4,4.3023686E-4,1.432606E-4,0E0,1.2250477E-4,1.3979574E-4,0E0,0E0,9.163608E-5,0E0,1.336729E-4,1.9473357E-5,2.439144E-4,0E0,7.146038E-4,7.221766E-5,0E0,0E0,1.3767225E-4,9.518091E-5,1.2065502E-4,1.9830013E-4,2.8475845E-4,2.466941E-4,1.6195193E-4,0E0,0E0,0E0,6.447955E-5,0E0,3.9591177E-5,0E0,9.470114E-5,0E0,0E0,6.3006664E-6,5.3471078E-5,1.0040254E-4,6.86156E-5,1.6574006E-5,1.0715943E-5,1.8345028E-5,0E0,0E0,0E0,0E0,0E0,0E0,0E0,0E0,0E0,0E0,0E0,0E0,0E0,0E0,0E0,0E0,0E0,0E0,0E0,0E0,0E0,0E0,0E0,0E0,0E0,0E0],"parents":[2147483647,0,0,1,1,2,2,3,3,4,4,6,6,7,7,8,8,9,9,10,10,11,11,13,13,14,14,15,15,16,16,17,17,19,19,20,20,23,23,25,25,26,26,27,27,29,29,30,30,33,33,34,34,35,35,36,36,37,37,38,38,39,39,43,43,45,45,47,47,50,50,51,51,52,52,53,53,54,54,55,55,56,56],"right_children":[2,4,6,8,10,-1,12,14,16,18,20,22,-1,24,26,28,30,32,-1,34,36,-1,-1,38,-1,40,42,44,-1,46,48,-1,-1,50,52,54,56,58,60,62,-1,-1,-1,64,-1,66,-1,68,-1,-1,70,72,74,76,78,80,82,-1,-1,-1,-1,-1,-1,-1,-1,-1,-1,-1,-1,-1,-1,-1,-1,-1,-1,-1,-1,-1,-1,-1,-1,-1,-1],"split_conditions":[1.821144E0,-9.774181E-1,-1.0700935E0,-2.0025128E-1,-2.880404E0,-6.3102803E-4,-9.089351E-1,-2.1453016E0,1.1154556E0,-3.5465112E0,7.588742E-1,1.1123328E0,4.76553E-5,-2.3771156E-1,-4.0199596E-1,1.0953476E0,1.1364219E0,-1.6812053E-2,6.0414925E-4,-1.0626101E0,1.3313433E0,-1.05327745E-4,-2.565941E-5,7.934302E-1,4.273462E-4,-6.7114174E-1,9.14736E-1,1.0948559E0,-4.1843913E-4,-8.0815214E-1,-7.578556E-1,-2.352706E-4,3.0315982E-4,-1.0394353E-2,7.020973E-1,1.2956558E0,1.5130088E0,-3.3311603E0,-2.880404E0,-1.2477062E0,-8.090493E-4,4.1905972E-5,-1.723473E-4,4.08313E-2,3.3252055E-4,-9.4536936E-1,1.1220977E-3,1.2614245E0,-2.2757308E-4,5.360862E-4,7.020973E-1,1.0247241E-1,6.719115E-1,8.204094E-1,-1.646326E0,1.3590696E0,1.6055919E0,-4.3782842E-5,-7.2680484E-4,2.0468017E-4,-2.1838819E-4,-5.594805E-4,-1.14013936E-4,-1.1619219E-5,-1.3663624E-4,1.6695578E-4,-6.580856E-5,-5.198051E-5,8.364139E-5,5.096395E-5,1.5834163E-4,3.7934416E-5,-4.8059326E-7,4.146214E-5,2.7575443E-4,-7.8454184E-5,-4.1554986E-6,1.0478561E-4,3.0066265E-4,-2.4134187E-4,-4.4498444E-4,3.4131357E-5,-7.513904E-5],"split_indices":[4,7,8,0,8,0,8,8,0,8,8,0,0,0,8,0,0,0,0,6,7,0,0,4,0,8,6,0,0,8,8,0,0,8,8,7,8,8,8,8,0,0,0,8,0,8,0,0,0,0,8,8,6,8,0,8,8,0,0,0,0,0,0,0,0,0,0,0,0,0,0,0,0,0,0,0,0,0,0,0,0,0,0],"split_type":[0,0,0,0,0,0,0,0,0,0,0,0,0,0,0,0,0,0,0,0,0,0,0,0,0,0,0,0,0,0,0,0,0,0,0,0,0,0,0,0,0,0,0,0,0,0,0,0,0,0,0,0,0,0,0,0,0,0,0,0,0,0,0,0,0,0,0,0,0,0,0,0,0,0,0,0,0,0,0,0,0,0,0],"sum_hessian":[1.843E3,1.825E3,1.8E1,4.67E2,1.358E3,5E0,1.3E1,6.6E1,4.01E2,1.2E1,1.346E3,6E0,7E0,4.2E1,2.4E1,2.78E2,1.23E2,7E0,5E0,9.9E2,3.56E2,3E0,3E0,3.5E1,7E0,1.8E1,6E0,2.64E2,1.4E1,1.7E1,1.06E2,3E0,4E0,1.7E1,9.73E2,3.14E2,4.2E1,1.2E1,2.3E1,1.5E1,3E0,3E0,3E0,2.56E2,8E0,1.4E1,3E0,1E2,6E0,3E0,1.4E1,9.35E2,3.8E1,3.04E2,1E1,1.4E1,2.8E1,9E0,3E0,1E1,1.3E1,6E0,9E0,2.37E2,1.9E1,1E1,4E0,6.6E1,3.4E1,1.1E1,3E0,2.07E2,7.28E2,2.7E1,1.1E1,7.2E1,2.32E2,6E0,4E0,9E0,5E0,1E1,1.8E1],"tree_param":{"num_deleted":"0","num_feature":"10","num_nodes":"83","size_leaf_vector":"1"}},{"base_weights":[-1.3609575E-4,-8.2550425E-5,-3.0944094E-3,-1.4447286E-4,6.278489E-4,-4.501896E-3,3.9887632E-4,3.2694028E-5,-6.612168E-4,4.0262623E-4,4.603375E-3,-1.9507814E-3,-9.409047E-3,1.9410119E-4,-3.8481364E-4,-3.533438E-3,-3.6033533E-5,5.6403165E-4,-1.6001877E-3,6.9716683E-4,-6.557544E-5,-3.7863594E-3,9.1736263E-4,-7.531095E-4,-3.5369853E-4,-6.476895E-4,2.7399653E-4,-2.0953547E-3,-1.64448E-4,-8.594706E-3,-2.111613E-3,2.9589599E-5,-3.1764296E-4,2.0007712E-4,1.2794067E-3,-1.4210817E-4,-9.82733E-6,-3.358808E-4,-1.3398666E-4,2.2116884E-4,-5.5498276E-5,-1.3596205E-4,-2.85146E-4,2.6569446E-4,2.5620995E-4,-9.712786E-4,-5.072719E-3,-2.1156456E-4,2.4126463E-4,-3.9631138E-3,-1.51392E-3,-1.2707552E-3,-6.4410837E-3,-2.877034E-5,1.8838068E-3,4.8353392E-4,-1.8796157E-3,4.0334056E-4,7.959166E-4,5.1803992E-5,-4.060878E-5,1.5406777E-5,1.1807965E-4,-1.6168335E-4,-1.7959104E-5,-4.3943324E-4,-5.3274693E-5,-4.1236985E-6,-1.06382715E-4,-9.72323E-5,-5.470211E-4,-1.3128952E-4,3.0798794E-4,-8.260696E-4,-2.8933544E-5,-1.1022482E-5,4.6049598E-5,2.5680606E-4,-2.6032523E-5,1.2226363E-5,1.571767E-4,-1.8021988E-4,-2.4004275E-5,-1.6709643E-4,7.4412485E-5],"categories":[],"categories_nodes":[],"categories_segments":[],"categories_sizes":[],"default_left":[0,0,0,0,0,0,0,0,0,0,0,0,0,0,0,0,0,0,0,0,0,0,0,0,0,0,0,0,0,0,0,0,0,0,0,0,0,0,0,0,0,0,0,0,0,0,0,0,0,0,0,0,0,0,0,0,0,0,0,0,0,0,0,0,0,0,0,0,0,0,0,0,0,0,0,0,0,0,0,0,0,0,0,0,0],"id":16,"left_children":[1,3,5,7,9,11,-1,13,15,17,19,21,23,25,27,29,31,33,35,-1,-1,37,39,-1,-1,41,43,45,47,49,51,53,-1,55,57,-1,-1,-1,-1,-1,-1,59,-1,-1,61,63,65,67,-1,69,-1,71,73,75,77,79,81,-1,83,-1,-1,-1,-1,-1,-1,-1,-1,-1,-1,-1,-1,-1,-1,-1,-1,-1,-1,-1,-1,-1,-1,-1,-1,-1,-1],"loss_changes":[3.0292958E-4,8.283526E-5,4.6061762E-4,1.5849453E-4,1.3334872E-4,3.572061E-4,0E0,8.700615E-5,7.935565E-4,4.7452726E-5,2.7071562E-4,1.140322E-4,1.696148E-5,6.279202E-5,1.3535543E-4,5.50354E-4,1.1283052E-4,3.4632798E-5,8.1035E-6,0E0,0E0,1.8639592E-5,4.038693E-5,0E0,0E0,1.4945479E-4,5.5020086E-5,1.3229111E-4,5.768217E-5,1.0174017E-3,2.2116452E-4,3.901052E-5,0E0,5.3964133E-5,9.868952E-5,0E0,0E0,0E0,0E0,0E0,0E0,3.1423464E-5,0E0,0E0,3.2443306E-5,3.089264E-5,6.547212E-5,6.547982E-5,0E0,1.3637647E-4,0E0,2.294327E-4,3.504139E-4,3.433393E-5,5.049746E-5,4.4502063E-5,1.2702596E-5,0E0,4.677337E-5,0E0,0E0,0E0,0E0,0E0,0E0,0E0,0E0,0E0,0E0,0E0,0E0,0E0,0E0,0E0,0E0,0E0,0E0,0E0,0E0,0E0,0E0,0E0,0E0,0E0,0E0],"parents":[2147483647,0,0,1,1,2,2,3,3,4,4,5,5,7,7,8,8,9,9,10,10,11,11,12,12,13,13,14,14,15,15,16,16,17,17,18,18,21,21,22,22,25,25,26,26,27,27,28,28,29,29,30,30,31,31,33,33,34,34,41,41,44,44,45,45,46,46,47,47,49,49,51,51,52,52,53,53,54,54,55,55,56,56,58,58],"right_children":[2,4,6,8,10,12,-1,14,16,18,20,22,24,26,28,30,32,34,36,-1,-1,38,40,-1,-1,42,44,46,48,50,52,54,-1,56,58,-1,-1,-1,-1,-1,-1,60,-1,-1,62,64,66,68,-1,70,-1,72,74,76,78,80,82,-1,84,-1,-1,-1,-1,-1,-1,-1,-1,-1,-1,-1,-1,-1,-1,-1,-1,-1,-1,-1,-1,-1,-1,-1,-1,-1,-1],"split_conditions":[1.4255973E0,1.1934144E0,1.1096538E0,5.9035933E-1,1.1657212E0,6.7459315E-1,3.9887632E-4,5.547225E-1,8.873113E-1,1.3743074E0,1.2504596E0,3.566066E-1,1.0020267E0,-1.633229E0,6.581958E-1,-3.2168865E-2,1.355066E0,1.7244698E-1,1.6789582E-1,6.9716683E-4,-6.557544E-5,1.0917408E0,1.0987775E0,-7.531095E-4,-3.5369853E-4,1.0401744E0,-1.5966359E0,6.32057E-1,1.139869E0,8.051312E-1,8.755419E-1,2.0747852E0,-3.1764296E-4,-1.3193195E-2,1.9889374E-1,-1.4210817E-4,-9.82733E-6,-3.358808E-4,-1.3398666E-4,2.2116884E-4,-5.5498276E-5,-6.41071E-2,-2.85146E-4,2.6569446E-4,1.0767016E0,-1.0196584E0,-4.2456716E-2,9.9632293E-1,2.4126463E-4,-1.989461E-1,-1.51392E-3,8.5203254E-1,1.3402468E0,1.2474511E0,-1.6549201E-1,-1.989461E-1,1.2686063E0,4.0334056E-4,-1.6812053E-2,5.1803992E-5,-4.060878E-5,1.5406777E-5,1.1807965E-4,-1.6168335E-4,-1.7959104E-5,-4.3943324E-4,-5.3274693E-5,-4.1236985E-6,-1.06382715E-4,-9.72323E-5,-5.470211E-4,-1.3128952E-4,3.0798794E-4,-8.260696E-4,-2.8933544E-5,-1.1022482E-5,4.6049598E-5,2.5680606E-4,-2.6032523E-5,1.2226363E-5,1.571767E-4,-1.8021988E-4,-2.4004275E-5,-1.6709643E-4,7.4412485E-5],"split_indices":[3,3,2,4,2,2,0,2,4,0,2,2,2,2,2,2,6,2,2,0,0,0,0,0,0,0,2,2,0,4,4,2,0,2,2,0,0,0,0,0,0,0,0,0,3,3,0,0,0,2,0,4,2,6,0,2,0,0,0,0,0,0,0,0,0,0,0,0,0,0,0,0,0,0,0,0,0,0,0,0,0,0,0,0,0],"split_type":[0,0,0,0,0,0,0,0,0,0,0,0,0,0,0,0,0,0,0,0,0,0,0,0,0,0,0,0,0,0,0,0,0,0,0,0,0,0,0,0,0,0,0,0,0,0,0,0,0,0,0,0,0,0,0,0,0,0,0,0,0,0,0,0,0,0,0,0,0,0,0,0,0,0,0,0,0,0,0,0,0,0,0,0,0],"sum_hessian":[1.913E3,1.88E3,3.3E1,1.73E3,1.5E2,2.9E1,4E0,1.289E3,4.41E2,1.43E2,7E0,2E1,9E0,9.3E2,3.59E2,7.8E1,3.63E2,1.33E2,1E1,3E0,4E0,1.2E1,8E0,5E0,4E0,8E1,8.5E2,4E1,3.19E2,1.6E1,6.2E1,3.59E2,4E0,8.9E1,4.4E1,7E0,3E0,6E0,6E0,3E0,5E0,7.1E1,9E0,3E0,8.47E2,3E1,1E1,3.16E2,3E0,1.3E1,3E0,5.3E1,9E0,3.49E2,1E1,7.9E1,1E1,3E0,4.1E1,2.4E1,4.7E1,8.34E2,1.3E1,9E0,2.1E1,7E0,3E0,2.86E2,3E1,9E0,4E0,4.8E1,5E0,4E0,5E0,2.94E2,5.5E1,5E0,5E0,6.9E1,1E1,6E0,4E0,3E0,3.8E1],"tree_param":{"num_deleted":"0","num_feature":"10","num_nodes":"85","size_leaf_vector":"1"}},{"base_weights":[1.0869448E-5,-2.683154E-3,3.6878864E-5,-5.1933614E-4,5.0901447E-4,-5.989652E-4,1.316647E-4,4.089835E-3,-5.128512E-4,-2.5572062E-3,4.0211997E-4,-7.4378724E-5,6.9278374E-4,-1.8951909E-5,4.225604E-4,-1.9631301E-5,-4.446472E-3,1.7484365E-4,3.2903304E-4,3.068663E-4,-3.767324E-4,2.7342504E-3,1.3886171E-4,-1.6252691E-3,2.3366127E-3,-1.2866281E-3,-2.6211368E-3,1.2218117E-4,1.1332299E-3,2.6834002E-3,2.2222096E-4,-3.03351E-4,-2.5010118E-3,9.9152596E-5,3.5986518E-3,-1.5184478E-3,2.033381E-4,-2.288997E-3,-4.122179E-4,4.77064E-3,-1.1266525E-3,-1.3347316E-3,-5.4870923E-3,3.607727E-4,-1.2404539E-3,2.0357451E-4,7.510845E-4,9.4265805E-4,5.706673E-4,-3.2184462E-3,2.97622E-4,-3.4894168E-4,1.9293794E-3,-6.441009E-3,-6.209497E-4,3.4990514E-4,-1.904218E-3,6.091987E-3,2.479478E-3,-3.4824878E-3,1.5505734E-4,3.7034377E-4,-3.4524893E-4,-9.782739E-5,-2.663045E-4,1.1666935E-5,-7.947555E-5,1.347263E-4,4.3906944E-4,-1.0516457E-5,-1.2122916E-4,-1.5059717E-4,1.06191415E-4,-5.338503E-4,-8.2605664E-5,5.6133846E-5,8.633292E-6,2.8395862E-5,-1.1445607E-4,-1.4498435E-4,7.940768E-5,2.4408597E-4,-8.486354E-5,3.100412E-6,-3.9737235E-4,5.005362E-5,8.1005455E-6,-1.5238517E-5,-8.9853405E-5,1.8757188E-5,3.0143332E-4,-9.308921E-5,-6.6009315E-4,6.166502E-5,-1.8293182E-4,-2.5197442E-4,6.0174058E-5,2.4236152E-4,8.8565703E-4,1.0415703E-4,4.7565205E-4,-8.0541155E-5,-4.0276494E-4,1.7395294E-5,1.7215812E-4,-6.847074E-4,2.1947384E-5],"categories":[],"categories_nodes":[],"categories_segments":[],"categories_sizes":[],"default_left":[0,0,0,0,0,0,0,0,0,0,0,0,0,0,0,0,0,0,0,0,0,0,0,0,0,0,0,0,0,0,0,0,0,0,0,0,0,0,0,0,0,0,0,0,0,0,0,0,0,0,0,0,0,0,0,0,0,0,0,0,0,0,0,0,0,0,0,0,0,0,0,0,0,0,0,0,0,0,0,0,0,0,0,0,0,0,0,0,0,0,0,0,0,0,0,0,0,0,0,0,0,0,0,0,0,0,0],"id":17,"left_children":[1,3,5,-1,7,9,11,13,-1,15,17,19,21,-1,-1,23,25,-1,27,29,31,33,35,37,39,-1,41,43,45,47,49,51,53,55,57,59,61,63,65,67,69,71,73,75,77,-1,79,81,-1,83,85,87,89,91,93,-1,95,97,99,101,-1,103,105,-1,-1,-1,-1,-1,-1,-1,-1,-1,-1,-1,-1,-1,-1,-1,-1,-1,-1,-1,-1,-1,-1,-1,-1,-1,-1,-1,-1,-1,-1,-1,-1,-1,-1,-1,-1,-1,-1,-1,-1,-1,-1,-1,-1],"loss_changes":[1.3190057E-4,2.9636407E-4,1.1242029E-4,0E0,3.8305938E-4,4.7543691E-4,1.8769447E-4,8.9726425E-5,0E0,3.9303326E-4,2.5197134E-5,1.3705737E-4,4.92655E-4,0E0,0E0,1.399955E-4,1.2199697E-3,0E0,2.597843E-5,1.05215186E-4,1.0259152E-4,2.1147699E-4,3.706768E-5,1.6769427E-5,1.3182007E-4,0E0,1.5120773E-4,4.1411782E-5,2.1109674E-5,1.7546676E-4,1.3300768E-4,6.602355E-5,1.5896413E-4,2.5698033E-4,1.8022826E-4,1.0609951E-4,3.0544754E-5,1.3757555E-5,4.3122245E-6,3.1379066E-5,4.37978E-6,8.688489E-5,1.2840069E-4,1.1878581E-5,1.5677275E-5,0E0,3.8341972E-5,9.459205E-5,0E0,9.8263146E-5,3.9646464E-5,7.5530814E-5,5.4067026E-5,1.0770696E-4,5.48111E-5,0E0,9.763781E-5,3.2267184E-4,2.0245925E-4,4.4894812E-5,0E0,6.121812E-5,5.2369124E-4,0E0,0E0,0E0,0E0,0E0,0E0,0E0,0E0,0E0,0E0,0E0,0E0,0E0,0E0,0E0,0E0,0E0,0E0,0E0,0E0,0E0,0E0,0E0,0E0,0E0,0E0,0E0,0E0,0E0,0E0,0E0,0E0,0E0,0E0,0E0,0E0,0E0,0E0,0E0,0E0,0E0,0E0,0E0,0E0],"parents":[2147483647,0,0,1,1,2,2,4,4,5,5,6,6,7,7,9,9,10,10,11,11,12,12,15,15,16,16,18,18,19,19,20,20,21,21,22,22,23,23,24,24,26,26,27,27,28,28,29,29,30,30,31,31,32,32,33,33,34,34,35,35,36,36,37,37,38,38,39,39,40,40,41,41,42,42,43,43,44,44,46,46,47,47,49,49,50,50,51,51,52,52,53,53,54,54,56,56,57,57,58,58,59,59,61,61,62,62],"right_children":[2,4,6,-1,8,10,12,14,-1,16,18,20,22,-1,-1,24,26,-1,28,30,32,34,36,38,40,-1,42,44,46,48,50,52,54,56,58,60,62,64,66,68,70,72,74,76,78,-1,80,82,-1,84,86,88,90,92,94,-1,96,98,100,102,-1,104,106,-1,-1,-1,-1,-1,-1,-1,-1,-1,-1,-1,-1,-1,-1,-1,-1,-1,-1,-1,-1,-1,-1,-1,-1,-1,-1,-1,-1,-1,-1,-1,-1,-1,-1,-1,-1,-1,-1,-1,-1,-1,-1,-1,-1],"split_conditions":[-2.077875E0,3.8497683E-1,-1.1077403E0,-5.1933614E-4,-2.0810091E0,5.163606E-1,8.147764E-1,9.926968E-1,-5.128512E-4,-1.5235456E0,-1.7030994E0,8.997115E-2,-1.1221324E0,-1.8951909E-5,4.225604E-4,-1.709291E0,-1.4859602E0,1.7484365E-4,1.0024035E0,-2.0368915E0,1.0133715E0,-6.183255E-1,-1.1024314E0,-1.1554362E0,-1.1554362E0,-1.2866281E-3,1.1190538E0,8.949106E-1,1.0135959E0,2.9304352E-2,-2.0241916E0,9.2929995E-1,-1.977798E0,-9.279023E-1,-6.581016E-2,-2.240128E-2,6.960963E-1,9.677697E-1,-2.533262E-1,-1.9470968E0,-5.461067E-1,9.7829056E-1,-1.139723E0,-3.6930048E-1,-1.7839469E0,2.0357451E-4,-8.457065E-1,-4.2691186E-1,5.706673E-4,-3.005772E-1,3.5166386E-1,7.2785395E-1,8.289406E-1,2.5438592E-1,-1.9535805E0,3.4990514E-4,-1.163238E0,-1.4676544E-1,9.5550334E-1,1.1473476E0,1.5505734E-4,6.156182E-1,7.0772064E-1,-9.782739E-5,-2.663045E-4,1.1666935E-5,-7.947555E-5,1.347263E-4,4.3906944E-4,-1.0516457E-5,-1.2122916E-4,-1.5059717E-4,1.06191415E-4,-5.338503E-4,-8.2605664E-5,5.6133846E-5,8.633292E-6,2.8395862E-5,-1.1445607E-4,-1.4498435E-4,7.940768E-5,2.4408597E-4,-8.486354E-5,3.100412E-6,-3.9737235E-4,5.005362E-5,8.1005455E-6,-1.5238517E-5,-8.9853405E-5,1.8757188E-5,3.0143332E-4,-9.308921E-5,-6.6009315E-4,6.166502E-5,-1.8293182E-4,-2.5197442E-4,6.0174058E-5,2.4236152E-4,8.8565703E-4,1.0415703E-4,4.7565205E-4,-8.0541155E-5,-4.0276494E-4,1.7395294E-5,1.7215812E-4,-6.847074E-4,2.1947384E-5],"split_indices":[1,2,2,0,1,1,9,2,0,2,3,2,1,0,0,2,2,0,1,1,3,2,1,1,1,0,3,1,1,2,1,3,1,2,2,2,2,3,1,1,1,3,2,5,2,0,3,2,0,2,1,3,2,2,1,0,1,2,2,3,0,2,2,0,0,0,0,0,0,0,0,0,0,0,0,0,0,0,0,0,0,0,0,0,0,0,0,0,0,0,0,0,0,0,0,0,0,0,0,0,0,0,0,0,0,0,0],"split_type":[0,0,0,0,0,0,0,0,0,0,0,0,0,0,0,0,0,0,0,0,0,0,0,0,0,0,0,0,0,0,0,0,0,0,0,0,0,0,0,0,0,0,0,0,0,0,0,0,0,0,0,0,0,0,0,0,0,0,0,0,0,0,0,0,0,0,0,0,0,0,0,0,0,0,0,0,0,0,0,0,0,0,0,0,0,0,0,0,0,0,0,0,0,0,0,0,0,0,0,0,0,0,0,0,0,0,0],"sum_hessian":[1.88E3,1.7E1,1.863E3,6E0,1.1E1,2.41E2,1.622E3,8E0,3E0,8.1E1,1.6E2,1.187E3,4.35E2,3E0,5E0,3.5E1,4.6E1,4E0,1.56E2,5.25E2,6.62E2,9.2E1,3.43E2,2.1E1,1.4E1,4E0,4.2E1,1.25E2,3.1E1,1.7E1,5.08E2,6.41E2,2.1E1,2.3E1,6.9E1,1.2E1,3.31E2,1.3E1,8E0,8E0,6E0,3E1,1.2E1,1.07E2,1.8E1,4E0,2.7E1,1.4E1,3E0,1E1,4.98E2,6.29E2,1.2E1,6E0,1.5E1,6E0,1.7E1,2E1,4.9E1,8E0,4E0,2.54E2,7.7E1,1E1,3E0,5E0,3E0,4E0,4E0,3E0,3E0,2.3E1,7E0,7E0,5E0,3.4E1,7.3E1,4E0,1.4E1,3E0,2.4E1,6E0,8E0,5E0,5E0,1.39E2,3.59E2,5.62E2,6.7E1,8E0,4E0,3E0,3E0,9E0,6E0,1E1,7E0,1.6E1,4E0,4.2E1,7E0,5E0,3E0,2.43E2,1.1E1,4E0,7.3E1],"tree_param":{"num_deleted":"0","num_feature":"10","num_nodes":"107","size_leaf_vector":"1"}},{"base_weights":[-1.8673063E-5,5.878381E-4,-5.124601E-5,-5.849922E-3,-2.0456617E-5,-1.0739082E-4,-6.529177E-4,9.5972774E-4,-1.458986E-4,5.178208E-4,5.2203336E-3,-1.287534E-3,-2.6740643E-5,2.0883775E-3,3.273131E-5,2.7714316E-3,9.5707225E-4,-3.736345E-3,-7.991384E-4,-6.514419E-5,1.1235601E-3,4.8904764E-3,7.0963165E-4,1.0536609E-3,-6.4076873E-4,4.3888814E-3,-1.1105104E-5,-2.4563257E-4,-7.7883736E-3,2.3846445E-3,-9.683301E-4,-8.8856387E-4,-2.1386511E-5,4.1050467E-4,5.408304E-4,1.17476004E-4,4.53268E-4,-1.3448074E-4,1.7895258E-4,-1.9215087E-5,1.8065433E-4,-8.099129E-5,5.0672104E-5,1.4790602E-4,3.8974872E-4,-9.04812E-5,2.0989397E-4,-1.0901425E-3,-2.0938716E-4,2.5347417E-5,2.535021E-4,-1.5163537E-4,-4.191076E-5,-3.440212E-6,-2.988449E-4,6.342159E-5,-4.59737E-6,-5.0601466E-5,1.2912112E-4],"categories":[],"categories_nodes":[],"categories_segments":[],"categories_sizes":[],"default_left":[0,0,0,0,0,0,0,0,0,0,0,0,0,0,0,0,0,0,0,0,0,0,0,0,0,0,0,0,0,0,0,0,0,0,0,0,0,0,0,0,0,0,0,0,0,0,0,0,0,0,0,0,0,0,0,0,0,0,0],"id":18,"left_children":[1,-1,3,5,7,-1,-1,9,11,13,15,17,19,21,23,25,-1,27,29,31,33,35,37,39,41,43,-1,45,47,49,51,53,55,-1,57,-1,-1,-1,-1,-1,-1,-1,-1,-1,-1,-1,-1,-1,-1,-1,-1,-1,-1,-1,-1,-1,-1,-1,-1],"loss_changes":[5.460593E-4,0E0,3.3803078E-4,1.5066878E-4,2.3191258E-4,0E0,0E0,4.0021416E-4,2.2741599E-4,1.4849445E-4,4.0613936E-4,1.8598035E-4,6.699927E-5,1.7424516E-4,1.03814564E-4,8.150423E-5,0E0,3.6584307E-4,7.395218E-5,5.283837E-5,1.400132E-4,7.7014294E-5,1.7686593E-4,1.3355268E-4,7.365717E-5,2.1640953E-5,0E0,6.056581E-5,4.2512722E-4,1.8341267E-5,5.4936645E-5,2.2176452E-4,6.421424E-5,0E0,8.274959E-5,0E0,0E0,0E0,0E0,0E0,0E0,0E0,0E0,0E0,0E0,0E0,0E0,0E0,0E0,0E0,0E0,0E0,0E0,0E0,0E0,0E0,0E0,0E0,0E0],"parents":[2147483647,0,0,2,2,3,3,4,4,7,7,8,8,9,9,10,10,11,11,12,12,13,13,14,14,15,15,17,17,18,18,19,19,20,20,21,21,22,22,23,23,24,24,25,25,27,27,28,28,29,29,30,30,31,31,32,32,34,34],"right_children":[2,-1,4,6,8,-1,-1,10,12,14,16,18,20,22,24,26,-1,28,30,32,34,36,38,40,42,44,-1,46,48,50,52,54,56,-1,58,-1,-1,-1,-1,-1,-1,-1,-1,-1,-1,-1,-1,-1,-1,-1,-1,-1,-1,-1,-1,-1,-1,-1,-1],"split_conditions":[-2.0810091E0,5.878381E-4,-2.077875E0,-6.581016E-2,-1.2251878E0,-1.0739082E-4,-6.529177E-4,1.1756884E0,-1.1103216E0,7.347599E-1,1.0896741E0,-1.139723E0,1.9896048E0,1.6789582E-1,-1.3745533E-1,-3.2096526E-1,9.5707225E-4,-1.673202E0,-1.0385466E0,-1.5933728E0,-1.3149103E0,-3.2168865E-2,-2.065312E0,-5.1193863E-1,8.7497747E-1,-1.120479E0,-1.1105104E-5,-1.7381867E0,-1.4859602E0,-1.1710271E0,-7.230891E-1,-1.6229734E0,-1.1495343E0,4.1050467E-4,-6.307048E-1,1.17476004E-4,4.53268E-4,-1.3448074E-4,1.7895258E-4,-1.9215087E-5,1.8065433E-4,-8.099129E-5,5.0672104E-5,1.4790602E-4,3.8974872E-4,-9.04812E-5,2.0989397E-4,-1.0901425E-3,-2.0938716E-4,2.5347417E-5,2.535021E-4,-1.5163537E-4,-4.191076E-5,-3.440212E-6,-2.988449E-4,6.342159E-5,-4.59737E-6,-5.0601466E-5,1.2912112E-4],"split_indices":[1,0,1,2,1,0,0,3,1,3,2,2,2,2,2,2,0,2,2,7,3,2,1,2,2,2,0,2,2,1,2,7,7,0,3,0,0,0,0,0,0,0,0,0,0,0,0,0,0,0,0,0,0,0,0,0,0,0,0],"split_type":[0,0,0,0,0,0,0,0,0,0,0,0,0,0,0,0,0,0,0,0,0,0,0,0,0,0,0,0,0,0,0,0,0,0,0,0,0,0,0,0,0,0,0,0,0,0,0,0,0,0,0,0,0,0,0,0,0,0,0],"sum_hessian":[1.899E3,6E0,1.893E3,9E0,1.884E3,5E0,4E0,2.13E2,1.671E3,1.94E2,1.9E1,1.57E2,1.514E3,4.5E1,1.49E2,1.6E1,3E0,2.5E1,1.32E2,1.466E3,4.8E1,1.4E1,3.1E1,5.9E1,9E1,1E1,6E0,1.4E1,1.1E1,6E0,1.26E2,7.3E1,1.393E3,4E0,4.4E1,6E0,8E0,1.3E1,1.8E1,3.3E1,2.6E1,6.4E1,2.6E1,5E0,5E0,1.1E1,3E0,3E0,8E0,3E0,3E0,2.5E1,1.01E2,6E1,1.3E1,6.4E1,1.329E3,2.3E1,2.1E1],"tree_param":{"num_deleted":"0","num_feature":"10","num_nodes":"59","size_leaf_vector":"1"}},{"base_weights":[3.845349E-5,4.6011194E-4,8.806469E-6,-3.2371965E-3,6.4121086E-5,-8.707939E-4,-1.7223413E-3,2.0266317E-3,3.342107E-5,-4.6587188E-4,-2.7797685E-4,5.6215147E-3,-6.301462E-4,-4.8766297E-4,6.213744E-5,3.8102057E-4,-1.4601075E-3,1.5138248E-3,8.9929637E-4,-7.340492E-4,3.4011272E-3,-8.511008E-6,5.003061E-4,-3.4917498E-3,9.2070963E-4,-1.807702E-4,2.722447E-4,3.607699E-4,1.13793085E-5,9.077771E-5,-1.773809E-3,4.271467E-3,2.39195E-4,-4.6870067E-5,-5.4788886E-4,1.5138547E-4,-1.1111943E-4,-1.16859635E-4,8.291886E-6,-3.5981354E-4,-7.607607E-5,5.47647E-4,7.332E-5,-2.8796825E-5,4.0953262E-5],"categories":[],"categories_nodes":[],"categories_segments":[],"categories_sizes":[],"default_left":[0,0,0,0,0,0,0,0,0,0,0,0,0,0,0,0,0,0,0,0,0,0,0,0,0,0,0,0,0,0,0,0,0,0,0,0,0,0,0,0,0,0,0,0,0],"id":19,"left_children":[1,-1,3,5,7,-1,9,11,13,-1,15,17,19,-1,21,-1,23,25,-1,-1,27,29,31,33,35,-1,-1,-1,-1,37,39,41,43,-1,-1,-1,-1,-1,-1,-1,-1,-1,-1,-1,-1],"loss_changes":[3.767145E-4,0E0,3.3219813E-4,4.3751815E-4,1.0952539E-4,0E0,2.1037029E-4,2.7096493E-4,3.7773317E-4,0E0,1.7092006E-4,3.6592616E-4,7.4702734E-4,0E0,5.5291566E-5,0E0,9.9954246E-5,1.0824878E-4,0E0,0E0,8.299734E-5,2.6990796E-4,2.4318192E-4,1.38744E-4,3.851409E-5,0E0,0E0,0E0,0E0,8.957364E-5,1.8197965E-4,1.9031367E-4,5.861461E-5,0E0,0E0,0E0,0E0,0E0,0E0,0E0,0E0,0E0,0E0,0E0,0E0],"parents":[2147483647,0,0,2,2,3,3,4,4,6,6,7,7,8,8,10,10,11,11,12,12,14,14,16,16,17,17,20,20,21,21,22,22,23,23,24,24,29,29,30,30,31,31,32,32],"right_children":[2,-1,4,6,8,-1,10,12,14,-1,16,18,20,-1,22,-1,24,26,-1,-1,28,30,32,34,36,-1,-1,-1,-1,38,40,42,44,-1,-1,-1,-1,-1,-1,-1,-1,-1,-1,-1,-1],"split_conditions":[-2.0810091E0,4.6011194E-4,-2.065312E0,7.934302E-1,-2.052707E0,-8.707939E-4,-1.3745533E-1,7.638465E-1,-2.0463886E0,-4.6587188E-4,3.5593244E-3,2.8221545E-1,1.032856E0,-4.8766297E-4,1.0228703E0,3.8102057E-4,7.325483E-1,2.9304352E-2,8.9929637E-4,-7.340492E-4,8.873113E-1,8.289406E-1,-1.2328736E0,5.421426E-1,9.2908645E-1,-1.807702E-4,2.722447E-4,3.607699E-4,1.13793085E-5,-2.0241916E0,-1.1981864E0,1.1766998E0,-7.0334584E-1,-4.6870067E-5,-5.4788886E-4,1.5138547E-4,-1.1111943E-4,-1.16859635E-4,8.291886E-6,-3.5981354E-4,-7.607607E-5,5.47647E-4,7.332E-5,-2.8796825E-5,4.0953262E-5],"split_indices":[1,0,1,4,1,0,2,2,1,0,2,2,2,0,2,0,2,2,0,0,4,2,1,2,2,0,0,0,0,1,1,2,4,0,0,0,0,0,0,0,0,0,0,0,0],"split_type":[0,0,0,0,0,0,0,0,0,0,0,0,0,0,0,0,0,0,0,0,0,0,0,0,0,0,0,0,0,0,0,0,0,0,0,0,0,0,0,0,0,0,0,0,0],"sum_hessian":[1.855E3,7E0,1.848E3,3E1,1.818E3,3E0,2.7E1,2.7E1,1.791E3,5E0,2.2E1,1.1E1,1.6E1,6E0,1.785E3,3E0,1.9E1,8E0,3E0,4E0,1.2E1,1.538E3,2.47E2,1E1,9E0,3E0,5E0,7E0,5E0,1.457E3,8.1E1,1.5E1,2.32E2,7E0,3E0,6E0,3E0,2.5E1,1.432E3,1.1E1,7E1,6E0,9E0,8.3E1,1.49E2],"tree_param":{"num_deleted":"0","num_feature":"10","num_nodes":"45","size_leaf_vector":"1"}},{"base_weights":[1.3978776E-4,1.6754122E-4,-3.036313E-3,6.1452616E-4,-8.003932E-5,-6.5389764E-3,-2.8081727E-4,-1.3988515E-3,7.699215E-4,3.9596394E-5,-5.670036E-4,-1.496134E-4,-6.150248E-4,7.465041E-5,-1.2710906E-4,-2.8768263E-3,6.134176E-4,3.6250048E-3,6.406076E-4,7.2471926E-4,-3.5146888E-5,-2.2335025E-3,-1.9757973E-4,-9.1569364E-4,-1.6925994E-3,7.2435318E-3,1.2832237E-3,-2.2355337E-3,7.20922E-4,5.5057154E-4,2.1102502E-4,8.048387E-4,-8.512724E-5,-5.3867777E-3,-1.3331207E-3,2.8103864E-4,-7.492664E-4,-4.455581E-3,2.145117E-3,2.4712316E-4,6.007553E-4,-1.6099066E-4,2.604719E-3,2.4109744E-4,-3.8616257E-3,4.0255412E-3,6.6623173E-4,-2.6855143E-4,9.175366E-4,1.9554738E-3,5.2582484E-4,-9.501674E-4,-1.5634047E-6,-1.8928897E-5,-6.2897376E-4,-2.0149476E-3,1.1346848E-3,7.016315E-4,-6.740776E-4,-3.993928E-3,7.2305455E-5,-5.787949E-4,-3.699135E-5,3.484226E-4,-1.309365E-4,1.7524906E-5,2.4166662E-4,-1.05016115E-4,-3.7419147E-4,-1.2074436E-4,4.8397784E-4,4.7315374E-5,-2.2028048E-4,4.0596933E-5,-9.9383244E-5,1.6323653E-4,1.8219429E-5,2.2028547E-4,1.4912038E-5,3.3581302E-6,7.008165E-5,-1.05716135E-5,-1.2410691E-4,-4.5043256E-5,4.9869436E-6,-4.3521373E-5,-2.0463226E-4,3.18315E-6,1.18765376E-4,2.4478191E-5,2.5143282E-4,-2.698039E-4,-1.2487237E-5,-1.2888628E-4,-4.6530293E-4,3.4947956E-5,-1.6535523E-4],"categories":[],"categories_nodes":[],"categories_segments":[],"categories_sizes":[],"default_left":[0,0,0,0,0,0,0,0,0,0,0,0,0,0,0,0,0,0,0,0,0,0,0,0,0,0,0,0,0,0,0,0,0,0,0,0,0,0,0,0,0,0,0,0,0,0,0,0,0,0,0,0,0,0,0,0,0,0,0,0,0,0,0,0,0,0,0,0,0,0,0,0,0,0,0,0,0,0,0,0,0,0,0,0,0,0,0,0,0,0,0,0,0,0,0,0,0],"id":20,"left_children":[1,3,5,7,9,11,13,15,17,19,21,-1,-1,-1,-1,23,-1,25,27,29,31,33,35,-1,37,39,41,43,45,47,-1,49,51,53,55,57,59,61,63,-1,-1,-1,65,-1,67,69,71,73,75,77,79,81,83,-1,-1,85,87,89,91,93,95,-1,-1,-1,-1,-1,-1,-1,-1,-1,-1,-1,-1,-1,-1,-1,-1,-1,-1,-1,-1,-1,-1,-1,-1,-1,-1,-1,-1,-1,-1,-1,-1,-1,-1,-1,-1],"loss_changes":[1.6278881E-4,2.0212303E-4,1.5258897E-4,2.0475514E-4,6.853423E-5,5.9612445E-5,2.479283E-5,7.612754E-4,2.2104502E-4,4.8417343E-5,1.4238822E-4,0E0,0E0,0E0,0E0,5.1531335E-4,0E0,2.110237E-4,1.3558913E-4,3.7671627E-5,3.5879817E-5,1.1206312E-4,5.064362E-5,0E0,4.2309577E-4,2.8687471E-5,8.922986E-5,1.6597114E-4,9.943082E-5,2.6698288E-5,0E0,1.4381836E-5,5.826109E-5,1.8226015E-4,5.949527E-5,4.1849602E-5,2.375381E-4,3.7270974E-4,2.2438407E-4,0E0,0E0,0E0,2.9867137E-5,0E0,4.29496E-5,1.8198072E-4,9.474854E-5,3.080124E-5,5.9338316E-5,2.0174826E-5,9.8958735E-6,5.071469E-5,3.7765905E-5,0E0,0E0,3.6571466E-5,5.5044993E-6,7.252421E-5,5.1686475E-5,9.695161E-5,8.394487E-5,0E0,0E0,0E0,0E0,0E0,0E0,0E0,0E0,0E0,0E0,0E0,0E0,0E0,0E0,0E0,0E0,0E0,0E0,0E0,0E0,0E0,0E0,0E0,0E0,0E0,0E0,0E0,0E0,0E0,0E0,0E0,0E0,0E0,0E0,0E0,0E0],"parents":[2147483647,0,0,1,1,2,2,3,3,4,4,5,5,6,6,7,7,8,8,9,9,10,10,15,15,17,17,18,18,19,19,20,20,21,21,22,22,24,24,25,25,26,26,27,27,28,28,29,29,31,31,32,32,33,33,34,34,35,35,36,36,37,37,38,38,42,42,44,44,45,45,46,46,47,47,48,48,49,49,50,50,51,51,52,52,55,55,56,56,57,57,58,58,59,59,60,60],"right_children":[2,4,6,8,10,12,14,16,18,20,22,-1,-1,-1,-1,24,-1,26,28,30,32,34,36,-1,38,40,42,44,46,48,-1,50,52,54,56,58,60,62,64,-1,-1,-1,66,-1,68,70,72,74,76,78,80,82,84,-1,-1,86,88,90,92,94,96,-1,-1,-1,-1,-1,-1,-1,-1,-1,-1,-1,-1,-1,-1,-1,-1,-1,-1,-1,-1,-1,-1,-1,-1,-1,-1,-1,-1,-1,-1,-1,-1,-1,-1,-1,-1],"split_conditions":[1.4544023E0,8.485545E-2,-9.089351E-1,-2.5089333E0,7.883593E-1,-1.3185737E0,-8.0815214E-1,9.926968E-1,-2.3169267E0,-1.5966359E0,8.939855E-1,-1.496134E-4,-6.150248E-4,7.465041E-5,-1.2710906E-4,-2.663894E-1,6.134176E-4,-2.0802698E-1,-1.7381867E0,-1.633229E0,-1.7729065E0,2.2454554E-1,-8.3284485E-1,-9.1569364E-4,1.2549259E-1,-2.4247344E0,1.0869812E-1,-1.0453414E0,-1.4859602E0,-7.909077E-3,2.1102502E-4,1.1187127E0,-1.3841878E0,8.289406E-1,-5.0340587E-1,9.725111E-1,-1.33253E0,-2.4345669E-1,6.658365E-1,2.4712316E-4,6.007553E-4,-1.6099066E-4,1.0943246E0,2.4109744E-4,1.0674696E0,1.0640527E0,1.3792918E0,-1.8780292E0,3.8526687E-1,2.7151632E-1,1.3374928E0,-1.734792E0,-1.2150257E0,-1.8928897E-5,-6.2897376E-4,-1.2312093E0,8.0722666E-1,7.331579E-1,1.00701E0,-1.3494285E0,7.331579E-1,-5.787949E-4,-3.699135E-5,3.484226E-4,-1.309365E-4,1.7524906E-5,2.4166662E-4,-1.05016115E-4,-3.7419147E-4,-1.2074436E-4,4.8397784E-4,4.7315374E-5,-2.2028048E-4,4.0596933E-5,-9.9383244E-5,1.6323653E-4,1.8219429E-5,2.2028547E-4,1.4912038E-5,3.3581302E-6,7.008165E-5,-1.05716135E-5,-1.2410691E-4,-4.5043256E-5,4.9869436E-6,-4.3521373E-5,-2.0463226E-4,3.18315E-6,1.18765376E-4,2.4478191E-5,2.5143282E-4,-2.698039E-4,-1.2487237E-5,-1.2888628E-4,-4.6530293E-4,3.4947956E-5,-1.6535523E-4],"split_indices":[3,8,8,8,2,8,8,2,8,2,2,0,0,0,0,0,0,2,2,2,0,8,9,0,2,8,2,8,2,0,0,8,3,2,3,8,0,0,2,0,0,0,3,0,0,0,9,2,0,2,8,0,9,0,0,9,2,8,8,0,8,0,0,0,0,0,0,0,0,0,0,0,0,0,0,0,0,0,0,0,0,0,0,0,0,0,0,0,0,0,0,0,0,0,0,0,0],"split_type":[0,0,0,0,0,0,0,0,0,0,0,0,0,0,0,0,0,0,0,0,0,0,0,0,0,0,0,0,0,0,0,0,0,0,0,0,0,0,0,0,0,0,0,0,0,0,0,0,0,0,0,0,0,0,0,0,0,0,0,0,0,0,0,0,0,0,0,0,0,0,0,0,0,0,0,0,0,0,0,0,0,0,0,0,0,0,0,0,0,0,0,0,0,0,0,0,0],"sum_hessian":[1.84E3,1.825E3,1.5E1,6.5E2,1.175E3,6E0,9E0,4.6E1,6.04E2,9.44E2,2.31E2,3E0,3E0,5E0,4E0,4.1E1,5E0,2.5E1,5.79E2,9.2E1,8.52E2,4.1E1,1.9E2,3E0,3.8E1,9E0,1.6E1,1.5E1,5.64E2,8.7E1,5E0,4.7E1,8.05E2,8E0,3.3E1,1.02E2,8.8E1,2.2E1,1.6E1,4E0,5E0,4E0,1.2E1,3E0,1.2E1,8E0,5.56E2,2.7E1,6E1,8E0,3.9E1,7E1,7.35E2,4E0,4E0,2.6E1,7E0,7.1E1,3.1E1,1.7E1,7.1E1,1E1,1.2E1,9E0,7E0,4E0,8E0,6E0,6E0,3E0,5E0,5.51E2,5E0,1.6E1,1.1E1,1.7E1,4.3E1,4E0,4E0,2.1E1,1.8E1,3.8E1,3.2E1,7.4E1,6.61E2,1.2E1,1.4E1,3E0,4E0,6.5E1,6E0,3E0,2.8E1,1.1E1,6E0,6.1E1,1E1],"tree_param":{"num_deleted":"0","num_feature":"10","num_nodes":"97","size_leaf_vector":"1"}},{"base_weights":[6.80117E-5,4.686655E-3,2.7659109E-5,1.8191653E-3,4.8957526E-4,-4.4430755E-3,5.4620396E-5,1.9699191E-4,5.1007715E-5,-5.539276E-4,9.633904E-6,1.0180856E-3,-7.824326E-5,1.8366301E-5,2.0639182E-3,-3.9367657E-4,-5.6367022E-5,3.4918373E-3,-8.979158E-4,1.2874459E-3,3.2534357E-3,1.3314444E-3,-9.468291E-5,1.8243586E-3,7.5995625E-4,-2.0030038E-4,