{"learner":{"attributes":{"scikit_learn":"{\"_estimator_type\": \"regressor\"}"},"feature_names":["EMA_window_12","cash","equity","operation_profit","post_tax_profit","capital","pre_tax_profit","invest_cost","ADX_window_10_1","book_value_per_share"],"feature_types":["float","float","float","float","float","float","float","float","float","float"],"gradient_booster":{"model":{"gbtree_model_param":{"num_parallel_tree":"1","num_trees":"100"},"iteration_indptr":[0,1,2,3,4,5,6,7,8,9,10,11,12,13,14,15,16,17,18,19,20,21,22,23,24,25,26,27,28,29,30,31,32,33,34,35,36,37,38,39,40,41,42,43,44,45,46,47,48,49,50,51,52,53,54,55,56,57,58,59,60,61,62,63,64,65,66,67,68,69,70,71,72,73,74,75,76,77,78,79,80,81,82,83,84,85,86,87,88,89,90,91,92,93,94,95,96,97,98,99,100],"tree_info":[0,0,0,0,0,0,0,0,0,0,0,0,0,0,0,0,0,0,0,0,0,0,0,0,0,0,0,0,0,0,0,0,0,0,0,0,0,0,0,0,0,0,0,0,0,0,0,0,0,0,0,0,0,0,0,0,0,0,0,0,0,0,0,0,0,0,0,0,0,0,0,0,0,0,0,0,0,0,0,0,0,0,0,0,0,0,0,0,0,0,0,0,0,0,0,0,0,0,0,0],"trees":[{"base_weights":[-2.4048199E-5,-7.810124E-4,2.3005926E-4,-6.5265154E-4,-5.753688E-4,1.217707E-4,1.3889357E-3,-4.8130576E-4,-4.3346244E-3,-8.193804E-5,1.0062665E-3,3.1115415E-3,4.8979616E-4,-2.3876138E-4,-1.334941E-3,-1.07920285E-4,-5.9083436E-4,1.5301345E-4,-9.708796E-4,2.5480213E-3,3.2501543E-4,1.7715377E-3,3.4850853E-4,9.603986E-4,-1.5914018E-4,-4.3441943E-4,1.0851483E-3,-4.605173E-4,-7.415145E-4,-3.6371304E-5,3.1180028E-4,2.6305968E-5,-2.0106852E-3,-2.7619173E-5,3.2578171E-3,-8.450735E-4,6.2065944E-4,2.0473487E-4,5.1209783E-5,1.7936984E-3,-5.7996984E-4,8.2514767E-4,-6.430771E-4,2.6472642E-3,-6.221186E-4,1.830195E-4,-1.0857064E-3,1.2542676E-4,-8.587301E-4,1.2900173E-3,1.9101409E-4,2.0543349E-3,-4.8518286E-4,-6.115924E-3,-4.3675327E-4,2.6329209E-3,4.5346958E-4,1.1944603E-4,-2.565354E-4,1.6929157E-3,3.538788E-4,4.046762E-4,3.6738973E-4,-8.070518E-5,-1.1167003E-4,-1.9003659E-4,1.9601686E-3,-8.577683E-4,1.0970255E-3,1.238258E-4,3.5641828E-4,-2.4057624E-4,8.0740705E-5,-2.493432E-4,-5.9005246E-4,1.0218467E-3,-7.735846E-5,-1.6661086E-4,-4.5206927E-4,1.9056248E-4,8.1458007E-4,-1.1374269E-3,2.5916577E-4,3.2138117E-4,3.995556E-5,-2.095816E-3,1.5722073E-4,-9.496672E-4,-2.369981E-3,7.8371464E-4,-1.4750694E-3,3.713395E-3,6.774058E-4,-4.8877395E-5,8.27921E-5,2.6419864E-4,9.071241E-4,4.286276E-4,-3.389631E-5,1.5656826E-4,-4.2216378E-4,-7.02628E-5,5.8020043E-5,1.2571218E-5,-5.438198E-5,7.790234E-5,2.3360596E-4,-5.7039142E-5,-3.6016924E-4,2.6139172E-4,-3.2932348E-6,-1.0057785E-4,-1.3353992E-6,3.4376717E-5,1.5750583E-4,-1.5748597E-5,1.7777566E-4,4.6324352E-5,-5.2313822E-5,3.539338E-5,1.5751018E-4,-1.468058E-4,-4.593939E-5,2.2695452E-4,1.5528689E-5,-7.9763566E-5,-2.4861374E-4,1.1753057E-4,-1.7039658E-5,3.3562734E-5,-3.384792E-4,-9.714611E-5,1.242633E-4,-2.3055208E-4,-5.2775868E-5,5.004695E-4,5.4373562E-5,-2.748403E-5,1.5242044E-4,-6.781848E-5,1.6986782E-4,6.1045293E-6,5.68813E-5,-9.179514E-6,-5.55151E-5],"categories":[],"categories_nodes":[],"categories_segments":[],"categories_sizes":[],"default_left":[0,0,0,0,0,0,0,0,0,0,0,0,0,0,0,0,0,0,0,0,0,0,0,0,0,0,0,0,0,0,0,0,0,0,0,0,0,0,0,0,0,0,0,0,0,0,0,0,0,0,0,0,0,0,0,0,0,0,0,0,0,0,0,0,0,0,0,0,0,0,0,0,0,0,0,0,0,0,0,0,0,0,0,0,0,0,0,0,0,0,0,0,0,0,0,0,0,0,0,0,0,0,0,0,0,0,0,0,0,0,0,0,0,0,0,0,0,0,0,0,0,0,0,0,0,0,0,0,0,0,0,0,0,0,0,0,0,0,0,0,0,0,0,0,0],"id":0,"left_children":[1,3,5,7,-1,9,11,13,15,17,19,21,23,25,27,-1,-1,29,31,33,35,37,-1,39,-1,41,43,-1,45,47,49,51,53,-1,55,57,59,-1,-1,61,63,65,67,69,71,-1,73,75,77,79,81,83,85,87,89,91,-1,93,-1,95,97,99,-1,101,-1,103,105,107,109,-1,-1,-1,-1,-1,111,113,115,-1,117,-1,119,121,123,-1,-1,125,127,-1,129,131,133,135,137,-1,-1,-1,139,141,-1,-1,143,-1,-1,-1,-1,-1,-1,-1,-1,-1,-1,-1,-1,-1,-1,-1,-1,-1,-1,-1,-1,-1,-1,-1,-1,-1,-1,-1,-1,-1,-1,-1,-1,-1,-1,-1,-1,-1,-1,-1,-1,-1,-1,-1,-1],"loss_changes":[4.7528482E-4,5.102085E-4,2.3199304E-4,3.8275684E-4,0E0,3.051264E-4,2.4319635E-4,1.2059524E-4,2.3910718E-4,2.8774625E-4,3.3212398E-4,8.4445346E-5,1.2508866E-4,1.1859073E-4,3.37171E-4,0E0,0E0,3.2789612E-5,2.9867413E-4,2.004953E-4,7.6974975E-5,2.374436E-5,0E0,1.1527969E-4,0E0,1.0513228E-4,1.5899687E-4,0E0,1.2301982E-4,6.636963E-5,6.981957E-5,1.545192E-4,9.083816E-4,0E0,1.0434503E-4,1.03832805E-4,5.0033042E-5,0E0,0E0,2.261112E-4,1.3073278E-5,6.6051056E-5,1.2870698E-4,5.5062555E-5,1.1735851E-4,0E0,1.0393755E-4,7.58816E-5,4.0336196E-5,3.2293203E-5,4.8188056E-5,9.060028E-5,1.2345599E-4,8.241952E-4,1.3168089E-4,1.3270904E-4,0E0,2.3002347E-5,0E0,4.1868E-5,8.525236E-6,5.261564E-5,0E0,1.4328761E-5,0E0,5.4450934E-6,2.303555E-5,1.5359599E-4,9.499035E-5,0E0,0E0,0E0,0E0,0E0,3.2903154E-5,4.271319E-5,9.581799E-5,0E0,1.3835875E-5,0E0,1.937661E-5,9.257801E-6,8.2870305E-5,0E0,0E0,3.521092E-5,4.2568587E-5,0E0,1.3371988E-4,7.7039E-5,6.284555E-5,3.167239E-4,3.1135816E-5,0E0,0E0,0E0,5.599147E-5,1.3181689E-5,0E0,0E0,2.2084027E-6,0E0,0E0,0E0,0E0,0E0,0E0,0E0,0E0,0E0,0E0,0E0,0E0,0E0,0E0,0E0,0E0,0E0,0E0,0E0,0E0,0E0,0E0,0E0,0E0,0E0,0E0,0E0,0E0,0E0,0E0,0E0,0E0,0E0,0E0,0E0,0E0,0E0,0E0,0E0,0E0,0E0,0E0,0E0,0E0],"parents":[2147483647,0,0,1,1,2,2,3,3,5,5,6,6,7,7,8,8,9,9,10,10,11,11,12,12,13,13,14,14,17,17,18,18,19,19,20,20,21,21,23,23,25,25,26,26,28,28,29,29,30,30,31,31,32,32,34,34,35,35,36,36,39,39,40,40,41,41,42,42,43,43,44,44,46,46,47,47,48,48,49,49,50,50,51,51,52,52,53,53,54,54,55,55,57,57,59,59,60,60,61,61,63,63,65,65,66,66,67,67,68,68,74,74,75,75,76,76,78,78,80,80,81,81,82,82,85,85,86,86,88,88,89,89,90,90,91,91,92,92,96,96,97,97,100,100],"right_children":[2,4,6,8,-1,10,12,14,16,18,20,22,24,26,28,-1,-1,30,32,34,36,38,-1,40,-1,42,44,-1,46,48,50,52,54,-1,56,58,60,-1,-1,62,64,66,68,70,72,-1,74,76,78,80,82,84,86,88,90,92,-1,94,-1,96,98,100,-1,102,-1,104,106,108,110,-1,-1,-1,-1,-1,112,114,116,-1,118,-1,120,122,124,-1,-1,126,128,-1,130,132,134,136,138,-1,-1,-1,140,142,-1,-1,144,-1,-1,-1,-1,-1,-1,-1,-1,-1,-1,-1,-1,-1,-1,-1,-1,-1,-1,-1,-1,-1,-1,-1,-1,-1,-1,-1,-1,-1,-1,-1,-1,-1,-1,-1,-1,-1,-1,-1,-1,-1,-1,-1,-1],"split_conditions":[-7.7218986E-1,1.7837063E0,1.4224781E0,-8.0905795E-1,-5.753688E-4,1.0159324E0,1.1415843E0,9.9447817E-1,-8.837677E-3,2.4722332E-1,3.483856E-1,8.3159715E-1,1.7739284E0,9.16998E-1,5.740558E-1,-1.07920285E-4,-5.9083436E-4,-6.8203616E-1,-5.6407627E-2,-2.3412867E-1,4.4275004E-1,5.8423305E-1,3.4850853E-4,2.5390548E-1,-1.5914018E-4,-1.1716789E0,4.0866184E-1,-4.605173E-4,6.4889836E-1,8.3718276E-1,-9.604035E-1,3.4685138E-1,2.267288E-1,-2.7619173E-5,3.3551493E-1,5.062935E-1,4.9102974E-1,2.0473487E-4,5.1209783E-5,1.7348986E0,1.7348986E0,-1.3082709E0,5.171799E-1,2.501205E-1,4.5193207E-1,1.830195E-4,7.957031E-1,-1.3082709E0,1.0569957E0,-2.022622E-2,-1.1202137E0,-3.1742528E-1,5.8283335E-1,5.2591E-1,9.5191187E-1,2.841929E-1,4.5346958E-4,-7.328377E-2,-2.565354E-4,8.63364E-2,1.844537E0,-3.0523035E-1,3.6738973E-4,8.159722E-1,-1.1167003E-4,-9.95131E-1,-1.132351E0,3.2615876E-1,-1.132351E0,1.238258E-4,3.5641828E-4,-2.4057624E-4,8.0740705E-5,-2.493432E-4,1.3327721E0,-1.0201467E-2,7.3962474E-1,-1.6661086E-4,1.1867303E0,1.9056248E-4,1.1075052E0,-2.3412867E-1,-1.100645E0,3.2138117E-4,3.995556E-5,-5.5125356E-1,6.136123E-1,-9.496672E-4,2.8207762E-2,2.5489244E-1,5.352571E-1,5.062935E-1,4.719909E-1,-4.8877395E-5,8.27921E-5,2.6419864E-4,4.6929416E-1,6.771761E-2,-3.389631E-5,1.5656826E-4,1.6959984E0,-7.02628E-5,5.8020043E-5,1.2571218E-5,-5.438198E-5,7.790234E-5,2.3360596E-4,-5.7039142E-5,-3.6016924E-4,2.6139172E-4,-3.2932348E-6,-1.0057785E-4,-1.3353992E-6,3.4376717E-5,1.5750583E-4,-1.5748597E-5,1.7777566E-4,4.6324352E-5,-5.2313822E-5,3.539338E-5,1.5751018E-4,-1.468058E-4,-4.593939E-5,2.2695452E-4,1.5528689E-5,-7.9763566E-5,-2.4861374E-4,1.1753057E-4,-1.7039658E-5,3.3562734E-5,-3.384792E-4,-9.714611E-5,1.242633E-4,-2.3055208E-4,-5.2775868E-5,5.004695E-4,5.4373562E-5,-2.748403E-5,1.5242044E-4,-6.781848E-5,1.6986782E-4,6.1045293E-6,5.68813E-5,-9.179514E-6,-5.55151E-5],"split_indices":[8,3,5,8,0,9,3,5,3,9,3,3,3,9,3,0,0,3,8,8,3,8,0,8,0,9,3,0,3,8,9,9,8,0,3,8,3,0,0,3,3,9,3,3,3,0,3,9,8,5,5,8,3,3,8,3,0,8,0,8,8,8,0,8,0,8,8,5,8,0,0,0,0,0,3,8,8,0,8,0,8,8,5,0,0,8,3,0,8,5,9,8,8,0,0,0,3,8,0,0,3,0,0,0,0,0,0,0,0,0,0,0,0,0,0,0,0,0,0,0,0,0,0,0,0,0,0,0,0,0,0,0,0,0,0,0,0,0,0,0,0,0,0,0,0],"split_type":[0,0,0,0,0,0,0,0,0,0,0,0,0,0,0,0,0,0,0,0,0,0,0,0,0,0,0,0,0,0,0,0,0,0,0,0,0,0,0,0,0,0,0,0,0,0,0,0,0,0,0,0,0,0,0,0,0,0,0,0,0,0,0,0,0,0,0,0,0,0,0,0,0,0,0,0,0,0,0,0,0,0,0,0,0,0,0,0,0,0,0,0,0,0,0,0,0,0,0,0,0,0,0,0,0,0,0,0,0,0,0,0,0,0,0,0,0,0,0,0,0,0,0,0,0,0,0,0,0,0,0,0,0,0,0,0,0,0,0,0,0,0,0,0,0],"sum_hessian":[2.469E3,6.2E2,1.849E3,6.09E2,1.1E1,1.692E3,1.57E2,5.83E2,2.6E1,1.376E3,3.16E2,5.3E1,1.04E2,4.55E2,1.28E2,1.4E1,1.2E1,1.089E3,2.87E2,9.6E1,2.2E2,2.7E1,2.6E1,8.8E1,1.6E1,3.97E2,5.8E1,1.4E1,1.14E2,4.97E2,5.92E2,1.47E2,1.4E2,1.9E1,7.7E1,4.4E1,1.76E2,1.5E1,1.2E1,5.7E1,3.1E1,5.6E1,3.41E2,3E1,2.8E1,1.1E1,1.03E2,4.16E2,8.1E1,6.4E1,5.28E2,2.9E1,1.18E2,3.8E1,1.02E2,6.3E1,1.4E1,3.2E1,1.2E1,3.4E1,1.42E2,3.9E1,1.8E1,2E1,1.1E1,3E1,2.6E1,3.04E2,3.7E1,2E1,1E1,1.1E1,1.7E1,1.9E1,8.4E1,7.6E1,3.4E2,1.9E1,6.2E1,1.8E1,4.6E1,2.5E1,5.03E2,1.2E1,1.7E1,3.3E1,8.5E1,1.4E1,2.4E1,4.7E1,5.5E1,4E1,2.3E1,1.8E1,1.4E1,1E1,2.4E1,1.3E2,1.2E1,1.3E1,2.6E1,1E1,1E1,1.8E1,1.2E1,1.4E1,1.2E1,2.94E2,1E1,1.2E1,2.5E1,3.8E1,4.6E1,4.8E1,2.8E1,3.24E2,1.6E1,1E1,5.2E1,3.6E1,1E1,1E1,1.5E1,1.1E1,4.92E2,1.7E1,1.6E1,1.8E1,6.7E1,1E1,1.4E1,1.3E1,3.4E1,1.9E1,3.6E1,2.1E1,1.9E1,1.3E1,1E1,1E1,1.4E1,5.9E1,7.1E1,1.3E1,1.3E1],"tree_param":{"num_deleted":"0","num_feature":"10","num_nodes":"145","size_leaf_vector":"1"}},{"base_weights":[-6.3561165E-5,-7.234031E-4,2.3550223E-4,-3.542525E-4,-1.5739143E-3,2.7085052E-4,-3.85206E-4,-5.0166674E-4,4.326397E-4,-6.3053197E-3,-6.1012583E-4,5.619536E-5,1.0245314E-3,-3.73696E-4,-1.8800747E-3,2.6296354E-3,-4.4605124E-4,-4.069704E-3,-8.8857627E-4,1.2569157E-3,-1.0907497E-3,1.1107433E-4,-3.160528E-4,2.393073E-3,5.8684056E-4,4.8635158E-4,-5.422302E-4,-1.0983656E-3,-2.5407734E-4,2.7592678E-4,1.2590438E-4,1.7326449E-4,-1.5923622E-4,-5.1319157E-4,-1.1716294E-5,5.2867626E-4,2.0847382E-4,-5.476945E-4,-6.097042E-4,6.171212E-5,3.2868117E-4,1.9995656E-3,3.530148E-4,1.5546816E-3,2.234147E-4,-5.8057107E-4,1.9282675E-3,-2.1914097E-3,-3.2585373E-4,-1.299624E-4,-5.24755E-5,-1.6249032E-3,1.7487215E-3,7.219389E-5,-1.1203745E-5,-2.737455E-4,-2.656569E-4,1.2179867E-3,1.6661153E-5,3.1122072E-3,-2.5856643E-4,6.899355E-4,3.9101737E-3,-3.4853094E-4,4.733281E-4,2.9990613E-6,-7.8124466E-4,8.379307E-5,2.0873363E-4,-1.0075861E-3,-4.233991E-4,2.8150182E-4,-5.2016554E-4,5.6404824E-5,-2.8841646E-4,2.2022758E-4,1.5494936E-5,-5.1765156E-4,1.2133039E-4,2.0093392E-3,-5.6393266E-5,-1.3747182E-3,5.2905027E-5,1.9781736E-3,5.770677E-4,-1.4464758E-4,6.096389E-5,1.3617781E-4,1.9864357E-4,2.2819899E-4,3.6496407E-4,1.7928067E-3,2.8534897E-4,-1.0706322E-4,-2.3640907E-5,9.253181E-5,-1.7961723E-4,-2.8921337E-5,2.1971755E-4,-3.066401E-4,-2.219757E-5,3.0429508E-5,-5.62017E-5,3.8679576E-5,4.2011097E-4,2.1742017E-5,-2.2608346E-4,7.0998E-5,-1.3316923E-6,2.967658E-4,9.993247E-5,-7.903447E-5,7.3527255E-5,-1.4118124E-5,3.132573E-4,-8.1793325E-5,4.355549E-5],"categories":[],"categories_nodes":[],"categories_segments":[],"categories_sizes":[],"default_left":[0,0,0,0,0,0,0,0,0,0,0,0,0,0,0,0,0,0,0,0,0,0,0,0,0,0,0,0,0,0,0,0,0,0,0,0,0,0,0,0,0,0,0,0,0,0,0,0,0,0,0,0,0,0,0,0,0,0,0,0,0,0,0,0,0,0,0,0,0,0,0,0,0,0,0,0,0,0,0,0,0,0,0,0,0,0,0,0,0,0,0,0,0,0,0,0,0,0,0,0,0,0,0,0,0,0,0,0,0,0,0,0,0,0,0,0,0],"id":1,"left_children":[1,3,5,7,9,11,-1,13,15,17,19,21,23,25,27,29,31,33,-1,35,37,39,-1,41,43,45,47,49,-1,-1,-1,51,-1,-1,-1,53,-1,-1,55,57,-1,59,-1,61,63,65,67,69,71,-1,-1,73,75,-1,-1,77,-1,79,81,83,85,87,89,-1,91,-1,93,-1,-1,95,-1,97,99,-1,-1,-1,-1,101,-1,103,-1,105,107,109,-1,-1,-1,-1,111,-1,-1,113,115,-1,-1,-1,-1,-1,-1,-1,-1,-1,-1,-1,-1,-1,-1,-1,-1,-1,-1,-1,-1,-1,-1,-1,-1],"loss_changes":[4.9607217E-4,2.4559238E-4,3.1216777E-4,6.378455E-5,1.0768904E-3,2.7804484E-4,0E0,8.07923E-5,1.6912472E-4,3.906401E-4,1.7904525E-4,2.968483E-4,2.2681386E-4,6.172142E-5,3.6652724E-5,1.6520804E-5,6.113222E-5,2.707563E-4,0E0,3.9419625E-5,4.36773E-4,2.6242534E-4,0E0,6.531656E-5,1.01656806E-4,1.08808395E-4,1.2596542E-4,5.0370036E-6,0E0,0E0,0E0,1.3315654E-4,0E0,0E0,0E0,7.2510747E-6,0E0,0E0,1.3408384E-4,6.806302E-5,0E0,1.9929156E-4,0E0,1.5821753E-4,2.4630188E-4,5.116737E-6,1.5542246E-5,1.4689153E-4,3.7321577E-5,0E0,0E0,1.0555102E-4,3.9188664E-5,0E0,0E0,5.8764137E-5,0E0,7.617461E-5,6.35628E-5,2.3507135E-4,4.465281E-5,2.9336941E-5,1.6988779E-6,0E0,4.959138E-5,0E0,8.08858E-6,0E0,0E0,8.699407E-5,0E0,1.2444555E-4,1.9108698E-4,0E0,0E0,0E0,0E0,2.025324E-5,0E0,1.7209396E-4,0E0,7.8343335E-5,7.192591E-5,4.972743E-5,0E0,0E0,0E0,0E0,3.6473204E-5,0E0,0E0,1.0658891E-4,6.206201E-5,0E0,0E0,0E0,0E0,0E0,0E0,0E0,0E0,0E0,0E0,0E0,0E0,0E0,0E0,0E0,0E0,0E0,0E0,0E0,0E0,0E0,0E0,0E0,0E0],"parents":[2147483647,0,0,1,1,2,2,3,3,4,4,5,5,7,7,8,8,9,9,10,10,11,11,12,12,13,13,14,14,15,15,16,16,17,17,19,19,20,20,21,21,23,23,24,24,25,25,26,26,27,27,31,31,35,35,38,38,39,39,41,41,43,43,44,44,45,45,46,46,47,47,48,48,51,51,52,52,55,55,57,57,58,58,59,59,60,60,61,61,62,62,64,64,66,66,69,69,71,71,72,72,77,77,79,79,81,81,82,82,83,83,88,88,91,91,92,92],"right_children":[2,4,6,8,10,12,-1,14,16,18,20,22,24,26,28,30,32,34,-1,36,38,40,-1,42,44,46,48,50,-1,-1,-1,52,-1,-1,-1,54,-1,-1,56,58,-1,60,-1,62,64,66,68,70,72,-1,-1,74,76,-1,-1,78,-1,80,82,84,86,88,90,-1,92,-1,94,-1,-1,96,-1,98,100,-1,-1,-1,-1,102,-1,104,-1,106,108,110,-1,-1,-1,-1,112,-1,-1,114,116,-1,-1,-1,-1,-1,-1,-1,-1,-1,-1,-1,-1,-1,-1,-1,-1,-1,-1,-1,-1,-1,-1,-1,-1],"split_conditions":[-6.1357635E-1,8.8247705E-1,3.6957211E0,2.352392E-1,-1.857305E-1,1.0226701E0,-3.85206E-4,1.7850494E-1,-1.0815693E0,-8.0905795E-1,-8.892404E-2,1.0950767E0,5.868935E-1,-1.1716789E0,-1.0935936E0,1.1063213E0,1.2035366E0,1.0093243E0,-8.8857627E-4,1.1948807E0,-5.3408504E-2,1.4746598E0,-3.160528E-4,1.2201067E0,1.1235981E0,-1.3165445E0,-1.0227369E0,1.0366833E0,-2.5407734E-4,2.7592678E-4,1.2590438E-4,3.2615876E-1,-1.5923622E-4,-5.1319157E-4,-1.1716294E-5,1.1659576E0,2.0847382E-4,-5.476945E-4,1.9082637E0,-5.5662876E-1,3.2868117E-4,6.5290475E-1,3.530148E-4,1.8459619E0,-4.6222535E-1,-1.8274103E0,-1.132351E0,-1.0345058E0,-1.327721E0,-1.299624E-4,-5.24755E-5,-8.234101E-1,5.28989E-1,7.219389E-5,-1.1203745E-5,-7.595858E-1,-2.656569E-4,-4.449731E-2,-5.309852E-1,3.5004994E-1,1.1867303E0,-2.7601382E-1,5.707831E-2,-3.4853094E-4,-1.9075495E-1,2.9990613E-6,-1.8095456E0,8.379307E-5,2.0873363E-4,-1.4816643E0,-4.233991E-4,-1.3617477E0,-1.3130772E0,5.6404824E-5,-2.8841646E-4,2.2022758E-4,1.5494936E-5,9.5001405E-1,1.2133039E-4,-4.0651193E-1,-5.6393266E-5,-5.445704E-1,-4.362519E-1,1.1469446E0,5.770677E-4,-1.4464758E-4,6.096389E-5,1.3617781E-4,-1.2777963E-1,2.2819899E-4,3.6496407E-4,1.3237697E0,-2.9125491E-2,-1.0706322E-4,-2.3640907E-5,9.253181E-5,-1.7961723E-4,-2.8921337E-5,2.1971755E-4,-3.066401E-4,-2.219757E-5,3.0429508E-5,-5.62017E-5,3.8679576E-5,4.2011097E-4,2.1742017E-5,-2.2608346E-4,7.0998E-5,-1.3316923E-6,2.967658E-4,9.993247E-5,-7.903447E-5,7.3527255E-5,-1.4118124E-5,3.132573E-4,-8.1793325E-5,4.355549E-5],"split_indices":[8,5,8,5,4,9,0,5,8,8,4,4,5,9,8,4,4,5,0,5,4,5,0,4,4,9,9,4,0,0,0,5,0,0,0,5,0,0,5,8,0,8,0,5,8,4,8,9,4,0,0,8,5,0,0,8,0,4,8,8,8,8,8,0,8,0,4,0,0,4,0,4,4,0,0,0,0,5,0,4,0,8,8,4,0,0,0,0,8,0,0,9,8,0,0,0,0,0,0,0,0,0,0,0,0,0,0,0,0,0,0,0,0,0,0,0,0],"split_type":[0,0,0,0,0,0,0,0,0,0,0,0,0,0,0,0,0,0,0,0,0,0,0,0,0,0,0,0,0,0,0,0,0,0,0,0,0,0,0,0,0,0,0,0,0,0,0,0,0,0,0,0,0,0,0,0,0,0,0,0,0,0,0,0,0,0,0,0,0,0,0,0,0,0,0,0,0,0,0,0,0,0,0,0,0,0,0,0,0,0,0,0,0,0,0,0,0,0,0,0,0,0,0,0,0,0,0,0,0,0,0,0,0,0,0,0,0],"sum_hessian":[2.512E3,7.83E2,1.729E3,5.47E2,2.36E2,1.718E3,1.1E1,4.61E2,8.6E1,3.9E1,1.97E2,1.338E3,3.8E2,4.23E2,3.8E1,2.4E1,6.2E1,2.8E1,1.1E1,4E1,1.57E2,1.321E3,1.7E1,9.1E1,2.89E2,6.9E1,3.54E2,2.5E1,1.3E1,1.2E1,1.2E1,4.5E1,1.7E1,1.7E1,1.1E1,2.7E1,1.3E1,1.1E1,1.46E2,1.306E3,1.5E1,7.8E1,1.3E1,7.8E1,2.11E2,4E1,2.9E1,4E1,3.14E2,1E1,1.5E1,2.1E1,2.4E1,1.7E1,1E1,1.31E2,1.5E1,4.8E1,1.258E3,5.2E1,2.6E1,5.8E1,2E1,1E1,2.01E2,1E1,3E1,1.4E1,1.5E1,3E1,1E1,7.6E1,2.38E2,1E1,1.1E1,1.4E1,1E1,1.16E2,1.5E1,3.4E1,1.4E1,3.1E1,1.227E3,4.2E1,1E1,1E1,1.6E1,1.8E1,4E1,1E1,1E1,2.4E1,1.77E2,1.3E1,1.7E1,1.1E1,1.9E1,6.1E1,1.5E1,1.5E1,2.23E2,2E1,9.6E1,2.4E1,1E1,1.5E1,1.6E1,9.3E1,1.134E3,1.1E1,3.1E1,1.5E1,2.5E1,1.3E1,1.1E1,2.9E1,1.48E2],"tree_param":{"num_deleted":"0","num_feature":"10","num_nodes":"117","size_leaf_vector":"1"}},{"base_weights":[-2.595998E-5,4.1774224E-4,-5.1380084E-5,-3.870811E-4,2.5847767E-4,-5.247073E-3,-2.2754078E-4,5.817691E-4,1.9790922E-4,-6.254432E-4,-3.3884163E-3,-1.9326843E-3,-1.1124992E-4,9.652554E-4,-3.4279274E-5,-9.590122E-5,-4.085441E-4,7.1468094E-4,-4.4595217E-3,-5.2731622E-5,-3.0792393E-3,1.2671549E-3,-3.0916603E-3,-1.076391E-3,1.4314195E-4,-1.0317801E-4,2.1376697E-4,-6.9291453E-4,-5.951235E-4,2.2501001E-4,-4.1416095E-4,-4.0694012E-4,-6.017237E-5,1.9154899E-3,6.003753E-4,-1.4601613E-4,-3.229806E-4,-2.0054619E-4,-3.5142594E-3,6.3059054E-4,-3.3416047E-5,-1.616483E-4,7.1369635E-5,1.188312E-4,1.2619236E-3,-2.740058E-4,-3.0764507E-4,1.3410208E-3,4.4048335E-3,2.1316549E-4,2.4832485E-4,-1.3498866E-3,2.5354044E-3,-5.914122E-4,-6.3223013E-4,1.4944494E-4,5.387285E-4,5.503151E-4,-2.2172542E-4,2.7976994E-5,-3.3121654E-5,2.2575568E-4,3.4893055E-5,2.2175582E-5,-5.4950036E-5,-5.109356E-5,1.4194538E-4,1.4645986E-4,5.140208E-4,-2.9960048E-4,7.902207E-5,-2.2257189E-5,-2.1161488E-4,5.425553E-4,2.1761733E-5,-3.0319946E-4,1.5766712E-4,2.9043058E-5,1.0470845E-4,9.10208E-5,-1.8895908E-4,-1.1054538E-4,-9.673784E-6],"categories":[],"categories_nodes":[],"categories_segments":[],"categories_sizes":[],"default_left":[0,0,0,0,0,0,0,0,0,0,0,0,0,0,0,0,0,0,0,0,0,0,0,0,0,0,0,0,0,0,0,0,0,0,0,0,0,0,0,0,0,0,0,0,0,0,0,0,0,0,0,0,0,0,0,0,0,0,0,0,0,0,0,0,0,0,0,0,0,0,0,0,0,0,0,0,0,0,0,0,0,0,0],"id":2,"left_children":[1,-1,3,5,7,9,11,-1,13,-1,15,17,19,21,23,-1,-1,25,27,29,31,33,35,37,39,-1,-1,-1,41,43,45,-1,-1,47,49,-1,-1,51,53,55,57,-1,-1,59,61,63,-1,65,67,-1,69,71,73,75,-1,-1,77,79,81,-1,-1,-1,-1,-1,-1,-1,-1,-1,-1,-1,-1,-1,-1,-1,-1,-1,-1,-1,-1,-1,-1,-1,-1],"loss_changes":[3.365554E-4,0E0,2.594208E-4,9.269174E-4,5.5340154E-4,1.5866291E-4,2.298044E-4,0E0,2.2933655E-4,0E0,8.55783E-5,4.982073E-4,1.8862964E-4,3.7012718E-4,1.8301298E-4,0E0,0E0,1.5064584E-4,6.2048406E-4,1.0720289E-4,9.56952E-5,1.1946072E-4,1.8155319E-5,3.067632E-4,7.283033E-5,0E0,0E0,0E0,4.6959467E-5,6.6349385E-5,2.2378797E-4,0E0,0E0,1.9573019E-4,1.012304E-4,0E0,0E0,3.3988818E-4,4.886895E-4,2.4826186E-5,6.849353E-5,0E0,0E0,6.874227E-5,7.151595E-5,1.03418795E-4,0E0,1.0364296E-4,1.2554874E-4,0E0,3.635846E-4,1.0602652E-4,3.087804E-4,2.0688259E-4,0E0,0E0,2.7991744E-5,2.6763848E-4,5.4902986E-5,0E0,0E0,0E0,0E0,0E0,0E0,0E0,0E0,0E0,0E0,0E0,0E0,0E0,0E0,0E0,0E0,0E0,0E0,0E0,0E0,0E0,0E0,0E0,0E0],"parents":[2147483647,0,0,2,2,3,3,4,4,5,5,6,6,8,8,10,10,11,11,12,12,13,13,14,14,17,17,18,18,19,19,20,20,21,21,22,22,23,23,24,24,28,28,29,29,30,30,33,33,34,34,37,37,38,38,39,39,40,40,43,43,44,44,45,45,47,47,48,48,50,50,51,51,52,52,53,53,56,56,57,57,58,58],"right_children":[2,-1,4,6,8,10,12,-1,14,-1,16,18,20,22,24,-1,-1,26,28,30,32,34,36,38,40,-1,-1,-1,42,44,46,-1,-1,48,50,-1,-1,52,54,56,58,-1,-1,60,62,64,-1,66,68,-1,70,72,74,76,-1,-1,78,80,82,-1,-1,-1,-1,-1,-1,-1,-1,-1,-1,-1,-1,-1,-1,-1,-1,-1,-1,-1,-1,-1,-1,-1,-1],"split_conditions":[-3.5465112E0,4.1774224E-4,-4.1506268E-2,-2.5089333E0,-2.880404E0,-3.0835164E0,-4.0199596E-1,5.817691E-4,-9.1744375E-1,-6.254432E-4,1.0119058E0,1.0554584E0,1.2065437E0,1.9730686E0,-3.8197532E-1,-9.590122E-5,-4.085441E-4,1.0373569E0,1.0812362E0,3.910819E-1,4.2856324E-1,1.2671089E0,1.981134E0,-7.402866E-1,2.3393968E-1,-1.0317801E-4,2.1376697E-4,-6.9291453E-4,-1.9733475E0,-1.2134087E-1,-6.716898E-1,-4.0694012E-4,-6.017237E-5,1.2096158E0,-2.3169267E0,-1.4601613E-4,-3.229806E-4,1.172165E0,8.713365E-1,-1.0111456E0,-3.631878E-1,-1.616483E-4,7.1369635E-5,-5.4404014E-1,-1.6796729E-1,-1.322583E0,-3.0764507E-4,8.0373627E-1,-2.265241E0,2.1316549E-4,-1.9733475E0,8.820593E-1,9.3227625E-1,1.1063213E0,-6.3223013E-4,1.4944494E-4,2.0699246E-1,7.899184E-1,2.5599986E-1,2.7976994E-5,-3.3121654E-5,2.2575568E-4,3.4893055E-5,2.2175582E-5,-5.4950036E-5,-5.109356E-5,1.4194538E-4,1.4645986E-4,5.140208E-4,-2.9960048E-4,7.902207E-5,-2.2257189E-5,-2.1161488E-4,5.425553E-4,2.1761733E-5,-3.0319946E-4,1.5766712E-4,2.9043058E-5,1.0470845E-4,9.10208E-5,-1.8895908E-4,-1.1054538E-4,-9.673784E-6],"split_indices":[0,0,4,0,0,0,0,0,0,0,2,2,2,2,0,0,0,2,2,0,0,9,2,0,0,0,0,0,0,4,9,0,0,4,0,0,0,4,2,9,2,0,0,9,0,2,0,2,0,0,0,2,2,4,0,0,0,0,0,0,0,0,0,0,0,0,0,0,0,0,0,0,0,0,0,0,0,0,0,0,0,0,0],"split_type":[0,0,0,0,0,0,0,0,0,0,0,0,0,0,0,0,0,0,0,0,0,0,0,0,0,0,0,0,0,0,0,0,0,0,0,0,0,0,0,0,0,0,0,0,0,0,0,0,0,0,0,0,0,0,0,0,0,0,0,0,0,0,0,0,0,0,0,0,0,0,0,0,0,0,0,0,0,0,0,0,0,0,0],"sum_hessian":[2.503E3,1.1E1,2.492E3,1.196E3,1.296E3,3.7E1,1.159E3,1E1,1.286E3,1.4E1,2.3E1,7.3E1,1.086E3,2.98E2,9.88E2,1.1E1,1.2E1,3.6E1,3.7E1,1.066E3,2E1,2.78E2,2E1,1.43E2,8.45E2,1.8E1,1.8E1,1.7E1,2E1,6.03E2,4.63E2,1E1,1E1,1.4E2,1.38E2,1E1,1E1,1.06E2,3.7E1,2.24E2,6.21E2,1E1,1E1,5.48E2,5.5E1,4.46E2,1.7E1,1.15E2,2.5E1,1.9E1,1.19E2,7.5E1,3.1E1,2.3E1,1.4E1,1.4E1,2.1E2,1.51E2,4.7E2,3.82E2,1.66E2,1.8E1,3.7E1,1.92E2,2.54E2,2.1E1,9.4E1,1.2E1,1.3E1,1.8E1,1.01E2,4.2E1,3.3E1,1E1,2.1E1,1E1,1.3E1,1.73E2,3.7E1,1.26E2,2.5E1,3.6E1,4.34E2],"tree_param":{"num_deleted":"0","num_feature":"10","num_nodes":"83","size_leaf_vector":"1"}},{"base_weights":[-1.9509842E-5,-1.3383903E-4,5.7119207E-4,1.5938435E-3,-1.6624662E-4,2.08737E-3,3.3960553E-4,-2.5540334E-4,3.760713E-4,-2.3736013E-3,-1.3489366E-4,3.759735E-4,5.167559E-4,2.0721247E-3,2.1371947E-4,-5.9297855E-4,9.1451206E-5,1.8295016E-3,-1.7695555E-4,2.3902715E-3,-2.254832E-4,2.6511212E-4,4.209944E-5,-2.9691655E-4,4.3806448E-4,-1.9361169E-4,3.9730077E-3,-3.892185E-3,-1.337749E-4,1.286337E-4,2.3540304E-4,1.9556396E-3,1.4545397E-4,7.996899E-5,4.355559E-4,-5.3117826E-4,-6.159891E-5,2.6687394E-6,-5.7671114E-4,1.1007466E-3,2.6185606E-3,3.2804973E-4,-1.6820809E-4,5.7383854E-4,-1.2595035E-4,-2.571663E-4,-4.566876E-4,1.6322068E-4,2.1696716E-5,2.8745824E-4,1.2010706E-4,1.1868137E-3,1.5637159E-4,1.8009699E-4,3.4516095E-5,4.752063E-5,-1.423313E-5,-1.0974886E-4,-2.2162842E-5,2.6238477E-4,-6.278169E-5,-6.6568406E-5,2.1229882E-5],"categories":[],"categories_nodes":[],"categories_segments":[],"categories_sizes":[],"default_left":[0,0,0,0,0,0,0,0,0,0,0,0,0,0,0,0,0,0,0,0,0,0,0,0,0,0,0,0,0,0,0,0,0,0,0,0,0,0,0,0,0,0,0,0,0,0,0,0,0,0,0,0,0,0,0,0,0,0,0,0,0,0,0],"id":3,"left_children":[1,3,5,7,9,11,13,-1,-1,15,17,-1,19,21,23,-1,-1,25,27,29,-1,-1,-1,-1,31,-1,33,35,37,-1,-1,39,41,-1,-1,-1,-1,43,45,47,49,51,-1,53,55,-1,57,-1,-1,-1,-1,59,61,-1,-1,-1,-1,-1,-1,-1,-1,-1,-1],"loss_changes":[1.7033084E-4,1.18571945E-4,1.429018E-4,6.03813E-4,1.432846E-4,2.2181844E-4,7.720076E-5,0E0,0E0,5.2873354E-4,1.6945956E-4,0E0,2.2674311E-4,4.5030007E-5,2.9675706E-4,0E0,0E0,4.0288828E-4,3.2113353E-4,5.3574768E-6,0E0,0E0,0E0,0E0,1.4003798E-4,0E0,1.2425406E-4,1.9502183E-4,1.19845805E-4,0E0,0E0,2.6020658E-5,1.1057687E-4,0E0,0E0,0E0,0E0,1.1151616E-4,1.476004E-4,1.8377425E-5,2.5499641E-5,3.6229867E-5,0E0,6.487479E-5,4.7803434E-5,0E0,7.32423E-5,0E0,0E0,0E0,0E0,1.7405831E-4,2.302545E-5,0E0,0E0,0E0,0E0,0E0,0E0,0E0,0E0,0E0,0E0],"parents":[2147483647,0,0,1,1,2,2,3,3,4,4,5,5,6,6,9,9,10,10,12,12,13,13,14,14,17,17,18,18,19,19,24,24,26,26,27,27,28,28,31,31,32,32,37,37,38,38,39,39,40,40,41,41,43,43,44,44,46,46,51,51,52,52],"right_children":[2,4,6,8,10,12,14,-1,-1,16,18,-1,20,22,24,-1,-1,26,28,30,-1,-1,-1,-1,32,-1,34,36,38,-1,-1,40,42,-1,-1,-1,-1,44,46,48,50,52,-1,54,56,-1,58,-1,-1,-1,-1,60,62,-1,-1,-1,-1,-1,-1,-1,-1,-1,-1],"split_conditions":[1.1580167E0,-3.0201259E0,-2.1141213E-1,2.2999291E-1,-2.5089333E0,-1.7204423E0,-2.3027365E0,-2.5540334E-4,3.760713E-4,2.5973454E-1,-2.1453016E0,3.759735E-4,-2.4807073E-1,-1.5743293E-1,-1.9733475E0,-5.9297855E-4,9.1451206E-5,2.6966497E-1,-1.7204423E0,-1.2898579E0,-2.254832E-4,2.6511212E-4,4.209944E-5,-2.9691655E-4,-1.2698451E0,-1.9361169E-4,-2.3658807E0,5.622616E-1,3.597719E-1,1.286337E-4,2.3540304E-4,-1.613676E0,1.9750756E0,7.996899E-5,4.355559E-4,-5.3117826E-4,-6.159891E-5,1.1596469E-1,3.985982E-1,7.6729244E-1,-1.3647633E0,-7.233558E-2,-1.6820809E-4,-3.8197532E-1,-1.7889485E0,-2.571663E-4,-3.8643217E-1,1.6322068E-4,2.1696716E-5,2.8745824E-4,1.2010706E-4,-8.28844E-1,-1.7554572E0,1.8009699E-4,3.4516095E-5,4.752063E-5,-1.423313E-5,-1.0974886E-4,-2.2162842E-5,2.6238477E-4,-6.278169E-5,-6.6568406E-5,2.1229882E-5],"split_indices":[9,0,1,1,0,0,0,0,0,1,0,0,1,1,0,0,0,1,0,0,0,0,0,0,0,0,0,1,9,0,0,0,9,0,0,0,0,0,9,1,0,1,0,0,1,0,1,0,0,0,0,0,7,0,0,0,0,0,0,0,0,0,0],"split_type":[0,0,0,0,0,0,0,0,0,0,0,0,0,0,0,0,0,0,0,0,0,0,0,0,0,0,0,0,0,0,0,0,0,0,0,0,0,0,0,0,0,0,0,0,0,0,0,0,0,0,0,0,0,0,0,0,0,0,0,0,0,0,0],"sum_hessian":[2.52E3,2.112E3,4.08E2,3.8E1,2.074E3,5.3E1,3.55E2,1.5E1,2.3E1,2.8E1,2.046E3,1.9E1,3.4E1,2.3E1,3.32E2,1.1E1,1.7E1,4.2E1,2.004E3,2.2E1,1.2E1,1.2E1,1.1E1,1.7E1,3.15E2,1.4E1,2.8E1,2.2E1,1.982E3,1.1E1,1.1E1,5E1,2.65E2,1E1,1.8E1,1.1E1,1.1E1,1.516E3,4.66E2,2.3E1,2.7E1,2.46E2,1.9E1,2.78E2,1.238E3,1.9E1,4.47E2,1E1,1.3E1,1.3E1,1.4E1,4E1,2.06E2,2E1,2.58E2,8.4E1,1.154E3,7.1E1,3.76E2,1.9E1,2.1E1,2E1,1.86E2],"tree_param":{"num_deleted":"0","num_feature":"10","num_nodes":"63","size_leaf_vector":"1"}},{"base_weights":[-4.9545437E-5,-3.294421E-4,1.7424654E-4,6.6334964E-5,-1.5519387E-3,3.6154894E-4,-1.8655862E-4,-5.772184E-5,6.2456244E-4,-2.4285007E-3,-6.038539E-4,-7.362135E-4,4.4348947E-4,-2.2098564E-3,-9.32825E-7,3.0139137E-5,-1.3157799E-3,1.0755813E-4,4.5042814E-4,-1.3647622E-3,-6.318841E-3,-4.8372926E-6,-3.699476E-4,-3.8723223E-4,-1.89312E-4,3.136055E-4,8.8307663E-4,-5.0796287E-5,-2.8609182E-4,-1.7966123E-4,2.9478708E-4,-1.9003013E-4,2.2214149E-4,-2.9705765E-4,-5.167816E-4,3.4202368E-4,1.1464046E-4,-1.834814E-3,1.6342314E-4,-8.802365E-4,-2.3684815E-4,-5.9406756E-4,4.0513213E-4,-8.897683E-4,5.3021744E-5,3.8353025E-4,-1.3028992E-4,5.999173E-4,1.89356E-3,6.645558E-5,-8.8081683E-4,4.1936993E-4,-2.4149997E-5,1.0710601E-4,-1.0558172E-3,1.8933316E-4,1.4385037E-4,-5.536814E-5,-9.032959E-6,5.0394237E-4,-4.8590817E-5,-3.4754892E-4,-2.7167697E-3,2.561187E-4,-1.971854E-4,2.2141906E-4,8.828432E-5,-3.0137347E-5,-1.2205826E-4,3.36542E-4,2.0792382E-4,1.1133873E-3,1.5345601E-4,7.1786366E-5,2.468129E-3,-6.9772694E-5,6.2333007E-4,-1.122781E-3,-3.9069162E-4,3.572581E-4,8.727583E-5,-3.376784E-5,1.3001748E-4,-1.8491512E-4,-5.375183E-4,7.191405E-4,-8.78304E-5,3.5111842E-4,1.0537739E-4,-5.3753804E-5,1.1682093E-5,-5.4188917E-4,-1.7966173E-3,-2.0947891E-5,5.1615445E-4,3.7728687E-4,-3.0317113E-5,3.9676108E-4,-1.846847E-4,-3.8974893E-5,1.7968272E-3,-6.487423E-5,6.101851E-4,2.9398088E-4,1.1658124E-4,1.5704011E-4,-1.1119632E-4,1.1060564E-4,2.442058E-4,-7.0261776E-5,-1.18533695E-4,-1.3922025E-5,-5.1571245E-5,9.024066E-6,4.3145582E-4,2.13119E-5,-6.776488E-5,8.781197E-6,-1.519061E-4,8.071195E-5,3.960135E-5,-1.0603051E-4,4.571023E-6,7.818465E-6,4.779549E-5,1.655896E-4,-2.2011937E-4,7.826671E-5,-6.740678E-6,5.6352616E-5,1.8681501E-5,2.4156163E-5,2.6068618E-4,2.256046E-4,8.473386E-5,6.5840766E-5,-4.4981366E-6,4.7331174E-5,6.326549E-6,-3.1424624E-5,4.9389055E-5,6.045794E-5,2.7554666E-5],"categories":[],"categories_nodes":[],"categories_segments":[],"categories_sizes":[],"default_left":[0,0,0,0,0,0,0,0,0,0,0,0,0,0,0,0,0,0,0,0,0,0,0,0,0,0,0,0,0,0,0,0,0,0,0,0,0,0,0,0,0,0,0,0,0,0,0,0,0,0,0,0,0,0,0,0,0,0,0,0,0,0,0,0,0,0,0,0,0,0,0,0,0,0,0,0,0,0,0,0,0,0,0,0,0,0,0,0,0,0,0,0,0,0,0,0,0,0,0,0,0,0,0,0,0,0,0,0,0,0,0,0,0,0,0,0,0,0,0,0,0,0,0,0,0,0,0,0,0,0,0,0,0,0,0,0,0,0,0,0,0,0,0],"id":4,"left_children":[1,3,5,7,9,11,13,15,17,19,21,23,25,27,29,31,33,-1,35,37,39,41,-1,43,-1,45,47,-1,-1,49,51,53,55,-1,57,59,-1,61,-1,-1,-1,63,65,67,-1,69,-1,71,73,75,77,79,-1,81,83,-1,85,-1,-1,87,-1,89,91,93,-1,95,-1,-1,-1,97,-1,99,101,-1,103,105,107,109,111,113,-1,115,-1,-1,117,119,121,123,-1,-1,-1,-1,125,-1,127,129,-1,131,-1,-1,133,-1,135,-1,-1,137,-1,-1,139,-1,-1,-1,-1,-1,141,-1,-1,-1,-1,-1,-1,-1,-1,-1,-1,-1,-1,-1,-1,-1,-1,-1,-1,-1,-1,-1,-1,-1,-1,-1,-1,-1,-1],"loss_changes":[1.5677925E-4,5.381287E-4,9.407078E-5,5.8276913E-5,2.2458052E-4,8.272182E-5,1.7877224E-4,7.619773E-5,1.881384E-5,5.7487737E-4,3.203609E-4,3.584616E-5,4.842537E-5,8.5059146E-5,2.3149963E-5,2.730831E-5,8.5174266E-5,0E0,1.295286E-5,1.8389699E-4,4.4354855E-4,2.8262377E-5,0E0,2.9209728E-5,0E0,9.077368E-5,5.4372824E-5,0E0,0E0,4.7169102E-5,1.2434671E-5,7.754733E-5,5.8015747E-5,0E0,2.4606043E-6,1.7909166E-5,0E0,1.2891428E-4,0E0,0E0,0E0,7.766181E-5,8.702304E-6,1.1625241E-5,0E0,6.606627E-5,0E0,3.490354E-5,2.166415E-5,1.5443487E-5,7.98142E-6,5.3853037E-6,0E0,4.8524023E-5,4.9486036E-5,0E0,4.4579905E-5,0E0,0E0,1.1848511E-5,0E0,6.281312E-6,2.218122E-4,4.7312515E-6,0E0,5.406907E-6,0E0,0E0,0E0,1.01225756E-4,0E0,7.870844E-5,3.7265243E-5,0E0,2.6624068E-5,4.967796E-5,1.1316282E-5,2.8174945E-6,1.2779187E-6,2.2473323E-6,0E0,5.1426247E-5,0E0,0E0,5.00804E-5,5.7798643E-6,4.338202E-5,5.256117E-6,0E0,0E0,0E0,0E0,2.0222468E-4,0E0,6.5639147E-6,1.956856E-6,0E0,1.6298713E-4,0E0,0E0,3.504324E-5,0E0,8.348143E-6,0E0,0E0,4.7406907E-6,0E0,0E0,7.0045244E-6,0E0,0E0,0E0,0E0,0E0,2.4419587E-6,0E0,0E0,0E0,0E0,0E0,0E0,0E0,0E0,0E0,0E0,0E0,0E0,0E0,0E0,0E0,0E0,0E0,0E0,0E0,0E0,0E0,0E0,0E0,0E0,0E0,0E0,0E0,0E0],"parents":[2147483647,0,0,1,1,2,2,3,3,4,4,5,5,6,6,7,7,8,8,9,9,10,10,11,11,12,12,13,13,14,14,15,15,16,16,18,18,19,19,20,20,21,21,23,23,25,25,26,26,29,29,30,30,31,31,32,32,34,34,35,35,37,37,41,41,42,42,43,43,45,45,47,47,48,48,49,49,50,50,51,51,53,53,54,54,56,56,59,59,61,61,62,62,63,63,65,65,69,69,71,71,72,72,74,74,75,75,76,76,77,77,78,78,79,79,81,81,84,84,85,85,86,86,87,87,92,92,94,94,95,95,97,97,100,100,102,102,105,105,108,108,114,114],"right_children":[2,4,6,8,10,12,14,16,18,20,22,24,26,28,30,32,34,-1,36,38,40,42,-1,44,-1,46,48,-1,-1,50,52,54,56,-1,58,60,-1,62,-1,-1,-1,64,66,68,-1,70,-1,72,74,76,78,80,-1,82,84,-1,86,-1,-1,88,-1,90,92,94,-1,96,-1,-1,-1,98,-1,100,102,-1,104,106,108,110,112,114,-1,116,-1,-1,118,120,122,124,-1,-1,-1,-1,126,-1,128,130,-1,132,-1,-1,134,-1,136,-1,-1,138,-1,-1,140,-1,-1,-1,-1,-1,142,-1,-1,-1,-1,-1,-1,-1,-1,-1,-1,-1,-1,-1,-1,-1,-1,-1,-1,-1,-1,-1,-1,-1,-1,-1,-1,-1,-1],"split_conditions":[-7.882225E-2,-7.590903E-2,7.7764595E-1,-2.8128314E-1,5.8283335E-1,-4.0519214E-1,8.0875844E-1,-3.4270692E-1,-2.4331819E-1,2.9452723E-1,-1.13026135E-1,-4.145604E-1,4.644337E-1,4.6929416E-1,1.1648136E0,-9.6431845E-1,-3.238427E-1,1.0755813E-4,-9.018652E-2,2.6966497E-1,3.0448666E-1,3.9951622E-1,-3.699476E-4,-4.3794695E-1,-1.89312E-4,1.2336652E0,1.0917408E0,-5.0796287E-5,-2.8609182E-4,1.5483145E0,1.8599385E0,-1.0345058E0,-9.604035E-1,-2.9705765E-4,-2.9075462E-1,-9.5186114E-2,1.1464046E-4,-2.663894E-1,1.6342314E-4,-8.802365E-4,-2.3684815E-4,-1.7709775E-1,4.7002098E-1,-4.519555E-1,5.3021744E-5,1.2197294E0,-1.3028992E-4,6.590994E-1,-7.590903E-2,1.4989067E0,1.62554E0,1.8486834E0,-2.4149997E-5,-1.0464519E0,-1.5240098E0,1.8933316E-4,-1.3495071E0,-5.536814E-5,-9.032959E-6,-1.0943982E-1,-4.8590817E-5,-3.851285E-2,-2.606634E-1,5.916182E-1,-1.971854E-4,4.498348E-1,8.828432E-5,-3.0137347E-5,-1.2205826E-4,1.1953977E0,2.0792382E-4,5.816485E-1,6.950586E-1,7.1786366E-5,1.2931519E0,1.1154556E0,1.5098702E0,1.2091122E0,1.2371528E0,1.2192916E0,8.727583E-5,-1.2529895E0,1.3001748E-4,-1.8491512E-4,-1.4859593E0,-1.4094288E0,-1.3151089E0,-4.1934945E-2,1.0537739E-4,-5.3753804E-5,1.1682093E-5,-5.4188917E-4,-2.549326E-1,-2.0947891E-5,-1.8289337E-1,4.0956318E-1,-3.0317113E-5,1.2347709E0,-1.846847E-4,-3.8974893E-5,6.1227036E-1,-6.487423E-5,7.4168843E-1,2.9398088E-4,1.1658124E-4,8.2978725E-1,-1.1119632E-4,1.1060564E-4,1.5318246E0,-7.0261776E-5,-1.18533695E-4,-1.3922025E-5,-5.1571245E-5,9.024066E-6,1.2859491E0,2.13119E-5,-6.776488E-5,8.781197E-6,-1.519061E-4,8.071195E-5,3.960135E-5,-1.0603051E-4,4.571023E-6,7.818465E-6,4.779549E-5,1.655896E-4,-2.2011937E-4,7.826671E-5,-6.740678E-6,5.6352616E-5,1.8681501E-5,2.4156163E-5,2.6068618E-4,2.256046E-4,8.473386E-5,6.5840766E-5,-4.4981366E-6,4.7331174E-5,6.326549E-6,-3.1424624E-5,4.9389055E-5,6.045794E-5,2.7554666E-5],"split_indices":[6,1,1,1,3,1,1,1,1,1,6,1,3,3,9,9,1,0,1,1,1,1,0,1,0,6,6,0,0,1,1,9,9,0,1,1,0,6,0,0,0,6,1,1,0,6,0,1,1,1,1,1,0,9,1,0,1,0,0,1,0,1,6,3,0,1,0,0,0,6,0,1,1,0,6,6,1,6,6,9,0,9,0,0,1,1,1,3,0,0,0,0,6,0,6,1,0,9,0,0,1,0,1,0,0,1,0,0,1,0,0,0,0,0,6,0,0,0,0,0,0,0,0,0,0,0,0,0,0,0,0,0,0,0,0,0,0,0,0,0,0,0,0],"split_type":[0,0,0,0,0,0,0,0,0,0,0,0,0,0,0,0,0,0,0,0,0,0,0,0,0,0,0,0,0,0,0,0,0,0,0,0,0,0,0,0,0,0,0,0,0,0,0,0,0,0,0,0,0,0,0,0,0,0,0,0,0,0,0,0,0,0,0,0,0,0,0,0,0,0,0,0,0,0,0,0,0,0,0,0,0,0,0,0,0,0,0,0,0,0,0,0,0,0,0,0,0,0,0,0,0,0,0,0,0,0,0,0,0,0,0,0,0,0,0,0,0,0,0,0,0,0,0,0,0,0,0,0,0,0,0,0,0,0,0,0,0,0,0],"sum_hessian":[2.501E3,1.111E3,1.39E3,8.4E2,2.71E2,9.15E2,4.75E2,6.88E2,1.52E2,1.4E2,1.31E2,6.3E1,8.52E2,3.9E1,4.36E2,6.44E2,4.4E1,2.8E1,1.24E2,1.11E2,2.9E1,1.15E2,1.6E1,5.3E1,1E1,6.59E2,1.93E2,1.9E1,2E1,2.72E2,1.64E2,3E2,3.44E2,1E1,3.4E1,1.13E2,1.1E1,9.8E1,1.3E1,1.1E1,1.8E1,4.7E1,6.8E1,3.6E1,1.7E1,6.37E2,2.2E1,1.52E2,4.1E1,2.02E2,7E1,1.36E2,2.8E1,2.24E2,7.6E1,1.1E1,3.33E2,2.3E1,1.1E1,9.7E1,1.6E1,3.7E1,6.1E1,3.3E1,1.4E1,5.5E1,1.3E1,2.1E1,1.5E1,6.25E2,1.2E1,7E1,8.2E1,1.6E1,2.5E1,1.63E2,3.9E1,4.6E1,2.4E1,1.26E2,1E1,2.06E2,1.8E1,2.1E1,5.5E1,9.5E1,2.38E2,8.3E1,1.4E1,2.2E1,1.5E1,1E1,5.1E1,1.1E1,2.2E1,4.4E1,1.1E1,6.12E2,1.3E1,2.1E1,4.9E1,2.6E1,5.6E1,1E1,1.5E1,1.4E2,2.3E1,1.2E1,2.7E1,3E1,1.6E1,1.4E1,1E1,3E1,9.6E1,1.51E2,5.5E1,3.8E1,1.7E1,3.9E1,5.6E1,2.4E1,2.14E2,4.2E1,4.1E1,1E1,4.1E1,1.2E1,1E1,1.2E1,3.2E1,5.94E2,1.8E1,1.9E1,3E1,4.2E1,1.4E1,2E1,1.2E2,1E1,1.7E1,1.8E1,7.8E1],"tree_param":{"num_deleted":"0","num_feature":"10","num_nodes":"143","size_leaf_vector":"1"}},{"base_weights":[4.873226E-5,-4.0798182E-5,1.2316816E-3,-7.067769E-6,-2.6220635E-3,1.6493003E-3,-1.1340402E-3,-8.142573E-5,6.7468785E-4,-3.2932058E-4,-6.54258E-5,2.7528263E-4,1.2760728E-3,-2.8294063E-4,3.996108E-5,1.8496461E-5,-9.4010204E-4,2.6707692E-4,3.9755236E-4,1.7654785E-4,2.4826077E-3,5.821349E-5,-1.2598711E-3,-2.1872544E-3,2.3749689E-4,-1.3138208E-4,5.106299E-4,5.688062E-4,-5.051984E-4,1.1942732E-3,3.3679386E-4,-3.571197E-4,1.2565755E-4,-2.7477686E-4,-1.5011709E-4,-1.3691232E-3,-3.2547404E-4,-1.3317335E-4,1.6776198E-3,1.5532156E-4,3.625634E-4,8.652677E-4,1.7244858E-5,-1.7416496E-6,-7.019167E-5,1.7094644E-3,1.2021108E-5,-2.0482439E-4,-2.1566745E-4,3.348781E-4,1.8273864E-5,-1.3543844E-4,1.144109E-4,-2.3859285E-3,2.9112655E-4,5.064519E-4,-4.7783155E-4,8.246341E-5,1.7303698E-4,1.9029439E-4,1.4328596E-4,2.7589513E-5,1.0419019E-4,7.877431E-5,1.8633103E-4,1.96723E-6,-4.2195734E-5,2.0274896E-5,1.3855255E-4,-8.296478E-5,4.9608116E-6,-1.14674396E-4,-4.216629E-4,1.9750942E-6,1.0385807E-4,-1.415617E-4,-2.594012E-6,4.5497996E-5,-4.5913333E-5],"categories":[],"categories_nodes":[],"categories_segments":[],"categories_sizes":[],"default_left":[0,0,0,0,0,0,0,0,0,0,0,0,0,0,0,0,0,0,0,0,0,0,0,0,0,0,0,0,0,0,0,0,0,0,0,0,0,0,0,0,0,0,0,0,0,0,0,0,0,0,0,0,0,0,0,0,0,0,0,0,0,0,0,0,0,0,0,0,0,0,0,0,0,0,0,0,0,0,0],"id":5,"left_children":[1,3,5,7,9,11,13,15,17,-1,-1,-1,19,-1,-1,21,23,-1,25,27,29,31,33,35,37,-1,39,41,43,45,-1,47,49,51,-1,53,-1,55,57,-1,59,61,-1,-1,-1,63,-1,-1,65,67,69,-1,-1,71,-1,73,75,-1,-1,77,-1,-1,-1,-1,-1,-1,-1,-1,-1,-1,-1,-1,-1,-1,-1,-1,-1,-1,-1],"loss_changes":[2.6493112E-4,2.0249965E-4,1.75753E-4,1.16498966E-4,7.873683E-5,9.719562E-5,1.0904613E-4,1.777967E-4,1.6692252E-4,0E0,0E0,0E0,1.6671528E-4,0E0,0E0,9.435873E-5,3.1774683E-4,0E0,4.861974E-5,1.8204542E-5,1.3066901E-4,5.0522063E-5,3.419818E-5,1.5836448E-4,6.0010214E-5,0E0,4.119973E-5,4.2966785E-6,4.5494994E-6,1.9085586E-5,0E0,7.859836E-5,3.4840006E-5,5.88362E-5,0E0,3.9255334E-4,0E0,2.0082683E-5,5.098489E-6,0E0,4.4081607E-5,4.8583897E-6,0E0,0E0,0E0,8.627532E-6,0E0,0E0,1.8058403E-5,5.8630325E-5,4.8196453E-5,0E0,0E0,1.6581127E-4,0E0,1.230542E-5,3.4184897E-5,0E0,0E0,4.7607078E-5,0E0,0E0,0E0,0E0,0E0,0E0,0E0,0E0,0E0,0E0,0E0,0E0,0E0,0E0,0E0,0E0,0E0,0E0,0E0],"parents":[2147483647,0,0,1,1,2,2,3,3,4,4,5,5,6,6,7,7,8,8,12,12,15,15,16,16,18,18,19,19,20,20,21,21,22,22,23,23,24,24,26,26,27,27,28,28,29,29,31,31,32,32,33,33,35,35,37,37,38,38,40,40,41,41,45,45,48,48,49,49,50,50,53,53,55,55,56,56,59,59],"right_children":[2,4,6,8,10,12,14,16,18,-1,-1,-1,20,-1,-1,22,24,-1,26,28,30,32,34,36,38,-1,40,42,44,46,-1,48,50,52,-1,54,-1,56,58,-1,60,62,-1,-1,-1,64,-1,-1,66,68,70,-1,-1,72,-1,74,76,-1,-1,78,-1,-1,-1,-1,-1,-1,-1,-1,-1,-1,-1,-1,-1,-1,-1,-1,-1,-1,-1],"split_conditions":[1.2623932E0,1.2065437E0,1.981134E0,1.2192916E0,1.3769453E0,-1.1988413E0,1.9972852E0,9.538877E-1,5.868935E-1,-3.2932058E-4,-6.54258E-5,2.7528263E-4,-6.7216927E-1,-2.8294063E-4,3.996108E-5,1.7243611E0,1.0848966E0,2.6707692E-4,6.304487E-1,-1.1862564E0,1.4746598E0,-6.2777627E-1,-1.3358585E0,1.0554584E0,1.1843015E0,-1.3138208E-4,6.741129E-1,-1.1912842E0,1.8927823E0,1.4605092E0,3.3679386E-4,-1.2352661E0,-8.991454E-1,-1.341161E0,-1.5011709E-4,1.0373569E0,-3.2547404E-4,1.113594E0,1.1917094E0,1.5532156E-4,1.0812362E0,-1.1963202E0,1.7244858E-5,-1.7416496E-6,-7.019167E-5,1.2698662E0,1.2021108E-5,-2.0482439E-4,8.2159406E-1,-9.189529E-1,-1.0481817E0,-1.3543844E-4,1.144109E-4,1.019047E0,2.9112655E-4,1.0986612E0,1.1326185E0,8.246341E-5,1.7303698E-4,1.0265155E0,1.4328596E-4,2.7589513E-5,1.0419019E-4,7.877431E-5,1.8633103E-4,1.96723E-6,-4.2195734E-5,2.0274896E-5,1.3855255E-4,-8.296478E-5,4.9608116E-6,-1.14674396E-4,-4.216629E-4,1.9750942E-6,1.0385807E-4,-1.415617E-4,-2.594012E-6,4.5497996E-5,-4.5913333E-5],"split_indices":[2,2,2,9,5,7,2,2,5,0,0,0,7,0,0,7,2,0,5,7,5,7,2,2,2,0,5,7,2,5,0,5,9,2,0,2,0,5,2,0,2,7,0,0,0,2,0,0,2,9,5,0,0,2,0,5,2,0,0,2,0,0,0,0,0,0,0,0,0,0,0,0,0,0,0,0,0,0,0],"split_type":[0,0,0,0,0,0,0,0,0,0,0,0,0,0,0,0,0,0,0,0,0,0,0,0,0,0,0,0,0,0,0,0,0,0,0,0,0,0,0,0,0,0,0,0,0,0,0,0,0,0,0,0,0,0,0,0,0,0,0,0,0,0,0,0,0,0,0,0,0,0,0,0,0,0,0,0,0,0,0],"sum_hessian":[2.5E3,2.325E3,1.75E2,2.296E3,2.9E1,1.49E2,2.6E1,2.071E3,2.25E2,1.5E1,1.4E1,2.4E1,1.25E2,1E1,1.6E1,1.856E3,2.15E2,2E1,2.05E2,6.6E1,5.9E1,1.801E3,5.5E1,1.04E2,1.11E2,1E1,1.95E2,4.2E1,2.4E1,3.5E1,2.4E1,2.51E2,1.55E3,2.2E1,3.3E1,7.4E1,3E1,8.9E1,2.2E1,1.7E1,1.78E2,2.2E1,2E1,1.1E1,1.3E1,2.3E1,1.2E1,1.4E1,2.37E2,5.25E2,1.025E3,1.2E1,1E1,6.2E1,1.2E1,3.1E1,5.8E1,1.1E1,1.1E1,1.6E2,1.8E1,1.1E1,1.1E1,1.2E1,1.1E1,1.35E2,1.02E2,4.98E2,2.7E1,4E1,9.85E2,4.8E1,1.4E1,2E1,1.1E1,1.4E1,4.4E1,1.07E2,5.3E1],"tree_param":{"num_deleted":"0","num_feature":"10","num_nodes":"79","size_leaf_vector":"1"}},{"base_weights":[1.1370015E-5,-6.97224E-5,6.4626604E-4,-3.407769E-5,-3.317139E-4,2.6372594E-3,2.7701928E-4,-1.3477184E-5,-1.8175425E-3,1.864625E-3,3.802704E-4,4.7602083E-5,1.2385392E-3,-4.634672E-5,1.1819595E-3,-2.6250185E-4,-4.820343E-5,3.4846127E-4,9.535801E-5,1.8037524E-4,-1.7303787E-4,7.092692E-5,1.7942907E-4,5.874949E-5,-2.833904E-4,-8.55722E-6,1.5947504E-3,3.068259E-5,-1.6217033E-5,4.5458224E-4,-3.6652535E-4,3.1859523E-5,1.5116541E-4,-2.4357883E-3,-2.2680135E-5,2.0601724E-3,3.5778117E-5,2.3125052E-4,2.1513799E-4,-1.6873407E-4,4.591939E-4,5.3588363E-5,-2.2246856E-4,-1.1757788E-3,-3.7353344E-3,-1.4589247E-4,5.563506E-5,9.663468E-5,2.6184E-4,-4.068536E-5,3.5913035E-4,1.0696839E-3,-5.0684957E-5,-8.382015E-6,1.5990947E-5,-2.4952498E-4,1.5214924E-4,-5.380672E-4,-1.5803432E-4,2.20849E-5,-4.0214654E-5,5.553777E-5,1.2398369E-5,1.0289261E-5,1.9952068E-4],"categories":[],"categories_nodes":[],"categories_segments":[],"categories_sizes":[],"default_left":[0,0,0,0,0,0,0,0,0,0,0,0,0,0,0,0,0,0,0,0,0,0,0,0,0,0,0,0,0,0,0,0,0,0,0,0,0,0,0,0,0,0,0,0,0,0,0,0,0,0,0,0,0,0,0,0,0,0,0,0,0,0,0,0,0],"id":6,"left_children":[1,3,5,7,-1,9,11,13,15,17,-1,19,21,23,25,-1,-1,-1,27,29,-1,-1,-1,31,33,-1,35,-1,-1,37,39,41,-1,43,45,47,-1,49,-1,-1,51,53,-1,55,57,-1,59,-1,-1,-1,61,63,-1,-1,-1,-1,-1,-1,-1,-1,-1,-1,-1,-1,-1],"loss_changes":[1.2819187E-4,3.2292405E-4,2.0658677E-4,8.043671E-5,0E0,6.411312E-5,5.2661875E-5,8.5164385E-5,4.2981468E-5,1.512155E-4,0E0,5.7711037E-5,1.42084755E-5,5.2556883E-5,3.104841E-5,0E0,0E0,0E0,1.9073336E-6,2.7759988E-5,0E0,0E0,0E0,7.241893E-5,3.635714E-4,0E0,2.2509841E-5,0E0,0E0,6.126062E-5,9.092247E-5,8.887241E-5,0E0,1.10228924E-4,8.232791E-5,2.830784E-5,0E0,1.0924452E-5,0E0,0E0,2.9481242E-5,3.3656463E-5,0E0,2.3064995E-4,1.6682263E-4,0E0,6.957009E-5,0E0,0E0,0E0,6.585293E-6,3.7616617E-5,0E0,0E0,0E0,0E0,0E0,0E0,0E0,0E0,0E0,0E0,0E0,0E0,0E0],"parents":[2147483647,0,0,1,1,2,2,3,3,5,5,6,6,7,7,8,8,9,9,11,11,12,12,13,13,14,14,18,18,19,19,23,23,24,24,26,26,29,29,30,30,31,31,33,33,34,34,35,35,37,37,40,40,41,41,43,43,44,44,46,46,50,50,51,51],"right_children":[2,4,6,8,-1,10,12,14,16,18,-1,20,22,24,26,-1,-1,-1,28,30,-1,-1,-1,32,34,-1,36,-1,-1,38,40,42,-1,44,46,48,-1,50,-1,-1,52,54,-1,56,58,-1,60,-1,-1,-1,62,64,-1,-1,-1,-1,-1,-1,-1,-1,-1,-1,-1,-1,-1],"split_conditions":[1.1826092E0,1.172165E0,-2.147613E-1,2.0465844E0,-3.317139E-4,-2.242882E-1,1.3115798E0,1.932313E0,1.1412145E0,-2.528213E-1,3.802704E-4,1.3054268E0,-5.1583514E-2,2.6648355E-1,7.107434E-1,-2.6250185E-4,-4.820343E-5,3.4846127E-4,-2.4331819E-1,1.2692384E0,-1.7303787E-4,7.092692E-5,1.7942907E-4,2.4722332E-1,-1.857305E-1,-8.55722E-6,7.6729244E-1,3.068259E-5,-1.6217033E-5,1.2657194E0,-1.15677245E-1,2.4080859E-1,1.5116541E-4,2.9452723E-1,-4.4728792E-1,7.4168843E-1,3.5778117E-5,-1.8135458E-1,2.1513799E-4,-1.6873407E-4,1.8599385E0,-2.8128314E-1,-2.2246856E-4,2.6966497E-1,3.0448666E-1,-1.4589247E-4,1.0962744E0,9.663468E-5,2.6184E-4,-4.068536E-5,1.2859491E0,1.286855E0,-5.0684957E-5,-8.382015E-6,1.5990947E-5,-2.4952498E-4,1.5214924E-4,-5.380672E-4,-1.5803432E-4,2.20849E-5,-4.0214654E-5,5.553777E-5,1.2398369E-5,1.0289261E-5,1.9952068E-4],"split_indices":[4,4,1,9,0,1,4,9,4,1,0,4,1,9,1,0,0,0,1,4,0,0,0,9,4,0,1,0,0,4,1,9,0,1,1,1,0,1,0,0,1,1,0,1,1,0,4,0,0,0,6,4,0,0,0,0,0,0,0,0,0,0,0,0,0],"split_type":[0,0,0,0,0,0,0,0,0,0,0,0,0,0,0,0,0,0,0,0,0,0,0,0,0,0,0,0,0,0,0,0,0,0,0,0,0,0,0,0,0,0,0,0,0,0,0,0,0,0,0,0,0,0,0,0,0,0,0,0,0,0,0,0,0],"sum_hessian":[2.488E3,2.207E3,2.81E2,2.189E3,1.8E1,4.3E1,2.38E2,2.165E3,2.4E1,3.3E1,1E1,1.93E2,4.5E1,2.108E3,5.7E1,1E1,1.4E1,1.3E1,2E1,1.83E2,1E1,3.5E1,1E1,1.461E3,6.47E2,1.4E1,4.3E1,1E1,1E1,1.22E2,6.1E1,1.441E3,2E1,6.9E1,5.78E2,3E1,1.3E1,1.12E2,1E1,1.9E1,4.2E1,1.431E3,1E1,3.6E1,3.3E1,2.3E1,5.55E2,1.9E1,1.1E1,1.6E1,9.6E1,2.7E1,1.5E1,6.89E2,7.42E2,2.2E1,1.4E1,1.1E1,2.2E1,3.98E2,1.57E2,3.5E1,6.1E1,1.7E1,1E1],"tree_param":{"num_deleted":"0","num_feature":"10","num_nodes":"65","size_leaf_vector":"1"}},{"base_weights":[-7.9017016E-5,-3.0103014E-4,1.14868235E-4,-8.989498E-5,-1.1626215E-3,1.0243905E-3,6.9658836E-6,-2.1875187E-4,4.4433132E-4,-2.8003068E-3,-5.2804383E-4,4.6968675E-4,4.8172285E-4,-4.7268077E-5,1.3976109E-3,-2.8436902E-5,-5.64609E-4,3.2357054E-4,1.2749374E-4,-1.4493222E-3,-6.3479715E-4,-5.125203E-5,-2.6181221E-3,1.741619E-4,3.065525E-4,-3.4225247E-6,-1.2682811E-3,6.9738715E-4,1.7200483E-4,-1.7269336E-4,4.5997053E-4,-1.7868976E-4,-4.909003E-4,9.155897E-4,1.8724817E-4,-2.2772209E-4,3.2270633E-4,-2.949816E-4,1.0402261E-4,-3.8960238E-4,-5.526249E-5,-1.1688339E-4,5.384265E-4,2.659886E-5,-1.4961485E-3,-2.3798284E-3,2.984273E-5,8.8902794E-5,4.7115277E-6,4.634929E-4,-3.234064E-4,1.835602E-4,2.1485651E-4,-1.2802903E-3,-3.739806E-4,3.883716E-5,1.2321725E-4,1.1246067E-4,5.926165E-5,-6.347089E-5,9.382841E-5,2.8675784E-5,-6.029341E-4,1.182381E-4,3.0029056E-4,-6.6521534E-5,6.4139673E-4,-6.766563E-5,-1.5592854E-4,-8.1652266E-5,-2.7374082E-4,8.7819877E-4,-3.802851E-5,-1.08712E-4,-2.3796094E-4,-6.079565E-4,4.972336E-4,2.5221977E-6,-1.5397454E-4,6.430839E-4,-6.7235203E-4,2.3415477E-4,-9.0333124E-5,-4.0587148E-4,3.7920043E-5,-2.623746E-4,7.035395E-5,-1.9125151E-5,4.7877093E-4,-4.0798128E-5,-1.796598E-4,2.753747E-4,3.8176306E-4,1.6914733E-5,1.4802607E-4,-8.489635E-5,1.0634579E-4,1.4348804E-5,-3.6962985E-5,-1.3544307E-4,1.4615735E-5,6.065934E-5,-3.6212812E-5,-6.421371E-6,2.6608058E-4,-2.4189807E-4,-3.1752912E-5,9.469632E-6,9.395383E-5,2.8029666E-5,-9.439983E-5,2.617836E-5,-3.4703422E-5,1.07594686E-4,9.117474E-6,-6.9486136E-6,4.7661106E-5,6.417479E-5,1.6123691E-5],"categories":[],"categories_nodes":[],"categories_segments":[],"categories_sizes":[],"default_left":[0,0,0,0,0,0,0,0,0,0,0,0,0,0,0,0,0,0,0,0,0,0,0,0,0,0,0,0,0,0,0,0,0,0,0,0,0,0,0,0,0,0,0,0,0,0,0,0,0,0,0,0,0,0,0,0,0,0,0,0,0,0,0,0,0,0,0,0,0,0,0,0,0,0,0,0,0,0,0,0,0,0,0,0,0,0,0,0,0,0,0,0,0,0,0,0,0,0,0,0,0,0,0,0,0,0,0,0,0,0,0,0,0,0,0,0,0,0,0],"id":7,"left_children":[1,3,5,7,9,11,13,15,17,19,21,23,-1,25,27,29,31,33,-1,35,-1,37,39,-1,41,43,45,47,-1,49,51,-1,53,55,57,-1,59,61,-1,-1,-1,-1,63,65,67,69,-1,-1,-1,71,73,-1,75,77,79,-1,-1,81,-1,-1,-1,83,85,-1,87,89,91,-1,-1,-1,-1,93,95,-1,97,99,101,-1,-1,103,105,107,-1,109,-1,-1,111,-1,113,115,-1,-1,117,-1,-1,-1,-1,-1,-1,-1,-1,-1,-1,-1,-1,-1,-1,-1,-1,-1,-1,-1,-1,-1,-1,-1,-1,-1,-1],"loss_changes":[1.0794857E-4,2.1255086E-4,1.3140177E-4,6.4805616E-5,2.3754622E-4,3.939875E-4,9.041945E-5,4.9876864E-5,2.511948E-5,4.3703744E-4,1.662867E-4,3.5568886E-5,0E0,6.177619E-5,2.266009E-5,3.4602836E-5,3.2289354E-5,1.3306366E-5,0E0,1.3145166E-4,0E0,4.5809968E-5,1.3277933E-4,0E0,4.983897E-5,5.000707E-5,7.398236E-5,6.656649E-6,0E0,3.648901E-5,5.0294308E-5,0E0,2.3425666E-5,7.645323E-6,5.6389845E-6,0E0,2.4039704E-5,1.1678809E-5,0E0,0E0,0E0,0E0,2.352296E-5,6.2674415E-5,4.939953E-6,3.1028656E-5,0E0,0E0,0E0,1.5216221E-5,2.7079263E-5,0E0,2.3536651E-5,2.8527527E-5,6.9318485E-5,0E0,0E0,1.8814015E-5,0E0,0E0,0E0,1.1498648E-5,1.0926519E-4,0E0,8.418875E-6,5.3591055E-5,1.04264414E-4,0E0,0E0,0E0,0E0,2.5809146E-5,4.9648395E-5,0E0,2.7186796E-5,2.2891192E-5,1.9370747E-5,0E0,0E0,1.02112805E-4,1.126426E-4,1.2070394E-5,0E0,1.8219453E-5,0E0,0E0,6.5818017E-6,0E0,2.0555715E-5,2.8173123E-5,0E0,0E0,9.966181E-6,0E0,0E0,0E0,0E0,0E0,0E0,0E0,0E0,0E0,0E0,0E0,0E0,0E0,0E0,0E0,0E0,0E0,0E0,0E0,0E0,0E0,0E0,0E0,0E0,0E0,0E0],"parents":[2147483647,0,0,1,1,2,2,3,3,4,4,5,5,6,6,7,7,8,8,9,9,10,10,11,11,13,13,14,14,15,15,16,16,17,17,19,19,21,21,22,22,24,24,25,25,26,26,27,27,29,29,30,30,32,32,33,33,34,34,36,36,37,37,42,42,43,43,44,44,45,45,49,49,50,50,52,52,53,53,54,54,57,57,61,61,62,62,64,64,65,65,66,66,71,71,72,72,74,74,75,75,76,76,79,79,80,80,81,81,83,83,86,86,88,88,89,89,92,92],"right_children":[2,4,6,8,10,12,14,16,18,20,22,24,-1,26,28,30,32,34,-1,36,-1,38,40,-1,42,44,46,48,-1,50,52,-1,54,56,58,-1,60,62,-1,-1,-1,-1,64,66,68,70,-1,-1,-1,72,74,-1,76,78,80,-1,-1,82,-1,-1,-1,84,86,-1,88,90,92,-1,-1,-1,-1,94,96,-1,98,100,102,-1,-1,104,106,108,-1,110,-1,-1,112,-1,114,116,-1,-1,118,-1,-1,-1,-1,-1,-1,-1,-1,-1,-1,-1,-1,-1,-1,-1,-1,-1,-1,-1,-1,-1,-1,-1,-1,-1,-1],"split_conditions":[-6.1160382E-2,4.774656E-1,2.1192905E-2,-1.4465569E-1,5.565227E-1,8.405894E-1,1.3115798E0,-9.888906E-1,-5.882908E-1,5.477671E-1,7.287234E-1,-7.3596853E-1,4.8172285E-4,1.7739284E0,4.8233214E-1,-1.0809917E0,-9.75698E-1,-1.11901395E-1,1.2749374E-4,5.171799E-1,-6.3479715E-4,7.020485E-1,-5.9343114E-2,1.741619E-4,-4.1506268E-2,1.2983602E0,1.8032864E0,4.6929416E-1,1.7200483E-4,-1.8140174E0,-1.5117302E0,-1.7868976E-4,-1.4339817E0,-1.2010021E-1,4.9348675E-2,-2.2772209E-4,5.2591E-1,6.224228E-1,1.0402261E-4,-3.8960238E-4,-5.526249E-5,-1.1688339E-4,-4.2456716E-2,1.2201067E0,1.3054268E0,1.7837063E0,2.984273E-5,8.8902794E-5,4.7115277E-6,-1.5979106E0,-1.7983499E0,1.835602E-4,-1.0481817E0,-9.624944E-1,-1.3841329E0,3.883716E-5,1.2321725E-4,3.2689355E-2,5.926165E-5,-6.347089E-5,9.382841E-5,5.916182E-1,6.4006585E-1,1.182381E-4,-3.6544014E-2,1.2166083E0,3.483856E-1,-6.766563E-5,-1.5592854E-4,-8.1652266E-5,-2.7374082E-4,-1.60835E0,-1.5769929E0,-1.08712E-4,-1.682811E0,-2.382184E-1,-2.057765E-1,2.5221977E-6,-1.5397454E-4,-1.391272E0,-1.3720684E0,2.43701E-2,-9.0333124E-5,5.7844365E-1,3.7920043E-5,-2.623746E-4,6.754402E-1,-1.9125151E-5,-1.767857E-2,1.1826092E0,-1.796598E-4,2.753747E-4,4.0866184E-1,1.6914733E-5,1.4802607E-4,-8.489635E-5,1.0634579E-4,1.4348804E-5,-3.6962985E-5,-1.3544307E-4,1.4615735E-5,6.065934E-5,-3.6212812E-5,-6.421371E-6,2.6608058E-4,-2.4189807E-4,-3.1752912E-5,9.469632E-6,9.395383E-5,2.8029666E-5,-9.439983E-5,2.617836E-5,-3.4703422E-5,1.07594686E-4,9.117474E-6,-6.9486136E-6,4.7661106E-5,6.417479E-5,1.6123691E-5],"split_indices":[6,3,4,3,3,3,4,5,5,3,3,3,0,3,3,5,5,3,0,3,0,3,4,0,4,4,3,3,0,4,3,0,3,3,3,0,3,3,0,0,0,0,6,4,4,3,0,0,0,3,4,0,5,5,3,0,0,3,0,0,0,3,3,0,6,4,3,0,0,0,0,3,3,0,4,3,3,0,0,3,3,3,0,3,0,0,3,0,4,4,0,0,3,0,0,0,0,0,0,0,0,0,0,0,0,0,0,0,0,0,0,0,0,0,0,0,0,0,0],"split_type":[0,0,0,0,0,0,0,0,0,0,0,0,0,0,0,0,0,0,0,0,0,0,0,0,0,0,0,0,0,0,0,0,0,0,0,0,0,0,0,0,0,0,0,0,0,0,0,0,0,0,0,0,0,0,0,0,0,0,0,0,0,0,0,0,0,0,0,0,0,0,0,0,0,0,0,0,0,0,0,0,0,0,0,0,0,0,0,0,0,0,0,0,0,0,0,0,0,0,0,0,0,0,0,0,0,0,0,0,0,0,0,0,0,0,0,0,0,0,0],"sum_hessian":[2.506E3,1.168E3,1.338E3,9.39E2,2.29E2,1.41E2,1.197E3,7.57E2,1.82E2,6.3E1,1.66E2,1.28E2,1.3E1,1.153E3,4.4E1,4.89E2,2.68E2,1.66E2,1.6E1,5.1E1,1.2E1,1.36E2,3E1,1E1,1.18E2,1.114E3,3.9E1,2.4E1,2E1,3.78E2,1.11E2,1E1,2.58E2,3E1,1.36E2,2.8E1,2.3E1,1.16E2,2E1,1.3E1,1.7E1,1.3E1,1.05E2,1.093E3,2.1E1,2.3E1,1.6E1,1.4E1,1E1,7.2E1,3.06E2,1.2E1,9.9E1,3.2E1,2.26E2,1.9E1,1.1E1,1.21E2,1.5E1,1E1,1.3E1,5.7E1,5.9E1,2E1,8.5E1,9.5E2,1.43E2,1E1,1.1E1,1.1E1,1.2E1,3.9E1,3.3E1,2.2E1,2.84E2,2.5E1,7.4E1,1.1E1,2.1E1,5.1E1,1.75E2,1.11E2,1E1,2.9E1,2.8E1,1.1E1,4.8E1,2.1E1,6.4E1,9.4E2,1E1,1.1E1,1.32E2,2.4E1,1.5E1,1.9E1,1.4E1,1E2,1.84E2,1E1,1.5E1,5.8E1,1.6E1,4.1E1,1E1,1.7E1,1.58E2,1E2,1.1E1,1.5E1,1.4E1,3.2E1,1.6E1,1.8E1,4.6E1,8.77E2,6.3E1,3.8E1,9.4E1],"tree_param":{"num_deleted":"0","num_feature":"10","num_nodes":"119","size_leaf_vector":"1"}},{"base_weights":[-9.085361E-6,-2.2686637E-4,1.6713138E-4,-3.805909E-5,-1.1491835E-3,1.3605844E-4,1.6106194E-4,6.9720204E-6,-1.6836454E-4,-3.3615157E-3,-2.5534062E-5,1.6675907E-4,-1.3020346E-3,7.0016125E-5,-1.0112027E-3,-2.0309184E-3,-4.5902487E-3,2.0010238E-4,-1.7816358E-4,-1.3235414E-4,1.885305E-4,-2.8932642E-4,2.6198153E-5,3.9837832E-4,-1.4262207E-4,-5.9555465E-4,-2.0515654E-4,-3.3163704E-4,1.2606995E-4,-6.631079E-4,-2.3334876E-3,-6.547944E-5,1.3619813E-3,5.755569E-4,1.1886331E-4,3.231697E-4,1.2015624E-3,-1.3555535E-3,1.019334E-4,-7.1295035E-5,-1.7673086E-5,-2.7601889E-5,-3.4072917E-4,1.1849666E-4,-3.6843587E-4,7.7042394E-5,1.3240124E-4,2.4569134E-4,1.2316748E-3,5.193028E-4,3.222412E-5,4.1811023E-4,-5.9270224E-4,1.20778925E-4,4.309335E-5,-3.1917988E-4,-9.2874654E-4,4.8349462E-5,1.6035099E-4,-1.4194055E-3,2.65189E-4,4.6619668E-4,-5.563177E-4,1.8997023E-4,6.6292327E-4,2.6513403E-4,2.3933407E-3,-1.9736866E-4,7.594705E-5,6.4549386E-5,2.0744425E-5,-9.4800955E-5,3.236044E-5,1.2310988E-5,-1.5591066E-4,8.158742E-6,-1.164232E-4,-3.197348E-5,-2.5681316E-4,3.710652E-5,-3.546836E-5,8.3265595E-6,8.565612E-5,-1.6909023E-4,3.6995993E-5,9.178783E-5,3.8175804E-5,3.1314245E-5,-8.52762E-5,3.2852823E-4,4.783753E-5,1.316466E-6,6.513328E-5],"categories":[],"categories_nodes":[],"categories_segments":[],"categories_sizes":[],"default_left":[0,0,0,0,0,0,0,0,0,0,0,0,0,0,0,0,0,0,0,0,0,0,0,0,0,0,0,0,0,0,0,0,0,0,0,0,0,0,0,0,0,0,0,0,0,0,0,0,0,0,0,0,0,0,0,0,0,0,0,0,0,0,0,0,0,0,0,0,0,0,0,0,0,0,0,0,0,0,0,0,0,0,0,0,0,0,0,0,0,0,0,0,0],"id":8,"left_children":[1,3,5,7,9,11,-1,13,-1,15,17,19,21,23,25,27,29,31,-1,-1,33,-1,-1,35,37,39,-1,-1,-1,-1,41,43,45,47,49,51,53,55,57,-1,-1,-1,-1,-1,59,-1,-1,61,63,65,67,69,71,-1,-1,-1,73,75,-1,77,79,81,83,-1,85,87,89,-1,91,-1,-1,-1,-1,-1,-1,-1,-1,-1,-1,-1,-1,-1,-1,-1,-1,-1,-1,-1,-1,-1,-1,-1,-1],"loss_changes":[9.747626E-5,1.977795E-4,8.086109E-5,8.846767E-5,4.7969015E-4,6.123292E-5,0E0,5.9446476E-5,0E0,9.6949225E-5,6.496835E-5,5.4330965E-5,1.1188739E-4,6.09419E-5,3.371592E-5,2.6241003E-4,2.6016397E-4,3.6500907E-5,0E0,0E0,3.6035097E-5,0E0,0E0,2.033107E-5,1.5735156E-4,4.7535523E-6,0E0,0E0,0E0,0E0,8.391361E-5,4.6297115E-5,1.011249E-6,4.3849243E-5,3.9395374E-5,2.7638122E-5,5.2632786E-6,9.7360375E-5,4.528264E-5,0E0,0E0,0E0,0E0,0E0,5.4981887E-5,0E0,0E0,2.4487434E-5,4.324247E-5,9.5582465E-5,1.03048435E-4,1.7494876E-5,1.8495695E-5,0E0,0E0,0E0,8.7651424E-5,3.5589546E-5,0E0,5.584521E-5,7.674889E-6,2.3765846E-5,4.917349E-5,0E0,3.6666715E-6,3.1314536E-5,7.236525E-5,0E0,4.061665E-5,0E0,0E0,0E0,0E0,0E0,0E0,0E0,0E0,0E0,0E0,0E0,0E0,0E0,0E0,0E0,0E0,0E0,0E0,0E0,0E0,0E0,0E0,0E0,0E0],"parents":[2147483647,0,0,1,1,2,2,3,3,4,4,5,5,7,7,9,9,10,10,11,11,12,12,13,13,14,14,15,15,16,16,17,17,20,20,23,23,24,24,25,25,30,30,31,31,32,32,33,33,34,34,35,35,36,36,37,37,38,38,44,44,47,47,48,48,49,49,50,50,51,51,52,52,56,56,57,57,59,59,60,60,61,61,62,62,64,64,65,65,66,66,68,68],"right_children":[2,4,6,8,10,12,-1,14,-1,16,18,20,22,24,26,28,30,32,-1,-1,34,-1,-1,36,38,40,-1,-1,-1,-1,42,44,46,48,50,52,54,56,58,-1,-1,-1,-1,-1,60,-1,-1,62,64,66,68,70,72,-1,-1,-1,74,76,-1,78,80,82,84,-1,86,88,90,-1,92,-1,-1,-1,-1,-1,-1,-1,-1,-1,-1,-1,-1,-1,-1,-1,-1,-1,-1,-1,-1,-1,-1,-1,-1],"split_conditions":[-7.415802E-2,2.418887E-1,1.3266617E0,-8.892404E-2,5.8283335E-1,1.7837063E0,1.6106194E-4,1.7243611E0,-1.6836454E-4,2.9452723E-1,4.8616177E-1,-4.566211E-1,1.8032864E0,-1.391272E0,-1.4859593E0,2.7463326E-1,3.0448666E-1,4.7002098E-1,-1.7816358E-4,-1.3235414E-4,6.0293835E-2,-2.8932642E-4,2.6198153E-5,-1.3064914E0,-1.3505853E0,-1.5139563E0,-2.0515654E-4,-3.3163704E-4,1.2606995E-4,-6.631079E-4,3.16457E-1,3.5941204E-1,4.801267E-1,-1.469452E-2,-2.0664431E-1,-1.3409183E0,-1.2805958E0,-6.2777627E-1,2.3198141E-1,-7.1295035E-5,-1.7673086E-5,-2.7601889E-5,-3.4072917E-4,1.1849666E-4,3.9951622E-1,7.7042394E-5,1.3240124E-4,-2.3642942E-2,4.6310762E-1,-2.242882E-1,-1.6222124E-1,-1.7889485E0,-1.3151089E0,1.20778925E-4,4.309335E-5,-3.1917988E-4,1.7218299E0,2.0724931E-1,1.6035099E-4,3.7944743E-1,4.498348E-1,-4.1506268E-2,-6.974775E-1,1.8997023E-4,6.4814776E-2,-2.4807073E-1,-2.147613E-1,-1.9736866E-4,1.6959984E0,6.4549386E-5,2.0744425E-5,-9.4800955E-5,3.236044E-5,1.2310988E-5,-1.5591066E-4,8.158742E-6,-1.164232E-4,-3.197348E-5,-2.5681316E-4,3.710652E-5,-3.546836E-5,8.3265595E-6,8.565612E-5,-1.6909023E-4,3.6995993E-5,9.178783E-5,3.8175804E-5,3.1314245E-5,-8.52762E-5,3.2852823E-4,4.783753E-5,1.316466E-6,6.513328E-5],"split_indices":[4,1,4,4,3,3,0,7,0,1,1,1,3,3,1,1,1,1,0,0,4,0,0,1,3,1,0,0,0,0,1,1,1,4,1,1,1,7,1,0,0,0,0,0,1,0,0,4,7,1,1,1,1,0,0,0,7,1,0,1,1,4,3,0,1,1,1,0,3,0,0,0,0,0,0,0,0,0,0,0,0,0,0,0,0,0,0,0,0,0,0,0,0],"split_type":[0,0,0,0,0,0,0,0,0,0,0,0,0,0,0,0,0,0,0,0,0,0,0,0,0,0,0,0,0,0,0,0,0,0,0,0,0,0,0,0,0,0,0,0,0,0,0,0,0,0,0,0,0,0,0,0,0,0,0,0,0,0,0,0,0,0,0,0,0,0,0,0,0,0,0,0,0,0,0,0,0,0,0,0,0,0,0,0,0,0,0,0,0],"sum_hessian":[2.538E3,1.135E3,1.403E3,9.43E2,1.92E2,1.381E3,2.2E1,9.24E2,1.9E1,6.4E1,1.28E2,1.353E3,2.8E1,8.71E2,5.3E1,3.2E1,3.2E1,1.17E2,1.1E1,1.5E1,1.338E3,1.1E1,1.7E1,3.42E2,5.29E2,4.3E1,1E1,2E1,1.2E1,1.1E1,2.1E1,9.6E1,2.1E1,2.03E2,1.135E3,3.14E2,2.8E1,8.8E1,4.41E2,2.3E1,2E1,1.1E1,1E1,1.5E1,8.1E1,1.1E1,1E1,1.36E2,6.7E1,2.01E2,9.34E2,2.85E2,2.9E1,1.8E1,1E1,1.1E1,7.7E1,4.3E2,1.1E1,3E1,5.1E1,1.07E2,2.9E1,2.1E1,4.6E1,1.78E2,2.3E1,1.5E1,9.19E2,8E1,2.05E2,1.8E1,1.1E1,3.8E1,3.9E1,4.16E2,1.4E1,2E1,1E1,4E1,1.1E1,6.8E1,3.9E1,1.1E1,1.8E1,1.1E1,3.5E1,1.63E2,1.5E1,1.1E1,1.2E1,8.52E2,6.7E1],"tree_param":{"num_deleted":"0","num_feature":"10","num_nodes":"93","size_leaf_vector":"1"}},{"base_weights":[-1.3979956E-5,1.9907686E-3,-1.088333E-4,4.928197E-3,9.997246E-4,-5.31922E-4,-4.562604E-6,2.783295E-4,5.1942636E-4,-3.068872E-5,2.795628E-3,-3.902388E-4,-3.9600887E-4,1.554777E-4,-2.436004E-5,1.377742E-3,-4.600495E-4,1.6576192E-5,4.7057375E-4,1.7383815E-4,-4.769508E-4,-1.6799415E-3,1.5494641E-6,3.49842E-4,-4.4302622E-4,-3.052921E-4,-3.5790037E-4,5.051469E-5,-3.9837052E-4,-9.9178134E-5,3.2070532E-4,-1.9716019E-4,1.08709566E-4,8.770153E-4,-5.6554854E-4,-1.1650653E-3,2.2980492E-5,-1.8046657E-4,4.1640055E-4,-1.2398437E-4,3.195701E-4,-4.819423E-4,-1.7946187E-4,-5.5244383E-3,-3.8223242E-4,3.9118232E-4,-1.2375663E-4,3.298176E-3,1.6064665E-4,4.3234777E-5,-1.561032E-4,1.602425E-5,-5.5178054E-5,-2.4247423E-4,-6.134322E-4,1.420553E-4,-6.4897475E-5,-1.5348716E-5,4.3726628E-5,-6.4562782E-6,-1.5913372E-4,1.0810695E-4,3.2813894E-4,-1.9778406E-4,2.6278241E-5],"categories":[],"categories_nodes":[],"categories_segments":[],"categories_sizes":[],"default_left":[0,0,0,0,0,0,0,0,0,0,0,0,0,0,0,0,0,0,0,0,0,0,0,0,0,0,0,0,0,0,0,0,0,0,0,0,0,0,0,0,0,0,0,0,0,0,0,0,0,0,0,0,0,0,0,0,0,0,0,0,0,0,0,0,0],"id":9,"left_children":[1,3,5,7,9,11,13,-1,-1,15,17,-1,19,-1,21,23,-1,-1,-1,-1,25,27,29,-1,31,-1,33,-1,-1,35,37,-1,-1,39,41,43,45,-1,47,49,-1,51,-1,53,55,57,59,61,63,-1,-1,-1,-1,-1,-1,-1,-1,-1,-1,-1,-1,-1,-1,-1,-1],"loss_changes":[4.71426E-4,3.2111874E-4,1.0441955E-4,4.131114E-5,1.5738024E-4,2.766031E-4,7.381953E-5,0E0,0E0,4.540879E-4,2.4950065E-4,0E0,9.619886E-5,0E0,8.073156E-5,2.4980036E-4,0E0,0E0,0E0,0E0,1.7569796E-4,2.2704553E-4,5.9633836E-5,0E0,1.1044641E-4,0E0,1.1024715E-4,0E0,0E0,1.8361908E-4,1.1131812E-4,0E0,0E0,1.9566689E-4,5.08573E-5,4.9272424E-4,6.8448964E-5,0E0,3.1639106E-4,6.0092207E-5,0E0,5.1120296E-5,0E0,9.5888914E-5,1.1837253E-4,3.3670545E-5,7.219401E-5,5.0766306E-5,1.7926768E-4,0E0,0E0,0E0,0E0,0E0,0E0,0E0,0E0,0E0,0E0,0E0,0E0,0E0,0E0,0E0,0E0],"parents":[2147483647,0,0,1,1,2,2,3,3,4,4,5,5,6,6,9,9,10,10,12,12,14,14,15,15,20,20,21,21,22,22,24,24,26,26,29,29,30,30,33,33,34,34,35,35,36,36,38,38,39,39,41,41,43,43,44,44,45,45,46,46,47,47,48,48],"right_children":[2,4,6,8,10,12,14,-1,-1,16,18,-1,20,-1,22,24,-1,-1,-1,-1,26,28,30,-1,32,-1,34,-1,-1,36,38,-1,-1,40,42,44,46,-1,48,50,-1,52,-1,54,56,58,60,62,64,-1,-1,-1,-1,-1,-1,-1,-1,-1,-1,-1,-1,-1,-1,-1,-1],"split_conditions":[-2.3169267E0,-4.0841717E-1,-9.063834E-1,-2.4345669E-1,5.562022E-1,-1.7204423E0,-8.864821E-1,2.783295E-4,5.1942636E-4,2.873433E-1,-3.0626385E-2,-3.902388E-4,-1.3185737E0,1.554777E-4,-8.5947114E-1,-3.0201259E0,-4.600495E-4,1.6576192E-5,4.7057375E-4,1.7383815E-4,-1.0056034E0,-8.696529E-1,1.0708878E0,3.49842E-4,-5.1316533E-2,-3.052921E-4,-1.6796729E-1,5.051469E-5,-3.9837052E-4,-3.8197532E-1,-2.2849312E0,-1.9716019E-4,1.08709566E-4,-4.505019E-1,1.3590696E0,-6.8703794E-1,1.827542E-1,-1.8046657E-4,-1.7204423E0,-8.0815214E-1,3.195701E-4,-1.3349471E0,-1.7946187E-4,-7.595858E-1,-4.56297E-1,-6.0739785E-1,1.7243611E0,1.0917408E0,-1.4326531E0,4.3234777E-5,-1.561032E-4,1.602425E-5,-5.5178054E-5,-2.4247423E-4,-6.134322E-4,1.420553E-4,-6.4897475E-5,-1.5348716E-5,4.3726628E-5,-6.4562782E-6,-1.5913372E-4,1.0810695E-4,3.2813894E-4,-1.9778406E-4,2.6278241E-5],"split_indices":[0,8,8,6,8,0,8,0,0,8,6,0,0,0,8,0,0,0,0,0,0,8,6,0,6,0,0,0,0,0,0,0,0,0,0,8,0,0,0,0,0,6,0,8,8,7,7,6,0,0,0,0,0,0,0,0,0,0,0,0,0,0,0,0,0],"split_type":[0,0,0,0,0,0,0,0,0,0,0,0,0,0,0,0,0,0,0,0,0,0,0,0,0,0,0,0,0,0,0,0,0,0,0,0,0,0,0,0,0,0,0,0,0,0,0,0,0,0,0,0,0,0,0,0,0,0,0,0,0,0,0,0,0],"sum_hessian":[2.477E3,1.11E2,2.366E3,2.7E1,8.4E1,4.67E2,1.899E3,1.6E1,1.1E1,5.4E1,3E1,1.3E1,4.54E2,1.8E1,1.881E3,4.4E1,1E1,1.7E1,1.3E1,1.3E1,4.41E2,2.8E1,1.853E3,1.6E1,2.8E1,1.4E1,4.27E2,1.7E1,1.1E1,1.409E3,4.44E2,1.3E1,1.5E1,6.1E1,3.66E2,1.44E2,1.265E3,1.5E1,4.29E2,4.7E1,1.4E1,3.5E2,1.6E1,2.1E1,1.23E2,3.6E2,9.05E2,3.4E1,3.95E2,3.5E1,1.2E1,8.3E1,2.67E2,1.1E1,1E1,2E1,1.03E2,7.7E1,2.83E2,8.86E2,1.9E1,1.1E1,2.3E1,2.3E1,3.72E2],"tree_param":{"num_deleted":"0","num_feature":"10","num_nodes":"65","size_leaf_vector":"1"}},{"base_weights":[3.5895027E-5,6.8442656E-5,-3.363691E-4,-2.163343E-4,3.1361025E-4,-4.5490124E-6,-6.7909015E-4,1.3344012E-4,6.8267557E-4,-1.8779047E-4,3.95804E-4,-1.445362E-3,-9.83293E-5,1.7432784E-4,-1.8222549E-4,4.7040504E-4,5.4679427E-4,-1.0377944E-4,-1.5287239E-3,1.571664E-3,-7.2809766E-5,-3.1789315E-3,-2.987655E-4,4.5115678E-4,-1.1131552E-3,1.2609322E-4,1.7060197E-3,2.6580507E-3,2.738327E-4,-3.1940016E-4,5.610192E-4,-2.5032938E-5,-2.291033E-4,2.3755955E-3,3.9377116E-4,-1.6544465E-4,9.7086944E-5,-1.8555091E-3,-4.828329E-4,2.4879097E-3,-2.650976E-3,7.441848E-4,-1.4102263E-4,-3.1089716E-4,-2.5870436E-4,1.84576E-4,-1.6872111E-3,5.0090024E-5,1.9119204E-4,5.0494546E-4,1.5472593E-3,1.676039E-3,3.2122934E-5,7.041326E-5,-5.0713646E-4,2.2151058E-4,3.4503383E-4,1.4230331E-3,2.9342505E-4,7.25398E-5,-9.338688E-6,3.2086365E-4,-6.158313E-4,-3.1824608E-3,1.9187023E-4,-9.7290875E-5,3.7624466E-3,-6.31813E-3,2.4887495E-4,1.8456388E-3,5.870388E-5,-1.293536E-3,3.80879E-4,1.3988357E-4,1.6140287E-4,-1.9746303E-5,-2.114278E-4,-4.152251E-5,2.6022648E-3,5.256615E-4,4.648667E-4,9.399298E-4,-2.9195801E-4,-8.584474E-6,1.3059915E-4,-3.0200812E-4,-2.8713535E-5,6.9697694E-6,2.2195694E-4,1.9011064E-4,7.3574124E-6,-2.208763E-6,1.1514834E-4,-1.7033838E-4,-2.7883E-6,-1.4110302E-4,-4.7376798E-4,4.109987E-4,1.5424377E-4,-2.7918542E-4,-7.1977766E-4,-6.470526E-5,1.2094724E-4,2.9178422E-5,1.872597E-4,1.4739974E-4,-3.6541485E-5,-2.1493445E-4,2.8903845E-5,9.248514E-5,-3.7093516E-5,-7.747421E-5,1.7168932E-5,3.437909E-4,1.8278952E-5,1.1463703E-4,-1.9387962E-4,-1.27659205E-5,2.024839E-4,-3.8405674E-4,4.168768E-6],"categories":[],"categories_nodes":[],"categories_segments":[],"categories_sizes":[],"default_left":[0,0,0,0,0,0,0,0,0,0,0,0,0,0,0,0,0,0,0,0,0,0,0,0,0,0,0,0,0,0,0,0,0,0,0,0,0,0,0,0,0,0,0,0,0,0,0,0,0,0,0,0,0,0,0,0,0,0,0,0,0,0,0,0,0,0,0,0,0,0,0,0,0,0,0,0,0,0,0,0,0,0,0,0,0,0,0,0,0,0,0,0,0,0,0,0,0,0,0,0,0,0,0,0,0,0,0,0,0,0,0,0,0,0,0,0,0,0,0,0,0],"id":10,"left_children":[1,3,-1,5,7,9,11,13,15,17,19,21,23,25,-1,-1,27,29,31,33,35,37,39,41,43,45,47,49,51,53,55,-1,-1,57,59,-1,61,63,-1,65,67,69,-1,-1,71,73,75,-1,-1,-1,77,79,81,83,85,-1,87,89,-1,-1,-1,91,93,95,-1,-1,97,99,101,103,105,107,109,-1,111,-1,-1,-1,113,115,-1,117,119,-1,-1,-1,-1,-1,-1,-1,-1,-1,-1,-1,-1,-1,-1,-1,-1,-1,-1,-1,-1,-1,-1,-1,-1,-1,-1,-1,-1,-1,-1,-1,-1,-1,-1,-1,-1,-1,-1],"loss_changes":[3.4890926E-4,1.7398469E-4,0E0,1.1299654E-4,8.8945104E-5,5.8176458E-5,1.6095536E-4,8.979988E-5,3.0917831E-4,6.1124694E-5,1.3731947E-4,3.0913219E-4,1.1593217E-4,6.5316955E-5,0E0,0E0,2.4650138E-4,7.371485E-5,5.1698167E-5,6.629765E-5,6.1307655E-5,2.2646779E-4,6.293058E-4,8.937494E-5,1.7360286E-4,9.1617956E-5,1.8815983E-5,1.913702E-4,1.2907734E-4,2.8430371E-5,5.9634862E-5,0E0,0E0,4.7439957E-5,8.070219E-6,0E0,2.6680324E-5,2.570022E-4,0E0,2.1279126E-4,5.545509E-4,9.0494745E-5,0E0,0E0,3.8218765E-5,3.0207673E-5,3.715755E-5,0E0,0E0,0E0,8.6522785E-5,2.658344E-4,9.6184565E-5,3.5829853E-5,1.2442375E-4,0E0,7.2833594E-5,3.331435E-5,0E0,0E0,0E0,4.999964E-5,3.541627E-5,1.223661E-4,0E0,0E0,7.470028E-5,1.449319E-4,4.1849707E-5,3.388661E-5,7.071666E-5,5.2443458E-5,2.4439229E-5,0E0,5.1399635E-5,0E0,0E0,0E0,1.0535575E-4,1.2590003E-4,0E0,1.5263609E-4,3.7721047E-4,0E0,0E0,0E0,0E0,0E0,0E0,0E0,0E0,0E0,0E0,0E0,0E0,0E0,0E0,0E0,0E0,0E0,0E0,0E0,0E0,0E0,0E0,0E0,0E0,0E0,0E0,0E0,0E0,0E0,0E0,0E0,0E0,0E0,0E0,0E0,0E0,0E0,0E0],"parents":[2147483647,0,0,1,1,3,3,4,4,5,5,6,6,7,7,8,8,9,9,10,10,11,11,12,12,13,13,16,16,17,17,18,18,19,19,20,20,21,21,22,22,23,23,24,24,25,25,26,26,27,27,28,28,29,29,30,30,33,33,34,34,36,36,37,37,39,39,40,40,41,41,44,44,45,45,46,46,50,50,51,51,52,52,53,53,54,54,56,56,57,57,61,61,62,62,63,63,66,66,67,67,68,68,69,69,70,70,71,71,72,72,74,74,78,78,79,79,81,81,82,82],"right_children":[2,4,-1,6,8,10,12,14,16,18,20,22,24,26,-1,-1,28,30,32,34,36,38,40,42,44,46,48,50,52,54,56,-1,-1,58,60,-1,62,64,-1,66,68,70,-1,-1,72,74,76,-1,-1,-1,78,80,82,84,86,-1,88,90,-1,-1,-1,92,94,96,-1,-1,98,100,102,104,106,108,110,-1,112,-1,-1,-1,114,116,-1,118,120,-1,-1,-1,-1,-1,-1,-1,-1,-1,-1,-1,-1,-1,-1,-1,-1,-1,-1,-1,-1,-1,-1,-1,-1,-1,-1,-1,-1,-1,-1,-1,-1,-1,-1,-1,-1,-1,-1],"split_conditions":[3.1674602E0,-6.1160382E-2,-3.363691E-4,-6.8266183E-1,9.214908E-1,1.9775729E-1,-2.0025128E-1,2.4445193E0,4.7848073E-1,4.8772182E-2,5.3279114E-1,-6.5593255E-1,2.8207762E-2,2.057377E0,-1.8222549E-4,4.7040504E-4,-7.909077E-3,-9.1619503E-1,-1.1882951E0,-1.1283164E0,5.8423305E-1,1.0554584E0,-1.7060284E-1,1.2065437E0,2.1267307E-1,1.7035792E0,-3.7715045E-1,2.1267307E-1,5.868935E-1,-1.2482425E0,-1.1882951E0,-2.5032938E-5,-2.291033E-4,-1.1398778E0,3.6675233E-1,-1.6544465E-4,-8.7640226E-1,1.019047E0,-4.828329E-4,-5.204469E-1,3.7772968E-1,-7.022373E-1,-1.4102263E-4,-3.1089716E-4,1.1434973E0,-5.7216927E-2,-3.868603E-1,5.0090024E-5,1.9119204E-4,5.0494546E-4,9.0944916E-1,8.9025676E-1,1.0953476E0,-1.3358585E0,-1.2417557E0,2.2151058E-4,-1.4577258E-1,-1.341161E0,2.9342505E-4,7.25398E-5,-9.338688E-6,-1.215377E0,-8.2985145E-1,-5.204469E-1,1.9187023E-4,-9.7290875E-5,-3.1742528E-1,7.585237E-2,-5.882908E-1,-2.4940038E-1,-1.8289337E-1,-8.4699735E-2,9.0944916E-1,1.3988357E-4,-2.1740686E-2,-1.9746303E-5,-2.114278E-4,-4.152251E-5,1.3379503E0,3.6675233E-1,4.648667E-4,1.9408737E0,1.1123328E0,-8.584474E-6,1.3059915E-4,-3.0200812E-4,-2.8713535E-5,6.9697694E-6,2.2195694E-4,1.9011064E-4,7.3574124E-6,-2.208763E-6,1.1514834E-4,-1.7033838E-4,-2.7883E-6,-1.4110302E-4,-4.7376798E-4,4.109987E-4,1.5424377E-4,-2.7918542E-4,-7.1977766E-4,-6.470526E-5,1.2094724E-4,2.9178422E-5,1.872597E-4,1.4739974E-4,-3.6541485E-5,-2.1493445E-4,2.8903845E-5,9.248514E-5,-3.7093516E-5,-7.747421E-5,1.7168932E-5,3.437909E-4,1.8278952E-5,1.1463703E-4,-1.9387962E-4,-1.27659205E-5,2.024839E-4,-3.8405674E-4,4.168768E-6],"split_indices":[8,6,0,5,2,8,6,8,5,8,8,8,8,8,0,0,6,5,2,2,8,2,8,2,8,8,2,8,5,5,2,0,0,5,8,0,5,2,0,2,8,8,0,0,5,6,5,0,0,0,8,8,6,2,5,0,8,2,0,0,0,2,5,2,0,0,8,8,5,5,6,6,8,0,6,0,0,0,8,8,0,2,6,0,0,0,0,0,0,0,0,0,0,0,0,0,0,0,0,0,0,0,0,0,0,0,0,0,0,0,0,0,0,0,0,0,0,0,0,0,0],"split_type":[0,0,0,0,0,0,0,0,0,0,0,0,0,0,0,0,0,0,0,0,0,0,0,0,0,0,0,0,0,0,0,0,0,0,0,0,0,0,0,0,0,0,0,0,0,0,0,0,0,0,0,0,0,0,0,0,0,0,0,0,0,0,0,0,0,0,0,0,0,0,0,0,0,0,0,0,0,0,0,0,0,0,0,0,0,0,0,0,0,0,0,0,0,0,0,0,0,0,0,0,0,0,0,0,0,0,0,0,0,0,0,0,0,0,0,0,0,0,0,0,0],"sum_hessian":[2.508E3,2.49E3,1.8E1,1.152E3,1.338E3,7.91E2,3.61E2,9E2,4.38E2,5.43E2,2.48E2,1.55E2,2.06E2,8.86E2,1.4E1,1E1,4.28E2,5.12E2,3.1E1,7E1,1.78E2,6.1E1,9.4E1,1.34E2,7.2E1,8.6E2,2.6E1,4.8E1,3.8E2,3.87E2,1.25E2,1.7E1,1.4E1,4.1E1,2.9E1,1.3E1,1.65E2,4.3E1,1.8E1,4.3E1,5.1E1,1.19E2,1.5E1,1.6E1,5.6E1,8.34E2,2.6E1,1.1E1,1.5E1,1E1,3.8E1,5.5E1,3.25E2,1.26E2,2.61E2,1E1,1.15E2,2.5E1,1.6E1,1.4E1,1.5E1,1.26E2,3.9E1,3.3E1,1E1,1.1E1,3.2E1,2.2E1,2.9E1,4.5E1,7.4E1,2.1E1,3.5E1,1.1E1,8.23E2,1.1E1,1.5E1,1.3E1,2.5E1,4.4E1,1.1E1,8.5E1,2.4E2,1.14E2,1.2E1,1E1,2.51E2,1.05E2,1E1,1.4E1,1.1E1,9.7E1,2.9E1,1E1,2.9E1,2.3E1,1E1,1.7E1,1.5E1,1.2E1,1E1,1.6E1,1.3E1,1.2E1,3.3E1,1.6E1,5.8E1,1.1E1,1E1,1.8E1,1.7E1,3.7E1,7.86E2,1.4E1,1.1E1,3.4E1,1E1,5.1E1,3.4E1,1.6E1,2.24E2],"tree_param":{"num_deleted":"0","num_feature":"10","num_nodes":"121","size_leaf_vector":"1"}},{"base_weights":[7.672932E-7,-6.269248E-5,4.0972806E-4,-4.0922747E-5,-1.5390343E-3,2.1638091E-4,3.2462084E-4,4.1999803E-5,-3.8509193E-4,-2.6163706E-4,6.2204384E-7,-1.02631544E-4,4.2718457E-4,-3.4308214E-5,6.964347E-4,-3.0687288E-4,-2.8264074E-4,8.5146993E-4,-7.372801E-5,-8.0474E-6,-1.4802413E-3,2.6455772E-4,5.086888E-4,1.6133139E-3,-4.254607E-4,4.44694E-4,3.368461E-4,-2.1302291E-4,2.5020933E-4,-2.471703E-4,4.8911344E-5,-2.251929E-4,2.3823492E-5,1.7690611E-3,2.4071777E-4,-7.887452E-5,2.7900102E-4,-6.029046E-4,-2.131079E-4,1.5264131E-4,2.4456313E-4,-4.9967217E-5,3.457419E-4,1.7142635E-4,-7.307087E-4,6.324163E-4,1.8366472E-5,1.0057104E-4,2.0051771E-4,-6.3150596E-6,1.0978102E-3,-3.6719226E-4,6.656768E-4,-5.7576188E-5,7.1311026E-4,2.7196086E-4,7.697041E-5,3.6534886E-5,-5.5407545E-6,-8.929637E-5,-2.4596788E-5,1.8865316E-5,1.794584E-4,6.153556E-5,-1.528917E-7,2.8382008E-5,-2.682878E-4,2.06294E-4,-4.4722226E-5,-1.5382533E-5,-1.3041808E-4,2.0467183E-5,9.228686E-5,-2.8757191E-5,5.607098E-5,1.9988645E-4,1.8708075E-5,3.2768163E-5,-4.8266313E-5],"categories":[],"categories_nodes":[],"categories_segments":[],"categories_sizes":[],"default_left":[0,0,0,0,0,0,0,0,0,0,0,0,0,0,0,0,0,0,0,0,0,0,0,0,0,0,0,0,0,0,0,0,0,0,0,0,0,0,0,0,0,0,0,0,0,0,0,0,0,0,0,0,0,0,0,0,0,0,0,0,0,0,0,0,0,0,0,0,0,0,0,0,0,0,0,0,0,0,0],"id":11,"left_children":[1,3,5,7,9,-1,11,13,15,-1,-1,-1,17,19,21,-1,23,25,27,29,31,-1,33,35,37,39,-1,-1,41,43,45,-1,-1,47,49,-1,-1,-1,51,-1,53,-1,55,57,59,61,63,-1,-1,65,67,69,71,73,75,77,-1,-1,-1,-1,-1,-1,-1,-1,-1,-1,-1,-1,-1,-1,-1,-1,-1,-1,-1,-1,-1,-1,-1],"loss_changes":[6.607495E-5,7.0772636E-5,6.645127E-5,6.203226E-5,8.68299E-5,0E0,5.542031E-5,8.7516375E-5,1.492285E-4,0E0,0E0,0E0,6.637211E-5,5.9603157E-5,8.876927E-5,0E0,1.1197705E-4,2.3100225E-4,1.2228581E-4,2.1027965E-5,6.8324276E-5,0E0,5.7666002E-5,1.4691203E-4,5.8087753E-4,4.443837E-5,0E0,0E0,1.1050442E-5,6.024031E-5,2.221377E-5,0E0,0E0,8.199175E-6,3.0284318E-5,0E0,0E0,0E0,5.0751245E-5,0E0,1.9152536E-5,0E0,5.1138486E-6,1.115843E-5,2.249772E-5,3.9285485E-5,1.8195571E-5,0E0,0E0,1.3840705E-4,8.108509E-5,7.002089E-5,1.1030315E-5,1.9533849E-5,4.5039233E-5,1.3339919E-5,0E0,0E0,0E0,0E0,0E0,0E0,0E0,0E0,0E0,0E0,0E0,0E0,0E0,0E0,0E0,0E0,0E0,0E0,0E0,0E0,0E0,0E0,0E0],"parents":[2147483647,0,0,1,1,2,2,3,3,4,4,6,6,7,7,8,8,12,12,13,13,14,14,16,16,17,17,18,18,19,19,20,20,22,22,23,23,24,24,25,25,28,28,29,29,30,30,33,33,34,34,38,38,40,40,42,42,43,43,44,44,45,45,46,46,49,49,50,50,51,51,52,52,53,53,54,54,55,55],"right_children":[2,4,6,8,10,-1,12,14,16,-1,-1,-1,18,20,22,-1,24,26,28,30,32,-1,34,36,38,40,-1,-1,42,44,46,-1,-1,48,50,-1,-1,-1,52,-1,54,-1,56,58,60,62,64,-1,-1,66,68,70,72,74,76,78,-1,-1,-1,-1,-1,-1,-1,-1,-1,-1,-1,-1,-1,-1,-1,-1,-1,-1,-1,-1,-1,-1,-1],"split_conditions":[1.2347709E0,1.2006687E0,1.2415998E0,9.1199476E-1,-2.242882E-1,2.1638091E-4,-1.8135458E-1,3.349803E-1,2.5973454E-1,-2.6163706E-4,6.2204384E-7,-1.02631544E-4,7.727109E-1,1.0469897E0,-3.5683444E-1,-3.0687288E-4,2.9452723E-1,7.4168843E-1,1.1123328E0,-1.4690021E0,-3.8643217E-1,2.6455772E-4,-2.549326E-1,2.6966497E-1,3.0448666E-1,-1.5743293E-1,3.368461E-4,-2.1302291E-4,8.1395143E-1,-1.2414027E0,-1.1071906E0,-2.251929E-4,2.3823492E-5,2.2999291E-1,1.1364219E0,-7.887452E-5,2.7900102E-4,-6.029046E-4,1.4148813E0,1.5264131E-4,1.2371528E0,-4.9967217E-5,1.4746598E0,-1.8053728E0,-1.0227369E0,-4.192416E-1,-1.4094288E0,1.0057104E-4,2.0051771E-4,1.1295321E0,-2.6231647E-1,1.2776082E0,1.4746598E0,7.107434E-1,-1.1086953E-1,1.4300779E0,7.697041E-5,3.6534886E-5,-5.5407545E-6,-8.929637E-5,-2.4596788E-5,1.8865316E-5,1.794584E-4,6.153556E-5,-1.528917E-7,2.8382008E-5,-2.682878E-4,2.06294E-4,-4.4722226E-5,-1.5382533E-5,-1.3041808E-4,2.0467183E-5,9.228686E-5,-2.8757191E-5,5.607098E-5,1.9988645E-4,1.8708075E-5,3.2768163E-5,-4.8266313E-5],"split_indices":[9,9,9,5,1,0,1,5,1,0,0,0,1,6,1,0,1,1,6,1,1,0,6,1,1,1,0,0,1,9,5,0,0,1,6,0,0,0,5,0,6,0,5,1,9,1,1,0,0,6,1,5,5,1,1,5,0,0,0,0,0,0,0,0,0,0,0,0,0,0,0,0,0,0,0,0,0,0,0],"split_type":[0,0,0,0,0,0,0,0,0,0,0,0,0,0,0,0,0,0,0,0,0,0,0,0,0,0,0,0,0,0,0,0,0,0,0,0,0,0,0,0,0,0,0,0,0,0,0,0,0,0,0,0,0,0,0,0,0,0,0,0,0,0,0,0,0,0,0,0,0,0,0,0,0,0,0,0,0,0,0],"sum_hessian":[2.544E3,2.203E3,3.41E2,2.172E3,3.1E1,1.1E1,3.3E2,1.751E3,4.21E2,1.4E1,1.7E1,1.9E1,3.11E2,1.569E3,1.82E2,1.1E1,4.1E2,1.68E2,1.43E2,1.542E3,2.7E1,1.1E1,1.71E2,2.8E1,3.82E2,1.51E2,1.7E1,1.5E1,1.28E2,2.96E2,1.246E3,1.5E1,1.2E1,2.9E1,1.42E2,1.2E1,1.6E1,1E1,3.72E2,1.7E1,1.34E2,1.2E1,1.16E2,1.59E2,1.37E2,6.1E1,1.185E3,1.9E1,1E1,1.11E2,3.1E1,3.17E2,5.5E1,8.2E1,5.2E1,1.05E2,1.1E1,7.2E1,8.7E1,7E1,6.7E1,5E1,1.1E1,3E1,1.155E3,1.01E2,1E1,1.6E1,1.5E1,2.8E2,3.7E1,3.1E1,2.4E1,5.9E1,2.3E1,1E1,4.2E1,9.1E1,1.4E1],"tree_param":{"num_deleted":"0","num_feature":"10","num_nodes":"79","size_leaf_vector":"1"}},{"base_weights":[-4.751124E-5,1.8224996E-3,-7.6007585E-5,-9.411695E-5,2.9387116E-3,4.5645294E-5,-4.2010684E-4,-2.6442528E-6,5.0620246E-4,1.023413E-3,-5.8262587E-5,-2.5894246E-3,-1.5428639E-4,-1.5571747E-4,1.2916524E-3,1.5836753E-5,-2.6110853E-3,-3.567213E-4,-2.0861912E-3,-6.3937E-5,-1.1562092E-3,2.6367975E-3,8.61634E-4,-8.719646E-6,1.4986622E-4,3.2679536E-4,-8.200256E-4,1.1106529E-4,-2.931319E-3,5.3914916E-4,-3.9588608E-4,1.3872978E-4,-1.9658655E-3,1.7349165E-3,3.0392216E-4,1.1149818E-3,-1.2848555E-4,2.4020583E-5,-1.3197842E-3,-1.9897442E-4,1.9126391E-3,-3.606507E-4,-1.6784706E-3,3.7337342E-4,1.4743656E-4,-1.4687809E-3,-1.5098834E-4,-2.8855712E-4,-8.673085E-6,2.1262001E-4,5.8241276E-5,7.975679E-4,2.5083643E-4,7.20099E-4,-1.0098712E-5,-2.4342793E-3,4.971791E-5,2.582269E-4,3.3066768E-5,3.9817944E-5,-3.362698E-4,2.5275347E-4,1.2736961E-4,-5.0947E-4,-3.4088239E-3,5.4973236E-4,-3.0437528E-4,1.024606E-4,-3.1239553E-5,2.5237317E-5,2.3518805E-4,-8.2484075E-5,2.208628E-6,-8.903945E-5,-3.181942E-4,7.045023E-5,2.1089022E-6,-1.4713555E-4,2.5716537E-5,-3.7068623E-4,-1.4642336E-4,3.4653183E-6,1.7409753E-4,-6.385555E-5,3.7884895E-6],"categories":[],"categories_nodes":[],"categories_segments":[],"categories_sizes":[],"default_left":[0,0,0,0,0,0,0,0,0,0,0,0,0,0,0,0,0,0,0,0,0,0,0,0,0,0,0,0,0,0,0,0,0,0,0,0,0,0,0,0,0,0,0,0,0,0,0,0,0,0,0,0,0,0,0,0,0,0,0,0,0,0,0,0,0,0,0,0,0,0,0,0,0,0,0,0,0,0,0,0,0,0,0,0,0],"id":12,"left_children":[1,3,5,-1,7,9,11,-1,-1,13,15,17,19,-1,21,23,25,-1,27,29,31,33,35,37,-1,39,-1,-1,41,43,45,-1,47,49,-1,51,-1,53,55,-1,57,-1,59,61,-1,63,65,-1,-1,-1,-1,67,-1,69,71,73,-1,-1,-1,-1,-1,75,-1,77,79,81,83,-1,-1,-1,-1,-1,-1,-1,-1,-1,-1,-1,-1,-1,-1,-1,-1,-1,-1],"loss_changes":[1.3490509E-4,1.3102365E-4,1.04335944E-4,0E0,2.8578978E-4,1.8720274E-4,3.7499896E-4,0E0,0E0,1.4416383E-4,3.1518604E-4,5.85159E-5,5.252E-5,0E0,9.20133E-5,7.441593E-5,1.0678102E-3,0E0,1.748706E-4,1.07116975E-4,1.1621818E-4,3.5150995E-5,8.029663E-5,6.8710986E-5,0E0,1.6191503E-4,0E0,0E0,8.7033026E-5,4.0767856E-5,9.042682E-5,0E0,1.1711946E-4,2.0664025E-5,0E0,7.1363786E-5,0E0,3.710431E-5,8.608388E-5,0E0,4.4670312E-5,0E0,1.5795213E-4,2.4807385E-5,0E0,1.1737399E-4,3.0477078E-5,0E0,0E0,0E0,0E0,5.9076352E-5,0E0,6.4866734E-5,5.8069156E-5,4.7081703E-5,0E0,0E0,0E0,0E0,0E0,2.234468E-5,0E0,4.9800437E-5,3.2718264E-5,4.226904E-5,4.0814237E-5,0E0,0E0,0E0,0E0,0E0,0E0,0E0,0E0,0E0,0E0,0E0,0E0,0E0,0E0,0E0,0E0,0E0,0E0],"parents":[2147483647,0,0,1,1,2,2,4,4,5,5,6,6,9,9,10,10,11,11,12,12,14,14,15,15,16,16,18,18,19,19,20,20,21,21,22,22,23,23,25,25,28,28,29,29,30,30,32,32,33,33,35,35,37,37,38,38,40,40,42,42,43,43,45,45,46,46,51,51,53,53,54,54,55,55,61,61,63,63,64,64,65,65,66,66],"right_children":[2,4,6,-1,8,10,12,-1,-1,14,16,18,20,-1,22,24,26,-1,28,30,32,34,36,38,-1,40,-1,-1,42,44,46,-1,48,50,-1,52,-1,54,56,-1,58,-1,60,62,-1,64,66,-1,-1,-1,-1,68,-1,70,72,74,-1,-1,-1,-1,-1,76,-1,78,80,82,84,-1,-1,-1,-1,-1,-1,-1,-1,-1,-1,-1,-1,-1,-1,-1,-1,-1,-1],"split_conditions":[-3.0201259E0,-3.5465112E0,8.9722973E-1,-9.411695E-5,2.3198141E-1,-9.089351E-1,-1.857305E-1,-2.6442528E-6,5.0620246E-4,-4.566211E-1,1.1339815E0,-2.4247344E0,1.8770869E0,-1.5571747E-4,-2.9075462E-1,1.11233E0,-7.578556E-1,-3.567213E-4,-2.265241E0,-1.2876284E-1,-1.8170085E0,-9.6720386E-1,-1.0056034E0,1.07442E0,1.4986622E-4,-2.8601986E-1,-8.200256E-4,1.1106529E-4,-1.2477062E0,-1.9768265E-1,-5.9343114E-2,1.3872978E-4,-1.0056034E0,-1.0193844E0,3.0392216E-4,-1.2477062E0,-1.2848555E-4,-1.4966205E-1,-3.8643217E-1,-1.9897442E-4,-8.28844E-1,-3.606507E-4,-6.411332E-1,1.0950767E0,1.4743656E-4,4.08313E-2,2.2680889E-1,-2.8855712E-4,-8.673085E-6,2.1262001E-4,5.8241276E-5,1.2692384E0,2.5083643E-4,-4.3794695E-1,-2.9031968E-2,-7.402866E-1,4.971791E-5,2.582269E-4,3.3066768E-5,3.9817944E-5,-3.362698E-4,4.709988E-1,1.2736961E-4,-8.375345E-2,3.5399836E-1,2.1425416E-1,1.1210653E0,1.024606E-4,-3.1239553E-5,2.5237317E-5,2.3518805E-4,-8.2484075E-5,2.208628E-6,-8.903945E-5,-3.181942E-4,7.045023E-5,2.1089022E-6,-1.4713555E-4,2.5716537E-5,-3.7068623E-4,-1.4642336E-4,3.4653183E-6,1.7409753E-4,-6.385555E-5,3.7884895E-6],"split_indices":[0,0,5,0,1,0,4,0,0,1,4,0,5,0,1,4,0,0,0,0,0,0,0,4,0,1,0,0,0,0,4,0,0,0,0,0,0,0,1,0,0,0,0,4,0,0,0,0,0,0,0,4,0,1,0,0,0,0,0,0,0,1,0,0,0,0,5,0,0,0,0,0,0,0,0,0,0,0,0,0,0,0,0,0,0],"split_type":[0,0,0,0,0,0,0,0,0,0,0,0,0,0,0,0,0,0,0,0,0,0,0,0,0,0,0,0,0,0,0,0,0,0,0,0,0,0,0,0,0,0,0,0,0,0,0,0,0,0,0,0,0,0,0,0,0,0,0,0,0,0,0,0,0,0,0,0,0,0,0,0,0,0,0,0,0,0,0,0,0,0,0,0,0],"sum_hessian":[2.528E3,3.7E1,2.491E3,1E1,2.7E1,1.841E3,6.5E2,1.5E1,1.2E1,1.76E2,1.665E3,7E1,5.8E2,1.4E1,1.62E2,1.619E3,4.6E1,1.3E1,5.7E1,5.33E2,4.7E1,3.8E1,1.24E2,1.599E3,2E1,3.4E1,1.2E1,1.1E1,4.6E1,1.89E2,3.44E2,1E1,3.7E1,2.3E1,1.5E1,1.13E2,1.1E1,1.561E3,3.8E1,1.2E1,2.2E1,1.9E1,2.7E1,1.69E2,2E1,6.3E1,2.81E2,1.9E1,1.8E1,1.1E1,1.2E1,9.9E1,1.4E1,7.2E1,1.489E3,2.4E1,1.4E1,1.1E1,1.1E1,1.5E1,1.2E1,1.55E2,1.4E1,4.3E1,2E1,5E1,2.31E2,7E1,2.9E1,6.2E1,1E1,5.2E1,1.437E3,1.4E1,1E1,4E1,1.15E2,1.6E1,2.7E1,1E1,1E1,3.9E1,1.1E1,9.5E1,1.36E2],"tree_param":{"num_deleted":"0","num_feature":"10","num_nodes":"85","size_leaf_vector":"1"}},{"base_weights":[4.253181E-5,7.853097E-5,-3.9235342E-4,2.9623084E-4,5.0437517E-5,-2.9834118E-5,5.641211E-4,-3.6396296E-4,9.215154E-5,3.9523013E-4,3.1194297E-4,-3.7102622E-4,-2.0759586E-4,2.8536614E-4,6.5106644E-5,3.0615423E-3,1.1647655E-4,2.2732464E-4,-2.7514892E-4,1.05999905E-4,-1.487398E-3,4.3638638E-4,2.8041495E-5,-1.8753346E-4,2.199809E-4,-4.5749353E-4,-1.4015714E-4,7.14062E-5,2.5063322E-4,-4.4221838E-4,5.7397374E-5,1.4349128E-3,1.0321266E-4,3.6278463E-5,-2.7434075E-5,9.765995E-6,-1.1839836E-4,1.4307487E-4,-2.476975E-4,2.9668052E-4,-2.7534163E-5,-8.4165404E-5,2.096122E-5],"categories":[],"categories_nodes":[],"categories_segments":[],"categories_sizes":[],"default_left":[0,0,0,0,0,0,0,0,0,0,0,0,0,0,0,0,0,0,0,0,0,0,0,0,0,0,0,0,0,0,0,0,0,0,0,0,0,0,0,0,0,0,0],"id":13,"left_children":[1,3,-1,-1,5,7,9,11,13,-1,15,-1,17,-1,19,21,23,-1,25,27,29,-1,-1,-1,31,-1,33,35,-1,-1,37,39,41,-1,-1,-1,-1,-1,-1,-1,-1,-1,-1],"loss_changes":[4.496752E-4,2.550014E-4,0E0,0E0,1.0190659E-4,8.717612E-5,3.6987461E-4,3.8410988E-4,1.480576E-4,0E0,1.7001641E-4,0E0,1.154146E-4,0E0,9.894341E-5,1.3630233E-4,7.665059E-5,0E0,4.0031187E-4,1.5973944E-4,2.5229785E-4,0E0,0E0,0E0,4.0425417E-5,0E0,6.502158E-5,1.2087849E-4,0E0,0E0,1.7163178E-4,1.03671075E-4,4.918528E-5,0E0,0E0,0E0,0E0,0E0,0E0,0E0,0E0,0E0,0E0],"parents":[2147483647,0,0,1,1,4,4,5,5,6,6,7,7,8,8,10,10,12,12,14,14,15,15,16,16,18,18,19,19,20,20,24,24,26,26,27,27,30,30,31,31,32,32],"right_children":[2,4,-1,-1,6,8,10,12,14,-1,16,-1,18,-1,20,22,24,-1,26,28,30,-1,-1,-1,32,-1,34,36,-1,-1,38,40,42,-1,-1,-1,-1,-1,-1,-1,-1,-1,-1],"split_conditions":[3.1674602E0,-3.3311603E0,-3.9235342E-4,2.9623084E-4,1.1547872E0,-7.828608E-1,2.841929E-1,-1.7204423E0,-3.0201259E0,3.9523013E-4,-1.0815693E0,-3.7102622E-4,-1.3185737E0,2.8536614E-4,1.1235981E0,9.919912E-2,-9.574793E-1,2.2732464E-4,-1.0700935E0,1.1192414E0,-4.8132008E-1,4.3638638E-4,2.8041495E-5,-1.8753346E-4,-6.8703794E-1,-4.5749353E-4,4.08313E-2,1.0994207E0,2.5063322E-4,-4.4221838E-4,4.2334744E-1,1.2453203E-1,3.264356E-1,3.6278463E-5,-2.7434075E-5,9.765995E-6,-1.1839836E-4,1.4307487E-4,-2.476975E-4,2.9668052E-4,-2.7534163E-5,-8.4165404E-5,2.096122E-5],"split_indices":[8,0,0,0,4,8,3,0,0,0,8,0,0,0,4,0,8,0,0,4,8,0,0,0,8,0,0,4,0,0,8,0,3,0,0,0,0,0,0,0,0,0,0],"split_type":[0,0,0,0,0,0,0,0,0,0,0,0,0,0,0,0,0,0,0,0,0,0,0,0,0,0,0,0,0,0,0,0,0,0,0,0,0,0,0,0,0,0,0],"sum_hessian":[2.505E3,2.488E3,1.7E1,1.8E1,2.47E3,2.137E3,3.33E2,5.71E2,1.566E3,1.7E1,3.16E2,1.9E1,5.52E2,1.1E1,1.555E3,2E1,2.96E2,1.1E1,5.41E2,1.516E3,3.9E1,1E1,1E1,1.1E1,2.85E2,1.2E1,5.29E2,1.5E3,1.6E1,1E1,2.9E1,2.4E1,2.61E2,1.35E2,3.94E2,1.453E3,4.7E1,1.9E1,1E1,1E1,1.4E1,3.1E1,2.3E2],"tree_param":{"num_deleted":"0","num_feature":"10","num_nodes":"43","size_leaf_vector":"1"}},{"base_weights":[1.2664452E-5,-4.2653246E-5,8.490437E-4,5.1511906E-5,-6.58328E-4,3.3410515E-3,-3.8146056E-4,3.6953107E-4,-1.13511676E-4,-2.4587929E-3,-4.389162E-4,2.6145468E-3,4.2268602E-4,2.730271E-4,-1.6616596E-3,-1.2248634E-4,5.919523E-4,-1.3553083E-3,-8.249824E-5,-4.6734963E-4,-4.8239104E-4,1.5380747E-4,-5.608677E-4,2.5738467E-4,9.7196054E-5,7.046937E-4,-1.516153E-4,-2.1970123E-3,-5.2718995E-5,1.8841785E-4,-3.0561563E-4,4.0929505E-4,4.5547445E-4,-1.9063337E-3,-2.8680155E-5,-5.574774E-5,-9.631496E-4,-1.5541642E-4,8.4239386E-5,-1.2821711E-3,-1.9103824E-4,1.08883156E-4,4.3151967E-4,-9.6678086E-5,-2.3792543E-4,4.0395404E-5,1.8753493E-4,-1.0504733E-4,5.007549E-4,-9.1589645E-5,-1.9759615E-4,1.7746397E-4,-1.6035484E-4,-5.6313915E-4,-1.3666035E-4,-6.777234E-4,-2.8508042E-3,1.9346041E-4,-2.271494E-3,7.974686E-4,-3.9926646E-5,4.0694457E-4,-1.0376347E-3,1.2857495E-4,4.517024E-4,2.1680633E-3,2.1386219E-5,-2.4372481E-3,-5.5819957E-5,-6.939469E-5,-2.5880172E-6,-2.7234096E-4,4.7699534E-5,-5.00088E-4,-1.08128115E-5,7.184181E-4,-1.2024845E-4,-4.0818367E-4,-3.1323005E-5,3.3516364E-5,7.54124E-5,2.0057932E-4,-1.3017827E-6,-1.915503E-4,6.214555E-6,-5.2457867E-6,4.744066E-5,3.9444847E-5,3.1177647E-4,-1.8059052E-4,7.2491916E-6,-5.059428E-5,-2.4125513E-4,5.4441944E-6,-3.0818952E-5,2.9002558E-4,-8.489667E-5,-9.956577E-6,1.7248993E-4,-9.337011E-5,3.1854815E-5],"categories":[],"categories_nodes":[],"categories_segments":[],"categories_sizes":[],"default_left":[0,0,0,0,0,0,0,0,0,0,0,0,0,0,0,0,0,0,0,0,0,0,0,0,0,0,0,0,0,0,0,0,0,0,0,0,0,0,0,0,0,0,0,0,0,0,0,0,0,0,0,0,0,0,0,0,0,0,0,0,0,0,0,0,0,0,0,0,0,0,0,0,0,0,0,0,0,0,0,0,0,0,0,0,0,0,0,0,0,0,0,0,0,0,0,0,0,0,0,0,0],"id":14,"left_children":[1,3,5,7,9,11,13,15,17,19,21,23,-1,25,27,29,31,33,35,37,-1,-1,39,-1,-1,41,-1,43,-1,45,-1,-1,47,49,-1,51,53,-1,-1,55,57,-1,59,-1,-1,61,-1,-1,63,-1,-1,65,67,69,-1,71,73,75,77,79,-1,81,83,-1,85,87,89,91,93,-1,-1,-1,95,-1,-1,97,99,-1,-1,-1,-1,-1,-1,-1,-1,-1,-1,-1,-1,-1,-1,-1,-1,-1,-1,-1,-1,-1,-1,-1,-1],"loss_changes":[1.17090654E-4,1.3766681E-4,4.8270338E-4,1.0815212E-4,1.2335944E-4,6.083242E-5,8.9268375E-5,7.7114826E-5,5.2149488E-5,2.4173019E-4,8.274763E-5,3.0799536E-5,0E0,6.819121E-5,1.778033E-5,2.55418E-4,2.9942012E-4,1.7393442E-5,3.1160485E-5,5.436953E-5,0E0,0E0,7.15133E-5,0E0,0E0,1.0317946E-5,0E0,1.4332974E-5,0E0,6.548209E-5,0E0,0E0,3.8651E-5,6.319773E-6,0E0,3.1425596E-5,1.0836349E-5,0E0,0E0,8.435022E-5,1.4362733E-4,0E0,1.54396E-5,0E0,0E0,7.629125E-5,0E0,0E0,2.4535839E-5,0E0,0E0,1.2391825E-4,2.1145912E-4,4.415053E-6,0E0,1.3380569E-4,2.3279572E-4,2.5118337E-5,1.4859517E-4,1.4219731E-6,0E0,1.2911129E-4,7.5259166E-5,0E0,3.3371274E-5,8.316031E-5,5.965208E-5,4.0122963E-5,3.5158453E-5,0E0,0E0,0E0,2.2100653E-4,0E0,0E0,7.011823E-5,5.3241907E-5,0E0,0E0,0E0,0E0,0E0,0E0,0E0,0E0,0E0,0E0,0E0,0E0,0E0,0E0,0E0,0E0,0E0,0E0,0E0,0E0,0E0,0E0,0E0,0E0],"parents":[2147483647,0,0,1,1,2,2,3,3,4,4,5,5,6,6,7,7,8,8,9,9,10,10,11,11,13,13,14,14,15,15,16,16,17,17,18,18,19,19,22,22,25,25,27,27,29,29,32,32,33,33,35,35,36,36,39,39,40,40,42,42,45,45,48,48,51,51,52,52,53,53,55,55,56,56,57,57,58,58,59,59,61,61,62,62,64,64,65,65,66,66,67,67,68,68,72,72,75,75,76,76],"right_children":[2,4,6,8,10,12,14,16,18,20,22,24,-1,26,28,30,32,34,36,38,-1,-1,40,-1,-1,42,-1,44,-1,46,-1,-1,48,50,-1,52,54,-1,-1,56,58,-1,60,-1,-1,62,-1,-1,64,-1,-1,66,68,70,-1,72,74,76,78,80,-1,82,84,-1,86,88,90,92,94,-1,-1,-1,96,-1,-1,98,100,-1,-1,-1,-1,-1,-1,-1,-1,-1,-1,-1,-1,-1,-1,-1,-1,-1,-1,-1,-1,-1,-1,-1,-1],"split_conditions":[1.2736051E0,1.0226814E0,-1.8170085E0,1.8522267E-1,1.0301529E0,-2.4065442E0,1.9650098E0,-8.0815214E-1,1.9847538E-1,1.0265155E0,-2.2849312E0,-2.6805558E0,4.2268602E-4,-9.604601E-1,-9.089351E-1,-8.6570305E-1,-6.7114174E-1,-2.509515E-1,1.7243611E0,1.0263171E0,-4.8239104E-4,1.5380747E-4,1.0812362E0,2.5738467E-4,9.7196054E-5,-1.2698451E0,-1.516153E-4,-1.5030268E0,-5.2718995E-5,1.015537E0,-3.0561563E-4,4.0929505E-4,-1.341161E0,-4.1934945E-2,-2.8680155E-5,-1.1719918E0,5.735436E-1,-1.5541642E-4,8.4239386E-5,-7.402866E-1,4.08313E-2,1.08883156E-4,1.9248165E0,-9.6678086E-5,-2.3792543E-4,9.866037E-1,1.8753493E-4,-1.0504733E-4,-1.4751498E0,-9.1589645E-5,-1.9759615E-4,2.9163173E-1,-6.860648E-1,3.4748933E-1,-1.3666035E-4,1.0518104E0,-3.8197532E-1,-3.3882177E-1,3.1691065E-1,1.8927823E0,-3.9926646E-5,-1.7204423E0,4.6877587E-1,1.2857495E-4,-7.6165503E-1,2.1782924E-1,3.3188564E-1,2.4796225E-1,7.511857E-1,-6.939469E-5,-2.5880172E-6,-2.7234096E-4,1.0556574E0,-5.00088E-4,-1.08128115E-5,-1.2477062E0,1.1326185E0,-4.0818367E-4,-3.1323005E-5,3.3516364E-5,7.54124E-5,2.0057932E-4,-1.3017827E-6,-1.915503E-4,6.214555E-6,-5.2457867E-6,4.744066E-5,3.9444847E-5,3.1177647E-4,-1.8059052E-4,7.2491916E-6,-5.059428E-5,-2.4125513E-4,5.4441944E-6,-3.0818952E-5,2.9002558E-4,-8.489667E-5,-9.956577E-6,1.7248993E-4,-9.337011E-5,3.1854815E-5],"split_indices":[2,2,0,0,2,0,2,0,0,2,0,0,0,0,0,0,0,2,7,2,0,0,2,0,0,0,0,0,0,2,0,0,2,3,0,2,0,0,0,0,0,0,2,0,0,2,0,0,3,0,0,0,2,0,0,2,0,0,0,2,0,0,3,0,2,0,0,0,0,0,0,0,2,0,0,0,2,0,0,0,0,0,0,0,0,0,0,0,0,0,0,0,0,0,0,0,0,0,0,0,0],"split_type":[0,0,0,0,0,0,0,0,0,0,0,0,0,0,0,0,0,0,0,0,0,0,0,0,0,0,0,0,0,0,0,0,0,0,0,0,0,0,0,0,0,0,0,0,0,0,0,0,0,0,0,0,0,0,0,0,0,0,0,0,0,0,0,0,0,0,0,0,0,0,0,0,0,0,0,0,0,0,0,0,0,0,0,0,0,0,0,0,0,0,0,0,0,0,0,0,0,0,0,0,0],"sum_hessian":[2.529E3,2.373E3,1.56E2,2.059E3,3.14E2,5.1E1,1.05E2,7.03E2,1.356E3,3.3E1,2.81E2,3.9E1,1.2E1,7E1,3.5E1,2.19E2,4.84E2,3.2E1,1.324E3,2.2E1,1.1E1,1.3E1,2.68E2,2.6E1,1.3E1,5.9E1,1.1E1,2.2E1,1.3E1,2.03E2,1.6E1,1.3E1,4.71E2,2E1,1.2E1,1.286E3,3.8E1,1.1E1,1.1E1,9E1,1.78E2,1.6E1,4.3E1,1.1E1,1.1E1,1.91E2,1.2E1,1.1E1,4.6E2,1E1,1E1,3.98E2,8.88E2,2.6E1,1.2E1,6.6E1,2.4E1,1.51E2,2.7E1,3.1E1,1.2E1,1.43E2,4.8E1,1.8E1,4.42E2,2.8E1,3.7E2,3.8E1,8.5E2,1.6E1,1E1,1.3E1,5.3E1,1E1,1.4E1,5.6E1,9.5E1,1E1,1.7E1,1E1,2.1E1,2.3E1,1.2E2,2.1E1,2.7E1,9.7E1,3.45E2,1.5E1,1.3E1,1E1,3.6E2,1E1,2.8E1,6.19E2,2.31E2,1.2E1,4.1E1,3.6E1,2E1,3.1E1,6.4E1],"tree_param":{"num_deleted":"0","num_feature":"10","num_nodes":"101","size_leaf_vector":"1"}},{"base_weights":[3.868127E-5,2.3615533E-3,1.8142371E-5,6.788588E-4,-2.782617E-4,2.1554113E-4,-9.927222E-5,-8.727314E-4,2.78438E-4,-5.3533853E-4,-3.198861E-6,-3.841588E-4,3.3764346E-4,1.0108049E-3,6.262651E-5,-1.9682951E-4,-4.01427E-4,3.0694446E-5,-1.7796397E-3,2.880949E-4,-2.5173335E-3,3.4740563E-3,6.0628564E-4,1.0263893E-3,-2.1441426E-4,-2.102513E-4,-2.0788184E-3,3.4938907E-4,-1.9067449E-4,-1.7588041E-4,-8.468552E-5,-4.406652E-5,-3.2632487E-4,8.9821566E-5,5.556928E-4,9.86792E-4,-7.714816E-4,1.2544025E-3,-1.5974436E-4,-3.7241675E-4,-8.373384E-5,-3.9542082E-4,8.113612E-4,-2.4297793E-4,-7.559122E-5,6.16969E-5,8.5947895E-4,-8.5863797E-4,-4.7617577E-5,-2.3157134E-4,1.5720046E-3,-1.810209E-4,1.15119165E-5,3.8189597E-3,6.7377946E-4,-2.0220023E-4,-4.816649E-6,-1.6585703E-4,-3.2066213E-4,1.600591E-4,1.8563979E-4,3.20861E-4,-7.5544126E-4,1.7703634E-3,5.647657E-4,-5.791266E-4,-1.8661575E-3,7.744513E-5,-5.729014E-4,6.505259E-5,-1.5968001E-4,6.2929365E-5,2.0753196E-4,2.0847745E-5,-2.8161872E-5,5.219671E-5,5.1509374E-4,3.328692E-5,2.129939E-4,-1.66248E-4,6.1563182E-6,-2.98665E-5,2.7880822E-5,7.2083785E-5,-2.644267E-5,4.487627E-5,-2.4542862E-5,-7.4527557E-6,-1.9829583E-4,9.002465E-5,2.5842435E-4,1.08049266E-4,9.3691515E-6,-7.461426E-5,1.5052108E-5,-2.674311E-4,-1.003836E-5,-1.3441072E-5,2.5802932E-5,-1.6725635E-4,-3.0164023E-5],"categories":[],"categories_nodes":[],"categories_segments":[],"categories_sizes":[],"default_left":[0,0,0,0,0,0,0,0,0,0,0,0,0,0,0,0,0,0,0,0,0,0,0,0,0,0,0,0,0,0,0,0,0,0,0,0,0,0,0,0,0,0,0,0,0,0,0,0,0,0,0,0,0,0,0,0,0,0,0,0,0,0,0,0,0,0,0,0,0,0,0,0,0,0,0,0,0,0,0,0,0,0,0,0,0,0,0,0,0,0,0,0,0,0,0,0,0,0,0,0,0],"id":15,"left_children":[1,3,5,-1,-1,7,9,11,13,15,17,-1,19,21,23,-1,25,27,29,-1,31,33,35,37,39,41,43,45,47,-1,-1,-1,-1,-1,-1,49,51,53,-1,-1,55,57,59,-1,-1,61,63,65,67,69,71,-1,73,75,77,-1,79,81,-1,83,-1,85,87,89,91,93,95,97,99,-1,-1,-1,-1,-1,-1,-1,-1,-1,-1,-1,-1,-1,-1,-1,-1,-1,-1,-1,-1,-1,-1,-1,-1,-1,-1,-1,-1,-1,-1,-1,-1],"loss_changes":[1.1975505E-4,8.273423E-4,5.7733363E-5,0E0,0E0,6.383206E-5,6.543728E-5,2.4619422E-4,1.3886546E-4,7.233145E-5,7.718294E-5,0E0,3.8461262E-4,1.9718028E-4,1.8178116E-4,0E0,8.454219E-5,8.881738E-5,5.0732633E-6,0E0,6.635494E-5,2.2303802E-4,9.145641E-5,1.07769505E-4,3.0878434E-4,4.5532815E-5,2.689541E-5,7.5669384E-5,7.095781E-5,0E0,0E0,0E0,0E0,0E0,0E0,9.7332246E-5,4.485449E-5,2.0887064E-4,0E0,0E0,1.0000567E-4,1.6896319E-4,3.637314E-5,0E0,0E0,7.0339214E-5,4.8931804E-5,3.5810583E-5,4.0314433E-5,8.56747E-5,7.254908E-5,0E0,2.4796268E-6,2.1471226E-4,5.8716618E-5,0E0,8.605106E-5,2.0967453E-5,0E0,1.02433105E-5,0E0,3.88795E-5,9.1872025E-5,3.8820945E-5,5.028652E-5,2.8943308E-5,7.261961E-5,3.0300696E-5,3.4143304E-5,0E0,0E0,0E0,0E0,0E0,0E0,0E0,0E0,0E0,0E0,0E0,0E0,0E0,0E0,0E0,0E0,0E0,0E0,0E0,0E0,0E0,0E0,0E0,0E0,0E0,0E0,0E0,0E0,0E0,0E0,0E0,0E0],"parents":[2147483647,0,0,1,1,2,2,5,5,6,6,7,7,8,8,9,9,10,10,12,12,13,13,14,14,16,16,17,17,18,18,20,20,21,21,22,22,23,23,24,24,25,25,26,26,27,27,28,28,35,35,36,36,37,37,40,40,41,41,42,42,45,45,46,46,47,47,48,48,49,49,50,50,52,52,53,53,54,54,56,56,57,57,59,59,61,61,62,62,63,63,64,64,65,65,66,66,67,67,68,68],"right_children":[2,4,6,-1,-1,8,10,12,14,16,18,-1,20,22,24,-1,26,28,30,-1,32,34,36,38,40,42,44,46,48,-1,-1,-1,-1,-1,-1,50,52,54,-1,-1,56,58,60,-1,-1,62,64,66,68,70,72,-1,74,76,78,-1,80,82,-1,84,-1,86,88,90,92,94,96,98,100,-1,-1,-1,-1,-1,-1,-1,-1,-1,-1,-1,-1,-1,-1,-1,-1,-1,-1,-1,-1,-1,-1,-1,-1,-1,-1,-1,-1,-1,-1,-1,-1],"split_conditions":[-3.3311603E0,3.5004994E-1,9.919912E-2,6.788588E-4,-2.782617E-4,-2.5089333E0,-9.063834E-1,-2.606634E-1,-8.746105E-1,1.4749423E-1,1.7243611E0,-3.841588E-4,-2.880404E0,-1.4326531E0,-2.2044742E-1,-1.9682951E-4,-9.4803625E-1,-1.5180762E-1,-3.4189567E-1,2.880949E-4,-2.6805558E0,-1.7204423E0,4.5226058E-1,1.4973962E0,-7.7218986E-1,1.7221826E0,-4.6408392E-2,4.778124E-1,1.0941478E-1,-1.7588041E-4,-8.468552E-5,-4.406652E-5,-3.2632487E-4,8.9821566E-5,5.556928E-4,-9.4536936E-1,1.2079567E-2,-4.161712E-1,-1.5974436E-4,-3.7241675E-4,-2.0025128E-1,7.5228065E-1,-1.132351E0,-2.4297793E-4,-7.559122E-5,3.5796836E-1,2.9163173E-1,4.8772182E-2,1.7035792E0,1.0336758E0,-1.2471925E-1,-1.810209E-4,6.0718052E-2,-2.265241E0,9.93539E-1,-2.0220023E-4,-1.2064176E0,4.4996604E-1,-3.2066213E-4,3.5399836E-1,1.8563979E-4,1.1546028E0,7.331579E-1,-3.6987063E-1,-5.445704E-1,-2.23195E-2,-7.882225E-2,3.910819E-1,2.1584882E-1,6.505259E-5,-1.5968001E-4,6.2929365E-5,2.0753196E-4,2.0847745E-5,-2.8161872E-5,5.219671E-5,5.1509374E-4,3.328692E-5,2.129939E-4,-1.66248E-4,6.1563182E-6,-2.98665E-5,2.7880822E-5,7.2083785E-5,-2.644267E-5,4.487627E-5,-2.4542862E-5,-7.4527557E-6,-1.9829583E-4,9.002465E-5,2.5842435E-4,1.08049266E-4,9.3691515E-6,-7.461426E-5,1.5052108E-5,-2.674311E-4,-1.003836E-5,-1.3441072E-5,2.5802932E-5,-1.6725635E-4,-3.0164023E-5],"split_indices":[0,8,0,0,0,0,8,6,8,0,7,0,0,0,6,0,8,8,8,0,0,0,7,8,8,7,6,7,8,0,0,0,0,0,0,0,0,0,0,0,6,7,8,0,0,7,0,8,8,6,6,0,6,0,8,0,7,7,0,0,0,0,0,8,8,8,6,0,0,0,0,0,0,0,0,0,0,0,0,0,0,0,0,0,0,0,0,0,0,0,0,0,0,0,0,0,0,0,0,0,0],"split_type":[0,0,0,0,0,0,0,0,0,0,0,0,0,0,0,0,0,0,0,0,0,0,0,0,0,0,0,0,0,0,0,0,0,0,0,0,0,0,0,0,0,0,0,0,0,0,0,0,0,0,0,0,0,0,0,0,0,0,0,0,0,0,0,0,0,0,0,0,0,0,0,0,0,0,0,0,0,0,0,0,0,0,0,0,0,0,0,0,0,0,0,0,0,0,0,0,0,0,0,0,0],"sum_hessian":[2.51E3,2.1E1,2.489E3,1E1,1.1E1,9.28E2,1.561E3,5E1,8.78E2,2.81E2,1.28E3,1.1E1,3.9E1,1.99E2,6.79E2,1.7E1,2.64E2,1.257E3,2.3E1,1.8E1,2.1E1,2.7E1,1.72E2,1.51E2,5.28E2,2.38E2,2.6E1,5.15E2,7.42E2,1.3E1,1E1,1E1,1.1E1,1.7E1,1E1,1.35E2,3.7E1,1.41E2,1E1,1.4E1,5.14E2,2.02E2,3.6E1,1.3E1,1.3E1,3.3E2,1.85E2,1.3E2,6.12E2,4.4E1,9.1E1,1.2E1,2.5E1,2.5E1,1.16E2,1.5E1,4.99E2,1.91E2,1.1E1,2.6E1,1E1,2.51E2,7.9E1,4.4E1,1.41E2,1.03E2,2.7E1,4.95E2,1.17E2,2.8E1,1.6E1,5.3E1,3.8E1,1.5E1,1E1,1.2E1,1.3E1,1.04E2,1.2E1,1.8E1,4.81E2,1.36E2,5.5E1,1E1,1.6E1,1.81E2,7E1,5.8E1,2.1E1,3.2E1,1.2E1,5E1,9.1E1,7E1,3.3E1,1.4E1,1.3E1,2.48E2,2.47E2,1.2E1,1.05E2],"tree_param":{"num_deleted":"0","num_feature":"10","num_nodes":"101","size_leaf_vector":"1"}},{"base_weights":[-1.7747476E-5,3.7688637E-4,-3.8366295E-5,-1.0882125E-3,5.578052E-5,-3.4716385E-3,-1.0514408E-4,1.6277192E-4,4.025586E-5,-5.239172E-4,-2.401458E-3,8.6381286E-4,-3.8212969E-3,2.4298661E-4,-7.3508294E-5,1.7884062E-4,-3.7196234E-3,1.7201329E-3,-1.5180612E-3,-1.9929901E-4,-3.7784848E-4,4.4345987E-4,-1.4957988E-4,-5.547103E-4,-3.4172917E-5,-4.237881E-4,-2.6233185E-3,3.316159E-4,1.3154752E-3,1.4381808E-4,-3.940586E-4,1.1146837E-3,2.9938918E-4,-3.339909E-3,1.466266E-4,-3.945668E-5,-1.3501146E-3,1.0495854E-4,-5.621377E-5,1.0101447E-5,-3.6528017E-4,2.7407724E-3,5.351124E-4,5.339452E-5,1.8907455E-3,-3.5213216E-5,6.4158364E-4,-3.2168702E-4,-1.9301061E-4,2.917585E-4,-1.355238E-3,-4.8935093E-4,1.0121755E-3,-2.3655023E-4,-3.141729E-4,-4.4281413E-5,-1.0997144E-4,3.1488227E-5,3.8852225E-4,7.964886E-5,-4.367644E-5,1.3974839E-4,-7.621401E-5,-4.1858466E-6,2.0181444E-4,-1.3219815E-5,1.4815651E-4,3.086174E-4,3.6295423E-5,4.274405E-5,2.7556216E-6,-3.055842E-4,6.804646E-5,-2.2219998E-5,-9.443092E-5,1.6487736E-4,-1.133301E-5,-8.687838E-5,1.4258924E-5,1.8760964E-5,-7.58243E-6],"categories":[],"categories_nodes":[],"categories_segments":[],"categories_sizes":[],"default_left":[0,0,0,0,0,0,0,0,0,0,0,0,0,0,0,0,0,0,0,0,0,0,0,0,0,0,0,0,0,0,0,0,0,0,0,0,0,0,0,0,0,0,0,0,0,0,0,0,0,0,0,0,0,0,0,0,0,0,0,0,0,0,0,0,0,0,0,0,0,0,0,0,0,0,0,0,0,0,0,0,0],"id":16,"left_children":[1,-1,3,5,7,9,11,-1,13,-1,15,17,19,21,23,-1,25,27,29,-1,-1,31,33,35,37,-1,39,-1,41,-1,-1,43,45,47,49,51,53,-1,55,-1,-1,57,59,61,63,65,67,-1,-1,69,71,73,75,-1,77,79,-1,-1,-1,-1,-1,-1,-1,-1,-1,-1,-1,-1,-1,-1,-1,-1,-1,-1,-1,-1,-1,-1,-1,-1,-1],"loss_changes":[2.5039772E-4,0E0,2.5101463E-4,4.893368E-4,7.202868E-5,1.8795964E-4,5.398189E-4,0E0,5.338678E-5,0E0,2.9658957E-4,2.4532917E-4,2.6089081E-5,6.554397E-5,2.8051654E-5,0E0,5.14657E-5,8.186852E-5,3.754397E-4,0E0,0E0,5.2950003E-5,2.6697866E-4,4.584824E-5,4.1051393E-5,0E0,1.3086852E-4,0E0,8.417654E-5,0E0,0E0,7.979077E-5,5.211968E-5,5.654845E-6,5.6849232E-5,3.3140816E-5,7.3218354E-5,0E0,2.1343058E-5,0E0,0E0,1.3407996E-4,2.64013E-5,7.420829E-5,7.077235E-5,5.7866942E-5,1.3304956E-4,0E0,0E0,1.497992E-5,1.299766E-4,6.8511454E-6,2.6069296E-5,0E0,1.0965514E-5,1.9237603E-5,0E0,0E0,0E0,0E0,0E0,0E0,0E0,0E0,0E0,0E0,0E0,0E0,0E0,0E0,0E0,0E0,0E0,0E0,0E0,0E0,0E0,0E0,0E0,0E0,0E0],"parents":[2147483647,0,0,2,2,3,3,4,4,5,5,6,6,8,8,10,10,11,11,12,12,13,13,14,14,16,16,17,17,18,18,21,21,22,22,23,23,24,24,26,26,28,28,31,31,32,32,33,33,34,34,35,35,36,36,38,38,41,41,42,42,43,43,44,44,45,45,46,46,49,49,50,50,51,51,52,52,54,54,55,55],"right_children":[2,-1,4,6,8,10,12,-1,14,-1,16,18,20,22,24,-1,26,28,30,-1,-1,32,34,36,38,-1,40,-1,42,-1,-1,44,46,48,50,52,54,-1,56,-1,-1,58,60,62,64,66,68,-1,-1,70,72,74,76,-1,78,80,-1,-1,-1,-1,-1,-1,-1,-1,-1,-1,-1,-1,-1,-1,-1,-1,-1,-1,-1,-1,-1,-1,-1,-1,-1],"split_conditions":[-3.5465112E0,3.7688637E-4,-1.613676E0,-2.2620693E-1,-1.4326531E0,1.004525E0,-1.9069142E0,1.6277192E-4,1.53559E-1,-5.239172E-4,-3.0201259E0,1.1953977E0,1.9650098E0,4.9973804E-1,1.9847538E-1,1.7884062E-4,-2.5089333E0,-2.880404E0,-2.3169267E0,-1.9929901E-4,-3.7784848E-4,-9.277009E-1,5.7844365E-1,5.7688754E-2,2.0401981E-1,-4.237881E-4,-2.2849312E0,3.316159E-4,1.0554584E0,1.4381808E-4,-3.940586E-4,-1.2477062E0,-4.993475E-2,-9.277009E-1,1.9489124E0,-5.859723E-1,-2.509515E-1,1.0495854E-4,1.3743074E0,1.0101447E-5,-3.6528017E-4,-2.220204E0,1.288576E0,-1.3185737E0,7.967713E-1,1.0593069E0,-1.0394353E-2,-3.2168702E-4,-1.9301061E-4,-1.6796729E-1,-9.089351E-1,1.8522267E-1,1.827542E-1,-2.3655023E-4,1.827542E-1,-1.6417503E0,-1.0997144E-4,3.1488227E-5,3.8852225E-4,7.964886E-5,-4.367644E-5,1.3974839E-4,-7.621401E-5,-4.1858466E-6,2.0181444E-4,-1.3219815E-5,1.4815651E-4,3.086174E-4,3.6295423E-5,4.274405E-5,2.7556216E-6,-3.055842E-4,6.804646E-5,-2.2219998E-5,-9.443092E-5,1.6487736E-4,-1.133301E-5,-8.687838E-5,1.4258924E-5,1.8760964E-5,-7.58243E-6],"split_indices":[0,0,0,6,0,2,0,0,0,0,0,6,2,3,0,0,0,0,0,0,0,0,3,3,0,0,0,0,2,0,0,0,0,0,2,2,2,0,6,0,0,0,2,0,2,2,0,0,0,0,0,0,0,0,0,6,0,0,0,0,0,0,0,0,0,0,0,0,0,0,0,0,0,0,0,0,0,0,0,0,0],"split_type":[0,0,0,0,0,0,0,0,0,0,0,0,0,0,0,0,0,0,0,0,0,0,0,0,0,0,0,0,0,0,0,0,0,0,0,0,0,0,0,0,0,0,0,0,0,0,0,0,0,0,0,0,0,0,0,0,0,0,0,0,0,0,0,0,0,0,0,0,0,0,0,0,0,0,0,0,0,0,0,0,0],"sum_hessian":[2.548E3,1E1,2.538E3,2.08E2,2.33E3,6E1,1.48E2,1.7E1,2.313E3,1.4E1,4.6E1,1.18E2,3E1,8.31E2,1.482E3,1E1,3.6E1,8.7E1,3.1E1,1.4E1,1.6E1,5.5E2,2.81E2,1.11E2,1.371E3,1.3E1,2.3E1,1.1E1,7.6E1,1.6E1,1.5E1,9.6E1,4.54E2,2.3E1,2.58E2,6.8E1,4.3E1,2.1E1,1.35E3,1E1,1.3E1,2.6E1,5E1,4.1E1,5.5E1,2.3E2,2.24E2,1.1E1,1.2E1,2.36E2,2.2E1,4.8E1,2E1,1.6E1,2.7E1,1.339E3,1.1E1,1.3E1,1.3E1,3.5E1,1.5E1,1.5E1,2.6E1,1.4E1,4.1E1,2.16E2,1.4E1,1.1E1,2.13E2,1.2E2,1.16E2,1E1,1.2E1,3.8E1,1E1,1E1,1E1,1E1,1.7E1,2.06E2,1.133E3],"tree_param":{"num_deleted":"0","num_feature":"10","num_nodes":"81","size_leaf_vector":"1"}},{"base_weights":[4.9210168E-5,-3.8749E-4,8.3788465E-5,2.7473934E-4,-9.059065E-4,1.6665288E-4,-1.45694E-4,1.04684084E-4,8.163303E-5,-1.157176E-3,1.647091E-5,1.3815274E-4,1.357355E-3,-2.4501956E-3,-3.255845E-5,4.529862E-4,-5.990452E-5,-7.961759E-4,-1.491265E-3,1.5918487E-4,-9.837206E-4,2.9080562E-4,-2.3155308E-5,-2.4512474E-4,-1.0282297E-4,2.022865E-4,-8.575487E-5,-4.1244984E-6,8.152577E-5,-9.854284E-5,-8.79233E-6,-1.3954929E-4,-4.4566495E-5,9.129946E-5,5.328646E-4,-2.1910055E-4,5.0784274E-5,-7.796933E-5,6.898307E-5,-3.4090364E-4,-4.6078667E-6,1.1916912E-4,-8.557646E-4,3.415538E-4,2.943038E-4,6.9280606E-5,-8.494063E-4,4.914592E-4,8.881632E-5,-1.784038E-4,-1.6893591E-6,-1.2437733E-4,4.3474545E-4,2.9899864E-5,1.5179321E-4,-1.8653594E-3,7.8937446E-5,3.3704516E-6,2.1725912E-4,-2.7241057E-4,9.74755E-6,1.3031902E-4,1.8982735E-5,9.651204E-5,-1.6145358E-6,1.8671119E-5,-2.9542123E-4],"categories":[],"categories_nodes":[],"categories_segments":[],"categories_sizes":[],"default_left":[0,0,0,0,0,0,0,0,0,0,0,0,0,0,0,0,0,0,0,0,0,0,0,0,0,0,0,0,0,0,0,0,0,0,0,0,0,0,0,0,0,0,0,0,0,0,0,0,0,0,0,0,0,0,0,0,0,0,0,0,0,0,0,0,0,0,0],"id":17,"left_children":[1,3,5,7,9,11,13,15,-1,17,-1,19,21,23,25,27,-1,29,31,33,35,-1,37,-1,-1,-1,39,-1,-1,-1,-1,-1,-1,41,43,-1,-1,-1,-1,-1,45,47,49,-1,51,53,55,57,59,-1,-1,-1,61,63,-1,65,-1,-1,-1,-1,-1,-1,-1,-1,-1,-1,-1],"loss_changes":[3.8070248E-5,6.3761356E-5,4.4426473E-5,1.0387128E-5,2.93298E-5,5.8045247E-5,1.6156728E-4,2.0676443E-5,0E0,9.064206E-6,0E0,3.972606E-5,1.272239E-4,1.7288068E-5,8.141508E-5,1.4229238E-5,0E0,1.295002E-5,9.614698E-6,4.1731462E-5,9.098979E-5,0E0,2.3054112E-5,0E0,0E0,0E0,1.9820599E-4,0E0,0E0,0E0,0E0,0E0,0E0,3.692211E-5,2.2600763E-4,0E0,0E0,0E0,0E0,0E0,3.570116E-5,1.5279213E-5,4.6331446E-5,0E0,6.3098174E-5,3.80782E-5,8.79753E-5,1.02605736E-4,1.4985508E-4,0E0,0E0,0E0,5.22493E-5,3.0723328E-5,0E0,1.1759816E-4,0E0,0E0,0E0,0E0,0E0,0E0,0E0,0E0,0E0,0E0,0E0],"parents":[2147483647,0,0,1,1,2,2,3,3,4,4,5,5,6,6,7,7,9,9,11,11,12,12,13,13,14,14,15,15,17,17,18,18,19,19,20,20,22,22,26,26,33,33,34,34,40,40,41,41,42,42,44,44,45,45,46,46,47,47,48,48,52,52,53,53,55,55],"right_children":[2,4,6,8,10,12,14,16,-1,18,-1,20,22,24,26,28,-1,30,32,34,36,-1,38,-1,-1,-1,40,-1,-1,-1,-1,-1,-1,42,44,-1,-1,-1,-1,-1,46,48,50,-1,52,54,56,58,60,-1,-1,-1,62,64,-1,66,-1,-1,-1,-1,-1,-1,-1,-1,-1,-1,-1],"split_conditions":[-1.5363193E0,-1.7889485E0,9.5001405E-1,-1.5769929E0,-1.304474E0,9.046107E-1,9.870598E-1,-1.5979106E0,8.163303E-5,-1.5804828E0,1.647091E-5,8.8247705E-1,2.5973454E-1,9.6482307E-1,9.9447817E-1,-1.6118269E0,-5.990452E-5,-1.5139563E0,-1.3151269E0,8.285794E-1,2.3198141E-1,2.9080562E-4,9.4156176E-1,-2.4512474E-4,-1.0282297E-4,2.022865E-4,3.0448666E-1,-4.1244984E-6,8.152577E-5,-9.854284E-5,-8.79233E-6,-1.3954929E-4,-4.4566495E-5,7.8261936E-1,-3.9112508E-1,-2.1910055E-4,5.0784274E-5,-7.796933E-5,6.898307E-5,-3.4090364E-4,1.9650098E0,-1.322583E0,-4.4728792E-1,3.415538E-4,-3.7234166E-1,1.9489124E0,1.9972852E0,-1.5729216E0,-1.3151269E0,-1.784038E-4,-1.6893591E-6,-1.2437733E-4,-3.238427E-1,1.016752E0,1.5179321E-4,7.727109E-1,7.8937446E-5,3.3704516E-6,2.1725912E-4,-2.7241057E-4,9.74755E-6,1.3031902E-4,1.8982735E-5,9.651204E-5,-1.6145358E-6,1.8671119E-5,-2.9542123E-4],"split_indices":[3,1,5,3,2,5,5,3,0,3,0,5,1,5,5,3,0,1,2,2,1,0,5,0,0,0,1,0,0,0,0,0,0,2,1,0,0,0,0,0,2,2,1,0,1,2,2,1,2,0,0,0,1,5,0,1,0,0,0,0,0,0,0,0,0,0,0],"split_type":[0,0,0,0,0,0,0,0,0,0,0,0,0,0,0,0,0,0,0,0,0,0,0,0,0,0,0,0,0,0,0,0,0,0,0,0,0,0,0,0,0,0,0,0,0,0,0,0,0,0,0,0,0,0,0,0,0,0,0,0,0,0,0,0,0,0,0],"sum_hessian":[2.518E3,1.84E2,2.334E3,8.1E1,1.03E2,1.715E3,6.19E2,6.7E1,1.4E1,8.4E1,1.9E1,1.676E3,3.9E1,2.8E1,5.91E2,4.8E1,1.9E1,4.2E1,4.2E1,1.646E3,3E1,1.4E1,2.5E1,1.7E1,1.1E1,1.1E1,5.8E2,2.6E1,2.2E1,2.5E1,1.7E1,3.2E1,1E1,1.394E3,2.52E2,1.4E1,1.6E1,1.2E1,1.3E1,1E1,5.7E2,1.355E3,3.9E1,1.4E1,2.38E2,5.25E2,4.5E1,1.01E2,1.254E3,1.4E1,2.5E1,1.6E1,2.22E2,5.15E2,1E1,2.9E1,1.6E1,8.5E1,1.6E1,1.1E1,1.243E3,3E1,1.92E2,2E1,4.95E2,1.4E1,1.5E1],"tree_param":{"num_deleted":"0","num_feature":"10","num_nodes":"67","size_leaf_vector":"1"}},{"base_weights":[-8.846371E-6,-6.861473E-5,8.2832156E-4,-4.3831E-5,-1.6093801E-3,-1.2644656E-3,1.3337561E-3,-2.7280274E-5,-1.3876035E-3,-1.5409756E-4,-7.915981E-5,-2.5296572E-4,5.7925805E-5,2.2052077E-3,7.2556356E-4,-7.3746385E-5,4.1171518E-4,-8.4471416E-5,-1.4243509E-4,7.430208E-4,3.122887E-4,2.4882174E-4,8.518536E-5,-4.6892306E-5,-2.2321857E-4,2.2885478E-3,7.651523E-5,7.941474E-5,1.4777805E-5,7.9585053E-4,-1.0837129E-3,4.1822426E-5,-3.6044396E-4,2.5606036E-4,1.0148702E-5,-1.8749328E-4,4.0086388E-4,8.60177E-5,2.2270411E-5,-1.2226065E-4,-5.3862852E-5,2.845136E-5,9.110982E-5,-1.5638334E-3,3.8199283E-5,6.713358E-4,5.171087E-6,8.373205E-6,-9.81819E-6,-6.268757E-5,-5.182718E-4,4.659865E-5,-1.4872561E-5,-1.1463081E-5,6.252093E-5,-1.7197982E-4,4.0422834E-5],"categories":[],"categories_nodes":[],"categories_segments":[],"categories_sizes":[],"default_left":[0,0,0,0,0,0,0,0,0,0,0,0,0,0,0,0,0,0,0,0,0,0,0,0,0,0,0,0,0,0,0,0,0,0,0,0,0,0,0,0,0,0,0,0,0,0,0,0,0,0,0,0,0,0,0,0,0],"id":18,"left_children":[1,3,5,7,9,11,13,15,17,-1,-1,-1,-1,19,21,23,25,-1,-1,27,-1,-1,29,31,-1,33,35,-1,-1,37,39,41,43,-1,-1,-1,45,-1,-1,-1,-1,47,-1,49,51,53,55,-1,-1,-1,-1,-1,-1,-1,-1,-1,-1],"loss_changes":[1.253974E-4,8.9246314E-5,1.7833356E-4,5.1181814E-5,5.5529017E-6,1.2856507E-4,6.995136E-5,