{"learner":{"attributes":{"scikit_learn":"{\"_estimator_type\": \"regressor\"}"},"feature_names":["pre_tax_profit","share_holder_income","earning_per_share","equity","fixed_asset","free_cash_flow","from_financial","CCI_window_20","operation_profit","post_tax_profit"],"feature_types":["float","float","float","float","float","float","float","float","float","float"],"gradient_booster":{"model":{"gbtree_model_param":{"num_parallel_tree":"1","num_trees":"100"},"iteration_indptr":[0,1,2,3,4,5,6,7,8,9,10,11,12,13,14,15,16,17,18,19,20,21,22,23,24,25,26,27,28,29,30,31,32,33,34,35,36,37,38,39,40,41,42,43,44,45,46,47,48,49,50,51,52,53,54,55,56,57,58,59,60,61,62,63,64,65,66,67,68,69,70,71,72,73,74,75,76,77,78,79,80,81,82,83,84,85,86,87,88,89,90,91,92,93,94,95,96,97,98,99,100],"tree_info":[0,0,0,0,0,0,0,0,0,0,0,0,0,0,0,0,0,0,0,0,0,0,0,0,0,0,0,0,0,0,0,0,0,0,0,0,0,0,0,0,0,0,0,0,0,0,0,0,0,0,0,0,0,0,0,0,0,0,0,0,0,0,0,0,0,0,0,0,0,0,0,0,0,0,0,0,0,0,0,0,0,0,0,0,0,0,0,0,0,0,0,0,0,0,0,0,0,0,0,0],"trees":[{"base_weights":[2.9181715E-4,-1.2537378E-3,6.362075E-4,1.0717587E-3,3.261077E-4,2.1497337E-6,1.0660973E-3,3.3387676E-4,-7.530452E-4,-1.6846572E-3,2.0582567E-3,2.617672E-6,-6.2488706E-4,6.7165366E-4,4.3162105E-5],"categories":[],"categories_nodes":[],"categories_segments":[],"categories_sizes":[],"default_left":[0,0,0,0,0,0,0,0,0,0,0,0,0,0,0],"id":0,"left_children":[1,-1,3,-1,5,7,-1,9,-1,11,13,-1,-1,-1,-1],"loss_changes":[2.1201689E-3,0E0,1.4722723E-3,0E0,1.5376578E-3,1.1183206E-3,0E0,1.336583E-3,0E0,1.6210245E-3,1.7853066E-3,0E0,0E0,0E0,0E0],"parents":[2147483647,0,0,2,2,4,4,5,5,7,7,9,9,10,10],"right_children":[2,-1,4,-1,6,8,-1,10,-1,12,14,-1,-1,-1,-1],"split_conditions":[-2.104648E0,-1.2537378E-3,-1.5629617E0,1.0717587E-3,2.0849917E0,1.6364955E0,1.0660973E-3,-2.5978956E-1,-7.530452E-4,-6.352993E-1,8.3961956E-2,2.617672E-6,-6.2488706E-4,6.7165366E-4,4.3162105E-5],"split_indices":[7,0,7,0,3,7,0,1,0,3,8,0,0,0,0],"split_type":[0,0,0,0,0,0,0,0,0,0,0,0,0,0,0],"sum_hessian":[4.25E2,9E0,4.16E2,1E1,4.06E2,3.96E2,1E1,3.82E2,1.4E1,1.76E2,2.06E2,1.34E2,4.2E1,4.5E1,1.61E2],"tree_param":{"num_deleted":"0","num_feature":"10","num_nodes":"15","size_leaf_vector":"1"}},{"base_weights":[6.7961104E-5,-2.6550118E-4,8.7616674E-4,4.8285438E-5,-7.1276433E-4,3.462942E-4,-6.27033E-4,-2.9379202E-4,5.661492E-3,8.86304E-4,-2.0574846E-3,1.2897735E-3,2.4029198E-6,2.4644383E-5,1.0319792E-3,-1.2704342E-3,-6.840642E-5,-1.7521369E-4,2.1948009E-4],"categories":[],"categories_nodes":[],"categories_segments":[],"categories_sizes":[],"default_left":[0,0,0,0,0,0,0,0,0,0,0,0,0,0,0,0,0,0,0],"id":1,"left_children":[1,3,-1,5,-1,7,-1,9,11,13,15,-1,17,-1,-1,-1,-1,-1,-1],"loss_changes":[1.3860475E-3,9.998276E-4,0E0,8.4024656E-4,0E0,1.2978957E-3,0E0,7.11556E-4,2.0515504E-3,1.335311E-3,2.1472515E-3,0E0,1.3132823E-4,0E0,0E0,0E0,0E0,0E0,0E0],"parents":[2147483647,0,0,1,1,3,3,5,5,7,7,8,8,9,9,10,10,12,12],"right_children":[2,4,-1,6,-1,8,-1,10,12,14,16,-1,18,-1,-1,-1,-1,-1,-1],"split_conditions":[2.0849917E0,1.6252552E0,8.7616674E-4,1.6364955E0,-7.1276433E-4,1.1217612E0,-6.27033E-4,-1.5381093E-1,1.295663E0,-3.9466906E-1,-1.00021E0,1.2897735E-3,4.1521022E-1,2.4644383E-5,1.0319792E-3,-1.2704342E-3,-6.840642E-5,-1.7521369E-4,2.1948009E-4],"split_indices":[3,3,0,7,0,7,0,6,7,6,0,0,6,0,0,0,0,0,0],"split_type":[0,0,0,0,0,0,0,0,0,0,0,0,0,0,0,0,0,0,0],"sum_hessian":[4.23E2,4.1E2,1.3E1,3.95E2,1.5E1,3.8E2,1.5E1,3.4E2,4E1,2.04E2,1.36E2,1.5E1,2.5E1,1.94E2,1E1,1.2E1,1.24E2,1.4E1,1.1E1],"tree_param":{"num_deleted":"0","num_feature":"10","num_nodes":"19","size_leaf_vector":"1"}},{"base_weights":[7.53625E-5,-9.0732396E-4,3.982918E-3,-4.4984724E-3,7.181902E-5,8.894991E-3,-1.6087567E-3,8.118124E-4,-9.42109E-3,4.992128E-4,-7.659395E-4,1.2980941E-2,-6.11018E-5,-4.62632E-3,1.6291075E-3,3.21082E-4,-1.4925372E-3,-1.9487359E-3,-7.000808E-4,8.9426775E-4,-5.8862974E-4,6.2079253E-3,1.8403257E-3,-1.4739767E-4,-5.828438E-4,2.4845672E-4,4.647926E-5,3.1081578E-4,-5.642045E-4,2.0040246E-4,-4.50019E-4,-5.4796186E-4,2.9380727E-3,1.188085E-3,-1.3918105E-4,8.512231E-5,-2.9025675E-4,4.7357794E-4,-5.091199E-5],"categories":[],"categories_nodes":[],"categories_segments":[],"categories_sizes":[],"default_left":[0,0,0,0,0,0,0,0,0,0,0,0,0,0,0,0,0,0,0,0,0,0,0,0,0,0,0,0,0,0,0,0,0,0,0,0,0,0,0],"id":2,"left_children":[1,3,5,7,9,11,13,15,17,19,-1,21,-1,23,25,-1,27,-1,29,31,-1,33,-1,-1,-1,-1,-1,-1,-1,-1,-1,35,37,-1,-1,-1,-1,-1,-1],"loss_changes":[1.681651E-3,1.2310098E-3,2.4313806E-3,1.9681854E-3,1.0287771E-3,1.8490602E-3,4.1789614E-4,2.4401692E-4,4.2336658E-3,7.483324E-4,0E0,1.595627E-3,0E0,1.1505076E-4,2.5604637E-5,0E0,5.3038355E-4,0E0,3.2050343E-4,7.414666E-4,0E0,1.0772077E-3,0E0,0E0,0E0,0E0,0E0,0E0,0E0,0E0,0E0,6.081585E-4,8.7468023E-4,0E0,0E0,0E0,0E0,0E0,0E0],"parents":[2147483647,0,0,1,1,2,2,3,3,4,4,5,5,6,6,7,7,8,8,9,9,11,11,13,13,14,14,16,16,18,18,19,19,21,21,31,31,32,32],"right_children":[2,4,6,8,10,12,14,16,18,20,-1,22,-1,24,26,-1,28,-1,30,32,-1,34,-1,-1,-1,-1,-1,-1,-1,-1,-1,36,38,-1,-1,-1,-1,-1,-1],"split_conditions":[8.1298226E-1,-1.0087572E0,3.4988874E-1,-1.5381093E-1,7.655981E-1,7.310098E-1,1.83588E-1,-7.235936E-1,-7.245451E-2,1.5967696E0,-7.659395E-4,-1.6557145E-1,-6.11018E-5,1.238822E0,2.6968231E0,3.21082E-4,-7.350841E-1,-1.9487359E-3,1.7664233E0,-2.4679616E-1,-5.8862974E-4,1.09421805E-1,1.8403257E-3,-1.4739767E-4,-5.828438E-4,2.4845672E-4,4.647926E-5,3.1081578E-4,-5.642045E-4,2.0040246E-4,-4.50019E-4,-7.073752E-1,3.327829E-1,1.188085E-3,-1.3918105E-4,8.512231E-5,-2.9025675E-4,4.7357794E-4,-5.091199E-5],"split_indices":[1,7,7,6,8,6,6,0,6,7,0,6,0,0,6,0,6,0,6,9,0,7,0,0,0,0,0,0,0,0,0,8,8,0,0,0,0,0,0],"split_type":[0,0,0,0,0,0,0,0,0,0,0,0,0,0,0,0,0,0,0,0,0,0,0,0,0,0,0,0,0,0,0,0,0,0,0,0,0,0,0],"sum_hessian":[4.36E2,3.49E2,8.7E1,7.4E1,2.75E2,4.6E1,4.1E1,3.6E1,3.8E1,2.63E2,1.2E1,3.2E1,1.4E1,2.1E1,2E1,1.6E1,2E1,1.5E1,2.3E1,2.5E2,1.3E1,1.8E1,1.4E1,9E0,1.2E1,9E0,1.1E1,1E1,1E1,1.4E1,9E0,1.47E2,1.03E2,9E0,9E0,9.5E1,5.2E1,6.1E1,4.2E1],"tree_param":{"num_deleted":"0","num_feature":"10","num_nodes":"39","size_leaf_vector":"1"}},{"base_weights":[4.488548E-5,-2.381073E-3,1.7323315E-3,-1.029424E-3,-1.0898625E-2,5.903127E-3,9.6771115E-4,-2.8182308E-3,1.0221257E-3,-2.0925293E-3,-1.5567878E-4,1.5977398E-3,1.6210555E-3,2.4594986E-4,6.9821556E-3,-1.1762489E-3,-1.1835834E-3,4.690887E-3,-2.3838943E-3,4.9424876E-4,-3.6412908E-4,6.822649E-4,-2.887829E-4,1.2785292E-3,1.0682305E-4,-2.0444144E-3,3.9224257E-4,6.255914E-3,6.2921645E-5,-8.4291183E-4,1.4477664E-4,2.5926824E-4,-2.7272373E-4,3.9267345E-4,-8.8204263E-4,4.7330737E-5,-5.3198315E-4,2.916188E-4,8.667066E-4,-1.5158457E-4,2.9577003E-4,-2.9964637E-4,1.2076417E-4],"categories":[],"categories_nodes":[],"categories_segments":[],"categories_sizes":[],"default_left":[0,0,0,0,0,0,0,0,0,0,0,0,0,0,0,0,0,0,0,0,0,0,0,0,0,0,0,0,0,0,0,0,0,0,0,0,0,0,0,0,0,0,0],"id":3,"left_children":[1,3,5,7,9,11,13,15,17,-1,-1,19,-1,21,23,25,-1,27,29,-1,31,-1,33,-1,-1,35,-1,37,-1,-1,39,-1,-1,41,-1,-1,-1,-1,-1,-1,-1,-1,-1],"loss_changes":[1.7562173E-3,2.0150233E-3,8.0112345E-4,5.6436396E-4,2.7322154E-3,2.0405096E-3,9.3159627E-4,1.3969217E-3,9.1088546E-4,0E0,0E0,2.3510269E-4,0E0,7.6862547E-4,9.659857E-4,3.5825337E-4,0E0,2.1376403E-4,6.83104E-4,0E0,1.950814E-4,0E0,1.1916811E-3,0E0,0E0,6.424048E-4,0E0,2.2777286E-4,0E0,0E0,1.7628189E-4,0E0,0E0,6.2198483E-4,0E0,0E0,0E0,0E0,0E0,0E0,0E0,0E0,0E0],"parents":[2147483647,0,0,1,1,2,2,3,3,4,4,5,5,6,6,7,7,8,8,11,11,13,13,14,14,15,15,17,17,18,18,20,20,22,22,25,25,27,27,30,30,33,33],"right_children":[2,4,6,8,10,12,14,16,18,-1,-1,20,-1,22,24,26,-1,28,30,-1,32,-1,34,-1,-1,36,-1,38,-1,-1,40,-1,-1,42,-1,-1,-1,-1,-1,-1,-1,-1,-1],"split_conditions":[-3.312072E-1,-5.130122E-1,-7.28657E-2,-9.8417807E-1,-4.5451593E-1,-1.4744306E-1,1.8771914E0,-8.877578E-1,-7.645713E-1,-2.0925293E-3,-1.5567878E-4,-2.390994E-1,1.6210555E-3,-1.6873726E0,2.1320646E0,2.1376854E-1,-1.1835834E-3,-1.0527159E-1,-6.7758244E-1,4.9424876E-4,-3.6791325E-1,6.822649E-4,1.5585555E0,1.2785292E-3,1.0682305E-4,-5.567681E-1,3.9224257E-4,-6.4308506E-1,6.2921645E-5,-8.4291183E-4,-5.900585E-1,2.5926824E-4,-2.7272373E-4,1.7374027E-1,-8.8204263E-4,4.7330737E-5,-5.3198315E-4,2.916188E-4,8.667066E-4,-1.5158457E-4,2.9577003E-4,-2.9964637E-4,1.2076417E-4],"split_indices":[0,3,8,2,8,3,3,3,2,0,0,0,0,7,0,6,0,6,2,0,2,0,3,0,0,6,0,6,0,0,6,0,0,9,0,0,0,0,0,0,0,0,0],"split_type":[0,0,0,0,0,0,0,0,0,0,0,0,0,0,0,0,0,0,0,0,0,0,0,0,0,0,0,0,0,0,0,0,0,0,0,0,0,0,0,0,0,0,0],"sum_hessian":[4.27E2,1.75E2,2.52E2,1.52E2,2.3E1,3.8E1,2.14E2,8.1E1,7.1E1,9E0,1.4E1,2.9E1,9E0,1.92E2,2.2E1,7.1E1,1E1,3.4E1,3.7E1,9E0,2E1,1.2E1,1.8E2,9E0,1.3E1,6.2E1,9E0,2.4E1,1E1,9E0,2.8E1,9E0,1.1E1,1.69E2,1.1E1,3.8E1,2.4E1,1.4E1,1E1,1.8E1,1E1,3.4E1,1.35E2],"tree_param":{"num_deleted":"0","num_feature":"10","num_nodes":"43","size_leaf_vector":"1"}},{"base_weights":[-1.1703379E-4,-9.537434E-4,1.334293E-4,1.1317163E-3,-1.7033472E-4,-4.076906E-3,5.0141505E-4,-1.6454513E-3,-1.4506532E-3,8.5306104E-4,-7.839128E-4,2.6063717E-3,-5.1074615E-3,6.116245E-3,3.290618E-4,4.5930207E-4,-7.8869125E-5,6.543713E-5,-7.7538064E-4,1.3289793E-4,1.3937202E-3,-2.5003923E-5,4.0025677E-4],"categories":[],"categories_nodes":[],"categories_segments":[],"categories_sizes":[],"default_left":[0,0,0,0,0,0,0,0,0,0,0,0,0,0,0,0,0,0,0,0,0,0,0],"id":4,"left_children":[1,-1,3,-1,5,7,9,11,-1,13,-1,15,17,19,21,-1,-1,-1,-1,-1,-1,-1,-1],"loss_changes":[1.1518667E-3,0E0,1.6240777E-3,0E0,1.0911032E-3,1.7879675E-3,1.170553E-3,7.787444E-4,0E0,9.439485E-4,0E0,2.1908442E-4,6.1845593E-4,1.3457643E-3,7.981077E-4,0E0,0E0,0E0,0E0,0E0,0E0,0E0,0E0],"parents":[2147483647,0,0,2,2,4,4,5,5,6,6,7,7,9,9,11,11,12,12,13,13,14,14],"right_children":[2,-1,4,-1,6,8,10,12,-1,14,-1,16,18,20,22,-1,-1,-1,-1,-1,-1,-1,-1],"split_conditions":[-2.1756186E0,-9.537434E-4,-1.6873726E0,1.1317163E-3,-1.0087572E0,-1.0486529E0,1.6364955E0,-3.903857E-1,-1.4506532E-3,-7.1663326E-1,-7.839128E-4,-1.255511E-1,-7.529327E-1,4.005926E-2,1.1217612E0,4.5930207E-4,-7.8869125E-5,6.543713E-5,-7.7538064E-4,1.3289793E-4,1.3937202E-3,-2.5003923E-5,4.0025677E-4],"split_indices":[7,0,7,0,7,7,7,6,0,7,0,0,3,0,7,0,0,0,0,0,0,0,0],"split_type":[0,0,0,0,0,0,0,0,0,0,0,0,0,0,0,0,0,0,0,0,0,0,0],"sum_hessian":[4.32E2,9E0,4.23E2,9E0,4.14E2,6E1,3.54E2,5.1E1,9E0,3.42E2,1.2E1,2.3E1,2.8E1,3E1,3.12E2,1.3E1,1E1,1.1E1,1.7E1,2.1E1,9E0,2.73E2,3.9E1],"tree_param":{"num_deleted":"0","num_feature":"10","num_nodes":"23","size_leaf_vector":"1"}},{"base_weights":[7.258955E-5,-2.9736577E-4,6.863015E-3,1.0441699E-5,-7.8903046E-4,1.2444665E-3,-2.1859123E-5,-1.1890157E-3,2.122089E-3,-4.6158387E-4,-1.5075118E-3,7.932311E-3,2.1949757E-4,1.6450536E-3,-2.8437788E-3,1.5455455E-4,1.0698961E-2,-1.7195891E-3,2.1904286E-3,2.6022323E-4,-1.9137309E-7,-7.26796E-4,8.3326224E-5,3.1652153E-4,1.3823288E-3,5.5438195E-5,-4.6797367E-4,5.0586305E-4,-1.8629117E-4],"categories":[],"categories_nodes":[],"categories_segments":[],"categories_sizes":[],"default_left":[0,0,0,0,0,0,0,0,0,0,0,0,0,0,0,0,0,0,0,0,0,0,0,0,0,0,0,0,0],"id":5,"left_children":[1,3,5,7,-1,-1,-1,9,11,13,-1,15,17,19,21,-1,23,25,27,-1,-1,-1,-1,-1,-1,-1,-1,-1,-1],"loss_changes":[1.0697062E-3,1.0664775E-3,1.1187128E-3,9.928601E-4,0E0,0E0,0E0,2.8588288E-3,1.567995E-3,1.2090993E-3,0E0,5.8121886E-4,4.1652165E-4,2.7013535E-4,2.284422E-3,0E0,7.7495514E-4,4.598278E-4,8.2139013E-4,0E0,0E0,0E0,0E0,0E0,0E0,0E0,0E0,0E0,0E0],"parents":[2147483647,0,0,1,1,2,2,3,3,7,7,8,8,9,9,11,11,12,12,13,13,14,14,16,16,17,17,18,18],"right_children":[2,4,6,8,-1,-1,-1,10,12,14,-1,16,18,20,22,-1,24,26,28,-1,-1,-1,-1,-1,-1,-1,-1,-1,-1],"split_conditions":[1.8771914E0,1.5585555E0,2.1436558E0,2.0896779E-1,-7.8903046E-4,1.2444665E-3,-2.1859123E-5,8.6409405E-2,3.6206058E-1,-5.567681E-1,-1.5075118E-3,3.283514E-1,9.2940193E-1,-6.362543E-1,-7.245451E-2,1.5455455E-4,-3.992109E-1,7.936438E-1,3.1517756E-1,2.6022323E-4,-1.9137309E-7,-7.26796E-4,8.3326224E-5,3.1652153E-4,1.3823288E-3,5.5438195E-5,-4.6797367E-4,5.0586305E-4,-1.8629117E-4],"split_indices":[3,3,9,3,0,0,0,3,4,6,0,7,8,8,6,0,6,4,7,0,0,0,0,0,0,0,0,0,0],"split_type":[0,0,0,0,0,0,0,0,0,0,0,0,0,0,0,0,0,0,0,0,0,0,0,0,0,0,0,0,0],"sum_hessian":[4.24E2,4.03E2,2.1E1,3.9E2,1.3E1,1E1,1.1E1,2.49E2,1.41E2,2.39E2,1E1,3.4E1,1.07E2,1.27E2,1.12E2,1.1E1,2.3E1,5.4E1,5.3E1,7.1E1,5.6E1,4.6E1,6.6E1,1E1,1.3E1,3.3E1,2.1E1,2.9E1,2.4E1],"tree_param":{"num_deleted":"0","num_feature":"10","num_nodes":"29","size_leaf_vector":"1"}},{"base_weights":[-4.2362613E-4,-1.6724928E-4,-8.2489545E-4,-6.4889714E-4,1.17643875E-4,-1.6810874E-3,1.5179053E-3,-4.2542274E-4,-9.615905E-3,3.6466976E-3,-3.266939E-4,2.4527374E-3,-1.331974E-3,-1.8434802E-3,-1.3920109E-4,5.0716423E-3,-1.95976E-3,-1.9154929E-3,4.2016623E-3,1.2614573E-6,8.034956E-4,-3.753671E-4,1.4047672E-4,1.0951238E-4,6.0220406E-4,-1.5992824E-5,-3.31106E-4,-2.7450778E-5,-1.3249959E-3,7.3120045E-4,-8.03356E-5],"categories":[],"categories_nodes":[],"categories_segments":[],"categories_sizes":[],"default_left":[0,0,0,0,0,0,0,0,0,0,0,0,0,0,0,0,0,0,0,0,0,0,0,0,0,0,0,0,0,0,0],"id":6,"left_children":[1,3,-1,-1,5,7,9,11,13,15,17,19,21,-1,-1,23,25,27,29,-1,-1,-1,-1,-1,-1,-1,-1,-1,-1,-1,-1],"loss_changes":[9.675498E-4,8.4583665E-4,0E0,0E0,1.012548E-3,1.7494797E-3,8.88641E-4,4.0247457E-4,2.1149789E-3,8.487728E-4,8.857953E-4,5.938029E-4,9.908706E-4,0E0,0E0,5.4010656E-4,6.838862E-5,1.8939491E-3,6.6426856E-4,0E0,0E0,0E0,0E0,0E0,0E0,0E0,0E0,0E0,0E0,0E0,0E0],"parents":[2147483647,0,0,1,1,4,4,5,5,6,6,7,7,8,8,9,9,10,10,11,11,12,12,15,15,16,16,17,17,18,18],"right_children":[2,4,-1,-1,6,8,10,12,14,16,18,20,22,-1,-1,24,26,28,30,-1,-1,-1,-1,-1,-1,-1,-1,-1,-1,-1,-1],"split_conditions":[1.6364955E0,-8.2405835E-1,-8.2489545E-4,-6.4889714E-4,-3.2042563E-1,-5.130122E-1,5.36267E-1,-1.2627583E0,-5.588953E-1,5.8658296E-1,1.4571296E0,-1.3118421E0,-9.3217045E-1,-1.8434802E-3,-1.3920109E-4,-6.8986666E-1,2.1813853E-1,1.4753482E0,5.237241E-1,1.2614573E-6,8.034956E-4,-3.753671E-4,1.4047672E-4,1.0951238E-4,6.0220406E-4,-1.5992824E-5,-3.31106E-4,-2.7450778E-5,-1.3249959E-3,7.3120045E-4,-8.03356E-5],"split_indices":[7,6,0,0,1,3,4,4,2,6,2,4,2,0,0,6,1,3,7,0,0,0,0,0,0,0,0,0,0,0,0],"split_type":[0,0,0,0,0,0,0,0,0,0,0,0,0,0,0,0,0,0,0,0,0,0,0,0,0,0,0,0,0,0,0],"sum_hessian":[4.26E2,4.15E2,1.1E1,1.5E1,4E2,1.75E2,2.25E2,1.52E2,2.3E1,1.04E2,1.21E2,3.6E1,1.16E2,9E0,1.4E1,8.3E1,2.1E1,9E1,3.1E1,2.7E1,9E0,5.8E1,5.8E1,2.6E1,5.7E1,1.1E1,1E1,8.1E1,9E0,1.7E1,1.4E1],"tree_param":{"num_deleted":"0","num_feature":"10","num_nodes":"31","size_leaf_vector":"1"}},{"base_weights":[4.1640585E-4,-1.7371622E-4,2.4866657E-3,1.8565111E-4,-9.7567705E-4,1.201302E-3,9.1977965E-4,-2.749353E-4,3.3614703E-3,5.7254997E-3,-1.6256833E-3,3.146142E-3,-7.114493E-4,7.3331E-4,8.8742905E-4,1.0033331E-3,1.9144043E-3,-7.225302E-3,1.5964161E-3,-1.232978E-4,9.4958313E-4,-2.3414805E-3,4.5911234E-4,3.6051378E-4,-2.0794137E-4,4.074721E-4,-8.4010404E-5,-4.134908E-5,-1.1852941E-3,-1.4570314E-3,4.357839E-4,2.940593E-4,-2.1358283E-4,-5.8485388E-5,-8.641376E-4,9.796276E-5,-3.3830528E-4,-2.5492816E-4,2.1280954E-5],"categories":[],"categories_nodes":[],"categories_segments":[],"categories_sizes":[],"default_left":[0,0,0,0,0,0,0,0,0,0,0,0,0,0,0,0,0,0,0,0,0,0,0,0,0,0,0,0,0,0,0,0,0,0,0,0,0,0,0],"id":7,"left_children":[1,3,5,7,-1,-1,9,11,13,15,17,19,21,-1,23,-1,25,27,29,31,-1,33,35,-1,-1,-1,-1,-1,-1,37,-1,-1,-1,-1,-1,-1,-1,-1,-1],"loss_changes":[5.343175E-4,1.3252572E-3,1.6628059E-3,4.8509083E-4,0E0,0E0,1.0613273E-3,4.3530934E-4,5.002493E-4,6.137608E-4,1.0399588E-3,8.1396E-4,4.933524E-4,0E0,3.057048E-4,0E0,1.4924501E-4,8.6029444E-4,3.804213E-4,1.9550728E-4,0E0,1.3349156E-3,4.1780953E-4,0E0,0E0,0E0,0E0,0E0,0E0,4.8511512E-5,0E0,0E0,0E0,0E0,0E0,0E0,0E0,0E0,0E0],"parents":[2147483647,0,0,1,1,2,2,3,3,6,6,7,7,8,8,9,9,10,10,11,11,12,12,14,14,16,16,17,17,18,18,19,19,21,21,22,22,29,29],"right_children":[2,4,6,8,-1,-1,10,12,14,16,18,20,22,-1,24,-1,26,28,30,32,-1,34,36,-1,-1,-1,-1,-1,-1,38,-1,-1,-1,-1,-1,-1,-1,-1,-1],"split_conditions":[8.1298226E-1,9.1875064E-1,-7.1663326E-1,1.1217612E0,-9.7567705E-4,1.201302E-3,1.1560156E0,-1.2627583E0,1.295663E0,3.4988874E-1,1.6792758E-1,-1.2849554E0,-5.5590427E-1,7.3331E-4,-5.6534874E-1,1.0033331E-3,1.093535E0,1.3582382E0,1.4483513E-1,-6.25204E-1,9.4958313E-4,-7.021936E-1,8.619958E-1,3.6051378E-4,-2.0794137E-4,4.074721E-4,-8.4010404E-5,-4.134908E-5,-1.1852941E-3,8.687706E-1,4.357839E-4,2.940593E-4,-2.1358283E-4,-5.8485388E-5,-8.641376E-4,9.796276E-5,-3.3830528E-4,-2.5492816E-4,2.1280954E-5],"split_indices":[1,3,7,7,0,0,4,4,7,7,6,3,1,0,6,0,0,3,7,6,0,3,7,0,0,0,0,0,0,6,0,0,0,0,0,0,0,0,0],"split_type":[0,0,0,0,0,0,0,0,0,0,0,0,0,0,0,0,0,0,0,0,0,0,0,0,0,0,0,0,0,0,0,0,0,0,0,0,0,0,0],"sum_hessian":[4.36E2,3.4E2,9.6E1,3.3E2,1E1,1.1E1,8.5E1,2.89E2,4.1E1,2.9E1,5.6E1,3.2E1,2.57E2,1.3E1,2.8E1,1.1E1,1.8E1,2E1,3.6E1,2.3E1,9E0,1.07E2,1.5E2,1.4E1,1.4E1,9E0,9E0,1E1,1E1,1.9E1,1.7E1,9E0,1.4E1,8.8E1,1.9E1,1.31E2,1.9E1,1E1,9E0],"tree_param":{"num_deleted":"0","num_feature":"10","num_nodes":"39","size_leaf_vector":"1"}},{"base_weights":[5.3413438E-5,-1.4093487E-3,1.294693E-3,-7.478943E-4,-1.2480502E-3,7.683136E-3,5.423296E-4,1.1950595E-3,-2.7235358E-3,2.2643435E-4,1.2440472E-3,-7.3602605E-5,5.660445E-3,-2.7297664E-4,4.874899E-3,-7.325235E-3,1.8398333E-3,6.344385E-4,-6.580255E-4,9.112726E-4,-1.1803367E-4,3.607958E-4,-1.711312E-3,8.3822635E-4,7.75873E-5,-3.7866295E-3,-1.6792674E-3,3.2600935E-3,-2.9905324E-4,-3.8004437E-4,1.118258E-3,-5.19309E-5,-3.3412338E-4,-9.259365E-4,-6.2396175E-5,-8.6510765E-5,4.226956E-4,2.0672953E-4,-8.4599385E-5],"categories":[],"categories_nodes":[],"categories_segments":[],"categories_sizes":[],"default_left":[0,0,0,0,0,0,0,0,0,0,0,0,0,0,0,0,0,0,0,0,0,0,0,0,0,0,0,0,0,0,0,0,0,0,0,0,0,0,0],"id":8,"left_children":[1,3,5,7,-1,9,11,13,15,-1,-1,17,19,21,23,25,27,29,-1,-1,-1,-1,31,-1,-1,33,-1,35,-1,-1,37,-1,-1,-1,-1,-1,-1,-1,-1],"loss_changes":[7.989156E-4,1.6763961E-3,1.1397637E-3,7.441008E-4,0E0,7.742463E-4,6.7503285E-4,5.3074025E-4,2.0294054E-3,0E0,0E0,1.0006165E-3,7.508049E-4,4.4914804E-4,5.018034E-4,1.8917143E-3,3.7303526E-4,4.2271346E-4,0E0,0E0,0E0,0E0,1.2235597E-4,0E0,0E0,7.694126E-4,0E0,2.5112272E-4,0E0,0E0,4.0420255E-4,0E0,0E0,0E0,0E0,0E0,0E0,0E0,0E0],"parents":[2147483647,0,0,1,1,2,2,3,3,5,5,6,6,7,7,8,8,11,11,12,12,13,13,14,14,15,15,16,16,17,17,22,22,25,25,27,27,30,30],"right_children":[2,4,6,8,-1,10,12,14,16,-1,-1,18,20,22,24,26,28,30,-1,-1,-1,-1,32,-1,-1,34,-1,36,-1,-1,38,-1,-1,-1,-1,-1,-1,-1,-1],"split_conditions":[-2.6545823E-1,-1.6662143E-1,-5.9602395E-2,-9.2004997E-1,-1.2480502E-3,-4.0340355E-1,1.8771914E0,-1.0448494E0,-6.1801654E-1,2.2643435E-4,1.2440472E-3,1.5585555E0,2.0889805E-1,-6.385974E-1,-9.780554E-1,-6.1480623E-1,8.852353E-1,-8.2405835E-1,-6.580255E-4,9.112726E-4,-1.1803367E-4,3.607958E-4,-1.158208E0,8.3822635E-4,7.75873E-5,-9.8417807E-1,-1.6792674E-3,-6.806081E-1,-2.9905324E-4,-3.8004437E-4,6.0353104E-2,-5.19309E-5,-3.3412338E-4,-9.259365E-4,-6.2396175E-5,-8.6510765E-5,4.226956E-4,2.0672953E-4,-8.4599385E-5],"split_indices":[4,8,4,3,0,6,3,3,2,0,0,3,7,6,3,3,7,6,0,0,0,0,4,0,0,2,0,6,0,0,6,0,0,0,0,0,0,0,0],"split_type":[0,0,0,0,0,0,0,0,0,0,0,0,0,0,0,0,0,0,0,0,0,0,0,0,0,0,0,0,0,0,0,0,0,0,0,0,0,0,0],"sum_hessian":[4.38E2,2.01E2,2.37E2,1.92E2,9E0,2.4E1,2.13E2,9.7E1,9.5E1,1.4E1,1E1,1.91E2,2.2E1,7E1,2.7E1,4.7E1,4.8E1,1.75E2,1.6E1,1.3E1,9E0,1.7E1,5.3E1,1.2E1,1.5E1,3.7E1,1E1,3.8E1,1E1,1.5E1,1.6E2,3.5E1,1.8E1,1.1E1,2.6E1,1E1,2.8E1,1.01E2,5.9E1],"tree_param":{"num_deleted":"0","num_feature":"10","num_nodes":"39","size_leaf_vector":"1"}},{"base_weights":[-2.6997816E-4,-1.5999178E-3,1.5094597E-3,-7.166233E-4,-2.0210815E-3,6.2739854E-3,1.2850392E-4,5.610466E-4,-2.9846947E-3,4.667422E-5,9.448506E-3,5.148507E-3,-1.0537532E-3,3.8974804E-3,-3.3865555E-4,-1.1636634E-2,4.959906E-4,1.1022257E-3,2.8461765E-4,-3.4385212E-4,9.2233263E-4,-3.039182E-3,1.5628412E-3,-8.9816895E-5,7.6261465E-4,-1.2881279E-3,2.7833623E-3,-1.5964689E-3,-2.933189E-4,-6.372357E-4,2.7927877E-3,-3.0732114E-4,-1.2959759E-3,-9.3079975E-4,3.4225378E-3,-5.1342606E-5,-6.466773E-4,6.226206E-4,1.7324828E-5,1.07942964E-4,-3.4119465E-4,4.7780198E-4,-5.18161E-5,-6.887771E-4,1.3143715E-4,1.7533849E-4,-2.61227E-4,5.506685E-4,2.1335047E-5],"categories":[],"categories_nodes":[],"categories_segments":[],"categories_sizes":[],"default_left":[0,0,0,0,0,0,0,0,0,0,0,0,0,0,0,0,0,0,0,0,0,0,0,0,0,0,0,0,0,0,0,0,0,0,0,0,0,0,0,0,0,0,0,0,0,0,0,0,0],"id":9,"left_children":[1,3,5,7,-1,9,11,13,15,-1,17,19,21,23,25,27,29,-1,-1,-1,-1,31,33,-1,-1,35,37,-1,-1,39,41,43,-1,45,47,-1,-1,-1,-1,-1,-1,-1,-1,-1,-1,-1,-1,-1,-1],"loss_changes":[1.0342286E-3,4.6491423E-3,1.2295789E-3,7.0005556E-4,0E0,7.615716E-4,8.719257E-4,4.6659834E-4,2.625749E-3,0E0,4.573313E-4,1.3585791E-3,6.2296214E-4,7.662848E-4,3.6819046E-4,1.2573623E-3,1.6575548E-4,0E0,0E0,0E0,0E0,2.1381958E-3,2.443313E-4,0E0,0E0,3.9985136E-4,3.1527807E-4,0E0,0E0,2.593277E-4,1.8602454E-4,7.551021E-4,0E0,1.3975645E-4,2.629712E-4,0E0,0E0,0E0,0E0,0E0,0E0,0E0,0E0,0E0,0E0,0E0,0E0,0E0,0E0],"parents":[2147483647,0,0,1,1,2,2,3,3,5,5,6,6,7,7,8,8,10,10,11,11,12,12,13,13,14,14,15,15,16,16,21,21,22,22,25,25,26,26,29,29,30,30,31,31,33,33,34,34],"right_children":[2,4,6,8,-1,10,12,14,16,-1,18,20,22,24,26,28,30,-1,-1,-1,-1,32,34,-1,-1,36,38,-1,-1,40,42,44,-1,46,48,-1,-1,-1,-1,-1,-1,-1,-1,-1,-1,-1,-1,-1,-1],"split_conditions":[2.0896779E-1,1.0322222E-1,5.34839E-1,-1.5381093E-1,-2.0210815E-3,1.4838877E-1,-7.1663326E-1,-1.2627583E0,-7.245451E-2,4.667422E-5,6.0353104E-2,6.6571975E-1,1.6792758E-1,-1.4779776E0,-1.9459777E-1,-1.0251609E0,-2.4598633E-1,1.1022257E-3,2.8461765E-4,-3.4385212E-4,9.2233263E-4,1.4065315E0,1.4483513E-1,-8.9816895E-5,7.6261465E-4,-5.567681E-1,-1.1362519E-1,-1.5964689E-3,-2.933189E-4,-7.362756E-1,-2.615395E-1,4.676567E-1,-1.2959759E-3,-4.2546132E-1,9.293405E-1,-5.1342606E-5,-6.466773E-4,6.226206E-4,1.7324828E-5,1.07942964E-4,-3.4119465E-4,4.7780198E-4,-5.18161E-5,-6.887771E-4,1.3143715E-4,1.7533849E-4,-2.61227E-4,5.506685E-4,2.1335047E-5],"split_indices":[3,3,8,6,0,1,7,4,6,0,6,2,6,1,8,7,1,0,0,0,0,3,7,0,0,6,1,0,0,8,8,9,0,7,7,0,0,0,0,0,0,0,0,0,0,0,0,0,0],"split_type":[0,0,0,0,0,0,0,0,0,0,0,0,0,0,0,0,0,0,0,0,0,0,0,0,0,0,0,0,0,0,0,0,0,0,0,0,0,0,0,0,0,0,0,0,0,0,0,0,0],"sum_hessian":[4.35E2,2.49E2,1.86E2,2.4E2,9E0,4.1E1,1.45E2,1.54E2,8.6E1,1.5E1,2.6E1,2.7E1,1.18E2,3.2E1,1.22E2,2.4E1,6.2E1,1.7E1,9E0,1E1,1.7E1,6.7E1,5.1E1,1.6E1,1.6E1,9.4E1,2.8E1,1.3E1,1.1E1,4.2E1,2E1,5.5E1,1.2E1,2.2E1,2.9E1,8.5E1,9E0,1E1,1.8E1,2.7E1,1.5E1,1.1E1,9E0,1E1,4.5E1,9E0,1.3E1,1.5E1,1.4E1],"tree_param":{"num_deleted":"0","num_feature":"10","num_nodes":"49","size_leaf_vector":"1"}},{"base_weights":[4.4866494E-5,-4.3006128E-4,4.5729615E-3,1.1992762E-4,-7.2995755E-3,7.748949E-3,7.4928334E-6,-4.1465115E-4,3.3984222E-3,-1.4341009E-3,-1.8049766E-3,1.1789231E-3,3.1660154E-4,-1.2898869E-4,-5.077042E-4,-7.447461E-5,5.1866435E-3,4.31173E-6,-3.092843E-4,2.2331583E-3,-6.490987E-4,9.35317E-4,2.0828454E-3,-3.1338226E-5,4.6655806E-4,-3.9604257E-4,1.0222893E-5,-6.0691993E-5,3.6521006E-4],"categories":[],"categories_nodes":[],"categories_segments":[],"categories_sizes":[],"default_left":[0,0,0,0,0,0,0,0,0,0,0,0,0,0,0,0,0,0,0,0,0,0,0,0,0,0,0,0,0],"id":10,"left_children":[1,3,5,7,9,11,-1,13,15,-1,17,-1,-1,19,-1,-1,21,-1,-1,23,25,-1,27,-1,-1,-1,-1,-1,-1],"loss_changes":[9.288399E-4,1.4781345E-3,5.8384583E-4,6.376079E-4,1.377427E-3,5.065367E-4,0E0,4.7266152E-4,3.906546E-4,0E0,5.908341E-5,0E0,0E0,3.6756528E-4,0E0,0E0,5.737745E-4,0E0,0E0,4.2257312E-4,7.1268156E-4,0E0,1.3713099E-4,0E0,0E0,0E0,0E0,0E0,0E0],"parents":[2147483647,0,0,1,1,2,2,3,3,4,4,5,5,7,7,8,8,10,10,13,13,16,16,19,19,20,20,22,22],"right_children":[2,4,6,8,10,12,-1,14,16,-1,18,-1,-1,20,-1,-1,22,-1,-1,24,26,-1,28,-1,-1,-1,-1,-1,-1],"split_conditions":[1.4571296E0,1.2629677E0,5.237241E-1,7.301247E-1,1.3640661E0,1.6607912E0,7.4928334E-6,6.600103E-1,-7.64673E-1,-1.4341009E-3,1.071537E0,1.1789231E-3,3.1660154E-4,-1.158208E0,-5.077042E-4,-7.447461E-5,6.0353104E-2,4.31173E-6,-3.092843E-4,-1.2980332E0,-9.3217045E-1,9.35317E-4,7.895539E-1,-3.1338226E-5,4.6655806E-4,-3.9604257E-4,1.0222893E-5,-6.0691993E-5,3.6521006E-4],"split_indices":[2,4,7,1,4,0,0,8,6,0,0,0,0,4,0,0,6,0,0,4,2,0,8,0,0,0,0,0,0],"split_type":[0,0,0,0,0,0,0,0,0,0,0,0,0,0,0,0,0,0,0,0,0,0,0,0,0,0,0,0,0],"sum_hessian":[4.3E2,3.9E2,4E1,3.62E2,2.8E1,2.3E1,1.7E1,3.12E2,5E1,1E1,1.8E1,9E0,1.4E1,2.97E2,1.5E1,1.5E1,3.5E1,9E0,9E0,5.3E1,2.44E2,1.2E1,2.3E1,2.9E1,2.4E1,4E1,2.04E2,1E1,1.3E1],"tree_param":{"num_deleted":"0","num_feature":"10","num_nodes":"29","size_leaf_vector":"1"}},{"base_weights":[5.4388533E-5,-9.711513E-4,1.960492E-3,2.389764E-4,-6.927881E-3,1.032069E-2,7.9524383E-4,6.361846E-4,-8.992005E-5,1.6260045E-4,-1.1228789E-2,2.1571181E-4,1.5280932E-3,-8.4374734E-4,4.0915683E-3,6.067368E-4,-3.255909E-3,-1.9014733E-3,-5.1801046E-3,-5.7272054E-4,3.1508392E-4,7.2675413E-3,-3.5424968E-5,2.4155223E-4,6.396034E-4,-8.137483E-4,-8.690238E-4,4.6842013E-4,-1.6223832E-3,4.0430427E-3,-9.539713E-4,1.1163382E-3,4.8583192E-6,-2.0260805E-4,1.6332709E-4,-1.7227736E-4,7.552843E-5,9.198582E-5,-1.622631E-4,6.010368E-4,1.07307E-4,-2.576567E-4,6.903656E-5],"categories":[],"categories_nodes":[],"categories_segments":[],"categories_sizes":[],"default_left":[0,0,0,0,0,0,0,0,0,0,0,0,0,0,0,0,0,0,0,0,0,0,0,0,0,0,0,0,0,0,0,0,0,0,0,0,0,0,0,0,0,0,0],"id":11,"left_children":[1,3,5,7,9,11,13,-1,15,-1,17,-1,-1,19,21,23,25,-1,27,-1,29,31,33,35,-1,-1,37,-1,-1,39,41,-1,-1,-1,-1,-1,-1,-1,-1,-1,-1,-1,-1],"loss_changes":[8.717833E-4,2.0920925E-3,1.5114988E-3,5.510285E-4,1.8658827E-3,9.877868E-4,7.490175E-4,0E0,5.1367655E-4,0E0,1.9159466E-3,0E0,0E0,6.0517865E-4,6.031895E-4,4.5761582E-4,5.829961E-4,0E0,3.0987626E-3,0E0,3.7287376E-4,9.905945E-4,9.2361275E-5,2.4265698E-4,0E0,0E0,5.8276135E-5,0E0,0E0,1.4589817E-4,2.0064726E-4,0E0,0E0,0E0,0E0,0E0,0E0,0E0,0E0,0E0,0E0,0E0,0E0],"parents":[2147483647,0,0,1,1,2,2,3,3,4,4,5,5,6,6,8,8,10,10,13,13,14,14,15,15,16,16,18,18,20,20,21,21,22,22,23,23,26,26,29,29,30,30],"right_children":[2,4,6,8,10,12,14,-1,16,-1,18,-1,-1,20,22,24,26,-1,28,-1,30,32,34,36,-1,-1,38,-1,-1,40,42,-1,-1,-1,-1,-1,-1,-1,-1,-1,-1,-1,-1],"split_conditions":[-1.5659252E-2,-3.878E-1,7.073854E-2,-1.5629617E0,-1.0494094E0,1.8376386E-1,1.0393654E0,6.361846E-4,9.0400326E-1,1.6260045E-4,-6.195275E-1,2.1571181E-4,1.5280932E-3,2.1376854E-1,3.4014738E-1,6.970561E-1,-1.1739049E-1,-1.9014733E-3,-5.7946198E-2,-5.7272054E-4,-7.073752E-1,9.2274344E-1,8.3005565E-1,-1.2214329E0,6.396034E-4,-8.137483E-4,1.5670349E-1,4.6842013E-4,-1.6223832E-3,6.036512E-2,2.0524597E-1,1.1163382E-3,4.8583192E-6,-2.0260805E-4,1.6332709E-4,-1.7227736E-4,7.552843E-5,9.198582E-5,-1.622631E-4,6.010368E-4,1.07307E-4,-2.576567E-4,6.903656E-5],"split_indices":[6,6,6,7,4,1,2,0,4,0,2,0,0,6,7,4,7,0,3,0,8,6,7,1,0,0,7,0,0,7,7,0,0,0,0,0,0,0,0,0,0,0,0],"split_type":[0,0,0,0,0,0,0,0,0,0,0,0,0,0,0,0,0,0,0,0,0,0,0,0,0,0,0,0,0,0,0,0,0,0,0,0,0,0,0,0,0,0,0],"sum_hessian":[4.44E2,2.89E2,1.55E2,2.41E2,4.8E1,1.8E1,1.37E2,1E1,2.31E2,1.6E1,3.2E1,9E0,9E0,9.2E1,4.5E1,1.9E2,4.1E1,1.1E1,2.1E1,1.5E1,7.7E1,2.5E1,2E1,1.81E2,9E0,1.1E1,3E1,1.2E1,9E0,1.9E1,5.8E1,1.4E1,1.1E1,9E0,1.1E1,3.9E1,1.42E2,1E1,2E1,9E0,1E1,2.7E1,3.1E1],"tree_param":{"num_deleted":"0","num_feature":"10","num_nodes":"43","size_leaf_vector":"1"}},{"base_weights":[-1.2262175E-5,-2.9318433E-4,4.1317777E-3,7.2219984E-5,-9.5262285E-4,1.0542452E-3,-1.5060218E-4,-6.4732425E-4,1.3699137E-3,1.1334963E-4,-1.3879569E-4,1.0118985E-4,-1.5530342E-3,7.0552056E-4,6.525099E-4,-2.763665E-4,4.4191508E-3,-4.4081552E-4,1.372256E-3,1.7464682E-4,-7.560892E-5,5.975538E-4,1.7128492E-4,2.5740438E-4,-6.832413E-5],"categories":[],"categories_nodes":[],"categories_segments":[],"categories_sizes":[],"default_left":[0,0,0,0,0,0,0,0,0,0,0,0,0,0,0,0,0,0,0,0,0,0,0,0,0],"id":12,"left_children":[1,3,5,7,-1,-1,9,11,13,-1,-1,15,-1,-1,17,19,21,-1,23,-1,-1,-1,-1,-1,-1],"loss_changes":[5.134385E-4,1.573153E-3,9.278657E-4,3.74386E-4,0E0,0E0,4.01761E-5,3.2493605E-3,6.681906E-4,0E0,0E0,4.055292E-4,0E0,0E0,5.3166976E-4,2.9607821E-4,1.0175753E-4,0E0,3.8021745E-4,0E0,0E0,0E0,0E0,0E0,0E0],"parents":[2147483647,0,0,1,1,2,2,3,3,6,6,7,7,8,8,11,11,14,14,15,15,16,16,18,18],"right_children":[2,4,6,8,-1,-1,10,12,14,-1,-1,16,-1,-1,18,20,22,-1,24,-1,-1,-1,-1,-1,-1],"split_conditions":[1.6694788E0,1.5248184E0,1.9709901E0,2.0896779E-1,-9.5262285E-4,1.0542452E-3,2.0618646E0,1.0322222E-1,2.953289E-1,1.1334963E-4,-1.3879569E-4,1.25437705E-2,-1.5530342E-3,7.0552056E-4,1.7374027E-1,-1.2062451E0,8.3961956E-2,-4.4081552E-4,7.073854E-2,1.7464682E-4,-7.560892E-5,5.975538E-4,1.7128492E-4,2.5740438E-4,-6.832413E-5],"split_indices":[2,3,0,3,0,0,3,3,3,0,0,9,0,0,9,2,8,0,6,0,0,0,0,0,0],"split_type":[0,0,0,0,0,0,0,0,0,0,0,0,0,0,0,0,0,0,0,0,0,0,0,0,0],"sum_hessian":[4.39E2,4.12E2,2.7E1,3.99E2,1.3E1,9E0,1.8E1,2.57E2,1.42E2,9E0,9E0,2.47E2,1E1,1.3E1,1.29E2,2.28E2,1.9E1,1.4E1,1.15E2,4.6E1,1.82E2,9E0,1E1,6.7E1,4.8E1],"tree_param":{"num_deleted":"0","num_feature":"10","num_nodes":"25","size_leaf_vector":"1"}},{"base_weights":[-1.4327849E-4,-8.906359E-4,1.2456012E-3,5.542935E-5,-6.0952543E-3,7.606602E-4,3.3629956E-4,9.43431E-4,-3.3061344E-3,-9.748507E-3,-1.6298578E-3,-3.9347108E-3,1.2699746E-3,3.6770967E-4,1.0175394E-3,-8.914025E-4,-1.4231601E-3,-3.1401022E-4,-1.4917894E-3,4.636627E-4,-8.6076715E-4,-6.962224E-4,2.3919683E-4,6.2121777E-4,1.9623706E-4,-2.8888622E-4,5.722526E-4,1.6988781E-3,-4.897066E-4,-4.5964896E-4,2.4531053E-3,1.8770457E-4,-8.477872E-6,-8.604747E-5,4.3913707E-4,1.8883278E-4,-8.689618E-5,3.8307646E-4,7.449981E-5],"categories":[],"categories_nodes":[],"categories_segments":[],"categories_sizes":[],"default_left":[0,0,0,0,0,0,0,0,0,0,0,0,0,0,0,0,0,0,0,0,0,0,0,0,0,0,0,0,0,0,0,0,0,0,0,0,0,0,0],"id":13,"left_children":[1,3,5,7,9,-1,11,13,15,17,19,21,23,25,-1,-1,27,-1,-1,-1,-1,-1,-1,-1,29,-1,31,33,-1,35,37,-1,-1,-1,-1,-1,-1,-1,-1],"loss_changes":[4.5678677E-4,1.4085756E-3,1.0204974E-3,7.284921E-4,7.018929E-4,0E0,5.553045E-4,1.1623728E-3,6.308561E-4,9.89299E-4,1.2073526E-3,6.660209E-4,6.9826544E-4,1.3796065E-4,0E0,0E0,5.320775E-4,0E0,0E0,0E0,0E0,0E0,0E0,0E0,1.4471165E-4,0E0,1.7994185E-4,2.120783E-4,0E0,1.03670085E-4,6.230053E-5,0E0,0E0,0E0,0E0,0E0,0E0,0E0,0E0],"parents":[2147483647,0,0,1,1,2,2,3,3,4,4,6,6,7,7,8,8,9,9,10,10,11,11,12,12,13,13,16,16,24,24,26,26,27,27,29,29,30,30],"right_children":[2,4,6,8,10,-1,12,14,16,18,20,22,24,26,-1,-1,28,-1,-1,-1,-1,-1,-1,-1,30,-1,32,34,-1,36,38,-1,-1,-1,-1,-1,-1,-1,-1],"split_conditions":[-1.5156791E-2,-1.5381093E-1,7.073854E-2,8.7241834E-1,-6.195275E-1,7.606602E-4,2.0299762E-1,-3.992109E-1,1.0261694E0,-8.4898925E-1,-4.7595832E-1,1.1335095E0,2.8673005E-1,-1.5312659E0,1.0175394E-3,-8.914025E-4,1.4805092E0,-3.1401022E-4,-1.4917894E-3,4.636627E-4,-8.6076715E-4,-6.962224E-4,2.3919683E-4,6.2121777E-4,1.0127702E0,-2.8888622E-4,-4.6127945E-1,-6.6510135E-1,-4.897066E-4,-7.073752E-1,1.284519E0,1.8770457E-4,-8.477872E-6,-8.604747E-5,4.3913707E-4,1.8883278E-4,-8.689618E-5,3.8307646E-4,7.449981E-5],"split_indices":[6,6,6,4,2,0,6,6,4,2,4,2,6,8,0,0,8,0,0,0,0,0,0,0,7,0,7,6,0,8,7,0,0,0,0,0,0,0,0],"split_type":[0,0,0,0,0,0,0,0,0,0,0,0,0,0,0,0,0,0,0,0,0,0,0,0,0,0,0,0,0,0,0,0,0,0,0,0,0,0,0],"sum_hessian":[4.38E2,2.85E2,1.53E2,2.42E2,4.3E1,1.6E1,1.37E2,1.92E2,5E1,2.3E1,2E1,2.4E1,1.13E2,1.83E2,9E0,1E1,4E1,1.3E1,1E1,1.1E1,9E0,1.5E1,9E0,1.7E1,9.6E1,9E0,1.74E2,2.3E1,1.7E1,7.5E1,2.1E1,5.2E1,1.22E2,1.3E1,1E1,1.2E1,6.3E1,9E0,1.2E1],"tree_param":{"num_deleted":"0","num_feature":"10","num_nodes":"39","size_leaf_vector":"1"}},{"base_weights":[-1.2819105E-4,5.574294E-4,-3.4059864E-4,-1.2352141E-3,1.3179503E-3,-2.661843E-4,-6.0324445E-3,7.2264937E-3,4.4425583E-4,-7.385472E-4,3.996655E-3,-1.9118137E-3,-1.8386216E-3,1.5413098E-4,1.0668724E-3,-8.207323E-4,3.9012446E-3,-3.268557E-4,-5.3235574E-4,4.7273267E-4,1.556222E-4,-6.5092794E-3,6.2929734E-4,-4.177234E-4,1.3308701E-5,7.87916E-3,-1.7144492E-4,-4.3456638E-4,7.546301E-6,-1.0260282E-4,-1.2829688E-3,-1.3948561E-4,1.5264298E-4,1.0550525E-3,2.825964E-4],"categories":[],"categories_nodes":[],"categories_segments":[],"categories_sizes":[],"default_left":[0,0,0,0,0,0,0,0,0,0,0,0,0,0,0,0,0,0,0,0,0,0,0,0,0,0,0,0,0,0,0,0,0,0,0],"id":14,"left_children":[1,-1,3,5,7,9,11,13,15,17,19,21,-1,-1,-1,23,25,27,-1,-1,-1,29,-1,-1,31,33,-1,-1,-1,-1,-1,-1,-1,-1,-1],"loss_changes":[5.918007E-4,0E0,6.2629237E-4,1.272127E-3,7.608044E-4,4.640678E-4,2.7360558E-3,4.7712633E-4,5.7169836E-4,4.452668E-4,5.886884E-5,1.5750361E-3,0E0,0E0,0E0,3.1045557E-4,8.2676776E-4,3.627486E-4,0E0,0E0,0E0,1.0434573E-3,0E0,0E0,2.1822547E-4,3.5573216E-4,0E0,0E0,0E0,0E0,0E0,0E0,0E0,0E0,0E0],"parents":[2147483647,0,0,2,2,3,3,4,4,5,5,6,6,7,7,8,8,9,9,10,10,11,11,15,15,16,16,17,17,21,21,24,24,25,25],"right_children":[2,-1,4,6,8,10,12,14,16,18,20,22,-1,-1,-1,24,26,28,-1,-1,-1,30,-1,-1,32,34,-1,-1,-1,-1,-1,-1,-1,-1,-1],"split_conditions":[-1.9640574E0,5.574294E-4,-1.5156791E-2,-3.903857E-1,7.073854E-2,-4.0909597E-1,-3.1393057E-1,1.7937836E-1,1.2805961E0,-5.567681E-1,5.237241E-1,-6.195275E-1,-1.8386216E-3,1.5413098E-4,1.0668724E-3,2.1376854E-1,1.9150585E0,-8.2405835E-1,-5.3235574E-4,4.7273267E-4,1.556222E-4,-7.021936E-1,6.2929734E-4,-4.177234E-4,3.4988874E-1,2.8673005E-1,-1.7144492E-4,-4.3456638E-4,7.546301E-6,-1.0260282E-4,-1.2829688E-3,-1.3948561E-4,1.5264298E-4,1.0550525E-3,2.825964E-4],"split_indices":[7,0,6,6,6,6,4,0,2,6,7,2,0,0,0,6,1,6,0,0,0,3,0,0,7,6,0,0,0,0,0,0,0,0,0],"split_type":[0,0,0,0,0,0,0,0,0,0,0,0,0,0,0,0,0,0,0,0,0,0,0,0,0,0,0,0,0,0,0,0,0,0,0],"sum_hessian":[4.33E2,1.3E1,4.2E2,2.73E2,1.47E2,2.28E2,4.5E1,1.8E1,1.29E2,2.06E2,2.2E1,3.6E1,9E0,9E0,9E0,9.5E1,3.4E1,1.92E2,1.4E1,1.3E1,9E0,2.4E1,1.2E1,1.6E1,7.9E1,2E1,1.4E1,1.5E1,1.77E2,1.5E1,9E0,4.1E1,3.8E1,1E1,1E1],"tree_param":{"num_deleted":"0","num_feature":"10","num_nodes":"35","size_leaf_vector":"1"}},{"base_weights":[2.8436678E-4,-3.1086558E-4,2.4242098E-3,-5.674128E-6,-8.4426237E-4,8.818494E-4,1.5248238E-3,2.2991968E-4,-6.137442E-4,7.625812E-4,4.8429344E-4,-5.5299845E-4,4.3520614E-4,1.2202356E-3,-3.997241E-4,9.2255206E-5,3.9226618E-3,4.4380338E-4,4.9812853E-4,2.5328013E-4,-4.1050618E-5,1.085305E-3,-1.2061422E-4,1.937541E-4,-1.4485508E-4],"categories":[],"categories_nodes":[],"categories_segments":[],"categories_sizes":[],"default_left":[0,0,0,0,0,0,0,0,0,0,0,0,0,0,0,0,0,0,0,0,0,0,0,0,0],"id":15,"left_children":[1,3,5,7,-1,-1,9,11,-1,-1,13,-1,15,17,-1,19,21,23,-1,-1,-1,-1,-1,-1,-1],"loss_changes":[5.5608846E-4,9.5842325E-4,6.2503363E-4,5.409689E-4,0E0,0E0,6.267653E-4,4.2896386E-4,0E0,0E0,2.8398185E-4,0E0,3.7399432E-4,2.2543257E-4,0E0,4.378737E-4,1.2406888E-3,2.1212494E-4,0E0,0E0,0E0,0E0,0E0,0E0,0E0],"parents":[2147483647,0,0,1,1,2,2,3,3,6,6,7,7,10,10,12,12,13,13,15,15,16,16,17,17],"right_children":[2,4,6,8,-1,-1,10,12,-1,-1,14,-1,16,18,-1,20,22,24,-1,-1,-1,-1,-1,-1,-1],"split_conditions":[8.1298226E-1,9.1875064E-1,9.4069403E-1,1.5967696E0,-8.4426237E-4,8.818494E-4,-7.1663326E-1,-2.104648E0,-6.137442E-4,7.625812E-4,2.1320646E0,-5.5299845E-4,1.2378402E0,1.7935597E0,-3.997241E-4,-1.0819585E0,1.3237352E0,3.283514E-1,4.9812853E-4,2.5328013E-4,-4.1050618E-5,1.085305E-3,-1.2061422E-4,1.937541E-4,-1.4485508E-4],"split_indices":[1,3,0,7,0,0,7,7,0,0,0,0,7,2,0,7,7,7,0,0,0,0,0,0,0],"split_type":[0,0,0,0,0,0,0,0,0,0,0,0,0,0,0,0,0,0,0,0,0,0,0,0,0],"sum_hessian":[4.35E2,3.41E2,9.4E1,3.31E2,1E1,9E0,8.5E1,3.21E2,1E1,1E1,7.5E1,9E0,3.12E2,6.6E1,9E0,2.85E2,2.7E1,5.7E1,9E0,4.7E1,2.38E2,1E1,1.7E1,3.1E1,2.6E1],"tree_param":{"num_deleted":"0","num_feature":"10","num_nodes":"25","size_leaf_vector":"1"}},{"base_weights":[-1.2971651E-4,-2.8527726E-4,3.6919693E-4,-3.3621167E-5,-7.120059E-4,-3.9801147E-4,1.997958E-3,-1.7277074E-4,-6.948501E-4,6.541462E-4,2.4544826E-4,5.508791E-5,-4.4256196E-4,-2.8556588E-4,2.1331254E-3,-3.539727E-5,3.7780462E-4,5.1414495E-4,1.0709405E-5],"categories":[],"categories_nodes":[],"categories_segments":[],"categories_sizes":[],"default_left":[0,0,0,0,0,0,0,0,0,0,0,0,0,0,0,0,0,0,0],"id":16,"left_children":[1,3,-1,5,-1,7,9,11,-1,-1,13,15,-1,-1,17,-1,-1,-1,-1],"loss_changes":[2.8490683E-4,8.0029515E-4,0E0,2.969103E-4,0E0,5.665555E-4,5.709812E-4,3.6258975E-4,0E0,0E0,3.135288E-4,6.040428E-4,0E0,0E0,2.2694682E-4,0E0,0E0,0E0,0E0],"parents":[2147483647,0,0,1,1,3,3,5,5,6,6,7,7,10,10,11,11,14,14],"right_children":[2,4,-1,6,-1,8,10,12,-1,-1,14,16,-1,-1,18,-1,-1,-1,-1],"split_conditions":[1.9333577E0,1.7717658E0,3.6919693E-4,8.1298226E-1,-7.120059E-4,9.1875064E-1,8.4644556E-1,1.5052305E0,-6.948501E-4,6.541462E-4,1.3104448E0,1.1579602E0,-4.4256196E-4,-2.8556588E-4,1.403162E0,-3.539727E-5,3.7780462E-4,5.1414495E-4,1.0709405E-5],"split_indices":[8,3,0,1,0,3,4,7,0,0,8,7,0,0,8,0,0,0,0],"split_type":[0,0,0,0,0,0,0,0,0,0,0,0,0,0,0,0,0,0,0],"sum_hessian":[4.25E2,4.11E2,1.4E1,3.99E2,1.2E1,3.39E2,6E1,3.3E2,9E0,1.4E1,4.6E1,3.16E2,1.4E1,1.6E1,3E1,2.86E2,3E1,1E1,2E1],"tree_param":{"num_deleted":"0","num_feature":"10","num_nodes":"19","size_leaf_vector":"1"}},{"base_weights":[1.9811068E-4,-2.4102357E-5,4.9897784E-4,2.7227454E-4,-6.2060874E-4,-5.403389E-4,4.343573E-4,7.6527E-5,2.8660728E-3,4.726643E-4,-1.1420104E-4,8.307283E-4,3.3839451E-4,-6.4528875E-5,1.270425E-4,4.6844766E-4,-1.2753758E-4],"categories":[],"categories_nodes":[],"categories_segments":[],"categories_sizes":[],"default_left":[0,0,0,0,0,0,0,0,0,0,0,0,0,0,0,0,0],"id":17,"left_children":[1,3,-1,5,-1,-1,7,9,11,-1,13,-1,15,-1,-1,-1,-1],"loss_changes":[5.1855494E-4,8.5730606E-4,0E0,4.1320024E-4,0E0,0E0,3.3913585E-4,3.4131928E-4,8.15247E-4,0E0,3.1233463E-4,0E0,3.3084754E-4,0E0,0E0,0E0,0E0],"parents":[2147483647,0,0,1,1,3,3,6,6,7,7,8,8,10,10,12,12],"right_children":[2,4,-1,6,-1,-1,8,10,12,-1,14,-1,16,-1,-1,-1,-1],"split_conditions":[1.8771914E0,1.5585555E0,4.9897784E-4,-2.1756186E0,-6.2060874E-4,-5.403389E-4,1.1579602E0,-1.5445335E0,1.295663E0,4.726643E-4,4.9248147E-1,8.307283E-4,-6.4146674E-1,-6.4528875E-5,1.270425E-4,4.6844766E-4,-1.2753758E-4],"split_indices":[3,3,0,7,0,0,7,7,7,0,3,0,6,0,0,0,0],"split_type":[0,0,0,0,0,0,0,0,0,0,0,0,0,0,0,0,0],"sum_hessian":[4.3E2,4.14E2,1.6E1,3.98E2,1.6E1,9E0,3.89E2,3.4E2,4.9E1,1.1E1,3.29E2,1.3E1,3.6E1,2.36E2,9.3E1,9E0,2.7E1],"tree_param":{"num_deleted":"0","num_feature":"10","num_nodes":"17","size_leaf_vector":"1"}},{"base_weights":[1.4774008E-4,-4.9058994E-4,2.145644E-3,-2.2429062E-4,-5.8010616E-4,4.355865E-3,-5.1432464E-4,-5.243123E-4,3.4853227E-3,7.527751E-3,-1.1766643E-3,3.5942087E-4,-1.7861789E-3,2.3366397E-3,-1.0065825E-3,7.367336E-4,-4.753528E-5,3.2979925E-3,1.2015454E-3,-2.4980586E-4,1.50791675E-5,-3.5147574E-3,8.166425E-5,1.2960001E-4,6.59827E-4,-3.3523464E-3,2.3553599E-4,6.1497325E-4,-1.1356075E-4,-1.7818427E-4,-4.8286337E-4,3.1119896E-4,-3.745933E-4,-1.2899912E-4,-1.2638635E-3,1.7879027E-4,-1.00566045E-4],"categories":[],"categories_nodes":[],"categories_segments":[],"categories_sizes":[],"default_left":[0,0,0,0,0,0,0,0,0,0,0,0,0,0,0,0,0,0,0,0,0,0,0,0,0,0,0,0,0,0,0,0,0,0,0,0,0],"id":18,"left_children":[1,3,5,7,-1,9,11,13,15,17,19,-1,21,23,25,-1,-1,27,-1,-1,-1,29,-1,31,-1,33,35,-1,-1,-1,-1,-1,-1,-1,-1,-1,-1],"loss_changes":[5.583684E-4,5.31903E-4,6.2542694E-4,3.568631E-4,0E0,1.0266737E-3,2.911567E-4,4.107586E-4,4.6745312E-4,8.919069E-4,4.8824288E-5,0E0,1.8555063E-4,4.814478E-4,7.408736E-4,0E0,0E0,3.8947808E-4,0E0,0E0,0E0,5.8571837E-5,0E0,4.6832731E-4,0E0,1.7968266E-3,4.0730915E-4,0E0,0E0,0E0,0E0,0E0,0E0,0E0,0E0,0E0,0E0],"parents":[2147483647,0,0,1,1,2,2,3,3,5,5,6,6,7,7,8,8,9,9,10,10,12,12,13,13,14,14,17,17,21,21,23,23,25,25,26,26],"right_children":[2,4,6,8,-1,10,12,14,16,18,20,-1,22,24,26,-1,-1,28,-1,-1,-1,30,-1,32,-1,34,36,-1,-1,-1,-1,-1,-1,-1,-1,-1,-1],"split_conditions":[7.350832E-1,1.5638235E0,3.4988874E-1,1.1976609E0,-5.8010616E-4,2.8673005E-1,9.137083E-1,-1.2062451E0,1.3237352E0,-3.8646787E-1,1.4448687E0,3.5942087E-4,1.83588E-1,-1.2917719E0,-6.1801654E-1,7.367336E-4,-4.753528E-5,3.0579563E-2,1.2015454E-3,-2.4980586E-4,1.50791675E-5,-7.806147E-1,8.166425E-5,-1.4066418E0,6.59827E-4,-6.5610325E-1,-1.8017884E-2,6.1497325E-4,-1.1356075E-4,-1.7818427E-4,-4.8286337E-4,3.1119896E-4,-3.745933E-4,-1.2899912E-4,-1.2638635E-3,1.7879027E-4,-1.00566045E-4],"split_indices":[0,7,7,7,0,6,1,2,7,6,0,0,6,2,2,0,0,7,0,0,0,6,0,2,0,3,3,0,0,0,0,0,0,0,0,0,0],"split_type":[0,0,0,0,0,0,0,0,0,0,0,0,0,0,0,0,0,0,0,0,0,0,0,0,0,0,0,0,0,0,0,0,0,0,0,0,0],"sum_hessian":[4.36E2,3.31E2,1.05E2,3.18E2,1.3E1,5.7E1,4.8E1,2.95E2,2.3E1,3.6E1,2.1E1,1E1,3.8E1,4.2E1,2.53E2,1E1,1.3E1,2.2E1,1.4E1,9E0,1.2E1,2.3E1,1.5E1,3E1,1.2E1,8.7E1,1.66E2,1.2E1,1E1,1.4E1,9E0,1.7E1,1.3E1,7.5E1,1.2E1,7.2E1,9.4E1],"tree_param":{"num_deleted":"0","num_feature":"10","num_nodes":"37","size_leaf_vector":"1"}},{"base_weights":[-1.8336531E-4,-4.54601E-4,2.1261242E-3,-1.9043968E-4,-7.80945E-4,5.2094036E-3,-1.1836508E-3,1.5311839E-6,-4.3235015E-4,1.0553891E-3,3.762127E-5,-2.992404E-4,1.3356078E-4,-2.8021148E-4,3.6966354E-3,6.0351686E-5,-2.9973427E-3,8.588484E-4,-5.6268447E-5,1.4258972E-4,-3.037855E-5,-5.956423E-4,-2.602033E-5],"categories":[],"categories_nodes":[],"categories_segments":[],"categories_sizes":[],"default_left":[0,0,0,0,0,0,0,0,0,0,0,0,0,0,0,0,0,0,0,0,0,0,0],"id":19,"left_children":[1,3,5,7,-1,9,11,13,-1,-1,-1,-1,-1,15,17,19,21,-1,-1,-1,-1,-1,-1],"loss_changes":[2.740839E-4,8.584223E-4,4.7559425E-4,3.407805E-4,0E0,7.598659E-4,1.3979095E-4,3.8206694E-4,0E0,0E0,0E0,0E0,0E0,3.1572685E-4,6.7712966E-4,1.8910776E-4,3.7840183E-4,0E0,0E0,0E0,0E0,0E0,0E0],"parents":[2147483647,0,0,1,1,2,2,3,3,5,5,6,6,7,7,13,13,14,14,15,15,16,16],"right_children":[2,4,6,8,-1,10,12,14,-1,-1,-1,-1,-1,16,18,20,22,-1,-1,-1,-1,-1,-1],"split_conditions":[1.3939018E0,1.5248184E0,3.4014738E-1,1.5967696E0,-7.80945E-4,1.6108768E0,2.0299762E-1,1.2378402E0,-4.3235015E-4,1.0553891E-3,3.762127E-5,-2.992404E-4,1.3356078E-4,8.91924E-1,1.3237352E0,-1.064951E0,-2.824431E-1,8.588484E-4,-5.6268447E-5,1.4258972E-4,-3.037855E-5,-5.956423E-4,-2.602033E-5],"split_indices":[1,3,7,7,0,0,6,7,0,0,0,0,0,7,7,7,0,0,0,0,0,0,0],"split_type":[0,0,0,0,0,0,0,0,0,0,0,0,0,0,0,0,0,0,0,0,0,0,0],"sum_hessian":[4.35E2,3.9E2,4.5E1,3.79E2,1.1E1,2.3E1,2.2E1,3.65E2,1.4E1,9E0,1.4E1,1.2E1,1E1,3.4E2,2.5E1,3.03E2,3.7E1,1E1,1.5E1,6.2E1,2.41E2,1.5E1,2.2E1],"tree_param":{"num_deleted":"0","num_feature":"10","num_nodes":"23","size_leaf_vector":"1"}},{"base_weights":[-3.9400352E-4,1.4252096E-3,-8.397813E-4,8.129118E-5,6.416803E-4,-5.819408E-4,-8.3992176E-4,1.6201648E-3,-3.3498954E-3,-8.216484E-4,-3.1621536E-4,3.1635906E-3,-9.833277E-4,-1.0431534E-4,-4.2389164E-4,-6.6208467E-4,3.5641086E-3,7.995013E-4,3.7119814E-4,-4.5962783E-4,2.9348274E-4,4.279309E-4,-8.855506E-4,9.1899367E-4,-3.5131656E-5,-1.3870347E-4,2.1733226E-4,4.157888E-4,-9.9662975E-5],"categories":[],"categories_nodes":[],"categories_segments":[],"categories_sizes":[],"default_left":[0,0,0,0,0,0,0,0,0,0,0,0,0,0,0,0,0,0,0,0,0,0,0,0,0,0,0,0,0],"id":20,"left_children":[1,3,5,7,-1,9,-1,11,13,-1,15,17,19,-1,-1,21,23,-1,25,-1,-1,-1,27,-1,-1,-1,-1,-1,-1],"loss_changes":[3.499117E-4,6.608876E-4,7.6220173E-4,3.7503877E-4,0E0,7.723619E-4,0E0,2.0000742E-4,6.2261184E-5,0E0,4.425636E-4,5.0106377E-4,3.5768637E-4,0E0,0E0,3.7369865E-4,7.27789E-4,0E0,9.1862734E-5,0E0,0E0,0E0,3.85818E-4,0E0,0E0,0E0,0E0,0E0,0E0],"parents":[2147483647,0,0,1,1,2,2,3,3,5,5,7,7,8,8,10,10,11,11,12,12,15,15,16,16,18,18,22,22],"right_children":[2,4,6,8,-1,10,-1,12,14,-1,16,18,20,-1,-1,22,24,-1,26,-1,-1,-1,28,-1,-1,-1,-1,-1,-1],"split_conditions":[-9.613021E-1,-1.0448494E0,1.5967696E0,-5.567681E-1,6.416803E-4,-1.0394106E0,-8.3992176E-4,-1.2352241E0,-1.0486529E0,-8.216484E-4,1.2378402E0,1.7265871E-2,-1.0199276E0,-1.0431534E-4,-4.2389164E-4,-1.9640574E0,1.3237352E0,7.995013E-4,-1.3514556E0,-4.5962783E-4,2.9348274E-4,4.279309E-4,-9.012624E-1,9.1899367E-4,-3.5131656E-5,-1.3870347E-4,2.1733226E-4,4.157888E-4,-9.9662975E-5],"split_indices":[3,3,7,6,0,8,0,3,7,0,7,7,2,0,0,7,7,0,2,0,0,0,8,0,0,0,0,0,0],"split_type":[0,0,0,0,0,0,0,0,0,0,0,0,0,0,0,0,0,0,0,0,0,0,0,0,0,0,0,0,0],"sum_hessian":[4.29E2,8.4E1,3.45E2,6.9E1,1.5E1,3.36E2,9E0,4.8E1,2.1E1,9E0,3.27E2,3E1,1.8E1,9E0,1.2E1,3.01E2,2.6E1,9E0,2.1E1,9E0,9E0,1.1E1,2.9E2,9E0,1.7E1,1.1E1,1E1,1.1E1,2.79E2],"tree_param":{"num_deleted":"0","num_feature":"10","num_nodes":"29","size_leaf_vector":"1"}},{"base_weights":[-2.7624774E-4,-4.5441577E-4,3.3087516E-3,-2.2145132E-4,-5.635763E-4,8.105241E-4,-1.6051906E-4,4.042926E-4,-1.0751046E-3,2.0871916E-5,6.694266E-4,-4.98761E-3,2.2730176E-4,9.291468E-4,-1.6579762E-3,-8.901934E-4,-1.6404251E-3,-6.0448743E-4,2.2570146E-3,3.9681295E-6,4.6317492E-4,-4.7813012E-4,-4.202048E-5,3.842748E-4,-5.343765E-4,4.440184E-5,-4.6521117E-4,5.994365E-4,1.606516E-5],"categories":[],"categories_nodes":[],"categories_segments":[],"categories_sizes":[],"default_left":[0,0,0,0,0,0,0,0,0,0,0,0,0,0,0,0,0,0,0,0,0,0,0,0,0,0,0,0,0],"id":21,"left_children":[1,3,5,7,-1,-1,-1,9,11,13,-1,15,17,19,21,-1,23,25,27,-1,-1,-1,-1,-1,-1,-1,-1,-1,-1],"loss_changes":[2.831845E-4,5.7559664E-4,6.399257E-4,2.1730701E-4,0E0,0E0,0E0,6.416972E-4,8.775892E-4,3.431081E-4,0E0,7.064948E-4,2.2084244E-4,5.524008E-4,3.4571392E-4,0E0,7.29173E-4,4.775726E-4,3.5255565E-4,0E0,0E0,0E0,0E0,0E0,0E0,0E0,0E0,0E0,0E0],"parents":[2147483647,0,0,1,1,2,2,3,3,7,7,8,8,9,9,11,11,12,12,13,13,14,14,16,16,17,17,18,18],"right_children":[2,4,6,8,-1,-1,-1,10,12,14,-1,16,18,20,22,-1,24,26,28,-1,-1,-1,-1,-1,-1,-1,-1,-1,-1],"split_conditions":[1.8771914E0,1.5585555E0,2.1083093E0,-1.5381093E-1,-5.635763E-4,8.105241E-4,-1.6051906E-4,-3.992109E-1,-1.5156791E-2,1.4462802E-1,6.694266E-4,-7.373814E-1,7.227999E-1,-1.9459777E-1,2.4742207E-1,-8.901934E-4,-4.5368484E-1,2.7349865E-1,6.9599503E-1,3.9681295E-6,4.6317492E-4,-4.7813012E-4,-4.202048E-5,3.842748E-4,-5.343765E-4,4.440184E-5,-4.6521117E-4,5.994365E-4,1.606516E-5],"split_indices":[3,3,1,6,0,0,0,6,6,2,0,0,1,8,1,0,9,2,6,0,0,0,0,0,0,0,0,0,0],"split_type":[0,0,0,0,0,0,0,0,0,0,0,0,0,0,0,0,0,0,0,0,0,0,0,0,0,0,0,0,0],"sum_hessian":[4.4E2,4.2E2,2E1,4.05E2,1.5E1,9E0,1.1E1,2.34E2,1.71E2,2.23E2,1.1E1,4.2E1,1.29E2,1.45E2,7.8E1,1.6E1,2.6E1,9.2E1,3.7E1,1.21E2,2.4E1,1.8E1,6E1,1.1E1,1.5E1,7.5E1,1.7E1,1.1E1,2.6E1],"tree_param":{"num_deleted":"0","num_feature":"10","num_nodes":"29","size_leaf_vector":"1"}},{"base_weights":[4.997045E-5,-2.5028756E-4,4.2196275E-3,6.3062157E-4,-1.4885406E-3,9.131506E-4,-2.2789465E-4,1.6046676E-3,-8.534333E-4,-6.8444344E-3,2.0797885E-4,9.443891E-4,7.5222744E-4,-5.1503154E-3,4.2949567E-4,-3.208543E-5,-1.0072373E-2,5.9935375E-4,-8.9277746E-4,1.4392417E-3,-4.4368644E-4,8.82211E-7,-8.752538E-4,-3.9427946E-4,1.2069584E-3,-5.2546075E-4,-1.4355625E-3,-4.5391612E-4,-1.5062686E-4,5.173472E-4,4.803681E-5,3.2780194E-4,-6.100246E-5,-3.1992095E-4,4.57242E-5],"categories":[],"categories_nodes":[],"categories_segments":[],"categories_sizes":[],"default_left":[0,0,0,0,0,0,0,0,0,0,0,0,0,0,0,0,0,0,0,0,0,0,0,0,0,0,0,0,0,0,0,0,0,0,0],"id":22,"left_children":[1,3,5,7,9,-1,-1,11,13,15,17,19,-1,21,23,-1,25,-1,27,29,-1,-1,-1,-1,31,-1,-1,-1,33,-1,-1,-1,-1,-1,-1],"loss_changes":[5.2187685E-4,4.252554E-4,1.1750271E-3,3.3095208E-4,1.4734168E-3,0E0,0E0,6.165579E-4,5.038581E-4,8.125872E-4,8.975714E-4,3.8009183E-4,0E0,5.085488E-4,2.7380028E-4,0E0,5.617731E-4,0E0,3.3367221E-4,4.6135794E-4,0E0,0E0,0E0,0E0,2.93495E-4,0E0,0E0,0E0,2.1266962E-4,0E0,0E0,0E0,0E0,0E0,0E0],"parents":[2147483647,0,0,1,1,2,2,3,3,4,4,7,7,8,8,9,9,10,10,11,11,13,13,14,14,16,16,18,18,19,19,24,24,28,28],"right_children":[2,4,6,8,10,-1,-1,12,14,16,18,20,-1,22,24,-1,26,-1,28,30,-1,-1,-1,-1,32,-1,-1,-1,34,-1,-1,-1,-1,-1,-1],"split_conditions":[1.6046069E0,-1.5381093E-1,1.9150585E0,1.4462802E-1,-1.5156791E-2,9.131506E-4,-2.2789465E-4,-4.104155E-1,2.4742207E-1,-1.095539E0,7.073854E-2,-5.567681E-1,7.5222744E-4,-1.0819585E0,-1.1232506E0,-3.208543E-5,-6.697293E-1,5.9935375E-4,2.0299762E-1,-5.2061665E-1,-4.4368644E-4,8.82211E-7,-8.752538E-4,-3.9427946E-4,1.1830451E-1,-5.2546075E-4,-1.4355625E-3,-4.5391612E-4,-9.4957167E-1,5.173472E-4,4.803681E-5,3.2780194E-4,-6.100246E-5,-3.1992095E-4,4.57242E-5],"split_indices":[3,6,1,2,6,0,0,6,1,7,6,6,0,7,7,0,4,0,6,7,0,0,0,0,7,0,0,0,7,0,0,0,0,0,0],"split_type":[0,0,0,0,0,0,0,0,0,0,0,0,0,0,0,0,0,0,0,0,0,0,0,0,0,0,0,0,0,0,0,0,0,0,0],"sum_hessian":[4.15E2,3.88E2,2.7E1,2.27E2,1.61E2,1.4E1,1.3E1,1.37E2,9E1,3.8E1,1.23E2,1.26E2,1.1E1,2E1,7E1,1.3E1,2.5E1,1.7E1,1.06E2,1.17E2,9E0,1E1,1E1,9E0,6.1E1,1.6E1,9E0,1.5E1,9.1E1,1.9E1,9.8E1,2.6E1,3.5E1,1.4E1,7.7E1],"tree_param":{"num_deleted":"0","num_feature":"10","num_nodes":"35","size_leaf_vector":"1"}},{"base_weights":[9.02946E-5,-7.163913E-5,5.890007E-4,1.4370432E-4,-7.6215604E-4,4.9430423E-4,-3.069318E-3,-8.992812E-4,1.3765602E-3,-1.3055279E-3,1.4408862E-3,1.0583099E-3,-4.516455E-3,4.433829E-3,1.409902E-4,4.158073E-3,-3.679439E-4,-5.508196E-5,3.5800293E-4,-6.253039E-4,1.8307237E-5,1.9647628E-4,1.014191E-3,-2.4568893E-5,3.933121E-4,6.7556923E-4,5.8149162E-5],"categories":[],"categories_nodes":[],"categories_segments":[],"categories_sizes":[],"default_left":[0,0,0,0,0,0,0,0,0,0,0,0,0,0,0,0,0,0,0,0,0,0,0,0,0,0,0],"id":23,"left_children":[1,3,-1,5,-1,7,9,11,13,-1,15,17,19,21,23,25,-1,-1,-1,-1,-1,-1,-1,-1,-1,-1,-1],"loss_changes":[4.3739882E-4,7.4062555E-4,0E0,4.4647887E-4,0E0,4.4016907E-4,2.0635943E-3,9.890315E-4,8.2664075E-4,0E0,4.567784E-4,4.5554424E-4,5.834416E-4,9.516941E-4,2.8173253E-4,2.3603506E-4,0E0,0E0,0E0,0E0,0E0,0E0,0E0,0E0,0E0,0E0,0E0],"parents":[2147483647,0,0,1,1,3,3,5,5,6,6,7,7,8,8,10,10,11,11,12,12,13,13,14,14,15,15],"right_children":[2,4,-1,6,-1,8,10,12,14,-1,16,18,20,22,24,26,-1,-1,-1,-1,-1,-1,-1,-1,-1,-1,-1],"split_conditions":[1.6977223E0,1.5052305E0,5.890007E-4,1.4618901E0,-7.6215604E-4,-5.431142E-1,1.3594453E0,-8.877578E-1,-7.28657E-2,-1.3055279E-3,2.2419586E0,-1.0871487E0,-6.195275E-1,-1.5810713E-1,1.2630887E0,6.2417585E-1,-3.679439E-4,-5.508196E-5,3.5800293E-4,-6.253039E-4,1.8307237E-5,1.9647628E-4,1.014191E-3,-2.4568893E-5,3.933121E-4,6.7556923E-4,5.8149162E-5],"split_indices":[7,7,0,3,0,9,2,3,8,0,1,3,2,3,3,7,0,0,0,0,0,0,0,0,0,0,0],"split_type":[0,0,0,0,0,0,0,0,0,0,0,0,0,0,0,0,0,0,0,0,0,0,0,0,0,0,0],"sum_hessian":[4.12E2,4.03E2,9E0,3.94E2,9E0,3.56E2,3.8E1,1.38E2,2.18E2,1E1,2.8E1,9E1,4.8E1,6.2E1,1.56E2,1.9E1,9E0,5.8E1,3.2E1,3.1E1,1.7E1,4.8E1,1.4E1,1.43E2,1.3E1,9E0,1E1],"tree_param":{"num_deleted":"0","num_feature":"10","num_nodes":"27","size_leaf_vector":"1"}},{"base_weights":[-1.9382563E-4,6.1196985E-4,-4.0580652E-4,-2.3818081E-3,-4.3959364E-5,-8.4970857E-4,-8.985528E-4,3.4405882E-3,-3.9854218E-4,4.919341E-4,-2.6743908E-3,3.5667975E-4,8.7649835E-4,-7.5207546E-4,-1.4935767E-4,-6.956754E-4,-1.1699443E-3,2.8359416E-4,-1.3831301E-4,4.941098E-3,-4.815791E-4,4.5636884E-4,-3.3713467E-4,7.917514E-4,7.871583E-6,-2.1646934E-5,-4.2533557E-4],"categories":[],"categories_nodes":[],"categories_segments":[],"categories_sizes":[],"default_left":[0,0,0,0,0,0,0,0,0,0,0,0,0,0,0,0,0,0,0,0,0,0,0,0,0,0,0],"id":24,"left_children":[1,-1,3,5,7,9,-1,11,13,-1,15,17,-1,-1,19,-1,21,-1,-1,23,25,-1,-1,-1,-1,-1,-1],"loss_changes":[6.702356E-4,0E0,3.0949488E-4,7.8413746E-4,4.5482203E-4,6.785215E-4,0E0,6.6919415E-4,6.694385E-4,0E0,3.3940608E-4,1.3493384E-4,0E0,0E0,5.5200607E-4,0E0,6.141154E-4,0E0,0E0,3.8375432E-4,3.1230223E-4,0E0,0E0,0E0,0E0,0E0,0E0],"parents":[2147483647,0,0,2,2,3,3,4,4,5,5,7,7,8,8,10,10,11,11,14,14,16,16,19,19,20,20],"right_children":[2,-1,4,6,8,10,-1,12,14,-1,16,18,-1,-1,20,-1,22,-1,-1,24,26,-1,-1,-1,-1,-1,-1],"split_conditions":[-1.9640574E0,6.1196985E-4,-1.0087572E0,-1.064951E0,-7.1663326E-1,-1.1350756E0,-8.985528E-4,-7.947323E-1,-6.662914E-1,4.919341E-4,-7.8917086E-1,-9.20355E-1,8.7649835E-4,-7.5207546E-4,-5.2061665E-1,-6.956754E-4,-1.255511E-1,2.8359416E-4,-1.3831301E-4,1.419545E-1,1.6710999E0,4.5636884E-4,-3.3713467E-4,7.917514E-4,7.871583E-6,-2.1646934E-5,-4.2533557E-4],"split_indices":[7,0,7,7,7,0,0,7,7,0,0,7,0,0,7,0,0,0,0,0,4,0,0,0,0,0,0],"split_type":[0,0,0,0,0,0,0,0,0,0,0,0,0,0,0,0,0,0,0,0,0,0,0,0,0,0,0],"sum_hessian":[4.44E2,1.2E1,4.32E2,6.6E1,3.66E2,5.6E1,1E1,3.3E1,3.33E2,1.2E1,4.4E1,2.3E1,1E1,9E0,3.24E2,9E0,3.5E1,9E0,1.4E1,1.9E1,3.05E2,1E1,2.5E1,1E1,9E0,2.9E2,1.5E1],"tree_param":{"num_deleted":"0","num_feature":"10","num_nodes":"27","size_leaf_vector":"1"}},{"base_weights":[-9.221214E-5,5.370006E-4,-2.9253858E-4,-5.8358494E-4,2.798886E-3,-2.8979502E-4,-7.5545727E-4,5.795385E-4,-3.4428376E-4,-4.6699977E-4,4.5963316E-4,1.3076894E-4,-1.6255258E-4,-2.2119794E-4,-7.491491E-4,-6.94583E-5,7.6017066E-5],"categories":[],"categories_nodes":[],"categories_segments":[],"categories_sizes":[],"default_left":[0,0,0,0,0,0,0,0,0,0,0,0,0,0,0,0,0],"id":25,"left_children":[1,-1,3,5,7,9,-1,-1,11,13,-1,-1,-1,15,-1,-1,-1],"loss_changes":[5.4339034E-4,0E0,3.8672547E-4,9.0868614E-4,4.3464848E-4,3.690051E-4,0E0,0E0,5.923064E-5,7.179126E-4,0E0,0E0,0E0,2.1633781E-4,0E0,0E0,0E0],"parents":[2147483647,0,0,2,2,3,3,4,4,5,5,8,8,9,9,13,13],"right_children":[2,-1,4,6,8,10,-1,-1,12,14,-1,-1,-1,16,-1,-1,-1],"split_conditions":[-1.9640574E0,5.370006E-4,1.5328969E0,1.5248184E0,1.9150585E0,1.6977223E0,-7.5545727E-4,5.795385E-4,1.655817E0,1.4657904E0,4.5963316E-4,1.3076894E-4,-1.6255258E-4,1.7374027E-1,-7.491491E-4,-6.94583E-5,7.6017066E-5],"split_indices":[7,0,9,3,1,7,0,0,4,7,0,0,0,9,0,0,0],"split_type":[0,0,0,0,0,0,0,0,0,0,0,0,0,0,0,0,0],"sum_hessian":[4.4E2,1.3E1,4.27E2,3.91E2,3.6E1,3.78E2,1.3E1,1.6E1,2E1,3.67E2,1.1E1,9E0,1.1E1,3.57E2,1E1,2.35E2,1.22E2],"tree_param":{"num_deleted":"0","num_feature":"10","num_nodes":"17","size_leaf_vector":"1"}},{"base_weights":[1.1199406E-4,4.7479305E-4,-6.0863473E-5,-3.7098464E-4,2.9255743E-3,-1.522491E-5,-1.2192349E-3,5.7011736E-3,-1.3508332E-4,2.2778135E-4,-4.5889601E-4,7.97645E-4,1.0750618E-4,-1.9888133E-4,1.5896012E-4,-5.32743E-4,4.042989E-4,-5.16644E-5,1.2237774E-4],"categories":[],"categories_nodes":[],"categories_segments":[],"categories_sizes":[],"default_left":[0,0,0,0,0,0,0,0,0,0,0,0,0,0,0,0,0,0,0],"id":26,"left_children":[1,-1,3,5,7,9,-1,11,13,15,-1,-1,-1,-1,-1,-1,17,-1,-1],"loss_changes":[3.9517457E-4,0E0,3.9377616E-4,1.8268649E-3,3.4057652E-4,4.712868E-4,0E0,2.9749272E-4,8.479973E-5,3.975876E-4,0E0,0E0,0E0,0E0,0E0,0E0,3.3689628E-4,0E0,0E0],"parents":[2147483647,0,0,2,2,3,3,4,4,5,5,7,7,8,8,9,9,16,16],"right_children":[2,-1,4,6,8,10,-1,12,14,16,-1,-1,-1,-1,-1,-1,18,-1,-1],"split_conditions":[-1.9640574E0,4.7479305E-4,1.4571296E0,1.5248184E0,5.237241E-1,1.5052305E0,-1.2192349E-3,1.864539E0,1.83588E-1,-8.2405835E-1,-4.5889601E-4,7.97645E-4,1.0750618E-4,-1.9888133E-4,1.5896012E-4,-5.32743E-4,-2.5978956E-1,-5.16644E-5,1.2237774E-4],"split_indices":[7,0,2,3,7,7,0,0,6,6,0,0,0,0,0,0,1,0,0],"split_type":[0,0,0,0,0,0,0,0,0,0,0,0,0,0,0,0,0,0,0],"sum_hessian":[4.36E2,1.3E1,4.23E2,3.84E2,3.9E1,3.75E2,9E0,2E1,1.9E1,3.59E2,1.6E1,1.1E1,9E0,9E0,1E1,9E0,3.5E2,1.74E2,1.76E2],"tree_param":{"num_deleted":"0","num_feature":"10","num_nodes":"19","size_leaf_vector":"1"}},{"base_weights":[-1.16859504E-4,-6.812006E-4,8.634864E-4,-1.711553E-4,-1.057163E-3,6.504155E-4,4.2769517E-4,7.9031935E-4,-1.2221303E-3,1.3433904E-3,-8.237608E-4,4.405065E-4,4.6765627E-4,-4.3422123E-3,7.285806E-4,4.29249E-4,4.7781275E-4,-1.0587221E-3,1.7008473E-3,3.471551E-4,-4.5173954E-5,-1.3339245E-3,-1.0464668E-3,2.9953842E-3,-1.2388685E-3,-1.8481961E-4,1.2421034E-3,2.8029429E-3,-2.951018E-4,-2.15127E-4,4.543421E-5,-3.140359E-4,1.1825353E-4,5.106399E-4,-1.9835841E-5,-3.865914E-4,3.66065E-5,6.514936E-4,-9.560854E-6,4.960283E-5,5.348941E-4],"categories":[],"categories_nodes":[],"categories_segments":[],"categories_sizes":[],"default_left":[0,0,0,0,0,0,0,0,0,0,0,0,0,0,0,0,0,0,0,0,0,0,0,0,0,0,0,0,0,0,0,0,0,0,0,0,0,0,0,0,0],"id":27,"left_children":[1,3,5,7,-1,-1,9,11,13,15,17,19,-1,21,23,25,-1,-1,27,-1,29,31,-1,33,35,-1,37,39,-1,-1,-1,-1,-1,-1,-1,-1,-1,-1,-1,-1,-1],"loss_changes":[2.4069846E-4,1.575565E-3,4.438334E-4,2.687446E-4,0E0,0E0,1.7299948E-4,2.1496142E-4,7.7613373E-4,3.181749E-4,1.810775E-3,2.1884356E-4,0E0,1.078858E-3,3.5603673E-4,1.4933827E-4,0E0,0E0,3.0248438E-4,0E0,1.5305063E-4,2.154164E-4,0E0,3.2837936E-4,2.2239919E-4,0E0,4.5239824E-4,3.139488E-4,0E0,0E0,0E0,0E0,0E0,0E0,0E0,0E0,0E0,0E0,0E0,0E0,0E0],"parents":[2147483647,0,0,1,1,2,2,3,3,6,6,7,7,8,8,9,9,10,10,11,11,13,13,14,14,15,15,18,18,20,20,21,21,23,23,24,24,26,26,27,27],"right_children":[2,4,6,8,-1,-1,10,12,14,16,18,20,-1,22,24,26,-1,-1,28,-1,30,32,-1,34,36,-1,38,40,-1,-1,-1,-1,-1,-1,-1,-1,-1,-1,-1,-1,-1],"split_conditions":[2.5558418E-1,1.8376386E-1,3.538862E-1,-5.567681E-1,-1.057163E-3,6.504155E-4,1.2629677E0,-5.7225007E-1,-7.373814E-1,1.188712E0,1.3414973E0,-1.3488425E0,4.6765627E-4,-8.877578E-1,-4.8607472E-1,2.5691116E-1,4.7781275E-4,-1.0587221E-3,2.2430449E0,3.471551E-4,-1.0199276E0,-1.0984571E0,-1.0464668E-3,-4.0698085E-2,-2.6545823E-1,-1.8481961E-4,5.2286553E-1,1.5585555E0,-2.951018E-4,-2.15127E-4,4.543421E-5,-3.140359E-4,1.1825353E-4,5.106399E-4,-1.9835841E-5,-3.865914E-4,3.66065E-5,6.514936E-4,-9.560854E-6,4.960283E-5,5.348941E-4],"split_indices":[1,1,1,6,0,0,4,6,0,3,4,0,0,3,4,4,0,0,0,0,2,3,0,6,4,0,8,3,0,0,0,0,0,0,0,0,0,0,0,0,0],"split_type":[0,0,0,0,0,0,0,0,0,0,0,0,0,0,0,0,0,0,0,0,0,0,0,0,0,0,0,0,0,0,0,0,0,0,0,0,0,0,0,0,0],"sum_hessian":[4.33E2,2.75E2,1.58E2,2.64E2,1.1E1,9E0,1.49E2,1.38E2,1.26E2,8.6E1,6.3E1,1.29E2,9E0,4.8E1,7.8E1,7.1E1,1.5E1,1.1E1,5.2E1,1.5E1,1.14E2,3.5E1,1.3E1,3.6E1,4.2E1,1.7E1,5.4E1,4.3E1,9E0,2.1E1,9.3E1,1.9E1,1.6E1,1.9E1,1.7E1,1.4E1,2.8E1,9E0,4.5E1,2.6E1,1.7E1],"tree_param":{"num_deleted":"0","num_feature":"10","num_nodes":"41","size_leaf_vector":"1"}},{"base_weights":[-2.2512226E-4,-7.1729417E-4,-3.9663424E-5,7.8096427E-4,-2.5213909E-4,-4.981121E-4,4.6307337E-3,-2.7502151E-3,-9.5666124E-5,2.121697E-4,5.9021154E-4,-9.3766645E-4,-8.8236184E-4,1.9419802E-3,-5.804696E-4,1.1945508E-4,-6.54282E-4,4.2606072E-5,5.3749967E-4,-1.6364062E-4,1.2047181E-5],"categories":[],"categories_nodes":[],"categories_segments":[],"categories_sizes":[],"default_left":[0,0,0,0,0,0,0,0,0,0,0,0,0,0,0,0,0,0,0,0,0],"id":28,"left_children":[1,-1,3,-1,5,7,9,11,13,-1,-1,15,-1,17,19,-1,-1,-1,-1,-1,-1],"loss_changes":[6.2933663E-4,0E0,7.9695904E-4,0E0,5.007444E-4,3.5865142E-4,7.424079E-5,7.706783E-4,3.3403543E-4,0E0,0E0,7.274054E-4,0E0,3.8717486E-4,2.4645834E-4,0E0,0E0,0E0,0E0,0E0,0E0],"parents":[2147483647,0,0,2,2,4,4,5,5,6,6,7,7,8,8,11,11,13,13,14,14],"right_children":[2,-1,4,-1,6,8,10,12,14,-1,-1,16,-1,18,20,-1,-1,-1,-1,-1,-1],"split_conditions":[-2.1756186E0,-7.1729417E-4,-1.6873726E0,7.8096427E-4,1.4698918E0,-1.0087572E0,-4.3244022E-1,-1.064951E0,-5.2061665E-1,2.121697E-4,5.9021154E-4,5.36267E-1,-8.8236184E-4,6.488725E-1,1.6701885E-1,1.1945508E-4,-6.54282E-4,4.2606072E-5,5.3749967E-4,-1.6364062E-4,1.2047181E-5],"split_indices":[7,0,7,0,7,7,2,7,7,0,0,4,0,2,7,0,0,0,0,0,0],"split_type":[0,0,0,0,0,0,0,0,0,0,0,0,0,0,0,0,0,0,0,0,0],"sum_hessian":[4.32E2,9E0,4.23E2,9E0,4.14E2,3.95E2,1.9E1,5.9E1,3.36E2,1E1,9E0,4.8E1,1.1E1,6.4E1,2.72E2,3.6E1,1.2E1,4.8E1,1.6E1,9.8E1,1.74E2],"tree_param":{"num_deleted":"0","num_feature":"10","num_nodes":"21","size_leaf_vector":"1"}},{"base_weights":[4.7281705E-5,2.2344505E-3,-4.3015927E-4,1.516892E-3,5.122892E-4,-7.1441784E-4,-1.4651226E-4,2.5457838E-3,-4.0927684E-4,7.5213575E-5,-6.212946E-4,3.5321314E-3,-1.7694008E-4,-8.543178E-4,1.1018241E-3,6.4647254E-3,8.020627E-4,4.7561323E-4,-1.4542451E-3,-1.5559839E-3,1.928862E-3,1.8833675E-4,9.1353816E-4,-2.0700741E-4,2.8923654E-4,-9.176935E-4,-7.217025E-5,-7.741726E-6,-3.0696206E-4,6.054019E-4,5.5849567E-5],"categories":[],"categories_nodes":[],"categories_segments":[],"categories_sizes":[],"default_left":[0,0,0,0,0,0,0,0,0,0,0,0,0,0,0,0,0,0,0,0,0,0,0,0,0,0,0,0,0,0,0],"id":29,"left_children":[1,3,5,7,-1,-1,9,11,-1,13,-1,15,-1,17,19,21,23,-1,25,27,29,-1,-1,-1,-1,-1,-1,-1,-1,-1,-1],"loss_changes":[4.6042856E-4,1.9115777E-4,7.795582E-4,4.335526E-4,0E0,0E0,5.31339E-4,2.6649548E-4,0E0,3.25392E-4,0E0,3.7911173E-4,0E0,6.738615E-4,3.590947E-4,3.5897107E-4,2.0698083E-4,0E0,9.26029E-4,1.083089E-4,7.827128E-4,0E0,0E0,0E0,0E0,0E0,0E0,0E0,0E0,0E0,0E0],"parents":[2147483647,0,0,1,1,2,2,3,3,6,6,7,7,9,9,11,11,13,13,14,14,15,15,16,16,18,18,19,19,20,20],"right_children":[2,4,6,8,-1,-1,10,12,-1,14,-1,16,-1,18,20,22,24,-1,26,28,30,-1,-1,-1,-1,-1,-1,-1,-1,-1,-1],"split_conditions":[-1.0494094E0,-9.576783E-1,-9.6205413E-1,-9.613021E-1,5.122892E-4,-7.1441784E-4,1.6364955E0,-1.158208E0,-4.0927684E-4,1.6701885E-1,-6.212946E-4,-2.2090475E-1,-1.7694008E-4,-8.324229E-1,-4.2169648E-1,-1.3558323E0,4.9968106E-1,4.7561323E-4,-7.315646E-1,6.9301933E-1,-6.281272E-2,1.8833675E-4,9.1353816E-4,-2.0700741E-4,2.8923654E-4,-9.176935E-4,-7.217025E-5,-7.741726E-6,-3.0696206E-4,6.054019E-4,5.5849567E-5],"split_indices":[4,2,4,3,0,0,7,4,0,7,0,7,0,2,3,8,7,0,2,7,8,0,0,0,0,0,0,0,0,0,0],"split_type":[0,0,0,0,0,0,0,0,0,0,0,0,0,0,0,0,0,0,0,0,0,0,0,0,0,0,0,0,0,0,0],"sum_hessian":[4.39E2,7.8E1,3.61E2,6.6E1,1.2E1,1.2E1,3.49E2,5.7E1,9E0,3.39E2,1E1,4.7E1,1E1,1.78E2,1.61E2,2.2E1,2.5E1,1.5E1,1.63E2,3.8E1,1.23E2,1.1E1,1.1E1,1.1E1,1.4E1,1E1,1.53E2,2.2E1,1.6E1,2.5E1,9.8E1],"tree_param":{"num_deleted":"0","num_feature":"10","num_nodes":"31","size_leaf_vector":"1"}},{"base_weights":[5.8800386E-5,5.7735905E-4,-1.3409208E-3,3.4991733E-4,5.560804E-4,-5.1963207E-4,-8.135892E-4,-2.1334288E-4,1.9156312E-3,3.1042198E-4,-1.2534814E-3,1.0275594E-4,-5.139983E-4,4.8375055E-3,-7.1103976E-4,-3.2764047E-3,4.495772E-4,1.9676387E-3,-4.4037818E-4,8.189392E-4,2.9473347E-3,-7.1194005E-4,2.0467364E-3,2.74759E-4,-9.035296E-4,4.8667638E-4,-1.4939352E-3,1.7336535E-5,7.722771E-4,-8.2871254E-4,1.7123613E-5,7.1113586E-6,6.014895E-4,3.497372E-4,-2.2196051E-4,-1.3103204E-4,3.4846808E-4,-3.761512E-4,1.8441953E-5],"categories":[],"categories_nodes":[],"categories_segments":[],"categories_sizes":[],"default_left":[0,0,0,0,0,0,0,0,0,0,0,0,0,0,0,0,0,0,0,0,0,0,0,0,0,0,0,0,0,0,0,0,0,0,0,0,0,0,0],"id":30,"left_children":[1,3,5,7,-1,-1,9,11,13,-1,15,17,-1,19,21,23,25,27,29,-1,31,-1,33,35,-1,-1,37,-1,-1,-1,-1,-1,-1,-1,-1,-1,-1,-1,-1],"loss_changes":[3.1143264E-4,4.018705E-4,2.706603E-4,2.667438E-4,0E0,0E0,2.0318663E-4,3.929862E-4,6.1742385E-4,0E0,3.3220806E-4,2.1559738E-4,0E0,2.8685224E-4,8.814372E-4,1.0784093E-3,5.2559236E-4,5.698255E-4,9.2902523E-4,0E0,3.0587096E-4,0E0,2.839929E-4,1.968805E-4,0E0,0E0,1.8241013E-4,0E0,0E0,0E0,0E0,0E0,0E0,0E0,0E0,0E0,0E0,0E0,0E0],"parents":[2147483647,0,0,1,1,2,2,3,3,6,6,7,7,8,8,10,10,11,11,13,13,14,14,15,15,16,16,17,17,18,18,20,20,22,22,23,23,26,26],"right_children":[2,4,6,8,-1,-1,10,12,14,-1,16,18,-1,20,22,24,26,28,30,-1,32,-1,34,36,-1,-1,38,-1,-1,-1,-1,-1,-1,-1,-1,-1,-1,-1,-1],"split_conditions":[7.5475496E-1,6.9301933E-1,8.3005565E-1,6.832312E-1,5.560804E-4,-5.1963207E-4,8.91924E-1,5.406545E-1,1.1786884E0,3.1042198E-4,-2.1934727E-1,-1.0819585E0,-5.139983E-4,8.7241834E-1,1.365904E0,-4.035613E-1,5.945055E-2,-1.1697536E0,-1.0117918E0,8.189392E-4,1.1138219E0,-7.1194005E-4,3.1517756E-1,1.4657904E0,-9.035296E-4,4.8667638E-4,7.227999E-1,1.7336535E-5,7.722771E-4,-8.2871254E-4,1.7123613E-5,7.1113586E-6,6.014895E-4,3.497372E-4,-2.2196051E-4,-1.3103204E-4,3.4846808E-4,-3.761512E-4,1.8441953E-5],"split_indices":[7,7,7,2,0,0,7,2,1,0,4,7,0,4,1,0,8,7,7,0,2,0,7,7,0,0,1,0,0,0,0,0,0,0,0,0,0,0,0],"split_type":[0,0,0,0,0,0,0,0,0,0,0,0,0,0,0,0,0,0,0,0,0,0,0,0,0,0,0,0,0,0,0,0,0,0,0,0,0,0,0],"sum_hessian":[4.27E2,3.12E2,1.15E2,3.01E2,1.1E1,1.1E1,1.04E2,2.22E2,7.9E1,9E0,9.5E1,2.11E2,1.1E1,3.7E1,4.2E1,4.3E1,5.2E1,4.7E1,1.64E2,1E1,2.7E1,1.1E1,3.1E1,2.9E1,1.4E1,1.4E1,3.8E1,3.8E1,9E0,1E1,1.54E2,1.6E1,1.1E1,2.2E1,9E0,2E1,9E0,1.4E1,2.4E1],"tree_param":{"num_deleted":"0","num_feature":"10","num_nodes":"39","size_leaf_vector":"1"}},{"base_weights":[-4.3100186E-4,-6.9594756E-4,1.742831E-3,-4.8457668E-4,-5.9500185E-4,3.2050456E-3,-2.9648095E-4,-6.6150224E-4,5.3234433E-4,1.5295942E-3,6.7369663E-4,-4.5412435E-4,-5.156633E-4,2.6010495E-4,-2.7156886E-5,-5.9358834E-4,3.865683E-4,5.5901604E-5,-1.1754917E-4],"categories":[],"categories_nodes":[],"categories_segments":[],"categories_sizes":[],"default_left":[0,0,0,0,0,0,0,0,0,0,0,0,0,0,0,0,0,0,0],"id":31,"left_children":[1,3,5,7,-1,9,-1,11,-1,13,-1,15,-1,-1,-1,17,-1,-1,-1],"loss_changes":[2.488704E-4,4.833443E-4,3.595837E-4,4.2984792E-4,0E0,2.5936286E-4,0E0,3.8408555E-4,0E0,7.258382E-5,0E0,2.3693522E-4,0E0,0E0,0E0,3.0435322E-4,0E0,0E0,0E0],"parents":[2147483647,0,0,1,1,2,2,3,3,5,5,7,7,9,9,11,11,15,15],"right_children":[2,4,6,8,-1,10,-1,12,-1,14,-1,16,-1,-1,-1,18,-1,-1,-1],"split_conditions":[1.3925438E0,1.2721325E0,2.110101E0,1.3104448E0,-5.9500185E-4,1.7705532E0,-2.9648095E-4,1.0259231E0,5.3234433E-4,3.4014738E-1,6.7369663E-4,9.2940193E-1,-5.156633E-4,2.6010495E-4,-2.7156886E-5,-7.5149465E-1,3.865683E-4,5.5901604E-5,-1.1754917E-4],"split_indices":[0,0,2,8,0,8,0,8,0,7,0,8,0,0,0,8,0,0,0],"split_type":[0,0,0,0,0,0,0,0,0,0,0,0,0,0,0,0,0,0,0],"sum_hessian":[4.29E2,3.83E2,4.6E1,3.71E2,1.2E1,3.6E1,1E1,3.62E2,9E0,2.7E1,9E0,3.49E2,1.3E1,1.5E1,1.2E1,3.4E2,9E0,1.27E2,2.13E2],"tree_param":{"num_deleted":"0","num_feature":"10","num_nodes":"19","size_leaf_vector":"1"}},{"base_weights":[-1.9145216E-4,-2.058247E-8,-3.4378117E-3,-1.2631125E-4,4.4810332E-4,-6.3835527E-4,1.454361E-4,1.15245384E-4,-2.424132E-3,-2.0608463E-4,7.787882E-4,1.0307978E-3,-6.92781E-4,-4.43735E-5,-4.6115025E-4,3.9446465E-4,-1.5279448E-4,-3.9859584E-5,1.4860921E-4],"categories":[],"categories_nodes":[],"categories_segments":[],"categories_sizes":[],"default_left":[0,0,0,0,0,0,0,0,0,0,0,0,0,0,0,0,0,0,0],"id":32,"left_children":[1,3,5,7,-1,-1,-1,9,11,13,-1,15,-1,17,-1,-1,-1,-1,-1],"loss_changes":[2.6784735E-4,2.6027893E-4,4.6718554E-4,2.2174585E-4,0E0,0E0,0E0,1.007093E-3,7.125548E-4,2.8161026E-4,0E0,2.3226961E-4,0E0,2.3630456E-4,0E0,0E0,0E0,0E0,0E0],"parents":[2147483647,0,0,1,1,2,2,3,3,7,7,8,8,9,9,11,11,13,13],"right_children":[2,4,6,8,-1,-1,-1,10,12,14,-1,16,-1,18,-1,-1,-1,-1,-1],"split_conditions":[1.7717658E0,1.6046069E0,1.6701885E-1,1.295663E0,4.4810332E-4,-6.3835527E-4,1.454361E-4,1.1579602E0,-1.8027395E-1,1.4618901E0,7.787882E-4,-6.4146674E-1,-6.92781E-4,6.832312E-1,-4.6115025E-4,3.9446465E-4,-1.5279448E-4,-3.9859584E-5,1.4860921E-4],"split_indices":[3,3,7,7,0,0,0,7,3,3,0,6,0,2,0,0,0,0,0],"split_type":[0,0,0,0,0,0,0,0,0,0,0,0,0,0,0,0,0,0,0],"sum_hessian":[4.3E2,4.07E2,2.3E1,3.98E2,9E0,1.3E1,1E1,3.61E2,3.7E1,3.49E2,1.2E1,2.3E1,1.4E1,3.39E2,1E1,1E1,1.3E1,2.75E2,6.4E1],"tree_param":{"num_deleted":"0","num_feature":"10","num_nodes":"19","size_leaf_vector":"1"}},{"base_weights":[-3.040698E-4,1.3341205E-3,-7.198406E-4,2.1179405E-4,6.0310477E-4,-7.942217E-4,-4.7404628E-4,1.1969116E-3,-2.1710705E-3,1.815417E-4,-2.5482692E-3,2.6146366E-4,4.2194736E-4,7.230469E-5,-4.650132E-4,3.5299843E-3,-3.1037006E-4,-4.4978033E-3,1.1025437E-3,-1.0905763E-3,1.8708383E-3,4.1422003E-4,7.373508E-4,-8.688854E-4,4.1189702E-4,-1.535864E-3,-8.938098E-3,2.0718353E-6,1.5658233E-4,9.8588556E-5,-3.3707367E-4,2.7526316E-4,2.9948123E-5,2.565535E-4,-2.3050961E-4,-4.0302886E-5,2.0509082E-4,8.0191785E-5,-2.814919E-4,-1.0675243E-3,-3.8813884E-4],"categories":[],"categories_nodes":[],"categories_segments":[],"categories_sizes":[],"default_left":[0,0,0,0,0,0,0,0,0,0,0,0,0,0,0,0,0,0,0,0,0,0,0,0,0,0,0,0,0,0,0,0,0,0,0,0,0,0,0,0,0],"id":33,"left_children":[1,3,5,7,-1,-1,9,11,13,15,17,19,-1,-1,-1,21,23,25,27,29,31,33,-1,-1,35,37,39,-1,-1,-1,-1,-1,-1,-1,-1,-1,-1,-1,-1,-1,-1],"loss_changes":[2.9588173E-4,5.36621E-4,6.9409335E-4,1.763063E-4,0E0,0E0,4.5872724E-4,1.7466184E-4,2.0501715E-4,4.244101E-4,5.8146706E-4,9.560566E-5,0E0,0E0,0E0,4.861563E-4,1.541428E-3,6.833222E-4,2.0560794E-5,1.4670413E-4,3.6527854E-5,1.634643E-4,0E0,0E0,3.4520158E-4,1.339383E-4,2.4210289E-4,0E0,0E0,0E0,0E0,0E0,0E0,0E0,0E0,0E0,0E0,0E0,0E0,0E0,0E0],"parents":[2147483647,0,0,1,1,2,2,3,3,6,6,7,7,8,8,9,9,10,10,11,11,15,15,16,16,17,17,18,18,19,19,20,20,21,21,24,24,25,25,26,26],"right_children":[2,4,6,8,-1,-1,10,12,14,16,18,20,-1,-1,-1,22,24,26,28,30,32,34,-1,-1,36,38,40,-1,-1,-1,-1,-1,-1,-1,-1,-1,-1,-1,-1,-1,-1],"split_conditions":[-9.613021E-1,-1.0448494E0,-1.0120354E0,-5.567681E-1,6.0310477E-4,-7.942217E-4,7.5475496E-1,-6.1044663E-1,-9.3728286E-1,-7.5149465E-1,3.980038E-1,-1.2243592E0,4.2194736E-4,7.230469E-5,-4.650132E-4,-8.3494973E-1,-6.905266E-1,-7.62484E-2,5.692992E-1,-1.4841723E0,-1.028009E0,-3.7979373E-1,7.373508E-4,-8.688854E-4,2.0524597E-1,-3.2956302E-1,7.105995E-1,2.0718353E-6,1.5658233E-4,9.8588556E-5,-3.3707367E-4,2.7526316E-4,2.9948123E-5,2.565535E-4,-2.3050961E-4,-4.0302886E-5,2.0509082E-4,8.0191785E-5,-2.814919E-4,-1.0675243E-3,-3.8813884E-4],"split_indices":[3,3,1,6,0,0,7,6,7,8,6,0,0,0,0,8,1,6,1,0,0,7,0,0,7,3,0,0,0,0,0,0,0,0,0,0,0,0,0,0,0],"split_type":[0,0,0,0,0,0,0,0,0,0,0,0,0,0,0,0,0,0,0,0,0,0,0,0,0,0,0,0,0,0,0,0,0,0,0,0,0,0,0,0,0],"sum_hessian":[4.32E2,8.7E1,3.45E2,7.3E1,1.4E1,9E0,3.36E2,5.2E1,2.1E1,2.56E2,8E1,4.2E1,1E1,1.1E1,1E1,3.2E1,2.24E2,5.2E1,2.8E1,2.3E1,1.9E1,2E1,1.2E1,1.5E1,2.09E2,3.2E1,2E1,1.1E1,1.7E1,1.3E1,1E1,1E1,9E0,1.1E1,9E0,1.44E2,6.5E1,1.3E1,1.9E1,1.1E1,9E0],"tree_param":{"num_deleted":"0","num_feature":"10","num_nodes":"41","size_leaf_vector":"1"}},{"base_weights":[-1.2615731E-5,1.13197515E-4,-3.898199E-4,-6.719477E-4,7.483012E-4,6.241705E-4,-5.302617E-3,3.0287923E-3,-3.0342297E-4,-6.5159205E-5,5.953348E-4,-1.2567607E-3,-1.9984036E-3,1.2337309E-3,7.414957E-3,1.0671375E-3,-2.644494E-3,3.7455416E-4,-4.900868E-4,9.774128E-4,-7.421311E-4,2.358774E-3,-2.9135484E-4,1.150946E-3,1.9481589E-4,1.12007554E-4,4.859994E-4,-4.5468053E-3,-5.5144894E-5,1.5820445E-4,-1.7467531E-4,-2.0191766E-4,3.9411135E-4,3.2710035E-5,4.3167968E-4,2.0827714E-4,-2.355879E-4,-8.3201674E-5,-8.571553E-4,-9.100103E-5,1.03126185E-4],"categories":[],"categories_nodes":[],"categories_segments":[],"categories_sizes":[],"default_left":[0,0,0,0,0,0,0,0,0,0,0,0,0,0,0,0,0,0,0,0,0,0,0,0,0,0,0,0,0,0,0,0,0,0,0,0,0,0,0,0,0],"id":34,"left_children":[1,3,-1,5,7,9,11,13,15,17,-1,-1,19,21,23,25,27,29,-1,31,-1,33,-1,-1,-1,35,-1,37,39,-1,-1,-1,-1,-1,-1,-1,-1,-1,-1,-1,-1],"loss_changes":[2.358639E-4,2.084393E-4,0E0,1.125664E-3,5.5496045E-4,6.1556336E-4,1.1679573E-3,5.656126E-4,5.1298615E-4,3.2055238E-4,0E0,0E0,5.936655E-4,2.7665036E-4,5.780703E-4,4.236535E-4,2.9036836E-4,4.1080802E-4,0E0,2.569021E-4,0E0,2.1185748E-4,0E0,0E0,0E0,5.234592E-4,0E0,6.161821E-4,3.1766573E-5,0E0,0E0,0E0,0E0,0E0,0E0,0E0,0E0,0E0,0E0,0E0,0E0],"parents":[2147483647,0,0,1,1,3,3,4,4,5,5,6,6,7,7,8,8,9,9,12,12,13,13,14,14,15,15,16,16,17,17,19,19,21,21,25,25,27,27,28,28],"right_children":[2,4,-1,6,8,10,12,14,16,18,-1,-1,20,22,24,26,28,30,-1,32,-1,34,-1,-1,-1,36,-1,38,40,-1,-1,-1,-1,-1,-1,-1,-1,-1,-1,-1,-1],"split_conditions":[1.6364955E0,-2.5665954E-1,-3.898199E-4,-5.7849973E-1,3.3614698E-1,-6.7088693E-1,-6.195275E-1,1.5825011E-1,3.949993E-1,-7.2950464E-1,5.953348E-4,-1.2567607E-3,-1.8027395E-1,4.005926E-2,1.5840109E-1,1.6701885E-1,1.6792758E-1,6.036512E-2,-4.900868E-4,-4.4677854E-1,-7.421311E-4,-1.5810713E-1,-2.9135484E-4,1.150946E-3,1.9481589E-4,-3.878E-1,4.859994E-4,-7.7247643E-1,1.4179164E0,1.5820445E-4,-1.7467531E-4,-2.0191766E-4,3.9411135E-4,3.2710035E-5,4.3167968E-4,2.0827714E-4,-2.355879E-4,-8.3201674E-5,-8.571553E-4,-9.100103E-5,1.03126185E-4],"split_indices":[7,1,0,3,2,3,2,0,7,3,0,0,3,0,2,7,6,7,0,0,0,3,0,0,0,6,0,6,8,0,0,0,0,0,0,0,0,0,0,0,0],"split_type":[0,0,0,0,0,0,0,0,0,0,0,0,0,0,0,0,0,0,0,0,0,0,0,0,0,0,0,0,0,0,0,0,0,0,0,0,0,0,0,0,0],"sum_hessian":[4.27E2,4.16E2,1.1E1,1.86E2,2.3E2,1.46E2,4E1,7.2E1,1.58E2,1.32E2,1.4E1,1E1,3E1,5.2E1,2E1,1E2,5.8E1,1.23E2,9E0,2.1E1,9E0,4.2E1,1E1,9E0,1.1E1,8.3E1,1.7E1,3.3E1,2.5E1,7.7E1,4.6E1,1.1E1,1E1,2.4E1,1.8E1,4.6E1,3.7E1,2E1,1.3E1,1.4E1,1.1E1],"tree_param":{"num_deleted":"0","num_feature":"10","num_nodes":"41","size_leaf_vector":"1"}},{"base_weights":[3.813593E-4,5.2826223E-4,-4.1307852E-4,3.818662E-4,4.109325E-4,8.013579E-4,-2.0693417E-3,5.1555682E-5,2.6370822E-3,-6.79139E-3,4.0528155E-4,3.161209E-4,-5.417024E-4,7.757908E-4,1.9235439E-3,-1.0285283E-4,-1.0947433E-3,2.9023802E-3,-3.3646292E-4,7.3784264E-5,-1.6332227E-4,4.4009447E-4,5.9086018E-5,5.647479E-4,5.0315597E-5],"categories":[],"categories_nodes":[],"categories_segments":[],"categories_sizes":[],"default_left":[0,0,0,0,0,0,0,0,0,0,0,0,0,0,0,0,0,0,0,0,0,0,0,0,0],"id":35,"left_children":[1,3,-1,5,-1,7,9,11,13,15,17,19,-1,-1,21,-1,-1,23,-1,-1,-1,-1,-1,-1,-1],"loss_changes":[3.1184545E-4,2.4269221E-4,0E0,4.0782156E-4,0E0,4.650975E-4,6.8049936E-4,3.9360896E-4,4.0884834E-4,6.077461E-4,4.1892024E-4,2.5802563E-4,0E0,0E0,3.3573885E-4,0E0,0E0,1.9783598E-4,0E0,0E0,0E0,0E0,0E0,0E0,0E0],"parents":[2147483647,0,0,1,1,3,3,5,5,6,6,7,7,8,8,9,9,10,10,11,11,14,14,17,17],"right_children":[2,4,-1,6,-1,8,10,12,14,16,18,20,-1,-1,22,-1,-1,24,-1,-1,-1,-1,-1,-1,-1],"split_conditions":[1.6364955E0,1.9333577E0,-4.1307852E-4,1.1560156E0,4.109325E-4,1.4838877E-1,1.3414973E0,3.6130673E-1,1.2092889E-1,1.2629677E0,1.655817E0,8.91924E-1,-5.417024E-4,7.757908E-4,-1.846755E-1,-1.0285283E-4,-1.0947433E-3,2.4249841E-1,-3.3646292E-4,7.3784264E-5,-1.6332227E-4,4.4009447E-4,5.9086018E-5,5.647479E-4,5.0315597E-5],"split_indices":[7,8,0,4,0,1,4,2,2,4,4,7,0,0,7,0,0,7,0,0,0,0,0,0,0],"split_type":[0,0,0,0,0,0,0,0,0,0,0,0,0,0,0,0,0,0,0,0,0,0,0,0,0],"sum_hessian":[4.18E2,4.07E2,1.1E1,3.94E2,1.3E1,3.37E2,5.7E1,2.4E2,9.7E1,1.9E1,3.8E1,2.31E2,9E0,9E0,8.8E1,1E1,9E0,2.4E1,1.4E1,1.87E2,4.4E1,2.5E1,6.3E1,9E0,1.5E1],"tree_param":{"num_deleted":"0","num_feature":"10","num_nodes":"25","size_leaf_vector":"1"}},{"base_weights":[1.0393001E-4,-9.557234E-5,2.5183721E-3,9.7072613E-4,-3.716083E-4,8.0376887E-4,-5.7494454E-4,2.6168223E-4,5.568979E-4,-7.625344E-4,-8.668164E-5,1.4705745E-4,-2.9871674E-4,1.2620871E-3,-5.1262527E-4,2.3339784E-3,-3.4693783E-4,2.4320108E-4,6.1746995E-4,-1.2618341E-4,5.548848E-4,-4.7584036E-3,9.049583E-5,1.4983753E-4,-3.4735075E-4,-1.5540152E-4,1.20872E-4,-7.7833567E-4,-6.311434E-5,1.7419305E-4,-4.515923E-5],"categories":[],"categories_nodes":[],"categories_segments":[],"categories_sizes":[],"default_left":[0,0,0,0,0,0,0,0,0,0,0,0,0,0,0,0,0,0,0,0,0,0,0,0,0,0,0,0,0,0,0],"id":36,"left_children":[1,3,5,7,9,-1,11,13,-1,-1,15,-1,-1,17,-1,19,21,23,-1,25,-1,27,29,-1,-1,-1,-1,-1,-1,-1,-1],"loss_changes":[2.1459136E-4,1.21627476E-4,6.9093483E-4,3.1728297E-4,7.658935E-4,0E0,1.5447137E-4,4.6545337E-4,0E0,0E0,2.0114712E-4,0E0,0E0,3.8036826E-4,0E0,2.9866106E-4,5.561911E-4,3.4755986E-4,0E0,5.0541763E-5,0E0,4.1422708E-4,2.9498988E-4,0E0,0E0,0E0,0E0,0E0,0E0,0E0,0E0],"parents":[2147483647,0,0,1,1,2,2,3,3,4,4,6,6,7,7,10,10,13,13,15,15,16,16,17,17,19,19,21,21,22,22],"right_children":[2,4,6,8,10,-1,12,14,-1,-1,16,-1,-1,18,-1,20,22,24,-1,26,-1,28,30,-1,-1,-1,-1,-1,-1,-1,-1],"split_conditions":[1.6046069E0,-1.0494094E0,1.5719583E0,-8.598599E-1,-9.6205413E-1,8.0376887E-4,1.9820441E0,-9.613021E-1,5.568979E-4,-7.625344E-4,-8.325537E-1,1.4705745E-4,-2.9871674E-4,-1.571355E-1,-5.1262527E-4,-7.699955E-1,-6.3171136E-1,-5.567681E-1,6.1746995E-4,-8.687948E-1,5.548848E-4,-5.5564797E-1,-1.8081163E-1,1.4983753E-4,-3.4735075E-4,-1.5540152E-4,1.20872E-4,-7.7833567E-4,-6.311434E-5,1.7419305E-4,-4.515923E-5],"split_indices":[3,4,0,3,4,0,8,3,0,0,3,0,0,6,0,4,0,6,0,4,0,4,2,0,0,0,0,0,0,0,0],"split_type":[0,0,0,0,0,0,0,0,0,0,0,0,0,0,0,0,0,0,0,0,0,0,0,0,0,0,0,0,0,0,0],"sum_hessian":[4.44E2,4.11E2,3.3E1,8.4E1,3.27E2,1E1,2.3E1,7.5E1,9E0,1E1,3.17E2,1.3E1,1E1,6.5E1,1E1,3E1,2.87E2,5.6E1,9E0,1.9E1,1.1E1,2.5E1,2.62E2,4.2E1,1.4E1,9E0,1E1,1.2E1,1.3E1,6.3E1,1.99E2],"tree_param":{"num_deleted":"0","num_feature":"10","num_nodes":"31","size_leaf_vector":"1"}},{"base_weights":[-1.2491799E-4,3.9848482E-4,-2.6959638E-4,3.878712E-4,-1.021051E-3,5.4213942E-5,3.6885057E-4,-7.435822E-3,-1.9462075E-4,-2.3334162E-4,3.0658394E-4,-1.0716473E-3,-2.9469156E-4,1.6212588E-3,-9.106165E-4,7.470601E-5,-3.389623E-4,5.642091E-4,2.4746254E-4,-5.556493E-4,-4.3854763E-4,2.5315926E-4,-3.0457948E-5,-4.4369794E-4,1.9789378E-4,9.065656E-6,-5.445833E-4],"categories":[],"categories_nodes":[],"categories_segments":[],"categories_sizes":[],"default_left":[0,0,0,0,0,0,0,0,0,0,0,0,0,0,0,0,0,0,0,0,0,0,0,0,0,0,0],"id":37,"left_children":[1,-1,3,5,7,9,-1,11,13,15,-1,-1,-1,17,19,21,-1,-1,23,-1,25,-1,-1,-1,-1,-1,-1],"loss_changes":[2.84419E-4,0E0,2.044416E-4,2.7702365E-4,1.0217153E-3,1.998636E-4,0E0,3.785689E-4,2.251042E-4,2.0861888E-4,0E0,0E0,0E0,3.163867E-4,3.0971208E-4,2.0337084E-4,0E0,0E0,4.1506346E-4,0E0,3.5400697E-4,0E0,0E0,0E0,0E0,0E0,0E0],"parents":[2147483647,0,0,2,2,3,3,4,4,5,5,7,7,8,8,9,9,13,13,14,14,15,15,18,18,20,20],"right_children":[2,-1,4,6,8,10,-1,12,14,16,-1,-1,-1,18,20,22,-1,-1,24,-1,26,-1,-1,-1,-1,-1,-1],"split_conditions":[-1.9640574E0,3.9848482E-4,-1.8017884E-2,-1.5810713E-1,1.8472707E-1,1.4698918E0,3.6885057E-4,1.8098804E-1,-3.6528397E-1,-2.897249E-1,3.0658394E-4,-1.0716473E-3,-2.9469156E-4,5.34839E-1,-1.1739049E-1,-1.092649E0,-3.389623E-4,5.642091E-4,-1.2127222E0,-5.556493E-4,1.6710999E0,2.5315926E-4,-3.0457948E-5,-4.4369794E-4,1.9789378E-4,9.065656E-6,-5.445833E-4],"split_indices":[7,0,3,3,3,7,0,2,7,3,0,0,0,8,7,7,0,0,7,0,4,0,0,0,0,0,0],"split_type":[0,0,0,0,0,0,0,0,0,0,0,0,0,0,0,0,0,0,0,0,0,0,0,0,0,0,0],"sum_hessian":[4.24E2,1.2E1,4.12E2,2.2E2,1.92E2,2.03E2,1.7E1,2.1E1,1.71E2,1.88E2,1.5E1,9E0,1.2E1,4.8E1,1.23E2,1.74E2,1.4E1,1E1,3.8E1,9E0,1.14E2,2.2E1,1.52E2,1E1,2.8E1,1.05E2,9E0],"tree_param":{"num_deleted":"0","num_feature":"10","num_nodes":"27","size_leaf_vector":"1"}},{"base_weights":[-3.6321144E-5,5.9200346E-4,-1.9410047E-4,-1.8256799E-3,1.0102942E-4,-5.6082633E-4,-7.760065E-4,2.3537816E-3,-1.3351066E-4,1.5090503E-3,-4.4591774E-4,1.0476058E-4,6.883831E-4,-6.597853E-4,9.602426E-5,-1.994217E-4,4.509926E-3,-1.14643924E-4,2.0672049E-4,3.133523E-4,-1.0927125E-4,6.5027457E-4,9.272155E-5,8.15103E-6,-3.2850463E-4],"categories":[],"categories_nodes":[],"categories_segments":[],"categories_sizes":[],"default_left":[0,0,0,0,0,0,0,0,0,0,0,0,0,0,0,0,0,0,0,0,0,0,0,0,0],"id":38,"left_children":[1,-1,3,5,7,9,-1,11,13,15,-1,17,-1,-1,19,-1,21,-1,-1,-1,23,-1,-1,-1,-1],"loss_changes":[4.585801E-4,0E0,2.0435227E-4,5.624433E-4,1.9052411E-4,5.237947E-4,0E0,4.1112865E-4,5.4757384E-4,4.491757E-4,0E0,8.03552E-5,0E0,0E0,2.2415647E-4,0E0,2.0614907E-4,0E0,0E0,0E0,2.1714804E-4,0E0,0E0,0E0,0E0],"parents":[2147483647,0,0,2,2,3,3,4,4,5,5,7,7,8,8,9,9,11,11,14,14,16,16,20,20],"right_children":[2,-1,4,6,8,10,-1,12,14,16,-1,18,-1,-1,20,-1,22,-1,-1,-1,24,-1,-1,-1,-1],"split_conditions":[-1.9640574E0,5.9200346E-4,-1.0087572E0,-1.0486529E0,-7.1663326E-1,5.36267E-1,-7.760065E-4,4.5430964E-1,-6.662914E-1,-1.0199276E0,-4.4591774E-4,-5.347534E-1,6.883831E-4,-6.597853E-4,-5.2061665E-1,-1.994217E-4,-2.6393867E-1,-1.14643924E-4,2.0672049E-4,3.133523E-4,1.6710999E0,6.5027457E-4,9.272155E-5,8.15103E-6,-3.2850463E-4],"split_indices":[7,0,7,7,7,4,0,2,7,2,0,4,0,0,7,0,0,0,0,0,4,0,0,0,0],"split_type":[0,0,0,0,0,0,0,0,0,0,0,0,0,0,0,0,0,0,0,0,0,0,0,0,0],"sum_hessian":[4.32E2,9E0,4.23E2,6.4E1,3.59E2,5.5E1,9E0,3.3E1,3.26E2,3.8E1,1.7E1,2.4E1,9E0,9E0,3.17E2,1.7E1,2.1E1,1.5E1,9E0,1.7E1,3E2,1.1E1,1E1,2.85E2,1.5E1],"tree_param":{"num_deleted":"0","num_feature":"10","num_nodes":"25","size_leaf_vector":"1"}},{"base_weights":[-2.6210738E-4,1.5641802E-3,-5.490238E-4,-2.1758977E-5,7.675144E-4,-5.753804E-4,-3.0551685E-4,1.0490235E-3,-2.1011193E-4,-9.6585375E-4,6.562096E-4,3.0819915E-4,-7.2715536E-4,-3.607387E-4,-4.8970957E-3,5.499668E-3,-4.592618E-5,-1.9513068E-4,4.9446822E-5,4.5637548E-4,-6.622119E-4,2.4646573E-5,-1.0036988E-3,-1.2201613E-4,1.0512514E-3,-3.788966E-4,4.5032028E-4,-4.3831966E-4,1.04810415E-5,7.349005E-5,-2.642895E-4],"categories":[],"categories_nodes":[],"categories_segments":[],"categories_sizes":[],"default_left":[0,0,0,0,0,0,0,0,0,0,0,0,0,0,0,0,0,0,0,0,0,0,0,0,0,0,0,0,0,0,0],"id":39,"left_children":[1,3,5,7,-1,-1,9,11,-1,13,15,-1,17,19,21,23,25,-1,-1,-1,27,-1,-1,-1,-1,-1,29,-1,-1,-1,-1],"loss_changes":[2.314152E-4,6.726213E-4,5.473696E-4,1.278124E-4,0E0,0E0,2.3370209E-4,1.5275828E-4,0E0,5.168235E-4,5.1036733E-4,0E0,4.0754432E-5,3.180221E-4,9.619122E-4,8.416139E-4,2.7800817E-4,0E0,0E0,0E0,6.030165E-4,0E0,0E0,0E0,0E0,0E0,1.5561748E-4,0E0,0E0,0E0,0E0],"parents":[2147483647,0,0,1,1,2,2,3,3,6,6,7,7,9,9,10,10,12,12,13,13,14,14,15,15,16,16,20,20,26,26],"right_children":[2,4,6,8,-1,-1,10,12,-1,14,16,-1,18,20,22,24,26,-1,-1,-1,28,-1,-1,-1,-1,-1,30,-1,-1,-1,-1],"split_conditions":[-1.0804241E0,-1.0748541E0,-1.0120354E0,-5.567681E-1,7.675144E-4,-5.753804E-4,-1.5156791E-2,1.7265871E-2,-2.1011193E-4,8.852353E-1,6.0353104E-2,3.0819915E-4,-1.4071133E0,-9.1545206E-1,-6.320587E-1,1.442043E-1,1.6792758E-1,-1.9513068E-4,4.9446822E-5,4.5637548E-4,-6.77364E-1,2.4646573E-5,-1.0036988E-3,-1.2201613E-4,1.0512514E-3,-3.788966E-4,2.1320646E0,-4.3831966E-4,1.04810415E-5,7.349005E-5,-2.642895E-4],"split_indices":[0,3,1,6,0,0,6,7,0,7,6,0,4,0,6,0,6,0,0,0,1,0,0,0,0,0,0,0,0,0,0],"split_type":[0,0,0,0,0,0,0,0,0,0,0,0,0,0,0,0,0,0,0,0,0,0,0,0,0,0,0,0,0,0,0],"sum_hessian":[4.39E2,5.9E1,3.8E2,4.9E1,1E1,1.4E1,3.66E2,3.4E1,1.5E1,2.17E2,1.49E2,1.4E1,2E1,1.89E2,2.8E1,1.8E1,1.31E2,9E0,1.1E1,9E0,1.8E2,1.6E1,1.2E1,9E0,9E0,1.3E1,1.18E2,2.7E1,1.53E2,1.07E2,1.1E1],"tree_param":{"num_deleted":"0","num_feature":"10","num_nodes":"31","size_leaf_vector":"1"}},{"base_weights":[4.1888515E-4,1.09901644E-4,3.0287025E-3,4.997373E-4,-7.304419E-5,8.4435736E-4,1.0946813E-3,-2.4446513E-4,3.7397994E-4,-2.1179432E-4,3.0119717E-3,7.0255046E-5,-4.925545E-3,4.616583E-4,8.324892E-5,-4.381385E-4,2.9212883E-4,-1.0796502E-3,8.9242494E-5,-2.143617E-5,1.3939157E-4],"categories":[],"categories_nodes":[],"categories_segments":[],"categories_sizes":[],"default_left":[0,0,0,0,0,0,0,0,0,0,0,0,0,0,0,0,0,0,0,0,0],"id":40,"left_children":[1,3,5,-1,7,-1,9,11,-1,-1,13,15,17,-1,-1,-1,19,-1,-1,-1,-1],"loss_changes":[3.3512566E-4,3.7638628E-4,5.398602E-4,0E0,2.665275E-4,0E0,2.4045353E-4,5.145034E-4,0E0,0E0,9.9195066E-5,3.6510697E-4,9.533419E-4,0E0,0E0,0E0,2.1457509E-4,0E0,0E0,0E0,0E0],"parents":[2147483647,0,0,1,1,2,2,4,4,6,6,7,7,10,10,11,11,12,12,16,16],"right_children":[2,4,6,-1,8,-1,10,12,-1,-1,14,16,18,-1,-1,-1,20,-1,-1,-1,-1],"split_conditions":[1.2378402E0,-1.9640574E0,1.3237352E0,4.997373E-4,1.9175915E0,8.4435736E-4,1.4698918E0,1.5248184E0,3.7397994E-4,-2.1179432E-4,-5.6534874E-1,-8.2405835E-1,1.5547777E0,4.616583E-4,8.324892E-5,-4.381385E-4,2.5691116E-1,-1.0796502E-3,8.9242494E-5,-2.143617E-5,1.3939157E-4],"split_indices":[7,7,7,0,8,0,7,3,0,0,6,6,8,0,0,0,4,0,0,0,0],"split_type":[0,0,0,0,0,0,0,0,0,0,0,0,0,0,0,0,0,0,0,0,0],"sum_hessian":[4.15E2,3.72E2,4.3E1,1.1E1,3.61E2,9E0,3.4E1,3.48E2,1.3E1,1.2E1,2.2E1,3.27E2,2.1E1,1E1,1.2E1,1.3E1,3.14E2,9E0,1.2E1,2.22E2,9.2E1],"tree_param":{"num_deleted":"0","num_feature":"10","num_nodes":"21","size_leaf_vector":"1"}},{"base_weights":[-2.0087784E-5,1.1700918E-4,-4.2631425E-4,8.3350035E-4,-6.243968E-4,4.019545E-4,7.75599E-4,-3.0422069E-3,2.1176122E-4,-1.2734374E-4,3.2343715E-3,-5.518645E-4,-2.16217E-3,5.4237887E-4,-2.8376366E-4,2.1413034E-3,-7.225551E-4,5.3058524E-4,6.917764E-5,2.5973306E-4,-4.2794654E-3,3.1678026E-4,-8.309399E-4,5.0395203E-4,-8.560222E-5,-1.9176876E-4,4.371338E-5,1.0210831E-4,-7.402546E-5,-2.3422306E-4,-4.579064E-4,-6.48502E-4,-2.4149906E-5],"categories":[],"categories_nodes":[],"categories_segments":[],"categories_sizes":[],"default_left":[0,0,0,0,0,0,0,0,0,0,0,0,0,0,0,0,0,0,0,0,0,0,0,0,0,0,0,0,0,0,0,0,0],"id":41,"left_children":[1,3,-1,5,7,9,-1,11,13,15,17,-1,19,-1,21,23,25,-1,-1,27,29,-1,31,-1,-1,-1,-1,-1,-1,-1,-1,-1,-1],"loss_changes":[2.8133419E-4,2.2256654E-4,0E0,7.2157267E-4,4.1710853E-4,3.0474813E-4,0E0,1.3413758E-4,4.5099988E-4,2.3380305E-4,2.1012215E-4,0E0,2.2161052E-4,0E0,3.0389478E-4,3.994198E-4,2.3956802E-4,0E0,0E0,2.1333577E-5,1.9356608E-5,0E0,4.5343442E-4,0E0,0E0,0E0,0E0,0E0,0E0,0E0,0E0,0E0,0E0],"parents":[2147483647,0,0,1,1,3,3,4,4,5,5,7,7,8,8,9,9,10,10,12,12,14,14,15,15,16,16,19,19,20,20,22,22],"right_children":[2,4,-1,6,8,10,-1,12,14,16,18,-1,20,-1,22,24,26,-1,-1,28,30,-1,32,-1,-1,-1,-1,-1,-1,-1,-1,-1,-1],"split_conditions":[1.6364955E0,-1.7404571E-1,-4.2631425E-4,1.25437705E-2,2.5691116E-1,-4.469953E-1,7.75599E-4,-2.099088E-1,3.6206058E-1,-1.2627583E0,-3.6054906E-1,-5.518645E-4,1.4462802E-1,5.4237887E-4,-1.3809835E0,6.036512E-2,-9.3217045E-1,5.3058524E-4,6.917764E-5,-6.449452E-3,3.134282E-1,3.1678026E-4,2.0884262E-1,5.0395203E-4,-8.560222E-5,-1.9176876E-4,4.371338E-5,1.0210831E-4,-7.402546E-5,-2.3422306E-4,-4.579064E-4,-6.48502E-4,-2.4149906E-5],"split_indices":[7,4,0,9,4,4,0,1,4,4,2,0,2,0,7,7,2,0,0,4,8,0,9,0,0,0,0,0,0,0,0,0,0],"split_type":[0,0,0,0,0,0,0,0,0,0,0,0,0,0,0,0,0,0,0,0,0,0,0,0,0,0,0,0,0,0,0,0,0],"sum_hessian":[4.28E2,4.17E2,1.1E1,2.12E2,2.05E2,2.02E2,1E1,5.2E1,1.53E2,1.71E2,3.1E1,1E1,4.2E1,1.1E1,1.42E2,3.5E1,1.36E2,1.4E1,1.7E1,2E1,2.2E1,1.7E1,1.25E2,1.6E1,1.9E1,6.2E1,7.4E1,1.1E1,9E0,9E0,1.3E1,9E0,1.16E2],"tree_param":{"num_deleted":"0","num_feature":"10","num_nodes":"33","size_leaf_vector":"1"}},{"base_weights":[2.487922E-4,1.0483653E-4,4.5233485E-4,4.0798957E-4,-5.554014E-5,7.752412E-4,-8.0177095E-4,3.9470564E-5,3.8398555E-3,-7.604519E-4,-4.0632728E-4,6.4869475E-4,-5.760342E-4,2.2369411E-3,6.473457E-4,-1.3564717E-3,6.381079E-4,-3.4449602E-4,8.818013E-5,4.4900857E-4,-1.4402898E-5,2.8404915E-5,-3.912647E-4,-1.075278E-4,2.1983616E-4],"categories":[],"categories_nodes":[],"categories_segments":[],"categories_sizes":[],"default_left":[0,0,0,0,0,0,0,0,0,0,0,0,0,0,0,0,0,0,0,0,0,0,0,0,0],"id":42,"left_children":[1,3,-1,-1,5,7,9,11,13,-1,15,17,-1,19,-1,21,23,-1,-1,-1,-1,-1,-1,-1,-1],"loss_changes":[2.8917936E-4,2.9144087E-4,0E0,0E0,2.4364376E-4,4.1925116E-4,6.308838E-4,6.0372386E-4,1.821997E-4,0E0,1.9735369E-4,2.1940359E-4,0E0,1.7621997E-4,0E0,5.3183816E-4,3.2483542E-4,0E0,0E0,0E0,0E0,0E0,0E0,0E0,0E0],"parents":[2147483647,0,0,1,1,4,4,5,5,6,6,7,7,8,8,10,10,11,11,13,13,15,15,16,16],"right_children":[2,4,-1,-1,6,8,10,12,14,-1,16,18,-1,20,-1,22,24,-1,-1,-1,-1,-1,-1,-1,-1],"split_conditions":[1.9175915E0,-1.9640574E0,4.5233485E-4,4.0798957E-4,-2.8909206E-1,-5.281214E-1,-2.1934727E-1,-6.414185E-1,-3.9230198E-1,-7.604519E-4,2.0524597E-1,-1.5312659E0,-5.760342E-4,-3.9408612E-1,6.473457E-4,-2.7800238E-1,4.5731474E-2,-3.4449602E-4,8.818013E-5,4.4900857E-4,-1.4402898E-5,2.8404915E-5,-3.912647E-4,-1.075278E-4,2.1983616E-4],"split_indices":[8,7,0,0,4,2,4,8,4,0,7,8,0,8,0,7,6,0,0,0,0,0,0,0,0],"split_type":[0,0,0,0,0,0,0,0,0,0,0,0,0,0,0,0,0,0,0,0,0,0,0,0,0],"sum_hessian":[4.15E2,4.04E2,1.1E1,1.3E1,3.91E2,1.85E2,2.06E2,1.5E2,3.5E1,9E0,1.97E2,1.38E2,1.2E1,2.5E1,1E1,1.03E2,9.4E1,9E0,1.29E2,1.1E1,1.4E1,6.7E1,3.6E1,4.7E1,4.7E1],"tree_param":{"num_deleted":"0","num_feature":"10","num_nodes":"25","size_leaf_vector":"1"}},{"base_weights":[-6.766811E-6,4.129287E-3,-2.2654077E-4,1.0904393E-3,-2.1737262E-4,-3.219889E-4,3.2563103E-4,-2.8066909E-6,-2.1937555E-3,-1.570894E-4,3.8393014E-4,-6.644574E-4,-2.2456935E-4,4.1292118E-5,-3.670301E-4,7.4748974E-4,-2.5602357E-4,-9.085283E-5,6.601997E-5,2.599022E-4,-5.6435332E-5],"categories":[],"categories_nodes":[],"categories_segments":[],"categories_sizes":[],"default_left":[0,0,0,0,0,0,0,0,0,0,0,0,0,0,0,0,0,0,0,0,0],"id":43,"left_children":[1,3,5,-1,-1,7,-1,9,11,13,-1,-1,15,17,-1,19,-1,-1,-1,-1,-1],"loss_changes":[3.9634915E-4,1.206151E-3,1.5482739E-4,0E0,0E0,2.4195487E-4,0E0,2.3196219E-4,6.115483E-4,2.6480958E-4,0E0,0E0,1.1568438E-4,2.39981E-4,0E0,1.01062426E-4,0E0,0E0,0E0,0E0,0E0],"parents":[2147483647,0,0,1,1,2,2,5,5,7,7,8,8,9,9,12,12,13,13,15,15],"right_children":[2,4,6,-1,-1,8,-1,10,12,14,-1,-1,16,18,-1,20,-1,-1,-1,-1,-1],"split_conditions":[-1.5629617E0,-1.0527159E-1,2.0261557E0,1.0904393E-3,-2.1737262E-4,1.1203245E0,3.2563103E-4,1.1505407E0,1.3666523E0,1.5638235E0,3.8393014E-4,-6.644574E-4,1.6710999E0,-6.195275E-1,-3.670301E-4,3.4014738E-1,-2.5602357E-4,-9.085283E-5,6.601997E-5,2.599022E-4,-5.6435332E-5],"split_indices":[7,6,4,0,0,0,0,8,9,7,0,0,4,2,0,7,0,0,0,0,0],"split_type":[0,0,0,0,0,0,0,0,0,0,0,0,0,0,0,0,0,0,0,0,0],"sum_hessian":[4.34E2,2.1E1,4.13E2,9E0,1.2E1,4.04E2,9E0,3.46E2,5.8E1,3.35E2,1.1E1,1.5E1,4.3E1,3.2E2,1.5E1,3.2E1,1.1E1,1.27E2,1.93E2,1.2E1,2E1],"tree_param":{"num_deleted":"0","num_feature":"10","num_nodes":"21","size_leaf_vector":"1"}},{"base_weights":[1.3216288E-4,-4.3690644E-4,1.2451485E-3,3.8538172E-4,-4.7813663E-3,5.9599285E-3,4.6202764E-4,1.8524326E-3,-1.81149E-4,-1.5445098E-3,-1.3901334E-3,-1.127347E-4,1.1840101E-3,9.2968513E-4,-2.3959788E-4,4.1285594E-4,5.890104E-4,-3.0923001E-3,2.5281365E-4,-4.1067824E-3,4.6881195E-4,1.1666695E-4,7.127096E-4,1.8156848E-3,-2.734499E-4,6.5140965E-5,-5.154765E-4,2.6799385E-3,-4.1317614E-4,1.9081622E-4,-9.359054E-4,2.401314E-3,-8.4523787E-4,3.416821E-4,-1.5901409E-4,8.9924644E-5,5.5579725E-4,-7.676922E-5,3.1988692E-4,-1.9041438E-5,5.4462353E-4,-1.370481E-4,1.383891E-4],"categories":[],"categories_nodes":[],"categories_segments":[],"categories_sizes":[],"default_left":[0,0,0,0,0,0,0,0,0,0,0,0,0,0,0,0,0,0,0,0,0,0,0,0,0,0,0,0,0,0,0,0,0,0,0,0,0,0,0,0,0,0,0],"id":44,"left_children":[1,3,5,7,9,11,13,15,17,19,-1,-1,-1,21,-1,23,-1,25,27,29,-1,31,-1,33,-1,-1,-1,35,37,-1,-1,39,41,-1,-1,-1,-1,-1,-1,-1,-1,-1,-1],"loss_changes":[2.6402425E-4,9.878244E-4,5.178525E-4,1.9398872E-4,1.5212538E-3,1.0799807E-3,1.8258714E-4,4.4370588E-4,2.142847E-4,6.3293846E-4,0E0,0E0,0E0,6.153948E-4,0E0,2.551178E-4,0E0,2.3180211E-4,2.4034048E-4,1.0658647E-3,0E0,2.1519816E-4,0E0,2.7709643E-4,0E0,0E0,0E0,1.8431884E-4,2.1429859E-4,0E0,0E0,2.8369582E-4,1.1770615E-4,0E0,0E0,0E0,0E0,0E0,0E0,0E0,0E0,0E0,0E0],"parents":[2147483647,0,0,1,1,2,2,3,3,4,4,5,5,6,6,7,7,8,8,9,9,13,13,15,15,17,17,18,18,19,19,21,21,23,23,27,27,28,28,31,31,32,32],"right_children":[2,4,6,8,10,12,14,16,18,20,-1,-1,-1,22,-1,24,-1,26,28,30,-1,32,-1,34,-1,-1,-1,36,38,-1,-1,40,42,-1,-1,-1,-1,-1,-1,-1,-1,-1,-1],"split_conditions":[-1.5156791E-2,-3.878E-1,7.073854E-2,-5.2061665E-1,-2.7053103E-1,1.442043E-1,1.8231125E0,6.6571975E-1,-1.1739049E-1,-5.588953E-1,-1.3901334E-3,-1.127347E-4,1.1840101E-3,1.4753482E0,-2.3959788E-4,3.6130673E-1,5.890104E-4,-6.449452E-3,6.036512E-2,-1.0494094E0,4.6881195E-4,-7.9289216E-1,7.127096E-4,-5.942099E-1,-2.734499E-4,6.5140965E-5,-5.154765E-4,-2.4807159E-2,1.4698918E0,1.9081622E-4,-9.359054E-4,-7.8219724E-1,1.1825652E0,3.416821E-4,-1.5901409E-4,8.9924644E-5,5.5579725E-4,-7.676922E-5,3.1988692E-4,-1.9041438E-5,5.4462353E-4,-1.370481E-4,1.383891E-4],"split_indices":[6,6,6,7,2,0,9,2,7,2,0,0,0,3,0,2,0,4,7,4,0,2,0,6,0,0,0,7,7,0,0,1,0,0,0,0,0,0,0,0,0,0,0],"split_type":[0,0,0,0,0,0,0,0,0,0,0,0,0,0,0,0,0,0,0,0,0,0,0,0,0,0,0,0,0,0,0,0,0,0,0,0,0,0,0,0,0,0,0],"sum_hessian":[4.15E2,2.75E2,1.4E2,2.32E2,4.3E1,1.9E1,1.21E2,6.4E1,1.68E2,3.4E1,9E0,1E1,9E0,1.06E2,1.5E1,5E1,1.4E1,2.1E1,1.47E2,2.5E1,9E0,9.6E1,1E1,3.6E1,1.4E1,9E0,1.2E1,3.1E1,1.16E2,1.3E1,1.2E1,2.8E1,6.8E1,2.3E1,1.3E1,2.2E1,9E0,1.05E2,1.1E1,1.7E1,1.1E1,5.3E1,1.5E1],"tree_param":{"num_deleted":"0","num_feature":"10","num_nodes":"43","size_leaf_vector":"1"}},{"base_weights":[-1.9489437E-4,3.6663346E-7,-3.969958E-3,-3.7436225E-4,1.2794504E-4,-6.243883E-4,7.886033E-6,3.900381E-4,6.269222E-6,9.087983E-4,-5.226977E-4,3.726375E-4,5.985556E-4,-8.0226007E-4,-1.209468E-4,7.5228236E-5,-4.366973E-4,1.026621E-5,-4.3785587E-4],"categories":[],"categories_nodes":[],"categories_segments":[],"categories_sizes":[],"default_left":[0,0,0,0,0,0,0,0,0,0,0,0,0,0,0,0,0,0,0],"id":45,"left_children":[1,3,5,-1,7,-1,-1,-1,9,11,13,15,-1,-1,17,-1,-1,-1,-1],"loss_changes":[3.1475283E-4,2.1914649E-4,2.6069497E-4,0E0,2.051424E-4,0E0,0E0,0E0,1.8475454E-4,4.4387314E-4,8.320245E-4,3.342444E-4,0E0,0E0,2.662383E-4,0E0,0E0,0E0,0E0],"parents":[2147483647,0,0,1,1,2,2,4,4,8,8,9,9,10,10,11,11,14,14],"right_children":[2,4,6,-1,8,-1,-1,-1,10,12,14,16,-1,-1,18,-1,-1,-1,-1],"split_conditions":[1.7717658E0,-2.104648E0,1.6701885E-1,-3.7436225E-4,-1.5629617E0,-6.243883E-4,7.886033E-6,3.900381E-4,-6.186026E-1,-6.909638E-1,-6.195275E-1,-7.529327E-1,5.985556E-4,-8.0226007E-4,1.6236362E0,7.5228236E-5,-4.366973E-4,1.026621E-5,-4.3785587E-4],"split_indices":[3,7,7,0,7,0,0,0,3,3,2,3,0,0,7,0,0,0,0],"split_type":[0,0,0,0,0,0,0,0,0,0,0,0,0,0,0,0,0,0,0],"sum_hessian":[4.26E2,4.06E2,2E1,1.1E1,3.95E2,1.1E1,9E0,1E1,3.85E2,1.42E2,2.43E2,1.31E2,1.1E1,1E1,2.33E2,1.21E2,1E1,2.23E2,1E1],"tree_param":{"num_deleted":"0","num_feature":"10","num_nodes":"19","size_leaf_vector":"1"}},{"base_weights":[2.209208E-7,-1.02046295E-4,2.7479776E-4,5.536577E-5,-5.8769464E-4,-1.1064687E-3,4.0483518E-4,-1.0182706E-3,9.5228024E-5,7.399939E-4,1.4815861E-4,5.1041896E-4,-7.1236567E-4,4.3961536E-3,-2.8921734E-4,-5.042605E-4,2.4227181E-6,-6.562541E-6,8.173013E-4,-5.1227347E-5,2.9374807E-4],"categories":[],"categories_nodes":[],"categories_segments":[],"categories_sizes":[],"default_left":[0,0,0,0,0,0,0,0,0,0,0,0,0,0,0,0,0,0,0,0,0],"id":46,"left_children":[1,3,-1,5,-1,7,9,-1,11,-1,13,-1,15,17,19,-1,-1,-1,-1,-1,-1],"loss_changes":[1.3809005E-4,4.336135E-4,0E0,1.6854254E-4,0E0,1.1944172E-3,6.4696796E-4,0E0,4.0067494E-4,0E0,5.7724235E-4,0E0,2.8251833E-4,6.221828E-4,2.9249297E-4,0E0,0E0,0E0,0E0,0E0,0E0],"parents":[2147483647,0,0,1,1,3,3,5,5,6,6,8,8,10,10,12,12,13,13,14,14],"right_children":[2,4,-1,6,-1,8,10,-1,12,-1,14,-1,16,18,20,-1,-1,-1,-1,-1,-1],"split_conditions":[1.6977223E0,1.5052305E0,2.7479776E-4,-8.4095764E-1,-5.8769464E-4,-1.2284336E0,-1.8511719E0,-1.0182706E-3,-1.0486529E0,7.399939E-4,-7.362756E-1,5.1041896E-4,-5.917048E-1,-8.7657046E-1,1.2378402E0,-5.042605E-4,2.4227181E-6,-6.562541E-6,8.173013E-4,-5.1227347E-5,2.9374807E-4],"split_indices":[7,7,0,1,0,7,7,0,7,0,8,0,7,2,7,0,0,0,0,0,0],"split_type":[0,0,0,0,0,0,0,0,0,0,0,0,0,0,0,0,0,0,0,0,0],"sum_hessian":[4.35E2,4.22E2,1.3E1,4.13E2,9E0,9.5E1,3.18E2,9E0,8.6E1,9E0,3.09E2,1E1,7.6E1,2.8E1,2.81E2,9E0,6.7E1,1.5E1,1.3E1,2.61E2,2E1],"tree_param":{"num_deleted":"0","num_feature":"10","num_nodes":"21","size_leaf_vector":"1"}},{"base_weights":[-1.0037475E-4,-2.9109837E-4,2.1744324E-3,-4.4114084E-5,-4.588865E-3,4.4349553E-3,-2.6280654E-4,-1.2108025E-3,3.8784218E-4,-8.3210476E-4,9.1598966E-5,6.303151E-4,1.0593678E-4,8.298042E-6,-1.1268149E-3,4.5371434E-4,1.2154501E-4,5.3197687E-4,-2.5078602E-4,-2.0280988E-3,5.092712E-4,-3.529098E-5,3.0099667E-4,1.5700058E-4,-6.6585356E-4,1.94608E-4,-7.109221E-6],"categories":[],"categories_nodes":[],"categories_segments":[],"categories_sizes":[],"default_left":[0,0,0,0,0,0,0,0,0,0,0,0,0,0,0,0,0,0,0,0,0,0,0,0,0,0,0],"id":47,"left_children":[1,3,5,7,9,11,-1,13,15,-1,-1,-1,-1,17,-1,-1,19,21,-1,23,25,-1,-1,-1,-1,-1,-1],"loss_changes":[1.9066346E-4,4.2969733E-4,4.073659E-4,1.939896E-4,5.9907127E-4,1.9808946E-4,0E0,1.4531254E-3,3.521436E-4,0E0,0E0,0E0,0E0,1.4221261E-4,0E0,0E0,2.235702E-4,2.1597162E-4,0E0,8.623761E-4,2.2476047E-4,0E0,0E0,0E0,0E0,0E0,0E0],"parents":[2147483647,0,0,1,1,2,2,3,3,4,4,5,5,7,7,8,8,13,13,16,16,17,17,19,19,20,20],"right_children":[2,4,6,8,10,12,-1,14,16,-1,-1,-1,-1,18,-1,-1,20,22,-1,24,26,-1,-1,-1,-1,-1,-1],"split_conditions":[1.5328969E0,1.3104256E0,2.110101E0,-8.4095764E-1,1.3414973E0,2.8673005E-1,-2.6280654E-4,-7.7242637E-1,-7.8029805E-1,-8.3210476E-4,9.1598966E-5,6.303151E-4,1.0593678E-4,-9.1545206E-1,-1.1268149E-3,4.5371434E-4,-6.195275E-1,-1.0448494E0,-2.5078602E-4,-7.645713E-1,-1.8081163E-1,-3.529098E-5,3.0099667E-4,1.5700058E-4,-6.6585356E-4,1.94608E-4,-7.109221E-6],"split_indices":[9,3,2,1,4,6,0,3,9,0,0,0,0,0,0,0,2,3,0,2,2,0,0,0,0,0,0],"split_type":[0,0,0,0,0,0,0,0,0,0,0,0,0,0,0,0,0,0,0,0,0,0,0,0,0,0,0],"sum_hessian":[4.37E2,4.04E2,3.3E1,3.83E2,2.1E1,2.3E1,1E1,1.03E2,2.8E2,1.1E1,1E1,1.2E1,1.1E1,9.4E1,9E0,1.4E1,2.66E2,8E1,1.4E1,4E1,2.26E2,6.1E1,1.9E1,2.4E1,1.6E1,5.8E1,1.68E2],"tree_param":{"num_deleted":"0","num_feature":"10","num_nodes":"27","size_leaf_vector":"1"}},{"base_weights":[-1.7360046E-4,-3.8618603E-4,-7.801895E-5,4.1545203E-4,-2.4587137E-4,8.034686E-5,-1.3764624E-3,-2.4216207E-4,4.395669E-3,-4.0393886E-3,7.201925E-4,1.7841163E-4,-2.5814844E-3,8.0786867E-4,6.513625E-5,-1.4341834E-3,-1.0005177E-3,3.2137078E-4,-1.9261251E-4,-1.1556655E-5,7.080643E-4,-5.142806E-4,-1.1725411E-4,-4.9150654E-4,3.625403E-5,1.8382381E-4,-1.6112906E-4],"categories":[],"categories_nodes":[],"categories_segments":[],"categories_sizes":[],"default_left":[0,0,0,0,0,0,0,0,0,0,0,0,0,0,0,0,0,0,0,0,0,0,0,0,0,0,0],"id":48,"left_children":[1,-1,3,-1,5,7,9,11,13,15,17,19,21,-1,-1,23,-1,-1,25,-1,-1,-1,-1,-1,-1,-1,-1],"loss_changes":[1.7778619E-4,0E0,3.503532E-4,0E0,1.5649003E-4,4.603353E-4,5.333167E-4,3.0348866E-4,3.8840438E-4,7.7294314E-4,1.4332897E-4,6.299111E-4,1.8242083E-4,0E0,0E0,2.434857E-4,0E0,0E0,1.574318E-4,0E0,0E0,0E0,0E0,0E0,0E0,0E0,0E0],"parents":[2147483647,0,0,2,2,4,4,5,5,6,6,7,7,8,8,9,9,10,10,11,11,12,12,15,15,18,18],"right_children":[2,-1,4,-1,6,8,10,12,14,16,18,20,22,-1,-1,24,-1,-1,26,-1,-1,-1,-1,-1,-1,-1,-1],"split_conditions":[-2.1756186E0,-3.8618603E-4,-1.5629617E0,4.1545203E-4,9.506921E-1,8.137181E-1,1.3509892E0,2.2858001E-1,1.0128859E0,1.4189467E0,-6.794255E-1,1.4838877E-1,4.036067E-1,8.0786867E-4,6.513625E-5,7.801215E-1,-1.0005177E-3,3.2137078E-4,1.4152441E0,-1.1556655E-5,7.080643E-4,-5.142806E-4,-1.1725411E-4,-4.9150654E-4,3.625403E-5,1.8382381E-4,-1.6112906E-4],"split_indices":[7,0,7,0,4,0,4,0,1,3,7,1,1,0,0,2,0,0,0,0,0,0,0,0,0,0,0],"split_type":[0,0,0,0,0,0,0,0,0,0,0,0,0,0,0,0,0,0,0,0,0,0,0,0,0,0,0],"sum_hessian":[4.46E2,9E0,4.37E2,1.4E1,4.23E2,3.29E2,9.4E1,3.07E2,2.2E1,4.1E1,5.3E1,2.61E2,4.6E1,9E0,1.3E1,3.1E1,1E1,1.2E1,4.1E1,2.52E2,9E0,1.2E1,3.4E1,9E0,2.2E1,1.7E1,2.4E1],"tree_param":{"num_deleted":"0","num_feature":"10","num_nodes":"27","size_leaf_vector":"1"}},{"base_weights":[1.3878888E-4,-1.4630496E-4,2.7827842E-3,-3.0836437E-4,3.760005E-4,6.1964255E-4,1.2571682E-3,-4.4678166E-4,-1.6618006E-4,-1.9205968E-4,3.1498196E-3,1.8374769E-4,-2.0336183E-3,3.9878342E-4,1.35963E-4,-5.8634854E-5,4.4059198E-4,1.329085E-4,-3.4132763E-3,-5.1255E-4,1.4316899E-5,-4.329547E-4,1.847857E-5],"categories":[],"categories_nodes":[],"categories_segments":[],"categories_sizes":[],"default_left":[0,0,0,0,0,0,0,0,0,0,0,0,0,0,0,0,0,0,0,0,0,0,0],"id":49,"left_children":[1,3,5,7,-1,-1,9,-1,11,-1,13,15,17,-1,-1,19,-1,-1,21,-1,-1,-1,-1],"loss_changes":[3.2528923E-4,2.7778474E-4,2.5940893E-4,2.5194586E-4,0E0,0E0,2.1374703E-4,0E0,2.4019662E-4,0E0,3.857033E-5,3.5875913E-4,2.8742786E-4,0E0,0E0,3.7181666E-4,0E0,0E0,2.2234913E-4,0E0,0E0,0E0,0E0],"parents":[2147483647,0,0,1,1,2,2,3,3,6,6,8,8,10,10,11,11,12,12,15,15,18,18],"right_children":[2,4,6,8,-1,-1,10,-1,12,-1,14,16,18,-1,-1,20,-1,-1,22,-1,-1,-1,-1],"split_conditions":[1.2378402E0,1.9333577E0,1.3389218E0,-2.104648E0,3.760005E-4,6.1964255E-4,1.4698918E0,-4.4678166E-4,7.707827E-1,-1.9205968E-4,-5.6534874E-1,6.9301933E-1,-7.305559E-1,3.9878342E-4,1.35963E-4,-8.2405835E-1,4.4059198E-4,1.329085E-4,3.6460632E-1,-5.1255E-4,1.4316899E-5,-4.329547E-4,1.847857E-5],"split_indices":[7,8,7,7,0,0,7,0,7,0,6,7,4,0,0,6,0,0,6,0,0,0,0],"split_type":[0,0,0,0,0,0,0,0,0,0,0,0,0,0,0,0,0,0,0,0,0,0,0],"sum_hessian":[4.3E2,3.89E2,4.1E1,3.76E2,1.3E1,1E1,3.1E1,1E1,3.66E2,1.1E1,2E1,3.09E2,5.7E1,1E1,1E1,2.95E2,1.4E1,1.6E1,4.1E1,1E1,2.85E2,2.9E1,1.2E1],"tree_param":{"num_deleted":"0","num_feature":"10","num_nodes":"23","size_leaf_vector":"1"}},{"base_weights":[-1.2349398E-4,3.2985306E-4,-1.0945294E-3,1.3060635E-4,4.905687E-4,-2.2214267E-3,5.6559336E-4,3.1792978E-4,-4.1043918E-4,-1.1855448E-3,-7.9091743E-4,2.656199E-3,-1.6945411E-3,1.2580245E-5,3.4075638E-3,-5.0221675E-4,-3.8765653E-4,1.0063777E-3,4.4882254E-4,-1.8329306E-6,-3.4901602E-4,3.6982578E-4,-2.3098858E-3,7.487151E-4,5.5309197E-6,4.5677763E-4,-1.5304865E-3,8.616143E-6,1.6142351E-4,1.2912663E-5,3.7970924E-4,-4.449347E-4,-7.15129E-5,1.8944392E-4,-1.10341716E-4,-2.910795E-4,8.1876075E-5],"categories":[],"categories_nodes":[],"categories_segments":[],"categories_sizes":[],"default_left":[0,0,0,0,0,0,0,0,0,0,0,0,0,0,0,0,0,0,0,0,0,0,0,0,0,0,0,0,0,0,0,0,0,0,0,0,0],"id":50,"left_children":[1,3,5,7,-1,9,11,13,-1,15,-1,17,19,21,23,-1,25,27,-1,-1,-1,29,31,-1,-1,33,35,-1,-1,-1,-1,-1,-1,-1,-1,-1,-1],"loss_changes":[1.9229522E-4,3.0723982E-4,2.6129594E-4,2.5751258E-4,0E0,5.631489E-4,2.7382892E-4,2.622274E-4,0E0,2.5770054E-4,0E0,1.1325584E-4,1.044481E-4,2.1159569E-4,4.1863692E-4,0E0,6.14969E-5,1.3801278E-5,0E0,0E0,0E0,1.9298367E-4,1.3386628E-4,0E0,0E0,1.0775961E-4,1.1835205E-4,0E0,0E0,0E0,0E0,0E0,0E0,0E0,0E0,0E0,0E0],"parents":[2147483647,0,0,1,1,2,2,3,3,5,5,6,6,7,7,9,9,11,11,12,12,13,13,14,14,16,16,17,17,21,21,22,22,25,25,26,26],"right_children":[2,4,6,8,-1,10,12,14,-1,16,-1,18,20,22,24,-1,26,28,-1,-1,-1,30,32,-1,-1,34,36,-1,-1,-1,-1,-1,-1,-1,-1,-1,-1],"split_conditions":[5.34839E-1,4.59341E-1,1.3509892E0,1.6236362E0,4.905687E-4,1.4189467E0,1.655817E0,1.2378402E0,-4.1043918E-4,4.036067E-1,-7.9091743E-4,1.5588207E0,-1.6392142E-1,1.4462802E-1,1.3389218E0,-5.0221675E-4,3.949993E-1,6.8427896E-1,4.4882254E-4,-1.8329306E-6,-3.4901602E-4,1.7026658E-1,1.4838877E-1,7.487151E-4,5.5309197E-6,9.0400326E-1,1.2656361E-1,8.616143E-6,1.6142351E-4,1.2912663E-5,3.7970924E-4,-4.449347E-4,-7.15129E-5,1.8944392E-4,-1.10341716E-4,-2.910795E-4,8.1876075E-5],"split_indices":[8,8,4,7,0,3,4,7,0,1,0,4,7,2,7,0,7,7,0,0,0,1,1,0,0,4,6,0,0,0,0,0,0,0,0,0,0],"split_type":[0,0,0,0,0,0,0,0,0,0,0,0,0,0,0,0,0,0,0,0,0,0,0,0,0,0,0,0,0,0,0,0,0,0,0,0,0],