{"learner":{"attributes":{"scikit_learn":"{\"_estimator_type\": \"regressor\"}"},"feature_names":["fixed_asset","TRIX_window_20","price_to_book","post_tax_profit","from_sale","invest_cost","asset_turnover_ratio","CCI_window_20","Mass Index_window_fast_9","price_to_earning"],"feature_types":["float","float","float","float","float","float","float","float","float","float"],"gradient_booster":{"model":{"gbtree_model_param":{"num_parallel_tree":"1","num_trees":"100"},"iteration_indptr":[0,1,2,3,4,5,6,7,8,9,10,11,12,13,14,15,16,17,18,19,20,21,22,23,24,25,26,27,28,29,30,31,32,33,34,35,36,37,38,39,40,41,42,43,44,45,46,47,48,49,50,51,52,53,54,55,56,57,58,59,60,61,62,63,64,65,66,67,68,69,70,71,72,73,74,75,76,77,78,79,80,81,82,83,84,85,86,87,88,89,90,91,92,93,94,95,96,97,98,99,100],"tree_info":[0,0,0,0,0,0,0,0,0,0,0,0,0,0,0,0,0,0,0,0,0,0,0,0,0,0,0,0,0,0,0,0,0,0,0,0,0,0,0,0,0,0,0,0,0,0,0,0,0,0,0,0,0,0,0,0,0,0,0,0,0,0,0,0,0,0,0,0,0,0,0,0,0,0,0,0,0,0,0,0,0,0,0,0,0,0,0,0,0,0,0,0,0,0,0,0,0,0,0,0],"trees":[{"base_weights":[1.9040739E-4,-8.205636E-4,5.102614E-4,1.7384469E-3,-9.1943395E-4,1.603342E-3,7.330965E-4,-5.1405407E-3,3.3736916E-4,1.2236595E-3,-4.936819E-4,4.0628182E-4,-1.3054395E-3,8.5015676E-4,-4.959821E-4,2.8626446E-3,-8.875947E-4,1.0709566E-4,-3.0680018E-5,-3.5543286E-4,2.6019765E-3,-5.1388727E-4,3.841096E-4,-2.8487167E-4,3.2031004E-4,-1.2057626E-4,2.1462803E-4,4.9775164E-4,-1.9261313E-5],"categories":[],"categories_nodes":[],"categories_segments":[],"categories_sizes":[],"default_left":[0,0,0,0,0,0,0,0,0,0,0,0,0,0,0,0,0,0,0,0,0,0,0,0,0,0,0,0,0],"id":0,"left_children":[1,-1,3,5,7,-1,9,11,13,15,-1,17,-1,19,-1,21,23,-1,-1,25,27,-1,-1,-1,-1,-1,-1,-1,-1],"loss_changes":[9.863053E-4,0E0,6.109064E-4,2.73288E-3,8.558553E-4,0E0,5.0380745E-4,1.6805993E-3,3.4989213E-4,5.665721E-4,0E0,1.1668953E-5,0E0,2.4380203E-4,0E0,8.040816E-4,6.119111E-4,0E0,0E0,1.5589551E-4,3.25887E-4,0E0,0E0,0E0,0E0,0E0,0E0,0E0,0E0],"parents":[2147483647,0,0,2,2,3,3,4,4,6,6,7,7,8,8,9,9,11,11,13,13,15,15,16,16,19,19,20,20],"right_children":[2,-1,4,6,8,-1,10,12,14,16,-1,18,-1,20,-1,22,24,-1,-1,26,28,-1,-1,-1,-1,-1,-1,-1,-1],"split_conditions":[-1.4955349E0,-8.205636E-4,2.3234203E-2,-1.2112206E0,-1.3262906E0,1.603342E-3,1.5343751E0,-1.6314023E0,1.4946173E0,3.1907883E-1,-4.936819E-4,6.5159045E-2,-1.3054395E-3,2.6827267E-1,-4.959821E-4,-8.401956E-1,5.5875075E-1,1.0709566E-4,-3.0680018E-5,1.792485E0,5.308913E-1,-5.1388727E-4,3.841096E-4,-2.8487167E-4,3.2031004E-4,-1.2057626E-4,2.1462803E-4,4.9775164E-4,-1.9261313E-5],"split_indices":[9,0,9,5,5,0,5,5,5,8,0,8,0,5,0,5,8,0,0,9,5,0,0,0,0,0,0,0,0],"split_type":[0,0,0,0,0,0,0,0,0,0,0,0,0,0,0,0,0,0,0,0,0,0,0,0,0,0,0,0,0],"sum_hessian":[3.58E2,1.2E1,3.46E2,1.86E2,1.6E2,1.1E1,1.75E2,3.6E1,1.24E2,1.62E2,1.3E1,2.2E1,1.4E1,1.14E2,1E1,9.1E1,7.1E1,1.1E1,1.1E1,6.8E1,4.6E1,1E1,8.1E1,4.8E1,2.3E1,5.1E1,1.7E1,2.4E1,2.2E1],"tree_param":{"num_deleted":"0","num_feature":"10","num_nodes":"29","size_leaf_vector":"1"}},{"base_weights":[3.225399E-4,-1.5108968E-2,1.2725977E-3,-2.42732E-3,-4.931762E-4,5.8168652E-3,6.3176855E-4,1.4574694E-3,6.3126447E-4,-4.2739892E-3,1.0160174E-3,1.7364649E-4,-1.3662026E-4,-1.0292621E-3,2.2538753E-4,2.9173468E-3,-2.5370737E-4,-2.0563605E-4,3.7322114E-3,-6.645093E-3,6.082978E-4,8.413499E-4,2.3101609E-4,-5.2607655E-5,-1.1922966E-3,3.3522412E-4,-6.218922E-5],"categories":[],"categories_nodes":[],"categories_segments":[],"categories_sizes":[],"default_left":[0,0,0,0,0,0,0,0,0,0,0,0,0,0,0,0,0,0,0,0,0,0,0,0,0,0,0],"id":1,"left_children":[1,3,5,-1,-1,7,9,-1,11,13,15,-1,-1,-1,-1,17,19,-1,21,23,25,-1,-1,-1,-1,-1,-1],"loss_changes":[5.5610193E-3,2.0111422E-3,1.0359446E-3,0E0,0E0,2.0521872E-3,5.962424E-4,0E0,6.925803E-5,9.632922E-4,7.056764E-4,0E0,0E0,0E0,0E0,4.8574293E-4,9.736979E-4,0E0,6.5367564E-4,6.9970463E-4,5.4619054E-4,0E0,0E0,0E0,0E0,0E0,0E0],"parents":[2147483647,0,0,1,1,2,2,5,5,6,6,8,8,9,9,10,10,15,15,16,16,18,18,19,19,20,20],"right_children":[2,4,6,-1,-1,8,10,-1,12,14,16,-1,-1,-1,-1,18,20,-1,22,24,26,-1,-1,-1,-1,-1,-1],"split_conditions":[-1.4789944E0,1.2733273E-1,-1.2580657E0,-2.42732E-3,-4.931762E-4,2.3044935E-1,-9.086333E-1,1.4574694E-3,-1.7219541E0,-2.9285258E-1,1.0664201E-1,1.7364649E-4,-1.3662026E-4,-1.0292621E-3,2.2538753E-4,-8.362286E-1,1.5780945E-1,-2.0563605E-4,-1.07915506E-1,1.2819292E-1,2.8524935E-1,8.413499E-4,2.3101609E-4,-5.2607655E-5,-1.1922966E-3,3.3522412E-4,-6.218922E-5],"split_indices":[9,5,5,0,0,9,5,0,5,9,8,0,0,0,0,9,8,0,5,8,8,0,0,0,0,0,0],"split_type":[0,0,0,0,0,0,0,0,0,0,0,0,0,0,0,0,0,0,0,0,0,0,0,0,0,0,0],"sum_hessian":[3.77E2,2.1E1,3.56E2,1E1,1.1E1,4.3E1,3.13E2,1.5E1,2.8E1,2.2E1,2.91E2,1.8E1,1E1,1.1E1,1.1E1,1.16E2,1.75E2,1.6E1,1E2,2E1,1.55E2,2.1E1,7.9E1,1E1,1E1,4.7E1,1.08E2],"tree_param":{"num_deleted":"0","num_feature":"10","num_nodes":"27","size_leaf_vector":"1"}},{"base_weights":[-3.7662205E-4,-2.0475006E-3,5.2252493E-4,-5.809361E-4,8.9341373E-4,1.2995203E-3,-4.1548014E-3,8.1469154E-4,9.23961E-4,-1.0877506E-4,-7.4741745E-4,1.3904526E-3,-6.280061E-3,-2.3537867E-5,2.658167E-4,-1.2734912E-3,9.230403E-5],"categories":[],"categories_nodes":[],"categories_segments":[],"categories_sizes":[],"default_left":[0,0,0,0,0,0,0,0,0,0,0,0,0,0,0,0,0],"id":2,"left_children":[1,-1,3,-1,5,7,9,11,-1,-1,-1,13,15,-1,-1,-1,-1],"loss_changes":[7.011243E-3,0E0,8.7743916E-4,0E0,7.147383E-4,1.2554259E-3,2.6573992E-4,1.2505362E-3,0E0,0E0,0E0,6.067492E-4,1.1244712E-3,0E0,0E0,0E0,0E0],"parents":[2147483647,0,0,2,2,4,4,5,5,6,6,7,7,11,11,12,12],"right_children":[2,-1,4,-1,6,8,10,12,-1,-1,-1,14,16,-1,-1,-1,-1],"split_conditions":[-1.5141387E0,-2.0475006E-3,-1.2291546E0,-5.809361E-4,1.7565931E0,1.5297339E0,-3.172272E-1,1.1560156E0,9.23961E-4,-1.0877506E-4,-7.4741745E-4,-3.5321522E-1,6.96738E-1,-2.3537867E-5,2.658167E-4,-1.2734912E-3,9.230403E-5],"split_indices":[2,0,2,0,2,0,4,0,0,0,0,0,4,0,0,0,0],"split_type":[0,0,0,0,0,0,0,0,0,0,0,0,0,0,0,0,0],"sum_hessian":[3.79E2,1.5E1,3.64E2,1.9E1,3.45E2,3.2E2,2.5E1,3.03E2,1.7E1,1.4E1,1.1E1,2.81E2,2.2E1,1.26E2,1.55E2,1.1E1,1.1E1],"tree_param":{"num_deleted":"0","num_feature":"10","num_nodes":"17","size_leaf_vector":"1"}},{"base_weights":[1.2529068E-4,-1.5687295E-3,7.429147E-4,1.2394214E-3,-9.316382E-4,7.8339287E-4,7.3821666E-3,3.4925463E-3,-9.7237375E-5,1.443302E-3,5.117127E-6,9.0742274E-4,1.211575E-3,1.468636E-3,-2.5338316E-3,2.2389235E-4,-5.687593E-4,2.472195E-4,-2.9813682E-4,-1.1441553E-3,-1.2080292E-4],"categories":[],"categories_nodes":[],"categories_segments":[],"categories_sizes":[],"default_left":[0,0,0,0,0,0,0,0,0,0,0,0,0,0,0,0,0,0,0,0,0],"id":3,"left_children":[1,-1,3,5,-1,7,9,11,13,-1,-1,15,-1,17,19,-1,-1,-1,-1,-1,-1],"loss_changes":[3.773248E-3,0E0,1.8669108E-3,9.718591E-4,0E0,7.780981E-4,1.2879696E-3,1.819871E-3,9.4612455E-4,0E0,0E0,5.935319E-4,0E0,7.226331E-4,1.1388612E-3,0E0,0E0,0E0,0E0,0E0,0E0],"parents":[2147483647,0,0,2,2,3,3,5,5,6,6,7,7,8,8,11,11,13,13,14,14],"right_children":[2,-1,4,6,-1,8,10,12,14,-1,-1,16,-1,18,20,-1,-1,-1,-1,-1,-1],"split_conditions":[-1.4955349E0,-1.5687295E-3,1.5052305E0,1.2378402E0,-9.316382E-4,-7.1663326E-1,1.3673433E0,7.794709E-1,2.1147224E-1,1.443302E-3,5.117127E-6,5.36267E-1,1.211575E-3,7.5475496E-1,3.5605466E-1,2.2389235E-4,-5.687593E-4,2.472195E-4,-2.9813682E-4,-1.1441553E-3,-1.2080292E-4],"split_indices":[9,0,7,7,0,7,7,0,9,0,0,0,0,7,9,0,0,0,0,0,0],"split_type":[0,0,0,0,0,0,0,0,0,0,0,0,0,0,0,0,0,0,0,0,0],"sum_hessian":[3.77E2,1.3E1,3.64E2,3.48E2,1.6E1,3.25E2,2.3E1,7.9E1,2.46E2,1.1E1,1.2E1,6.2E1,1.7E1,1.5E2,9.6E1,5.2E1,1E1,1.22E2,2.8E1,1.1E1,8.5E1],"tree_param":{"num_deleted":"0","num_feature":"10","num_nodes":"21","size_leaf_vector":"1"}},{"base_weights":[-1.7090453E-4,1.1730903E-3,-7.939968E-4,-2.1786387E-3,3.9704007E-4,-8.434381E-3,-6.9298205E-4,2.3732272E-3,-1.5421124E-3,-1.3634843E-4,-1.5560066E-3,-1.2339464E-3,3.244355E-4,4.1974057E-3,-1.4693739E-3,-9.0411864E-4,-1.2003261E-4,-3.147125E-5,-8.6577504E-4,1.665878E-3,8.0799535E-3,-4.387193E-4,1.5934769E-4,-2.9296873E-3,1.3910788E-3,-5.9186576E-5,4.6637782E-4,3.885249E-4,-1.0571295E-4,1.3791679E-3,3.101062E-4,2.3422211E-4,-1.1625056E-3,2.646137E-4,-2.8787015E-4],"categories":[],"categories_nodes":[],"categories_segments":[],"categories_sizes":[],"default_left":[0,0,0,0,0,0,0,0,0,0,0,0,0,0,0,0,0,0,0,0,0,0,0,0,0,0,0,0,0,0,0,0,0,0,0],"id":4,"left_children":[1,-1,3,5,7,9,11,13,15,-1,-1,17,-1,19,21,-1,23,25,-1,27,29,-1,-1,31,33,-1,-1,-1,-1,-1,-1,-1,-1,-1,-1],"loss_changes":[2.7822151E-3,0E0,5.780708E-4,1.4997645E-3,7.2793197E-4,1.5988739E-3,2.8964545E-4,6.6506903E-4,1.0461678E-3,0E0,0E0,1.0673676E-3,0E0,6.155815E-4,2.950566E-4,0E0,3.5222294E-4,2.8182345E-4,0E0,2.5590404E-4,6.9040665E-4,0E0,0E0,1.403044E-3,3.1276813E-4,0E0,0E0,0E0,0E0,0E0,0E0,0E0,0E0,0E0,0E0],"parents":[2147483647,0,0,2,2,3,3,4,4,5,5,6,6,7,7,8,8,11,11,13,13,14,14,16,16,17,17,19,19,20,20,23,23,24,24],"right_children":[2,-1,4,6,8,10,12,14,16,-1,-1,18,-1,20,22,-1,24,26,-1,28,30,-1,-1,32,34,-1,-1,-1,-1,-1,-1,-1,-1,-1,-1],"split_conditions":[-2.214264E0,1.1730903E-3,-3.4528822E-1,-4.1560888E-1,5.6734157E-1,-9.2230374E-1,-2.4679616E-1,2.1667E-1,4.2369738E-1,-1.3634843E-4,-1.5560066E-3,-4.5368484E-1,3.244355E-4,1.6785523E-1,-3.8050424E-2,-9.0411864E-4,1.0676593E0,-5.761559E-1,-8.6577504E-4,1.1255798E-2,4.2369738E-1,-4.387193E-4,1.5934769E-4,9.80148E-1,1.8783785E0,-5.9186576E-5,4.6637782E-4,3.885249E-4,-1.0571295E-4,1.3791679E-3,3.101062E-4,2.3422211E-4,-1.1625056E-3,2.646137E-4,-2.8787015E-4],"split_indices":[1,0,6,1,6,6,3,1,3,0,0,3,0,3,6,0,6,3,0,6,3,0,0,6,6,0,0,0,0,0,0,0,0,0,0],"split_type":[0,0,0,0,0,0,0,0,0,0,0,0,0,0,0,0,0,0,0,0,0,0,0,0,0,0,0,0,0,0,0,0,0,0,0],"sum_hessian":[3.66E2,1.7E1,3.49E2,1.61E2,1.88E2,3E1,1.31E2,9.3E1,9.5E1,1.6E1,1.4E1,1.16E2,1.5E1,6.3E1,3E1,1.4E1,8.1E1,1.01E2,1.5E1,3.9E1,2.4E1,1.5E1,1.5E1,2.8E1,5.3E1,9.1E1,1E1,2.1E1,1.8E1,1E1,1.4E1,1.8E1,1E1,4.1E1,1.2E1],"tree_param":{"num_deleted":"0","num_feature":"10","num_nodes":"35","size_leaf_vector":"1"}},{"base_weights":[-8.841864E-4,-1.1987176E-3,-3.43641E-4,-9.092783E-6,-1.0692688E-3,3.0624898E-4,-5.6988595E-4,-4.1801544E-4,5.516957E-4,1.8829873E-3,-3.2245685E-4,9.018288E-5,4.5688584E-4,-1.4048885E-4,1.2784467E-4],"categories":[],"categories_nodes":[],"categories_segments":[],"categories_sizes":[],"default_left":[0,0,0,0,0,0,0,0,0,0,0,0,0,0,0],"id":5,"left_children":[1,-1,3,5,-1,7,-1,-1,9,11,13,-1,-1,-1,-1],"loss_changes":[2.2865708E-3,0E0,1.2637734E-3,6.380755E-4,0E0,3.733049E-4,0E0,0E0,3.6718906E-4,3.2984713E-4,3.4617988E-4,0E0,0E0,0E0,0E0],"parents":[2147483647,0,0,2,2,3,3,5,5,8,8,9,9,10,10],"right_children":[2,-1,4,6,-1,8,-1,-1,10,12,14,-1,-1,-1,-1],"split_conditions":[-1.5141387E0,-1.1987176E-3,1.6364955E0,1.9903902E0,-1.0692688E-3,-1.2291546E0,-5.6988595E-4,-4.1801544E-4,-3.637082E-1,-5.680462E-1,6.100809E-1,9.018288E-5,4.5688584E-4,-1.4048885E-4,1.2784467E-4],"split_indices":[2,0,7,9,0,2,0,0,2,2,2,0,0,0,0],"split_type":[0,0,0,0,0,0,0,0,0,0,0,0,0,0,0],"sum_hessian":[3.73E2,1.6E1,3.57E2,3.47E2,1E1,3.3E2,1.7E1,1.6E1,3.14E2,1.24E2,1.9E2,9.3E1,3.1E1,1.13E2,7.7E1],"tree_param":{"num_deleted":"0","num_feature":"10","num_nodes":"15","size_leaf_vector":"1"}},{"base_weights":[3.3895206E-4,9.887249E-4,-6.995123E-5,-8.384802E-3,5.794664E-4,-3.610564E-4,-1.3314409E-3,2.4769048E-3,-2.1090824E-4,3.989841E-3,-7.682092E-4,1.0227284E-4,-6.5023697E-4,2.5463244E-3,7.0305765E-3,1.1150482E-4,-3.2363768E-4,-2.7275432E-3,6.175921E-4,6.45091E-5,3.8479306E-4,9.233962E-4,3.9372535E-4,-1.0214249E-4,-6.194964E-4,7.12209E-4,9.3032095E-6],"categories":[],"categories_nodes":[],"categories_segments":[],"categories_sizes":[],"default_left":[0,0,0,0,0,0,0,0,0,0,0,0,0,0,0,0,0,0,0,0,0,0,0,0,0,0,0],"id":6,"left_children":[1,-1,3,5,7,-1,-1,9,11,13,15,17,-1,19,21,-1,-1,23,25,-1,-1,-1,-1,-1,-1,-1,-1],"loss_changes":[1.4817528E-3,0E0,1.937991E-3,5.8419723E-4,4.999182E-4,0E0,0E0,4.842109E-4,4.7483534E-4,2.761844E-4,1.5792223E-4,3.3125092E-4,0E0,1.1948461E-4,1.13053015E-4,0E0,0E0,2.0508631E-4,6.6581566E-4,0E0,0E0,0E0,0E0,0E0,0E0,0E0,0E0],"parents":[2147483647,0,0,2,2,3,3,4,4,7,7,8,8,9,9,10,10,11,11,13,13,14,14,17,17,18,18],"right_children":[2,-1,4,6,8,-1,-1,10,12,14,16,18,-1,20,22,-1,-1,24,26,-1,-1,-1,-1,-1,-1,-1,-1],"split_conditions":[-2.769798E0,9.887249E-4,-1.5347168E0,-2.0180292E0,-1.1501642E-1,-3.610564E-4,-1.3314409E-3,4.5292085E-1,8.244127E-1,-5.234176E-2,8.318543E-1,-1.143747E0,-6.5023697E-4,3.5416257E-1,1.6416083E-1,1.1150482E-4,-3.2363768E-4,1.0264705E0,-9.9577457E-1,6.45091E-5,3.8479306E-4,9.233962E-4,3.9372535E-4,-1.0214249E-4,-6.194964E-4,7.12209E-4,9.3032095E-6],"split_indices":[1,0,4,4,1,0,0,6,4,6,4,6,0,4,6,0,0,1,6,0,0,0,0,0,0,0,0],"split_type":[0,0,0,0,0,0,0,0,0,0,0,0,0,0,0,0,0,0,0,0,0,0,0,0,0,0,0],"sum_hessian":[3.71E2,1.4E1,3.57E2,2.5E1,3.32E2,1.4E1,1.1E1,9.7E1,2.35E2,6.6E1,3.1E1,2.25E2,1E1,4.6E1,2E1,1.8E1,1.3E1,3.4E1,1.91E2,2E1,2.6E1,1E1,1E1,2.4E1,1E1,1.3E1,1.78E2],"tree_param":{"num_deleted":"0","num_feature":"10","num_nodes":"27","size_leaf_vector":"1"}},{"base_weights":[3.374672E-4,-7.757403E-5,4.587818E-3,-4.5923153E-3,3.0005936E-4,8.807199E-4,-3.210847E-5,-7.518201E-4,-2.2926735E-4,7.955157E-4,-4.9483385E-3,-1.4598842E-4,3.4751962E-3,-1.1938156E-3,-2.5804657E-5,5.82776E-4,-8.200573E-4,1.0670052E-3,1.0338791E-3,6.7758677E-4,4.8300706E-7,1.860481E-4,-2.4536668E-4],"categories":[],"categories_nodes":[],"categories_segments":[],"categories_sizes":[],"default_left":[0,0,0,0,0,0,0,0,0,0,0,0,0,0,0,0,0,0,0,0,0,0,0],"id":7,"left_children":[1,3,5,7,9,-1,-1,-1,-1,11,13,15,17,-1,-1,19,-1,-1,21,-1,-1,-1,-1],"loss_changes":[6.742309E-4,5.9639395E-4,7.3606416E-4,1.6904087E-4,8.438502E-4,0E0,0E0,0E0,0E0,7.4729463E-4,9.436211E-4,1.3212818E-3,1.37945E-3,0E0,0E0,7.4157724E-4,0E0,0E0,1.8449196E-4,0E0,0E0,0E0,0E0],"parents":[2147483647,0,0,1,1,2,2,3,3,4,4,9,9,10,10,11,11,12,12,15,15,18,18],"right_children":[2,4,6,8,10,-1,-1,-1,-1,12,14,16,18,-1,-1,20,-1,-1,22,-1,-1,-1,-1],"split_conditions":[1.5328969E0,-1.6274701E0,7.4371076E-1,-2.73931E-1,1.1844958E0,8.807199E-4,-3.210847E-5,-7.518201E-4,-2.2926735E-4,3.378244E-1,5.446287E-1,1.4143354E-1,2.7644783E-1,-1.1938156E-3,-2.5804657E-5,-9.570922E-1,-8.200573E-4,1.0670052E-3,1.286342E0,6.7758677E-4,4.8300706E-7,1.860481E-4,-2.4536668E-4],"split_indices":[3,4,4,3,3,0,0,0,0,3,4,3,6,0,0,4,0,0,6,0,0,0,0],"split_type":[0,0,0,0,0,0,0,0,0,0,0,0,0,0,0,0,0,0,0,0,0,0,0],"sum_hessian":[3.81E2,3.48E2,3.3E1,2.6E1,3.22E2,1.7E1,1.6E1,1E1,1.6E1,2.95E2,2.7E1,2.19E2,7.6E1,1E1,1.7E1,2.02E2,1.7E1,1.8E1,5.8E1,1.6E1,1.86E2,4.7E1,1.1E1],"tree_param":{"num_deleted":"0","num_feature":"10","num_nodes":"23","size_leaf_vector":"1"}},{"base_weights":[1.4935082E-4,1.2342015E-3,-4.2515935E-4,-7.9347445E-3,3.3827664E-4,-1.8932087E-3,-2.3984576E-3,1.7076905E-3,-1.2823181E-3,-3.4896748E-5,-4.0230606E-4,5.17292E-4,3.7920685E-3,-4.405201E-3,-4.594355E-4,3.501141E-3,-1.2638789E-3,9.2697033E-4,2.0881419E-3,-2.4575924E-3,-7.752332E-4,-2.9499454E-3,9.65025E-4,5.661929E-4,4.811744E-5,-1.0316777E-3,6.828815E-5,-1.8434458E-4,3.0198184E-4,-4.3386116E-4,-4.4433677E-5,-2.6279275E-5,-8.704124E-4,5.350826E-4,2.3120827E-5],"categories":[],"categories_nodes":[],"categories_segments":[],"categories_sizes":[],"default_left":[0,0,0,0,0,0,0,0,0,0,0,0,0,0,0,0,0,0,0,0,0,0,0,0,0,0,0,0,0,0,0,0,0,0,0],"id":8,"left_children":[1,-1,3,5,7,-1,9,11,13,-1,-1,15,17,19,21,23,25,-1,27,29,-1,31,33,-1,-1,-1,-1,-1,-1,-1,-1,-1,-1,-1,-1],"loss_changes":[2.7470393E-3,0E0,2.1124603E-3,2.0916555E-3,7.456436E-4,0E0,8.194934E-5,4.4962415E-4,3.937201E-4,0E0,0E0,6.2625017E-4,6.1613484E-4,1.9838975E-4,4.392056E-4,2.9770425E-4,1.3486785E-3,0E0,2.0981632E-4,8.460501E-5,0E0,7.1213895E-4,2.5731252E-4,0E0,0E0,0E0,0E0,0E0,0E0,0E0,0E0,0E0,0E0,0E0,0E0],"parents":[2147483647,0,0,2,2,3,3,4,4,6,6,7,7,8,8,11,11,12,12,13,13,14,14,15,15,16,16,18,18,19,19,21,21,22,22],"right_children":[2,-1,4,6,8,-1,10,12,14,-1,-1,16,18,20,22,24,26,-1,28,30,-1,32,34,-1,-1,-1,-1,-1,-1,-1,-1,-1,-1,-1,-1],"split_conditions":[-2.769798E0,1.2342015E-3,-1.439365E0,-4.3629888E-1,2.6504153E-1,-1.8932087E-3,-1.6789582E-1,2.8137708E-1,3.456438E-1,-3.4896748E-5,-4.0230606E-4,3.3545235E-1,5.124746E-1,4.2010275E-1,-3.0967924E-1,2.0125751E-1,3.9344594E-1,9.2697033E-4,-1.2579329E0,3.3929855E-1,-7.752332E-4,1.4143354E-1,-8.334499E-1,5.661929E-4,4.811744E-5,-1.0316777E-3,6.828815E-5,-1.8434458E-4,3.0198184E-4,-4.3386116E-4,-4.4433677E-5,-2.6279275E-5,-8.704124E-4,5.350826E-4,2.3120827E-5],"split_indices":[1,0,4,1,1,0,1,3,1,0,0,4,3,4,4,1,4,0,4,4,0,3,3,0,0,0,0,0,0,0,0,0,0,0,0],"split_type":[0,0,0,0,0,0,0,0,0,0,0,0,0,0,0,0,0,0,0,0,0,0,0,0,0,0,0,0,0,0,0,0,0,0,0],"sum_hessian":[3.83E2,1.6E1,3.67E2,3.3E1,3.34E2,1E1,2.3E1,1.81E2,1.53E2,1.1E1,1.2E1,1.16E2,6.5E1,3.1E1,1.22E2,4.3E1,7.3E1,1.4E1,5.1E1,2.1E1,1E1,4.4E1,7.8E1,2.4E1,1.9E1,1.2E1,6.1E1,1E1,4.1E1,1E1,1.1E1,3.1E1,1.3E1,1E1,6.8E1],"tree_param":{"num_deleted":"0","num_feature":"10","num_nodes":"35","size_leaf_vector":"1"}},{"base_weights":[-2.695664E-6,-3.3801983E-4,4.269683E-3,2.0972788E-3,-8.703537E-4,1.0063399E-3,-1.9828732E-4,7.735803E-4,-4.4881017E-4,-9.7392604E-4,-5.023382E-4,-3.3690406E-3,6.6473987E-4,1.6097463E-4,-3.463933E-3,-8.1347045E-4,4.2584357E-5,-9.893368E-4,2.3268054E-3,-1.4585352E-3,5.269292E-4,4.2919564E-5,-3.536881E-4,4.862694E-4,2.8373337E-5,-4.3194668E-4,2.3986894E-4],"categories":[],"categories_nodes":[],"categories_segments":[],"categories_sizes":[],"default_left":[0,0,0,0,0,0,0,0,0,0,0,0,0,0,0,0,0,0,0,0,0,0,0,0,0,0,0],"id":9,"left_children":[1,3,5,7,9,-1,-1,-1,11,-1,13,15,-1,17,19,-1,-1,21,23,-1,25,-1,-1,-1,-1,-1,-1],"loss_changes":[5.3151697E-4,4.477842E-4,1.0372614E-3,9.1687357E-4,9.3801087E-4,0E0,0E0,0E0,9.5087814E-4,0E0,5.3685624E-4,6.0240837E-4,0E0,5.6037103E-4,2.2824518E-3,0E0,0E0,5.4998597E-4,4.1633315E-4,0E0,3.698727E-4,0E0,0E0,0E0,0E0,0E0,0E0],"parents":[2147483647,0,0,1,1,2,2,3,3,4,4,8,8,10,10,11,11,13,13,14,14,17,17,18,18,20,20],"right_children":[2,4,6,8,10,-1,-1,-1,12,-1,14,16,-1,18,20,-1,-1,22,24,-1,26,-1,-1,-1,-1,-1,-1],"split_conditions":[1.6582581E0,-1.0819585E0,2.4780877E-1,-9.1292554E-1,-1.0087572E0,1.0063399E-3,-1.9828732E-4,7.735803E-4,4.898789E-1,-9.7392604E-4,9.6583545E-1,3.986276E-1,6.6473987E-4,-3.8050424E-2,1.144981E0,-8.1347045E-4,4.2584357E-5,3.149792E-1,2.7644783E-1,-1.4585352E-3,7.847404E-2,4.2919564E-5,-3.536881E-4,4.862694E-4,2.8373337E-5,-4.3194668E-4,2.3986894E-4],"split_indices":[6,7,7,6,7,0,0,0,8,0,6,6,0,6,6,0,0,8,6,0,8,0,0,0,0,0,0],"split_type":[0,0,0,0,0,0,0,0,0,0,0,0,0,0,0,0,0,0,0,0,0,0,0,0,0,0,0],"sum_hessian":[3.69E2,3.43E2,2.6E1,6.1E1,2.82E2,1.3E1,1.3E1,1.8E1,4.3E1,1E1,2.72E2,3.1E1,1.2E1,2.23E2,4.9E1,1.3E1,1.8E1,1.46E2,7.7E1,1.2E1,3.7E1,9.5E1,5.1E1,3.3E1,4.4E1,1E1,2.7E1],"tree_param":{"num_deleted":"0","num_feature":"10","num_nodes":"27","size_leaf_vector":"1"}},{"base_weights":[3.0496094E-4,-4.4433083E-3,7.789165E-4,2.2077713E-4,-1.06861E-3,1.9754313E-3,-6.379575E-4,1.3919523E-3,1.2183428E-3,-3.6322267E-3,4.8395613E-4,1.7363746E-3,-6.7694637E-4,-1.2398366E-3,-6.12914E-4,5.5037497E-4,-4.247406E-5,-1.7811226E-3,2.9044684E-3,1.6104128E-3,-5.307037E-4,6.789363E-4,-2.031107E-3,2.44198E-4,-3.8547206E-4,8.132096E-4,1.4892306E-4,2.9987248E-4,3.529819E-5,-2.8146958E-4,1.383668E-4,-3.0140309E-5,-3.55203E-4],"categories":[],"categories_nodes":[],"categories_segments":[],"categories_sizes":[],"default_left":[0,0,0,0,0,0,0,0,0,0,0,0,0,0,0,0,0,0,0,0,0,0,0,0,0,0,0,0,0,0,0,0,0],"id":10,"left_children":[1,3,5,-1,-1,7,9,-1,11,13,15,17,-1,-1,19,-1,21,23,25,27,-1,29,31,-1,-1,-1,-1,-1,-1,-1,-1,-1,-1],"loss_changes":[8.67641E-4,1.5345968E-3,5.9461896E-4,0E0,0E0,1.7389636E-3,5.426069E-4,0E0,7.688262E-4,1.1881987E-3,3.185715E-4,7.036636E-4,0E0,0E0,3.7119145E-4,0E0,1.56318E-4,4.0394816E-4,9.429244E-4,4.2287764E-5,0E0,2.1150839E-4,7.8308156E-5,0E0,0E0,0E0,0E0,0E0,0E0,0E0,0E0,0E0,0E0],"parents":[2147483647,0,0,1,1,2,2,5,5,6,6,8,8,9,9,10,10,11,11,14,14,16,16,17,17,18,18,19,19,21,21,22,22],"right_children":[2,4,6,-1,-1,8,10,-1,12,14,16,18,-1,-1,20,-1,22,24,26,28,-1,30,32,-1,-1,-1,-1,-1,-1,-1,-1,-1,-1],"split_conditions":[-1.2291546E0,-1.0994375E0,2.246108E-3,2.2077713E-4,-1.06861E-3,-1.2013063E0,-1.2580657E0,1.3919523E-3,4.112461E-1,3.2355624E-1,-6.6250056E-1,-1.0836531E0,-6.7694637E-4,-1.2398366E-3,1.7565931E0,5.5037497E-4,1.3337208E0,2.6574728E-1,-7.766538E-1,-2.1465607E0,-5.307037E-4,1.8709758E-1,-2.4210969E-2,2.44198E-4,-3.8547206E-4,8.132096E-4,1.4892306E-4,2.9987248E-4,3.529819E-5,-2.8146958E-4,1.383668E-4,-3.0140309E-5,-3.55203E-4],"split_indices":[2,6,2,0,0,5,5,0,6,2,5,6,0,0,2,0,2,5,2,5,0,2,5,0,0,0,0,0,0,0,0,0,0],"split_type":[0,0,0,0,0,0,0,0,0,0,0,0,0,0,0,0,0,0,0,0,0,0,0,0,0,0,0,0,0,0,0,0,0],"sum_hessian":[3.83E2,3.4E1,3.49E2,1.7E1,1.7E1,1.89E2,1.6E2,1E1,1.79E2,4.3E1,1.17E2,1.69E2,1E1,1E1,3.3E1,1E1,1.07E2,4.2E1,1.27E2,2.3E1,1E1,7.9E1,2.8E1,1.4E1,2.8E1,2.5E1,1.02E2,1E1,1.3E1,1.3E1,6.6E1,1.4E1,1.4E1],"tree_param":{"num_deleted":"0","num_feature":"10","num_nodes":"33","size_leaf_vector":"1"}},{"base_weights":[-1.9443202E-4,6.613355E-4,-4.1403552E-4,-6.5093115E-3,-3.7256523E-5,-1.1941539E-3,2.5176849E-5,-3.305585E-4,3.5597885E-3,-2.9076582E-3,3.970818E-4,1.1165125E-3,-1.6763534E-4,-2.9612632E-4,-7.617115E-3,6.629294E-4,-5.551139E-4,2.967621E-4,-3.961157E-4,-1.553981E-3,-1.4629083E-4,5.8587856E-4,1.9482313E-5],"categories":[],"categories_nodes":[],"categories_segments":[],"categories_sizes":[],"default_left":[0,0,0,0,0,0,0,0,0,0,0,0,0,0,0,0,0,0,0,0,0,0,0],"id":11,"left_children":[1,-1,3,5,7,-1,-1,9,11,13,15,-1,-1,17,19,21,-1,-1,-1,-1,-1,-1,-1],"loss_changes":[5.9510797E-4,0E0,8.678616E-4,8.455505E-4,3.7781903E-4,0E0,0E0,6.2184635E-4,1.1314409E-3,8.955638E-4,4.2058993E-4,0E0,0E0,6.083318E-4,1.2854923E-3,6.125362E-4,0E0,0E0,0E0,0E0,0E0,0E0,0E0],"parents":[2147483647,0,0,2,2,3,3,4,4,7,7,8,8,9,9,10,10,13,13,14,14,15,15],"right_children":[2,-1,4,6,8,-1,-1,10,12,14,16,-1,-1,18,20,22,-1,-1,-1,-1,-1,-1,-1],"split_conditions":[-1.5755663E0,6.613355E-4,-1.2219261E0,3.8130578E-1,1.6348037E0,-1.1941539E-3,2.5176849E-5,-8.322145E-1,1.7451096E0,9.6583545E-1,1.5400646E0,1.1165125E-3,-1.6763534E-4,-1.2868739E0,1.144981E0,-9.987411E-1,-5.551139E-4,2.967621E-4,-3.961157E-4,-1.553981E-3,-1.4629083E-4,5.8587856E-4,1.9482313E-5],"split_indices":[9,0,9,5,6,0,0,5,9,6,5,0,0,5,6,9,0,0,0,0,0,0,0],"split_type":[0,0,0,0,0,0,0,0,0,0,0,0,0,0,0,0,0,0,0,0,0,0,0],"sum_hessian":[3.88E2,1.1E1,3.77E2,2.1E1,3.56E2,1.1E1,1E1,3.3E2,2.6E1,7.2E1,2.58E2,1E1,1.6E1,4.7E1,2.5E1,2.48E2,1E1,2.5E1,2.2E1,1E1,1.5E1,1.9E1,2.29E2],"tree_param":{"num_deleted":"0","num_feature":"10","num_nodes":"23","size_leaf_vector":"1"}},{"base_weights":[-2.8051223E-4,-4.225106E-3,2.1481731E-4,-4.0924855E-4,-1.275655E-3,7.6367514E-4,-1.792491E-4,3.656795E-4,-4.9743446E-4,7.833872E-5,-6.287294E-4,2.339622E-4,-4.1645006E-4,1.0832553E-3,-6.5086235E-4,3.0006477E-4,1.9999208E-5,-3.213895E-4,7.605237E-5],"categories":[],"categories_nodes":[],"categories_segments":[],"categories_sizes":[],"default_left":[0,0,0,0,0,0,0,0,0,0,0,0,0,0,0,0,0,0,0],"id":12,"left_children":[1,3,5,7,-1,-1,9,-1,-1,11,-1,13,-1,15,17,-1,-1,-1,-1],"loss_changes":[7.53149E-4,1.4343908E-3,1.0242336E-3,6.163048E-4,0E0,0E0,5.250739E-4,0E0,0E0,2.1287004E-4,0E0,2.2990504E-4,0E0,2.7027223E-4,5.638085E-4,0E0,0E0,0E0,0E0],"parents":[2147483647,0,0,1,1,2,2,3,3,6,6,9,9,11,11,13,13,14,14],"right_children":[2,4,6,8,-1,-1,10,-1,-1,12,-1,14,-1,16,18,-1,-1,-1,-1],"split_conditions":[-1.4269099E0,-1.1315403E-1,-1.0219101E0,-2.9975453E-1,-1.275655E-3,7.6367514E-4,1.7171994E0,3.656795E-4,-4.9743446E-4,1.5400646E0,-6.287294E-4,2.3020193E-1,-4.1645006E-4,2.89156E-1,-2.5733966E-1,3.0006477E-4,1.9999208E-5,-3.213895E-4,7.605237E-5],"split_indices":[4,5,1,1,0,0,1,0,0,5,0,1,0,4,4,0,0,0,0],"split_type":[0,0,0,0,0,0,0,0,0,0,0,0,0,0,0,0,0,0,0],"sum_hessian":[3.84E2,4.2E1,3.42E2,3E1,1.2E1,1.6E1,3.26E2,1.6E1,1.4E1,3.14E2,1.2E1,3.04E2,1E1,1.55E2,1.49E2,4.7E1,1.08E2,5.2E1,9.7E1],"tree_param":{"num_deleted":"0","num_feature":"10","num_nodes":"19","size_leaf_vector":"1"}},{"base_weights":[-1.1896325E-4,-7.033653E-4,1.9278948E-3,-4.5687598E-4,-5.753898E-4,-8.503874E-4,3.519599E-3,-8.990592E-4,2.8130452E-3,1.23069165E-2,-9.680968E-5,-2.9822494E-4,-7.818018E-4,8.53389E-4,-1.230324E-4,1.5263079E-3,7.79293E-4,3.402641E-4,-1.5011992E-3,1.2839893E-3,-1.850065E-3,-1.4963538E-4,1.2649478E-4,-2.9086121E-3,6.0427577E-5,-2.3972397E-4,2.2320614E-4,-5.751097E-4,4.736923E-5,-1.0228219E-4,-4.4478502E-4],"categories":[],"categories_nodes":[],"categories_segments":[],"categories_sizes":[],"default_left":[0,0,0,0,0,0,0,0,0,0,0,0,0,0,0,0,0,0,0,0,0,0,0,0,0,0,0,0,0,0,0],"id":13,"left_children":[1,3,5,7,-1,-1,9,11,13,15,17,19,-1,-1,21,-1,-1,-1,23,25,27,-1,-1,29,-1,-1,-1,-1,-1,-1,-1],"loss_changes":[4.4155322E-4,3.6235875E-4,1.4131861E-3,4.0015276E-4,0E0,0E0,2.2892456E-3,1.0295456E-3,5.7111005E-4,1.7414079E-4,2.654956E-4,5.5482774E-4,0E0,0E0,4.7493017E-5,0E0,0E0,0E0,1.1501079E-4,4.1903165E-4,1.0693781E-3,0E0,0E0,6.498335E-5,0E0,0E0,0E0,0E0,0E0,0E0,0E0],"parents":[2147483647,0,0,1,1,2,2,3,3,6,6,7,7,8,8,9,9,10,10,11,11,14,14,18,18,19,19,20,20,23,23],"right_children":[2,4,6,8,-1,-1,10,12,14,16,18,20,-1,-1,22,-1,-1,-1,24,26,28,-1,-1,30,-1,-1,-1,-1,-1,-1,-1],"split_conditions":[7.58033E-1,6.3630885E-1,-5.707177E-2,3.179796E-1,-5.753898E-4,-8.503874E-4,4.9575534E-1,1.4143354E-1,4.3000916E-1,2.5718215E-1,8.7683365E-2,2.8524935E-1,-7.818018E-4,8.53389E-4,5.114269E-1,1.5263079E-3,7.79293E-4,3.402641E-4,3.2519844E-1,-1.2204853E0,4.0304577E-1,-1.4963538E-4,1.2649478E-4,1.3298167E0,6.0427577E-5,-2.3972397E-4,2.2320614E-4,-5.751097E-4,4.736923E-5,-1.0228219E-4,-4.4478502E-4],"split_indices":[3,3,8,3,0,0,4,3,3,8,8,8,0,0,4,0,0,0,8,3,8,0,0,3,0,0,0,0,0,0,0],"split_type":[0,0,0,0,0,0,0,0,0,0,0,0,0,0,0,0,0,0,0,0,0,0,0,0,0,0,0,0,0,0,0],"sum_hessian":[3.67E2,2.86E2,8.1E1,2.74E2,1.2E1,1E1,7.1E1,2.42E2,3.2E1,2E1,5.1E1,2.24E2,1.8E1,1E1,2.2E1,1E1,1E1,1.4E1,3.7E1,1.11E2,1.13E2,1.1E1,1.1E1,2.2E1,1.5E1,2.3E1,8.8E1,4.1E1,7.2E1,1.1E1,1.1E1],"tree_param":{"num_deleted":"0","num_feature":"10","num_nodes":"31","size_leaf_vector":"1"}},{"base_weights":[4.993056E-4,8.2921167E-4,-6.4516824E-4,-6.3178956E-4,1.1828621E-3,8.77085E-4,5.6601567E-3,2.129248E-3,-7.685084E-5,1.2179918E-3,-9.8186814E-5,1.0954875E-3,5.2287662E-3,-6.6593924E-4,4.665461E-4,3.6200962E-4,-4.3789616E-5,1.3636731E-3,6.644368E-5,1.1132706E-4,-2.2545163E-4],"categories":[],"categories_nodes":[],"categories_segments":[],"categories_sizes":[],"default_left":[0,0,0,0,0,0,0,0,0,0,0,0,0,0,0,0,0,0,0,0,0],"id":14,"left_children":[1,3,-1,-1,5,7,9,11,13,-1,-1,15,17,-1,19,-1,-1,-1,-1,-1,-1],"loss_changes":[8.8992435E-4,9.405699E-4,0E0,0E0,4.7009735E-4,3.895652E-4,1.0017822E-3,4.4605846E-4,6.812918E-4,0E0,0E0,4.2948744E-4,1.3714193E-3,0E0,3.219872E-4,0E0,0E0,0E0,0E0,0E0,0E0],"parents":[2147483647,0,0,1,1,4,4,5,5,6,6,7,7,8,8,11,11,12,12,14,14],"right_children":[2,4,-1,-1,6,8,10,12,14,-1,-1,16,18,-1,20,-1,-1,-1,-1,-1,-1],"split_conditions":[1.5052305E0,-1.5141387E0,-6.4516824E-4,-6.3178956E-4,1.2378402E0,-2.2090475E-1,1.3389218E0,6.970561E-1,-7.035005E-2,1.2179918E-3,-9.8186814E-5,-7.787541E-1,8.751185E-1,-6.6593924E-4,9.49734E-1,3.6200962E-4,-4.3789616E-5,1.3636731E-3,6.644368E-5,1.1132706E-4,-2.2545163E-4],"split_indices":[7,2,0,0,7,7,7,0,7,0,0,2,2,0,7,0,0,0,0,0,0],"split_type":[0,0,0,0,0,0,0,0,0,0,0,0,0,0,0,0,0,0,0,0,0],"sum_hessian":[3.78E2,3.62E2,1.6E1,1.6E1,3.46E2,3.25E2,2.1E1,1.4E2,1.85E2,1E1,1.1E1,1.06E2,3.4E1,1.3E1,1.72E2,3.9E1,6.7E1,1.1E1,2.3E1,1.39E2,3.3E1],"tree_param":{"num_deleted":"0","num_feature":"10","num_nodes":"21","size_leaf_vector":"1"}},{"base_weights":[2.550986E-4,5.4554397E-4,-5.2231946E-4,8.971983E-5,5.808005E-3,6.5607287E-4,-3.890372E-3,1.2417324E-3,-5.3484986E-5,3.7753503E-4,5.0918234E-4,-2.1006428E-3,-8.0366153E-4,2.0165087E-3,-5.493582E-4,-3.5145404E-4,2.2101016E-5,8.2749626E-5,9.708817E-4,-5.389293E-4,-1.5830468E-5],"categories":[],"categories_nodes":[],"categories_segments":[],"categories_sizes":[],"default_left":[0,0,0,0,0,0,0,0,0,0,0,0,0,0,0,0,0,0,0,0,0],"id":15,"left_children":[1,3,-1,5,7,9,11,-1,-1,13,-1,15,-1,17,19,-1,-1,-1,-1,-1,-1],"loss_changes":[6.217557E-4,8.726265E-4,0E0,7.5994246E-4,1.2681467E-3,3.7048728E-4,3.0596677E-4,0E0,0E0,4.249517E-4,0E0,1.07576125E-4,0E0,9.2509354E-4,3.4241902E-4,0E0,0E0,0E0,0E0,0E0,0E0],"parents":[2147483647,0,0,1,1,3,3,4,4,5,5,6,6,9,9,11,11,13,13,14,14],"right_children":[2,4,-1,6,8,10,12,-1,-1,14,-1,16,-1,18,20,-1,-1,-1,-1,-1,-1],"split_conditions":[1.5052305E0,1.1217612E0,-5.2231946E-4,7.5475496E-1,1.295663E0,6.8770814E-1,6.175974E-1,1.2417324E-3,-5.3484986E-5,-7.1663326E-1,5.0918234E-4,-3.5321522E-1,-8.0366153E-4,9.317618E-1,-5.917048E-1,-3.5145404E-4,2.2101016E-5,8.2749626E-5,9.708817E-4,-5.389293E-4,-1.5830468E-5],"split_indices":[7,7,0,7,7,7,6,0,0,7,0,0,0,0,7,0,0,0,0,0,0],"split_type":[0,0,0,0,0,0,0,0,0,0,0,0,0,0,0,0,0,0,0,0,0],"sum_hessian":[3.81E2,3.63E2,1.8E1,3.35E2,2.8E1,2.94E2,4.1E1,1.3E1,1.5E1,2.78E2,1.6E1,3E1,1.1E1,1E2,1.78E2,1.8E1,1.2E1,8.8E1,1.2E1,1.2E1,1.66E2],"tree_param":{"num_deleted":"0","num_feature":"10","num_nodes":"21","size_leaf_vector":"1"}},{"base_weights":[2.9731443E-4,-2.9954442E-3,6.248051E-4,3.33075E-4,-1.0593536E-3,1.3549799E-3,-4.467427E-4,6.9906976E-4,1.1839151E-3,-6.037331E-4,3.718809E-4,2.1842541E-3,-3.263454E-4,1.6705673E-3,-1.5083761E-3,-9.650688E-5,3.104921E-3,-5.272167E-4,5.1788904E-4,8.2940387E-4,4.0294087E-4,-4.8569564E-4,-1.1036801E-4,2.293582E-4,6.3995586E-4,-4.2105203E-5,3.7183388E-4,3.8991164E-4,-1.8624947E-5,2.2165592E-4,-1.5568337E-4],"categories":[],"categories_nodes":[],"categories_segments":[],"categories_sizes":[],"default_left":[0,0,0,0,0,0,0,0,0,0,0,0,0,0,0,0,0,0,0,0,0,0,0,0,0,0,0,0,0,0,0],"id":16,"left_children":[1,3,5,-1,-1,7,9,11,-1,-1,13,15,17,19,21,-1,23,-1,25,27,-1,-1,29,-1,-1,-1,-1,-1,-1,-1,-1],"loss_changes":[4.1703545E-4,1.7809622E-3,2.7523376E-4,0E0,0E0,1.4596942E-3,6.7019725E-4,3.0225306E-4,0E0,0E0,3.1019474E-4,2.3928157E-4,5.054841E-4,1.5024754E-4,2.4960664E-4,0E0,1.4998968E-4,0E0,3.175952E-4,1.8340035E-4,0E0,0E0,1.3647329E-4,0E0,0E0,0E0,0E0,0E0,0E0,0E0,0E0],"parents":[2147483647,0,0,1,1,2,2,5,5,6,6,7,7,10,10,11,11,12,12,13,13,14,14,16,16,18,18,19,19,22,22],"right_children":[2,4,6,-1,-1,8,10,12,-1,-1,14,16,18,20,22,-1,24,-1,26,28,-1,-1,30,-1,-1,-1,-1,-1,-1,-1,-1],"split_conditions":[-1.2291546E0,-1.0461869E0,2.1097516E-1,3.33075E-4,-1.0593536E-3,1.0501678E0,3.502315E-1,-6.3545424E-1,1.1839151E-3,-6.037331E-4,1.286342E0,-1.2816621E0,-5.6590813E-1,9.80148E-1,1.5114001E0,-9.650688E-5,-7.0996517E-1,-5.272167E-4,-5.033552E-2,3.2330602E-1,4.0294087E-4,-4.8569564E-4,1.7266607E0,2.293582E-4,6.3995586E-4,-4.2105203E-5,3.7183388E-4,3.8991164E-4,-1.8624947E-5,2.2165592E-4,-1.5568337E-4],"split_indices":[2,6,2,0,0,3,2,2,0,0,6,6,2,6,6,0,2,0,6,6,0,0,6,0,0,0,0,0,0,0,0],"split_type":[0,0,0,0,0,0,0,0,0,0,0,0,0,0,0,0,0,0,0,0,0,0,0,0,0,0,0,0,0,0,0],"sum_hessian":[3.84E2,3.4E1,3.5E2,1.9E1,1.5E1,2.08E2,1.42E2,1.97E2,1.1E1,1.7E1,1.25E2,8E1,1.17E2,7.4E1,5.1E1,1.8E1,6.2E1,1.6E1,1.01E2,5.6E1,1.8E1,1.4E1,3.7E1,5.2E1,1E1,7.9E1,2.2E1,1.3E1,4.3E1,1.4E1,2.3E1],"tree_param":{"num_deleted":"0","num_feature":"10","num_nodes":"31","size_leaf_vector":"1"}},{"base_weights":[1.7039423E-4,1.2883126E-3,-3.4021214E-4,-6.0588582E-3,2.194838E-4,-1.0681464E-3,-3.27752E-3,4.1130297E-3,-3.0467272E-5,3.056812E-4,-1.0337541E-3,4.510633E-5,7.2543643E-4,-3.4834757E-3,3.5459944E-4,-1.2004356E-4,-9.1845926E-4,3.1189928E-3,-1.5343518E-4,-1.2135591E-4,8.9646164E-5,7.67536E-4,1.2062684E-4,3.0451527E-4,-4.254124E-5],"categories":[],"categories_nodes":[],"categories_segments":[],"categories_sizes":[],"default_left":[0,0,0,0,0,0,0,0,0,0,0,0,0,0,0,0,0,0,0,0,0,0,0,0,0],"id":17,"left_children":[1,-1,3,5,7,-1,9,11,13,-1,-1,-1,-1,15,17,19,-1,21,23,-1,-1,-1,-1,-1,-1],"loss_changes":[2.6179675E-3,0E0,1.2207977E-3,4.2069715E-4,3.3879752E-4,0E0,1.099779E-3,2.4820567E-4,4.373567E-4,0E0,0E0,0E0,0E0,6.5107306E-4,4.1618315E-4,2.6520234E-5,0E0,3.9916928E-4,2.3028046E-4,0E0,0E0,0E0,0E0,0E0,0E0],"parents":[2147483647,0,0,2,2,3,3,4,4,6,6,7,7,8,8,13,13,14,14,15,15,17,17,18,18],"right_children":[2,-1,4,6,8,-1,10,12,14,-1,-1,-1,-1,16,18,20,-1,22,24,-1,-1,-1,-1,-1,-1],"split_conditions":[-2.769798E0,1.2883126E-3,-1.2291546E0,-4.3629888E-1,-7.5403833E-1,-1.0681464E-3,-1.3773433E0,-7.13821E-1,-4.1560888E-1,3.056812E-4,-1.0337541E-3,4.510633E-5,7.2543643E-4,-5.3973925E-1,-1.13834545E-1,7.47098E-1,-9.1845926E-4,-2.5711244E-1,-9.373196E-1,-1.2135591E-4,8.9646164E-5,7.67536E-4,1.2062684E-4,3.0451527E-4,-4.254124E-5],"split_indices":[1,0,2,1,1,0,2,3,1,0,0,0,0,1,1,2,0,3,2,0,0,0,0,0,0],"split_type":[0,0,0,0,0,0,0,0,0,0,0,0,0,0,0,0,0,0,0,0,0,0,0,0,0],"sum_hessian":[3.94E2,1.4E1,3.8E2,3.3E1,3.47E2,1.1E1,2.2E1,2E1,3.27E2,1.2E1,1E1,1E1,1E1,3.2E1,2.95E2,2.1E1,1.1E1,4.5E1,2.5E2,1E1,1.1E1,1.2E1,3.3E1,1.9E1,2.31E2],"tree_param":{"num_deleted":"0","num_feature":"10","num_nodes":"25","size_leaf_vector":"1"}},{"base_weights":[6.584282E-6,4.066844E-3,-3.2985603E-4,9.327935E-4,-9.285212E-5,-3.419506E-3,4.002017E-4,2.1832383E-3,-6.8064546E-3,7.1311527E-4,-7.29173E-4,3.203909E-4,4.037267E-5,-1.1376508E-3,-2.3481953E-3,3.3331712E-4,4.843377E-3,3.4712686E-4,-7.014098E-4,8.385778E-4,-3.2957538E-3,1.082276E-3,-7.487834E-5,1.8994753E-4,-3.9478444E-5,-6.099653E-4,-1.5791968E-4],"categories":[],"categories_nodes":[],"categories_segments":[],"categories_sizes":[],"default_left":[0,0,0,0,0,0,0,0,0,0,0,0,0,0,0,0,0,0,0,0,0,0,0,0,0,0,0],"id":18,"left_children":[1,3,5,-1,-1,7,9,11,13,15,-1,-1,-1,-1,17,19,21,-1,-1,23,25,-1,-1,-1,-1,-1,-1],"loss_changes":[5.177027E-4,7.99664E-4,7.9083646E-4,0E0,0E0,1.286266E-3,7.0119987E-4,4.848682E-5,8.6906727E-4,4.2820006E-4,0E0,0E0,0E0,0E0,6.749766E-4,4.6483774E-4,8.0601586E-4,0E0,0E0,3.0299317E-4,1.4266022E-4,0E0,0E0,0E0,0E0,0E0,0E0],"parents":[2147483647,0,0,1,1,2,2,5,5,6,6,7,7,8,8,9,9,14,14,15,15,16,16,19,19,20,20],"right_children":[2,4,6,-1,-1,8,10,12,14,16,-1,-1,-1,-1,18,20,22,-1,-1,24,26,-1,-1,-1,-1,-1,-1],"split_conditions":[-1.3809835E0,-5.1252495E-2,-8.401956E-1,9.327935E-4,-9.285212E-5,-1.6026608E0,1.5967696E0,1.2991375E0,1.7265871E-2,1.2378402E0,-7.29173E-4,3.203909E-4,4.037267E-5,-1.1376508E-3,5.53719E-1,8.91924E-1,1.3237352E0,3.4712686E-4,-7.014098E-4,4.7777802E-1,-8.7537247E-1,1.082276E-3,-7.487834E-5,1.8994753E-4,-3.9478444E-5,-6.099653E-4,-1.5791968E-4],"split_indices":[7,5,5,0,0,5,7,2,7,7,0,0,0,0,7,7,7,0,0,5,2,0,0,0,0,0,0],"split_type":[0,0,0,0,0,0,0,0,0,0,0,0,0,0,0,0,0,0,0,0,0,0,0,0,0,0,0],"sum_hessian":[3.77E2,2.8E1,3.49E2,1.3E1,1.5E1,6.6E1,2.83E2,2.5E1,4.1E1,2.73E2,1E1,1.5E1,1E1,1.9E1,2.2E1,2.51E2,2.2E1,1E1,1.2E1,2.21E2,3E1,1E1,1.2E1,1.17E2,1.04E2,1E1,2E1],"tree_param":{"num_deleted":"0","num_feature":"10","num_nodes":"27","size_leaf_vector":"1"}},{"base_weights":[-3.4536966E-4,3.794382E-4,-2.1710964E-3,-7.5986615E-4,1.4271695E-3,-5.399185E-3,2.5895517E-4,-7.6192437E-4,8.4768595E-5,6.407874E-3,-6.08831E-4,-1.2098965E-3,-1.2921229E-3,7.0246845E-4,-1.3695313E-3,6.3936104E-4,-7.1220624E-4,1.4380079E-4,1.0212193E-2,-3.479212E-3,4.3262393E-4,-3.0361893E-4,-2.3206443E-5,2.3115317E-4,-2.3355389E-3,-4.1844016E-3,2.585492E-4,1.3969883E-3,5.9094536E-4,-1.3498227E-4,-4.9757166E-4,1.3082407E-3,-2.1755707E-4,7.012014E-5,-3.3424897E-3,-2.4499814E-4,-5.6902884E-4,-3.914176E-4,1.01328005E-4,-4.97943E-5,3.4273282E-4,-5.751357E-4,-9.065122E-5],"categories":[],"categories_nodes":[],"categories_segments":[],"categories_sizes":[],"default_left":[0,0,0,0,0,0,0,0,0,0,0,0,0,0,0,0,0,0,0,0,0,0,0,0,0,0,0,0,0,0,0,0,0,0,0,0,0,0,0,0,0,0,0],"id":19,"left_children":[1,3,5,7,9,11,13,-1,15,17,19,-1,21,-1,23,-1,25,-1,27,29,31,-1,-1,-1,33,35,37,-1,-1,-1,-1,39,-1,-1,41,-1,-1,-1,-1,-1,-1,-1,-1],"loss_changes":[4.98385E-4,3.2337938E-4,8.407514E-4,7.697652E-4,1.4337425E-3,1.2933483E-3,7.064185E-4,0E0,6.042668E-4,7.559493E-4,3.0343182E-4,0E0,5.6332377E-5,0E0,1.890226E-4,0E0,3.5500037E-4,0E0,3.0205515E-4,8.340762E-5,1.7690424E-4,0E0,0E0,0E0,1.2831138E-4,4.8185524E-5,2.769796E-4,0E0,0E0,0E0,0E0,2.2783675E-4,0E0,0E0,1.8341455E-4,0E0,0E0,0E0,0E0,0E0,0E0,0E0,0E0],"parents":[2147483647,0,0,1,1,2,2,3,3,4,4,5,5,6,6,8,8,9,9,10,10,12,12,14,14,16,16,18,18,19,19,20,20,24,24,25,25,26,26,31,31,34,34],"right_children":[2,4,6,8,10,12,14,-1,16,18,20,-1,22,-1,24,-1,26,-1,28,30,32,-1,-1,-1,34,36,38,-1,-1,-1,-1,40,-1,-1,42,-1,-1,-1,-1,-1,-1,-1,-1],"split_conditions":[5.6734157E-1,-5.847305E-1,1.144981E0,-1.4269099E0,-4.2746302E-1,5.582699E-1,5.8388734E-1,-7.6192437E-4,-1.3581934E0,-5.102635E-1,-5.5610992E-2,-1.2098965E-3,5.6598073E-1,7.0246845E-4,1.3067154E0,6.3936104E-4,-2.6018512E-1,1.4380079E-4,-6.9368887E-1,3.8838807E-1,4.9878576E-1,-3.0361893E-4,-2.3206443E-5,2.3115317E-4,-3.238725E-1,-9.278935E-1,-1.1308488E0,1.3969883E-3,5.9094536E-4,-1.3498227E-4,-4.9757166E-4,2.3390053E-1,-2.1755707E-4,7.012014E-5,8.017244E-1,-2.4499814E-4,-5.6902884E-4,-3.914176E-4,1.01328005E-4,-4.97943E-5,3.4273282E-4,-5.751357E-4,-9.065122E-5],"split_indices":[6,6,6,4,9,9,9,0,9,4,9,0,4,0,6,0,4,0,9,4,9,0,0,0,4,6,9,0,0,0,0,9,0,0,4,0,0,0,0,0,0,0,0],"split_type":[0,0,0,0,0,0,0,0,0,0,0,0,0,0,0,0,0,0,0,0,0,0,0,0,0,0,0,0,0,0,0,0,0,0,0,0,0,0,0,0,0,0,0],"sum_hessian":[3.75E2,2.69E2,1.06E2,1.29E2,1.4E2,4.5E1,6.1E1,1.3E1,1.16E2,4E1,1E2,1.6E1,2.9E1,1.1E1,5E1,1.2E1,1.04E2,1.8E1,2.2E1,2.6E1,7.4E1,1E1,1.9E1,1E1,4E1,2.2E1,8.2E1,1E1,1.2E1,1.2E1,1.4E1,5.6E1,1.8E1,1E1,3E1,1.2E1,1E1,1.2E1,7E1,3.1E1,2.5E1,1.4E1,1.6E1],"tree_param":{"num_deleted":"0","num_feature":"10","num_nodes":"43","size_leaf_vector":"1"}},{"base_weights":[-4.4659848E-4,-8.2079537E-4,2.8013696E-3,-4.526379E-4,-7.771128E-4,6.2970124E-4,1.2086829E-3,-8.8923995E-4,4.9094763E-3,3.6045804E-4,-2.5404664E-4,-6.092535E-4,-6.560519E-4,7.4303086E-4,1.368267E-4,-1.0390269E-3,2.135039E-3,-5.942321E-5,-8.2693994E-4,7.540651E-4,-3.19082E-4],"categories":[],"categories_nodes":[],"categories_segments":[],"categories_sizes":[],"default_left":[0,0,0,0,0,0,0,0,0,0,0,0,0,0,0,0,0,0,0,0,0],"id":20,"left_children":[1,3,5,7,-1,-1,9,11,13,-1,-1,15,-1,-1,-1,17,19,-1,-1,-1,-1],"loss_changes":[4.702205E-4,9.006152E-4,2.2258126E-4,7.76932E-4,0E0,0E0,2.8092385E-4,4.925212E-4,2.2340374E-4,0E0,0E0,3.4778955E-4,0E0,0E0,0E0,8.0832606E-4,1.2206411E-3,0E0,0E0,0E0,0E0],"parents":[2147483647,0,0,1,1,2,2,3,3,6,6,7,7,8,8,11,11,15,15,16,16],"right_children":[2,4,6,8,-1,-1,10,12,14,-1,-1,16,-1,-1,-1,18,20,-1,-1,-1,-1],"split_conditions":[1.3844074E0,1.1844958E0,1.6198561E0,8.093624E-1,-7.771128E-4,6.2970124E-4,1.4853543E-1,7.170518E-1,9.506921E-1,3.6045804E-4,-2.5404664E-4,5.5875075E-1,-6.560519E-4,7.4303086E-4,1.368267E-4,5.1531625E-1,6.429425E-1,-5.942321E-5,-8.2693994E-4,7.540651E-4,-3.19082E-4],"split_indices":[3,3,3,3,0,0,8,3,0,0,0,8,0,0,0,8,8,0,0,0,0],"split_type":[0,0,0,0,0,0,0,0,0,0,0,0,0,0,0,0,0,0,0,0,0],"sum_hessian":[3.84E2,3.45E2,3.9E1,3.29E2,1.6E1,1.1E1,2.8E1,3.05E2,2.4E1,1.7E1,1.1E1,2.92E2,1.3E1,1.3E1,1.1E1,2.53E2,3.9E1,2.4E2,1.3E1,1.9E1,2E1],"tree_param":{"num_deleted":"0","num_feature":"10","num_nodes":"21","size_leaf_vector":"1"}},{"base_weights":[7.632907E-5,1.4747549E-3,-1.0040211E-3,-4.8570705E-4,1.996251E-3,-2.5800308E-3,1.4824246E-3,2.4487395E-3,-3.1626684E-4,-9.6757995E-4,-8.073878E-3,6.5197964E-4,4.5881048E-4,-1.3461235E-4,3.0534002E-3,-7.3325634E-4,-4.870983E-5,-2.8880517E-4,-1.0559768E-3,-4.4698385E-4,1.7501777E-3,2.452993E-3,5.5072764E-3,8.943408E-4,-3.8555797E-4,2.652084E-3,-1.978875E-4,3.3761284E-4,-5.299172E-4,9.897442E-4,1.1533074E-6,-2.4152352E-4,2.5404198E-4,8.5436055E-5,6.287578E-4],"categories":[],"categories_nodes":[],"categories_segments":[],"categories_sizes":[],"default_left":[0,0,0,0,0,0,0,0,0,0,0,0,0,0,0,0,0,0,0,0,0,0,0,0,0,0,0,0,0,0,0,0,0,0,0],"id":21,"left_children":[1,3,5,-1,7,9,11,13,-1,15,17,-1,19,-1,21,-1,23,-1,-1,-1,25,27,29,31,-1,33,-1,-1,-1,-1,-1,-1,-1,-1,-1],"loss_changes":[5.408326E-4,5.325201E-4,7.953945E-4,0E0,3.5032403E-4,1.0906489E-3,4.1434035E-4,3.1374244E-4,0E0,5.793941E-4,3.5434822E-4,0E0,4.417705E-4,0E0,1.5739631E-4,0E0,3.1821406E-4,0E0,0E0,0E0,1.8879904E-4,7.5523515E-4,5.534441E-4,4.0438055E-4,0E0,2.8877068E-4,0E0,0E0,0E0,0E0,0E0,0E0,0E0,0E0,0E0],"parents":[2147483647,0,0,1,1,2,2,4,4,5,5,6,6,7,7,9,9,10,10,12,12,14,14,16,16,20,20,21,21,22,22,23,23,25,25],"right_children":[2,4,6,-1,8,10,12,14,-1,16,18,-1,20,-1,22,-1,24,-1,-1,-1,26,28,30,32,-1,34,-1,-1,-1,-1,-1,-1,-1,-1,-1],"split_conditions":[1.3887647E-1,-1.2898152E0,4.0594405E-1,-4.8570705E-4,1.4467686E0,3.5274175E-1,-8.374183E-1,-3.0449188E-1,-3.1626684E-4,1.6133147E-1,-6.938519E-1,6.5197964E-4,-8.1331587E-1,-1.3461235E-4,8.150353E-1,-7.3325634E-4,1.2435719E0,-2.8880517E-4,-1.0559768E-3,-4.4698385E-4,6.3522273E-1,4.5292085E-1,1.3196152E0,-6.98425E-1,-3.8555797E-4,5.5875075E-1,-1.978875E-4,3.3761284E-4,-5.299172E-4,9.897442E-4,1.1533074E-6,-2.4152352E-4,2.5404198E-4,8.5436055E-5,6.287578E-4],"split_indices":[8,6,8,0,6,8,3,8,0,8,3,0,6,0,6,0,6,0,0,0,8,6,3,6,0,8,0,0,0,0,0,0,0,0,0],"split_type":[0,0,0,0,0,0,0,0,0,0,0,0,0,0,0,0,0,0,0,0,0,0,0,0,0,0,0,0,0,0,0,0,0,0,0],"sum_hessian":[3.56E2,1.55E2,2.01E2,1.1E1,1.44E2,1.23E2,7.8E1,1.33E2,1.1E1,9.6E1,2.7E1,1.2E1,6.6E1,1.8E1,1.15E2,1.1E1,8.5E1,1E1,1.7E1,1.3E1,5.3E1,9.4E1,2.1E1,6.9E1,1.6E1,4.3E1,1E1,8.4E1,1E1,1.1E1,1E1,2.3E1,4.6E1,3E1,1.3E1],"tree_param":{"num_deleted":"0","num_feature":"10","num_nodes":"35","size_leaf_vector":"1"}},{"base_weights":[-1.4809932E-4,7.562116E-4,-8.7349134E-4,-6.591407E-4,3.6253328E-3,-5.5740294E-3,-5.803363E-5,5.70742E-4,-5.898679E-3,1.1995793E-4,6.425634E-3,-9.812887E-4,-2.807727E-4,2.6214642E-3,-1.1293684E-3,-1.1547531E-4,1.0239565E-3,-1.2289525E-3,1.2388293E-4,5.8284735E-5,-5.2725438E-5,1.2066672E-3,2.3351052E-4,3.4815306E-4,4.2556496E-3,-7.999289E-4,-3.1150618E-4,4.5825183E-4,2.8996007E-4,3.4285453E-4,-3.0569357E-4,-4.3974454E-5,7.9540146E-4,5.190026E-4,-9.6731767E-4,3.245092E-4,-3.5958714E-5,-7.60523E-4,4.714278E-5],"categories":[],"categories_nodes":[],"categories_segments":[],"categories_sizes":[],"default_left":[0,0,0,0,0,0,0,0,0,0,0,0,0,0,0,0,0,0,0,0,0,0,0,0,0,0,0,0,0,0,0,0,0,0,0,0,0,0,0],"id":22,"left_children":[1,3,5,7,9,11,13,15,17,19,21,-1,-1,23,25,-1,27,-1,-1,-1,-1,-1,-1,29,31,-1,33,-1,35,-1,-1,-1,-1,-1,37,-1,-1,-1,-1],"loss_changes":[2.4009323E-4,6.643028E-4,7.777939E-4,7.1220857E-4,5.292989E-4,3.3157604E-4,5.0245185E-4,7.248353E-5,1.0120756E-3,8.107353E-6,6.833492E-4,0E0,0E0,1.8426898E-4,7.153635E-4,0E0,1.913192E-4,0E0,0E0,0E0,0E0,0E0,0E0,2.5056073E-4,5.287831E-4,0E0,4.201399E-4,0E0,1.2200945E-4,0E0,0E0,0E0,0E0,0E0,1.0053122E-3,0E0,0E0,0E0,0E0],"parents":[2147483647,0,0,1,1,2,2,3,3,4,4,5,5,6,6,7,7,8,8,9,9,10,10,13,13,14,14,16,16,23,23,24,24,26,26,28,28,34,34],"right_children":[2,4,6,8,10,12,14,16,18,20,22,-1,-1,24,26,-1,28,-1,-1,-1,-1,-1,-1,30,32,-1,34,-1,36,-1,-1,-1,-1,-1,38,-1,-1,-1,-1],"split_conditions":[1.3887647E-1,5.866273E-2,1.9204327E-1,5.7420754E-1,-3.1393057E-1,4.0330282E-1,3.1907883E-1,-1.2384946E0,1.3893213E0,-6.8921286E-1,6.8568754E-1,-9.812887E-4,-2.807727E-4,2.5252396E-1,3.3543238E-1,-1.1547531E-4,-1.0509591E0,-1.2289525E-3,1.2388293E-4,5.8284735E-5,-5.2725438E-5,1.2066672E-3,2.3351052E-4,2.1800326E-1,-5.225013E-1,-7.999289E-4,3.5274175E-1,4.5825183E-4,-1.0830237E0,3.4285453E-4,-3.0569357E-4,-4.3974454E-5,7.9540146E-4,5.190026E-4,3.806301E-1,3.245092E-4,-3.5958714E-5,-7.60523E-4,4.714278E-5],"split_indices":[8,8,8,0,0,0,8,3,0,0,0,0,0,8,8,0,3,0,0,0,0,0,0,8,0,0,8,0,0,0,0,0,0,0,8,0,0,0,0],"split_type":[0,0,0,0,0,0,0,0,0,0,0,0,0,0,0,0,0,0,0,0,0,0,0,0,0,0,0,0,0,0,0,0,0,0,0,0,0,0,0],"sum_hessian":[3.64E2,1.62E2,2.02E2,1.09E2,5.3E1,2.9E1,1.73E2,8.9E1,2E1,2.4E1,2.9E1,1E1,1.9E1,4.9E1,1.24E2,1.8E1,7.1E1,1E1,1E1,1.4E1,1E1,1.1E1,1.8E1,2.1E1,2.8E1,1.2E1,1.12E2,1.1E1,6E1,1.1E1,1E1,1.3E1,1.5E1,1.1E1,1.01E2,1E1,5E1,1.7E1,8.4E1],"tree_param":{"num_deleted":"0","num_feature":"10","num_nodes":"39","size_leaf_vector":"1"}},{"base_weights":[-1.2565951E-4,-3.7373693E-3,1.7225312E-4,-1.452186E-3,6.05922E-4,9.5468643E-4,-2.2291437E-4,-3.8665032E-3,2.3628859E-4,-4.927913E-4,-1.0927082E-3,3.3892675E-3,-3.877637E-4,8.353378E-5,-2.4779537E-4,5.8917474E-4,2.205677E-3,-5.446535E-4,-1.3017065E-4,5.2801508E-5,5.019101E-4,1.14530776E-4,-6.0171187E-5],"categories":[],"categories_nodes":[],"categories_segments":[],"categories_sizes":[],"default_left":[0,0,0,0,0,0,0,0,0,0,0,0,0,0,0,0,0,0,0,0,0,0,0],"id":23,"left_children":[1,3,5,-1,-1,-1,7,9,11,13,-1,15,17,-1,-1,-1,19,-1,21,-1,-1,-1,-1],"loss_changes":[4.095139E-4,3.2708258E-3,1.3314532E-3,0E0,0E0,0E0,5.681104E-4,9.263604E-4,5.955366E-4,7.5901175E-5,0E0,1.4149188E-4,3.357217E-4,0E0,0E0,0E0,1.7188615E-4,0E0,1.5234979E-4,0E0,0E0,0E0,0E0],"parents":[2147483647,0,0,1,1,2,2,6,6,7,7,8,8,9,9,11,11,12,12,16,16,18,18],"right_children":[2,4,6,-1,-1,-1,8,10,12,14,-1,16,18,-1,-1,-1,20,-1,22,-1,-1,-1,-1],"split_conditions":[-1.0722957E0,8.3209616E-1,-7.4758977E-1,-1.452186E-3,6.05922E-4,9.5468643E-4,-4.1560888E-1,-5.0273335E-1,-1.13834545E-1,-5.819151E-1,-1.0927082E-3,-1.2527174E-1,-8.731569E-2,8.353378E-5,-2.4779537E-4,5.8917474E-4,3.7604967E-1,-5.446535E-4,-7.9712737E-1,5.2801508E-5,5.019101E-4,1.14530776E-4,-6.0171187E-5],"split_indices":[1,3,1,0,0,0,1,1,1,1,0,6,1,0,0,0,6,0,6,0,0,0,0],"split_type":[0,0,0,0,0,0,0,0,0,0,0,0,0,0,0,0,0,0,0,0,0,0,0],"sum_hessian":[3.79E2,2.8E1,3.51E2,1.3E1,1.5E1,1.3E1,3.38E2,3.7E1,3.01E2,2.6E1,1.1E1,4.9E1,2.52E2,1.6E1,1E1,1.4E1,3.5E1,1.1E1,2.41E2,2.3E1,1.2E1,6.5E1,1.76E2],"tree_param":{"num_deleted":"0","num_feature":"10","num_nodes":"23","size_leaf_vector":"1"}},{"base_weights":[-2.7901077E-4,-3.4670914E-3,1.2721628E-4,-8.486168E-3,1.9377207E-3,5.102713E-4,-7.0603426E-5,-1.4804805E-3,-2.2063057E-4,4.9475057E-4,-1.5942517E-4,-2.8234203E-3,3.5680126E-4,5.1028437E-5,-1.1493863E-3,5.18472E-4,-3.7200563E-4,-2.769579E-4,1.6728736E-3,2.017666E-3,1.2622218E-4,3.4210656E-4,9.648513E-7,3.6341522E-4,-1.6067432E-4,-4.292821E-5,1.5354923E-4],"categories":[],"categories_nodes":[],"categories_segments":[],"categories_sizes":[],"default_left":[0,0,0,0,0,0,0,0,0,0,0,0,0,0,0,0,0,0,0,0,0,0,0,0,0,0,0],"id":24,"left_children":[1,3,5,7,9,-1,11,-1,-1,-1,-1,13,15,17,-1,19,-1,-1,21,23,25,-1,-1,-1,-1,-1,-1],"loss_changes":[5.04229E-4,1.2100392E-3,3.4756836E-4,9.130634E-4,2.5145445E-4,0E0,3.939807E-4,0E0,0E0,0E0,0E0,1.1504302E-3,1.96428E-4,1.678255E-4,0E0,1.6440172E-4,0E0,0E0,6.932563E-5,3.6341225E-4,1.8150531E-4,0E0,0E0,0E0,0E0,0E0,0E0],"parents":[2147483647,0,0,1,1,2,2,3,3,4,4,6,6,11,11,12,12,13,13,15,15,18,18,19,19,20,20],"right_children":[2,4,6,8,10,-1,12,-1,-1,-1,-1,14,16,18,-1,20,-1,-1,22,24,26,-1,-1,-1,-1,-1,-1],"split_conditions":[-1.439365E0,4.370346E-1,-1.2291884E0,-1.6274701E0,5.491868E-1,5.102713E-4,-7.8733987E-1,-1.4804805E-3,-2.2063057E-4,4.9475057E-4,-1.5942517E-4,-8.7129325E-1,6.6912556E-1,-1.0134535E0,-1.1493863E-3,-4.2746302E-1,-3.7200563E-4,-2.769579E-4,2.9394764E-1,2.8524935E-1,2.5252396E-1,3.4210656E-4,9.648513E-7,3.6341522E-4,-1.6067432E-4,-4.292821E-5,1.5354923E-4],"split_indices":[4,8,9,4,8,0,9,0,0,0,0,9,8,9,0,9,0,0,4,8,8,0,0,0,0,0,0],"split_type":[0,0,0,0,0,0,0,0,0,0,0,0,0,0,0,0,0,0,0,0,0,0,0,0,0,0,0],"sum_hessian":[3.88E2,4.3E1,3.45E2,2.2E1,2.1E1,1.2E1,3.33E2,1E1,1.2E1,1.1E1,1E1,4.4E1,2.89E2,3.4E1,1E1,2.79E2,1E1,1.2E1,2.2E1,5.7E1,2.22E2,1E1,1.2E1,3.9E1,1.8E1,1.6E2,6.2E1],"tree_param":{"num_deleted":"0","num_feature":"10","num_nodes":"27","size_leaf_vector":"1"}},{"base_weights":[1.9314849E-4,9.409203E-4,-2.2149786E-4,-6.9735566E-4,1.1643826E-4,4.781901E-4,-6.804369E-4,3.0241057E-3,-1.6729868E-4,6.799977E-3,8.9580973E-4,4.656785E-4,-4.3956557E-4,2.8060644E-4,1.0987737E-3,7.1386446E-4,-1.1719399E-4,-6.147582E-4,-1.4493677E-5],"categories":[],"categories_nodes":[],"categories_segments":[],"categories_sizes":[],"default_left":[0,0,0,0,0,0,0,0,0,0,0,0,0,0,0,0,0,0,0],"id":25,"left_children":[1,-1,3,-1,5,7,-1,9,11,13,15,-1,17,-1,-1,-1,-1,-1,-1],"loss_changes":[1.4746955E-3,0E0,8.453968E-4,0E0,8.8833383E-4,5.444581E-4,0E0,5.3233193E-4,3.565447E-4,3.8381154E-4,5.952969E-4,0E0,4.275147E-4,0E0,0E0,0E0,0E0,0E0,0E0],"parents":[2147483647,0,0,2,2,4,4,5,5,7,7,8,8,9,9,10,10,12,12],"right_children":[2,-1,4,-1,6,8,-1,10,12,14,16,-1,18,-1,-1,-1,-1,-1,-1],"split_conditions":[-2.769798E0,9.409203E-4,-1.4789944E0,-6.9735566E-4,1.5052305E0,-2.9975453E-1,-6.804369E-4,-5.9128267E-1,-1.6873726E0,-9.096552E-2,-7.433358E-1,4.656785E-4,-1.3278822E0,2.8060644E-4,1.0987737E-3,7.1386446E-4,-1.1719399E-4,-6.147582E-4,-1.4493677E-5],"split_indices":[1,0,9,0,7,1,0,9,7,7,7,0,7,0,0,0,0,0,0],"split_type":[0,0,0,0,0,0,0,0,0,0,0,0,0,0,0,0,0,0,0],"sum_hessian":[3.77E2,1.5E1,3.62E2,1.6E1,3.46E2,3.3E2,1.6E1,6.6E1,2.64E2,2.3E1,4.3E1,1.3E1,2.51E2,1.3E1,1E1,1E1,3.3E1,1.1E1,2.4E2],"tree_param":{"num_deleted":"0","num_feature":"10","num_nodes":"19","size_leaf_vector":"1"}},{"base_weights":[2.3212873E-5,1.7738283E-3,-1.3806134E-3,5.068435E-3,5.502319E-4,-1.0292267E-3,-8.4336987E-4,1.949078E-3,8.238674E-3,-3.4013164E-4,1.2389566E-3,-3.1912085E-3,8.999341E-4,4.3548676E-4,-5.804709E-7,5.0378015E-4,1.0950672E-3,4.8650158E-4,6.894651E-4,3.2630775E-4,-4.5757494E-3,-3.9993084E-4,4.1613593E-3,-7.006319E-5,3.740002E-4,-6.66129E-3,-5.4953084E-4,1.4598935E-3,-6.226049E-3,9.3354826E-4,1.5350232E-3,7.593411E-5,-3.6525828E-4,-1.6338882E-3,-3.527361E-4,3.0518416E-4,-4.9832044E-4,-1.8992336E-4,4.8220158E-4,-9.495521E-4,-2.1684762E-4,2.5856486E-4,3.9418414E-5],"categories":[],"categories_nodes":[],"categories_segments":[],"categories_sizes":[],"default_left":[0,0,0,0,0,0,0,0,0,0,0,0,0,0,0,0,0,0,0,0,0,0,0,0,0,0,0,0,0,0,0,0,0,0,0,0,0,0,0,0,0,0,0],"id":26,"left_children":[1,3,5,7,9,-1,11,13,15,-1,17,19,21,-1,-1,-1,-1,-1,23,-1,25,27,29,31,-1,33,35,37,39,-1,41,-1,-1,-1,-1,-1,-1,-1,-1,-1,-1,-1,-1],"loss_changes":[9.608974E-4,6.9865206E-4,1.0529389E-3,4.487302E-4,3.583595E-4,0E0,8.4602914E-4,1.2166158E-4,1.5127659E-4,0E0,2.213549E-4,8.0917333E-4,5.061543E-4,0E0,0E0,0E0,0E0,0E0,2.3025967E-4,0E0,6.093087E-4,9.4094715E-4,4.6329555E-4,2.46346E-4,0E0,1.4105351E-3,4.4666947E-4,7.835006E-4,2.696208E-4,0E0,2.8857768E-5,0E0,0E0,0E0,0E0,0E0,0E0,0E0,0E0,0E0,0E0,0E0,0E0],"parents":[2147483647,0,0,1,1,2,2,3,3,4,4,6,6,7,7,8,8,10,10,11,11,12,12,18,18,20,20,21,21,22,22,23,23,25,25,26,26,27,27,28,28,30,30],"right_children":[2,4,6,8,10,-1,12,14,16,-1,18,20,22,-1,-1,-1,-1,-1,24,-1,26,28,30,32,-1,34,36,38,40,-1,42,-1,-1,-1,-1,-1,-1,-1,-1,-1,-1,-1,-1],"split_conditions":[1.3887647E-1,-1.393152E-1,1.6624996E-1,6.4887535E-3,6.2003035E-2,-1.0292267E-3,-4.333942E-1,-1.2685096E-1,5.0593298E-2,-3.4013164E-4,2.1667E-1,-1.1276063E0,4.370346E-1,4.3548676E-4,-5.804709E-7,5.0378015E-4,1.0950672E-3,4.8650158E-4,1.0127152E0,3.2630775E-4,5.524958E-1,3.5631266E-1,-2.4438292E-1,7.334234E-1,3.740002E-4,-4.3629888E-1,6.8657297E-1,2.5252396E-1,-9.3025185E-2,9.3354826E-4,5.6018084E-1,7.593411E-5,-3.6525828E-4,-1.6338882E-3,-3.527361E-4,3.0518416E-4,-4.9832044E-4,-1.8992336E-4,4.8220158E-4,-9.495521E-4,-2.1684762E-4,2.5856486E-4,3.9418414E-5],"split_indices":[8,1,8,3,1,0,3,8,8,0,1,3,8,0,0,0,0,0,3,0,8,8,1,1,0,1,8,8,1,0,8,0,0,0,0,0,0,0,0,0,0,0,0],"split_type":[0,0,0,0,0,0,0,0,0,0,0,0,0,0,0,0,0,0,0,0,0,0,0,0,0,0,0,0,0,0,0,0,0,0,0,0,0,0,0,0,0,0,0],"sum_hessian":[3.89E2,1.73E2,2.16E2,4.6E1,1.27E2,1.1E1,2.05E2,2.4E1,2.2E1,1.8E1,1.09E2,8.7E1,1.18E2,1E1,1.4E1,1.2E1,1E1,1.3E1,9.6E1,1.5E1,7.2E1,8.5E1,3.3E1,7.8E1,1.8E1,4.7E1,2.5E1,6.5E1,2E1,1E1,2.3E1,6.4E1,1.4E1,1E1,3.7E1,1.4E1,1.1E1,3.3E1,3.2E1,1E1,1E1,1.1E1,1.2E1],"tree_param":{"num_deleted":"0","num_feature":"10","num_nodes":"43","size_leaf_vector":"1"}},{"base_weights":[-2.050257E-4,-4.0253313E-4,5.840048E-4,-1.1775885E-3,1.9811404E-4,-3.380994E-4,-7.773342E-4,5.829207E-4,-1.1711522E-4,-8.5077214E-4,4.471303E-4,-4.887186E-4,1.6357342E-4,1.6371981E-3,-1.5298233E-3,-4.20659E-4,4.331276E-4,4.415581E-4,-1.0420025E-5,1.6157582E-4,-2.5475374E-4,1.3665268E-4,-3.685908E-5],"categories":[],"categories_nodes":[],"categories_segments":[],"categories_sizes":[],"default_left":[0,0,0,0,0,0,0,0,0,0,0,0,0,0,0,0,0,0,0,0,0,0,0],"id":27,"left_children":[1,3,-1,5,7,9,-1,-1,11,13,-1,-1,15,17,19,-1,21,-1,-1,-1,-1,-1,-1],"loss_changes":[4.69305E-4,1.7387778E-4,0E0,9.2011684E-4,3.8262134E-4,3.70234E-4,0E0,0E0,2.7518466E-4,2.2720269E-4,0E0,0E0,2.309777E-4,1.4519836E-4,3.5987713E-4,0E0,1.4096418E-4,0E0,0E0,0E0,0E0,0E0,0E0],"parents":[2147483647,0,0,1,1,3,3,4,4,5,5,8,8,9,9,12,12,13,13,14,14,16,16],"right_children":[2,4,-1,6,8,10,-1,-1,12,14,-1,-1,16,18,20,-1,22,-1,-1,-1,-1,-1,-1],"split_conditions":[1.9182513E0,1.3822479E-2,5.840048E-4,-1.07915506E-1,6.767124E-2,-1.8257503E-1,-7.773342E-4,5.829207E-4,1.4206935E-1,-1.4968032E0,4.471303E-4,-4.887186E-4,-1.3773863E0,1.1844958E0,-3.6271623E-1,-4.20659E-4,-5.795745E-1,4.415581E-4,-1.0420025E-5,1.6157582E-4,-2.5475374E-4,1.3665268E-4,-3.685908E-5],"split_indices":[6,5,0,5,5,5,0,0,5,5,0,0,6,3,3,0,6,0,0,0,0,0,0],"split_type":[0,0,0,0,0,0,0,0,0,0,0,0,0,0,0,0,0,0,0,0,0,0,0],"sum_hessian":[3.83E2,3.72E2,1.1E1,1.62E2,2.1E2,1.45E2,1.7E1,1E1,2E2,1.32E2,1.3E1,1E1,1.9E2,2.8E1,1.04E2,1E1,1.8E2,1E1,1.8E1,2.6E1,7.8E1,8.2E1,9.8E1],"tree_param":{"num_deleted":"0","num_feature":"10","num_nodes":"23","size_leaf_vector":"1"}},{"base_weights":[5.0039956E-4,-2.6368408E-4,6.6316687E-4,5.4903055E-4,4.960067E-4,-2.3120372E-3,6.867478E-4,-5.76059E-4,8.602505E-5,3.2223128E-3,3.3321767E-4,3.7695394E-5,5.656009E-3,5.6755176E-4,-3.732039E-4,2.6423763E-4,7.753416E-4,3.9523566E-5,3.2105861E-4],"categories":[],"categories_nodes":[],"categories_segments":[],"categories_sizes":[],"default_left":[0,0,0,0,0,0,0,0,0,0,0,0,0,0,0,0,0,0,0],"id":28,"left_children":[1,-1,3,-1,5,7,9,-1,-1,11,13,-1,15,17,-1,-1,-1,-1,-1],"loss_changes":[2.0256237E-4,0E0,3.014213E-4,0E0,1.9333593E-4,2.6610517E-4,3.001162E-4,0E0,0E0,2.810254E-4,2.8906547E-4,0E0,1.2508593E-4,1.239017E-4,0E0,0E0,0E0,0E0,0E0],"parents":[2147483647,0,0,2,2,4,4,5,5,6,6,9,9,10,10,12,12,13,13],"right_children":[2,-1,4,-1,6,8,10,-1,-1,12,14,-1,16,18,-1,-1,-1,-1,-1],"split_conditions":[-1.4443709E0,-2.6368408E-4,-9.8174363E-1,5.4903055E-4,-6.4857155E-1,-5.431142E-1,-2.9975453E-1,-5.76059E-4,8.602505E-5,-4.0989256E-1,1.4694308E0,3.7695394E-5,-5.0273335E-1,1.1410806E0,-3.732039E-4,2.6423763E-4,7.753416E-4,3.9523566E-5,3.2105861E-4],"split_indices":[1,0,1,0,1,3,1,0,0,5,5,0,1,1,0,0,0,0,0],"split_type":[0,0,0,0,0,0,0,0,0,0,0,0,0,0,0,0,0,0,0],"sum_hessian":[3.86E2,1.8E1,3.68E2,1.1E1,3.57E2,2.2E1,3.35E2,1E1,1.2E1,4E1,2.95E2,1.9E1,2.1E1,2.8E2,1.5E1,1E1,1.1E1,2.65E2,1.5E1],"tree_param":{"num_deleted":"0","num_feature":"10","num_nodes":"19","size_leaf_vector":"1"}},{"base_weights":[-9.131026E-5,5.002275E-4,-3.136428E-4,-7.460652E-4,-9.189791E-5,5.7409885E-3,-4.6684413E-4,3.3791893E-4,7.581044E-4,-3.364416E-3,-1.0430454E-4,-6.32856E-4,-9.0575905E-4,8.894936E-5,-5.1789277E-4,-2.858712E-4,1.0960445E-4,-1.3252103E-5,5.282144E-4],"categories":[],"categories_nodes":[],"categories_segments":[],"categories_sizes":[],"default_left":[0,0,0,0,0,0,0,0,0,0,0,0,0,0,0,0,0,0,0],"id":29,"left_children":[1,-1,3,-1,5,7,9,-1,-1,11,13,15,-1,17,-1,-1,-1,-1,-1],"loss_changes":[4.4921378E-4,0E0,6.021864E-4,0E0,7.96568E-4,7.369724E-5,3.5891475E-4,0E0,0E0,6.030081E-4,3.053926E-4,1.1098327E-4,0E0,3.5052965E-4,0E0,0E0,0E0,0E0,0E0],"parents":[2147483647,0,0,2,2,4,4,5,5,6,6,9,9,10,10,11,11,13,13],"right_children":[2,-1,4,-1,6,8,10,-1,-1,12,14,16,-1,18,-1,-1,-1,-1,-1],"split_conditions":[-2.769798E0,5.002275E-4,-1.4443709E0,-7.460652E-4,-7.4758977E-1,-7.13821E-1,-4.1560888E-1,3.3791893E-4,7.581044E-4,-5.1314443E-1,1.9032874E0,-6.252409E-1,-9.0575905E-4,1.1410806E0,-5.1789277E-4,-2.858712E-4,1.0960445E-4,-1.3252103E-5,5.282144E-4],"split_indices":[1,0,1,0,1,3,1,0,0,1,1,1,0,1,0,0,0,0,0],"split_type":[0,0,0,0,0,0,0,0,0,0,0,0,0,0,0,0,0,0,0],"sum_hessian":[3.87E2,1.5E1,3.72E2,1E1,3.62E2,2.1E1,3.41E2,1.1E1,1E1,3.7E1,3.04E2,2.6E1,1.1E1,2.94E2,1E1,1.1E1,1.5E1,2.83E2,1.1E1],"tree_param":{"num_deleted":"0","num_feature":"10","num_nodes":"19","size_leaf_vector":"1"}},{"base_weights":[-4.262382E-4,4.809056E-5,-3.091978E-3,-3.6877993E-4,5.031163E-3,-7.2360336E-4,-1.1462542E-3,-2.623344E-5,-5.3839723E-4,9.787936E-4,7.731706E-5,1.2401925E-4,-3.4336228E-4,1.7410371E-3,-6.534833E-4,-9.5234794E-4,8.199208E-3,-3.97946E-3,2.757465E-5,7.4253774E-5,-3.798208E-4,1.121286E-3,4.147692E-4,-7.291254E-4,1.4530619E-4,7.370772E-4,-5.8903945E-5],"categories":[],"categories_nodes":[],"categories_segments":[],"categories_sizes":[],"default_left":[0,0,0,0,0,0,0,0,0,0,0,0,0,0,0,0,0,0,0,0,0,0,0,0,0,0,0],"id":30,"left_children":[1,3,5,7,9,-1,11,13,-1,-1,-1,-1,-1,15,17,19,21,23,25,-1,-1,-1,-1,-1,-1,-1,-1],"loss_changes":[4.6040377E-4,6.458171E-4,4.497678E-4,5.0298235E-4,4.9554394E-4,0E0,2.2556256E-4,3.0043823E-4,0E0,0E0,0E0,0E0,0E0,1.2428068E-3,4.5314635E-4,2.5727824E-4,2.2092485E-4,6.5159873E-4,7.891405E-4,0E0,0E0,0E0,0E0,0E0,0E0,0E0,0E0],"parents":[2147483647,0,0,1,1,2,2,3,3,4,4,6,6,7,7,13,13,14,14,15,15,16,16,17,17,18,18],"right_children":[2,4,6,8,10,-1,12,14,-1,-1,-1,-1,-1,16,18,20,22,24,26,-1,-1,-1,-1,-1,-1,-1,-1],"split_conditions":[4.9641767E-1,4.140982E-1,5.524958E-1,3.7412822E-1,-3.3551082E-1,-7.2360336E-4,6.429425E-1,-7.780718E-1,-5.3839723E-4,9.787936E-4,7.731706E-5,1.2401925E-4,-3.4336228E-4,-1.0028945E0,-3.555779E-1,2.200419E-1,-8.954889E-1,1.5780945E-1,-2.616974E-1,7.4253774E-5,-3.798208E-4,1.121286E-3,4.147692E-4,-7.291254E-4,1.4530619E-4,7.370772E-4,-5.8903945E-5],"split_indices":[8,8,8,8,6,0,8,6,0,0,0,0,0,6,6,8,6,8,6,0,0,0,0,0,0,0,0],"split_type":[0,0,0,0,0,0,0,0,0,0,0,0,0,0,0,0,0,0,0,0,0,0,0,0,0,0,0],"sum_hessian":[3.63E2,3.09E2,5.4E1,2.86E2,2.3E1,1.6E1,3.8E1,2.69E2,1.7E1,1E1,1.3E1,1.9E1,1.9E1,7E1,1.99E2,5E1,2E1,3.3E1,1.66E2,3.2E1,1.8E1,1E1,1E1,2E1,1.3E1,1.2E1,1.54E2],"tree_param":{"num_deleted":"0","num_feature":"10","num_nodes":"27","size_leaf_vector":"1"}},{"base_weights":[-1.1973332E-4,1.1510593E-4,-7.136466E-4,5.200969E-4,-2.1843903E-3,1.4943752E-4,4.591603E-3,-6.5921486E-4,2.0436824E-5,-6.2978046E-4,5.351916E-4,9.7119826E-4,-2.3773953E-4,3.6514076E-4,-3.1523919E-3,4.4554396E-4,3.002635E-4,6.132429E-5,-6.5189926E-4,-1.036796E-4,1.07701155E-4],"categories":[],"categories_nodes":[],"categories_segments":[],"categories_sizes":[],"default_left":[0,0,0,0,0,0,0,0,0,0,0,0,0,0,0,0,0,0,0,0,0],"id":31,"left_children":[1,3,-1,5,7,9,11,-1,13,-1,15,-1,-1,-1,17,-1,19,-1,-1,-1,-1],"loss_changes":[6.340899E-4,3.4198284E-4,0E0,4.7016624E-4,5.498678E-4,7.304944E-4,9.915106E-4,0E0,4.578896E-4,0E0,2.5456346E-4,0E0,0E0,0E0,2.8104853E-4,0E0,2.8024268E-4,0E0,0E0,0E0,0E0],"parents":[2147483647,0,0,1,1,3,3,4,4,5,5,6,6,8,8,10,10,14,14,16,16],"right_children":[2,4,-1,6,8,10,12,-1,14,-1,16,-1,-1,-1,18,-1,20,-1,-1,-1,-1],"split_conditions":[1.6364955E0,4.9641767E-1,-7.136466E-4,4.140982E-1,5.524958E-1,-1.2667699E0,-3.6254102E-1,-6.5921486E-4,-7.433358E-1,-6.2978046E-4,-1.5629617E0,9.7119826E-4,-2.3773953E-4,3.6514076E-4,-6.912716E-1,4.4554396E-4,5.0871797E-2,6.132429E-5,-6.5189926E-4,-1.036796E-4,1.07701155E-4],"split_indices":[7,8,0,8,8,9,9,0,7,0,7,0,0,0,9,0,8,0,0,0,0],"split_type":[0,0,0,0,0,0,0,0,0,0,0,0,0,0,0,0,0,0,0,0,0],"sum_hessian":[3.76E2,3.65E2,1.1E1,3.11E2,5.4E1,2.86E2,2.5E1,1.7E1,3.7E1,1.5E1,2.71E2,1.4E1,1.1E1,1.7E1,2E1,1.4E1,2.57E2,1E1,1E1,9.5E1,1.62E2],"tree_param":{"num_deleted":"0","num_feature":"10","num_nodes":"21","size_leaf_vector":"1"}},{"base_weights":[-3.4101921E-4,2.882156E-3,-9.5000817E-4,9.355602E-4,1.1943763E-3,-1.3251926E-3,3.485154E-3,5.965096E-4,-3.794658E-4,-8.557099E-4,-5.73795E-3,7.8782515E-4,-7.733006E-6,1.4028872E-3,-3.8418293E-4,-7.832131E-4,-5.461911E-4,-1.1912712E-3,-8.651775E-5,-2.6602167E-4,7.123362E-4,-2.8253256E-4,-5.7737646E-4,-1.42648405E-5,-3.1276993E-4],"categories":[],"categories_nodes":[],"categories_segments":[],"categories_sizes":[],"default_left":[0,0,0,0,0,0,0,0,0,0,0,0,0,0,0,0,0,0,0,0,0,0,0,0,0],"id":32,"left_children":[1,3,5,-1,7,9,11,-1,13,15,17,-1,-1,19,-1,-1,21,-1,-1,-1,-1,23,-1,-1,-1],"loss_changes":[7.407803E-4,6.621979E-4,5.321078E-4,0E0,3.7897553E-4,6.0210197E-4,4.0541866E-4,0E0,2.4495073E-4,5.823018E-4,8.597627E-4,0E0,0E0,6.4603443E-4,0E0,0E0,3.5860157E-4,0E0,0E0,0E0,0E0,9.715321E-5,0E0,0E0,0E0],"parents":[2147483647,0,0,1,1,2,2,4,4,5,5,6,6,8,8,9,9,10,10,13,13,16,16,21,21],"right_children":[2,4,6,-1,8,10,12,-1,14,16,18,-1,-1,20,-1,-1,22,-1,-1,-1,-1,24,-1,-1,-1],"split_conditions":[-1.064951E0,-1.158208E0,1.602112E0,9.355602E-4,-1.9640574E0,1.2629677E0,-4.2546132E-1,5.965096E-4,5.36267E-1,-9.4957167E-1,1.3640661E0,7.8782515E-4,-7.733006E-6,-4.881037E-1,-3.8418293E-4,-7.832131E-4,1.6364955E0,-1.1912712E-3,-8.651775E-5,-2.6602167E-4,7.123362E-4,1.2363745E0,-5.7737646E-4,-1.42648405E-5,-3.1276993E-4],"split_indices":[7,0,0,0,7,0,7,0,0,7,0,0,0,6,0,0,7,0,0,0,0,6,0,0,0],"split_type":[0,0,0,0,0,0,0,0,0,0,0,0,0,0,0,0,0,0,0,0,0,0,0,0,0],"sum_hessian":[3.75E2,5.9E1,3.16E2,1.1E1,4.8E1,2.92E2,2.4E1,1.1E1,3.7E1,2.65E2,2.7E1,1E1,1.4E1,2.5E1,1.2E1,1E1,2.55E2,1.1E1,1.6E1,1.5E1,1E1,2.44E2,1.1E1,2.34E2,1E1],"tree_param":{"num_deleted":"0","num_feature":"10","num_nodes":"25","size_leaf_vector":"1"}},{"base_weights":[7.971684E-5,-4.379126E-3,5.0722295E-4,-1.2975228E-3,6.434698E-4,9.901483E-4,1.3046521E-4,4.4799523E-4,-3.6243277E-4,-2.374906E-3,6.806184E-4,-5.5921474E-4,-8.145702E-4,9.556144E-4,-5.8448676E-4,-1.9951875E-3,3.724388E-4,-5.300314E-4,1.2810465E-3,4.5714198E-5,-2.904354E-4,2.6678355E-4,-3.0516476E-5],"categories":[],"categories_nodes":[],"categories_segments":[],"categories_sizes":[],"default_left":[0,0,0,0,0,0,0,0,0,0,0,0,0,0,0,0,0,0,0,0,0,0,0],"id":33,"left_children":[1,3,5,-1,7,-1,9,-1,-1,11,13,15,-1,17,-1,19,-1,-1,21,-1,-1,-1,-1],"loss_changes":[7.1894587E-4,1.4742245E-3,1.2406585E-3,0E0,3.9103781E-4,0E0,4.5922457E-4,0E0,0E0,6.409342E-4,5.0394074E-4,3.01462E-4,0E0,5.5099366E-4,0E0,8.682799E-5,0E0,0E0,5.75302E-4,0E0,0E0,0E0,0E0],"parents":[2147483647,0,0,1,1,2,2,4,4,6,6,9,9,10,10,11,11,13,13,15,15,18,18],"right_children":[2,4,6,-1,8,-1,10,-1,-1,12,14,16,-1,18,-1,20,-1,-1,22,-1,-1,-1,-1],"split_conditions":[-1.6274701E0,4.370346E-1,-1.5445335E0,-1.2975228E-3,-2.1507492E0,9.901483E-4,-1.0144034E-1,4.4799523E-4,-3.6243277E-4,-1.3801916E-1,1.5967696E0,-1.7892145E-1,-8.145702E-4,-1.4269099E0,-5.8448676E-4,-5.135711E-1,3.724388E-4,-5.300314E-4,4.262104E-1,4.5714198E-5,-2.904354E-4,2.6678355E-4,-3.0516476E-5],"split_indices":[4,8,7,0,4,0,8,0,0,8,7,8,0,4,0,7,0,0,4,0,0,0,0],"split_type":[0,0,0,0,0,0,0,0,0,0,0,0,0,0,0,0,0,0,0,0,0,0,0],"sum_hessian":[3.75E2,3.2E1,3.43E2,1.1E1,2.1E1,1.2E1,3.31E2,1.1E1,1E1,5.9E1,2.72E2,4.6E1,1.3E1,2.62E2,1E1,3.5E1,1.1E1,1.2E1,2.5E2,1E1,2.5E1,1.31E2,1.19E2],"tree_param":{"num_deleted":"0","num_feature":"10","num_nodes":"23","size_leaf_vector":"1"}},{"base_weights":[6.4255734E-4,1.253972E-3,-6.9452834E-4,6.3111226E-4,3.952859E-3,-2.2574365E-3,9.0664136E-4,1.087119E-3,-7.573093E-4,6.279184E-3,-1.0718315E-4,7.25575E-5,-9.732986E-4,-1.569463E-3,5.7048904E-4,8.3287894E-5,2.5306407E-3,3.1835202E-4,7.4577197E-3,-2.71943E-4,1.629703E-3,-7.429453E-6,-5.580615E-4,9.833076E-4,-7.873903E-4,6.149582E-3,6.42259E-4,1.0613345E-3,3.967361E-4,2.903088E-4,-7.070805E-5,-3.517132E-4,1.9234869E-4,4.3835145E-4,1.85872E-5,7.880107E-4,2.466269E-4,-3.5072928E-5,4.5860925E-4],"categories":[],"categories_nodes":[],"categories_segments":[],"categories_sizes":[],"default_left":[0,0,0,0,0,0,0,0,0,0,0,0,0,0,0,0,0,0,0,0,0,0,0,0,0,0,0,0,0,0,0,0,0,0,0,0,0,0,0],"id":34,"left_children":[1,3,5,7,9,11,13,15,-1,17,-1,19,-1,21,-1,23,25,-1,27,-1,29,31,-1,33,-1,35,37,-1,-1,-1,-1,-1,-1,-1,-1,-1,-1,-1,-1],"loss_changes":[3.0662102E-4,4.295295E-4,2.9733946E-4,8.078448E-4,5.702123E-4,1.0717075E-3,7.259705E-4,2.8959964E-4,0E0,9.384414E-5,0E0,2.1263982E-4,0E0,2.5721925E-4,0E0,8.7618135E-4,5.5643375E-4,0E0,2.1999178E-4,0E0,9.893491E-5,2.1814284E-4,0E0,2.9784694E-4,0E0,1.7129409E-4,2.233101E-4,0E0,0E0,0E0,0E0,0E0,0E0,0E0,0E0,0E0,0E0,0E0,0E0],"parents":[2147483647,0,0,1,1,2,2,3,3,4,4,5,5,6,6,7,7,9,9,11,11,13,13,15,15,16,16,18,18,20,20,21,21,23,23,25,25,26,26],"right_children":[2,4,6,8,10,12,14,16,-1,18,-1,20,-1,22,-1,24,26,-1,28,-1,30,32,-1,34,-1,36,38,-1,-1,-1,-1,-1,-1,-1,-1,-1,-1,-1,-1],"split_conditions":[5.670976E-1,1.6701885E-1,3.9344594E-1,8.871597E-2,5.0912464E-1,2.7869713E-1,1.1125855E0,2.4120077E-1,-7.573093E-4,-8.322145E-1,-1.0718315E-4,-4.804325E-1,-9.732986E-4,9.735888E-1,5.7048904E-4,6.6890195E-2,3.3545235E-1,3.1835202E-4,-1.6018437E-1,-2.71943E-4,1.284519E0,6.984953E-1,-5.580615E-4,-1.3949085E0,-7.873903E-4,7.190162E-1,-2.2090475E-1,1.0613345E-3,3.967361E-4,2.903088E-4,-7.070805E-5,-3.517132E-4,1.9234869E-4,4.3835145E-4,1.85872E-5,7.880107E-4,2.466269E-4,-3.5072928E-5,4.5860925E-4],"split_indices":[7,7,4,7,5,4,7,5,0,5,0,5,0,7,0,5,4,0,5,0,7,7,0,7,0,5,7,0,0,0,0,0,0,0,0,0,0,0,0],"split_type":[0,0,0,0,0,0,0,0,0,0,0,0,0,0,0,0,0,0,0,0,0,0,0,0,0,0,0,0,0,0,0,0,0,0,0,0,0,0,0],"sum_hessian":[3.73E2,2.56E2,1.17E2,2.09E2,4.7E1,5.9E1,5.8E1,1.99E2,1E1,3.2E1,1.5E1,4.6E1,1.3E1,3.9E1,1.9E1,1.18E2,8.1E1,1E1,2.2E1,1.6E1,3E1,2.9E1,1E1,1.07E2,1.1E1,2.7E1,5.4E1,1E1,1.2E1,1.9E1,1.1E1,1E1,1.9E1,1.9E1,8.8E1,1.7E1,1E1,4.4E1,1E1],"tree_param":{"num_deleted":"0","num_feature":"10","num_nodes":"39","size_leaf_vector":"1"}},{"base_weights":[7.896882E-6,1.0226647E-3,-7.613239E-4,4.491489E-3,9.5153264E-5,-8.4401097E-4,-3.0538513E-4,9.056716E-5,6.3132257E-3,-1.7045337E-3,1.2862565E-3,-2.4129194E-3,4.6799594E-4,9.86224E-4,2.6158727E-4,-9.70812E-4,-4.3352132E-4,5.3099386E-4,3.2931555E-4,3.820504E-4,-4.221267E-3,6.67017E-4,-2.2136874E-5,-2.5476687E-4,8.852347E-5,-1.2515651E-3,2.268091E-3,-1.2484954E-3,-1.3466541E-3,-3.8460302E-4,6.066104E-4,2.2641115E-4,-1.3270444E-4,4.110012E-5,-5.139969E-4,-6.75107E-5,6.0710195E-4,-4.348806E-4,5.27444E-5,4.8564523E-4,9.535982E-6],"categories":[],"categories_nodes":[],"categories_segments":[],"categories_sizes":[],"default_left":[0,0,0,0,0,0,0,0,0,0,0,0,0,0,0,0,0,0,0,0,0,0,0,0,0,0,0,0,0,0,0,0,0,0,0,0,0,0,0,0,0],"id":35,"left_children":[1,3,5,7,9,-1,11,-1,13,15,17,19,21,-1,-1,23,-1,-1,25,-1,27,-1,29,-1,31,33,35,-1,37,-1,39,-1,-1,-1,-1,-1,-1,-1,-1,-1,-1],"loss_changes":[3.0052147E-4,5.336567E-4,7.8015163E-4,2.2170838E-4,2.8514935E-4,0E0,3.4015407E-4,0E0,2.867034E-4,1.0122113E-4,3.1399247E-4,6.5504434E-4,4.7477783E-4,0E0,0E0,7.426762E-5,0E0,0E0,2.0512684E-4,0E0,1.0581511E-3,0E0,3.527714E-4,0E0,8.943322E-5,2.485635E-4,3.5175742E-4,0E0,2.0000685E-4,0E0,2.7382275E-4,0E0,0E0,0E0,0E0,0E0,0E0,0E0,0E0,0E0,0E0],"parents":[2147483647,0,0,1,1,2,2,3,3,4,4,6,6,8,8,9,9,10,10,11,11,12,12,15,15,18,18,20,20,22,22,24,24,25,25,26,26,28,28,30,30],"right_children":[2,4,6,8,10,-1,12,-1,14,16,18,20,22,-1,-1,24,-1,-1,26,-1,28,-1,30,-1,32,34,36,-1,38,-1,40,-1,-1,-1,-1,-1,-1,-1,-1,-1,-1],"split_conditions":[1.3887647E-1,-2.2151026E-1,1.5780945E-1,-8.723696E-1,-8.189706E-2,-8.4401097E-4,-4.3629888E-1,9.056716E-5,-2.0695709E-2,-1.4844002E-1,-2.152885E-2,-1.1299298E0,1.8098271E-1,9.86224E-4,2.6158727E-4,-5.847305E-1,-4.3352132E-4,5.3099386E-4,7.847404E-2,3.820504E-4,-4.0101835E-1,6.67017E-4,2.4499723E-1,-2.5476687E-4,-8.359548E-2,6.351756E-1,6.351756E-1,-1.2484954E-3,-8.723696E-1,-3.8460302E-4,2.8524935E-1,2.2641115E-4,-1.3270444E-4,4.110012E-5,-5.139969E-4,-6.75107E-5,6.0710195E-4,-4.348806E-4,5.27444E-5,4.8564523E-4,9.535982E-6],"split_indices":[8,1,8,1,8,0,1,0,6,8,8,6,8,0,0,6,0,0,8,0,6,0,8,0,6,1,1,0,1,0,8,0,0,0,0,0,0,0,0,0,0],"split_type":[0,0,0,0,0,0,0,0,0,0,0,0,0,0,0,0,0,0,0,0,0,0,0,0,0,0,0,0,0,0,0,0,0,0,0,0,0,0,0,0,0],"sum_hessian":[3.83E2,1.65E2,2.18E2,3.4E1,1.31E2,1.1E1,2.07E2,1.2E1,2.2E1,5.2E1,7.9E1,5.5E1,1.52E2,1E1,1.2E1,4.2E1,1E1,1.4E1,6.5E1,1.2E1,4.3E1,1E1,1.42E2,1.6E1,2.6E1,3.6E1,2.9E1,1E1,3.3E1,1.9E1,1.23E2,1E1,1.6E1,2.6E1,1E1,1.7E1,1.2E1,1.2E1,2.1E1,1.2E1,1.11E2],"tree_param":{"num_deleted":"0","num_feature":"10","num_nodes":"41","size_leaf_vector":"1"}},{"base_weights":[-6.588811E-5,7.7650044E-4,-3.0616298E-4,-1.3030268E-3,6.6019E-4,-6.2386115E-4,-1.1462506E-3,-2.9216944E-3,1.2345304E-3,5.645172E-5,-1.9385421E-3,-1.2788913E-5,-5.596476E-4,3.2885529E-3,4.093618E-4,-1.763207E-3,2.7451548E-3,8.740846E-5,-3.832343E-3,6.720089E-4,7.5573317E-4,-2.3274354E-3,1.1486071E-3,-3.5708115E-5,-7.5123995E-4,-1.550335E-4,4.599144E-4,2.3882707E-4,-1.2517629E-4,6.615252E-5,-8.227096E-4,2.4691492E-4,-3.5530586E-5,-4.7242182E-4,1.2513286E-4,-2.3900821E-4,1.8990622E-4],"categories":[],"categories_nodes":[],"categories_segments":[],"categories_sizes":[],"default_left":[0,0,0,0,0,0,0,0,0,0,0,0,0,0,0,0,0,0,0,0,0,0,0,0,0,0,0,0,0,0,0,0,0,0,0,0,0],"id":36,"left_children":[1,-1,3,5,7,9,-1,11,13,15,17,-1,-1,19,21,23,25,27,29,-1,31,33,35,-1,-1,-1,-1,-1,-1,-1,-1,-1,-1,-1,-1,-1,-1],"loss_changes":[7.2133227E-4,0E0,3.5247288E-4,1.2613896E-3,3.8625006E-4,1.5215647E-4,0E0,2.011146E-4,2.7153504E-4,5.576952E-4,2.2286629E-4,0E0,0E0,4.095403E-4,2.373604E-4,5.578855E-4,3.9367907E-4,9.5848605E-5,6.209742E-4,0E0,5.600994E-5,2.3010625E-4,2.6409695E-4,0E0,0E0,0E0,0E0,0E0,0E0,0E0,0E0,0E0,0E0,0E0,0E0,0E0,0E0],"parents":[2147483647,0,0,2,2,3,3,4,4,5,5,7,7,8,8,9,9,10,10,13,13,14,14,15,15,16,16,17,17,18,18,20,20,21,21,22,22],"right_children":[2,-1,4,6,8,10,-1,12,14,16,18,-1,-1,20,22,24,26,28,30,-1,32,34,36,-1,-1,-1,-1,-1,-1,-1,-1,-1,-1,-1,-1,-1,-1],"split_conditions":[-1.9640574E0,7.7650044E-4,1.1630388E-1,5.067124E-2,-1.2204853E0,3.949993E-1,-1.1462506E-3,-1.462489E0,4.4280234E-1,4.7958764E-1,8.007744E-1,-1.2788913E-5,-5.596476E-4,5.4644907E-1,5.6421536E-1,1.0334954E-1,-1.3823162E0,-1.0642765E0,-1.7219541E0,6.720089E-4,-1.918294E-1,-3.788021E-1,-1.092649E0,-3.5708115E-5,-7.5123995E-4,-1.550335E-4,4.599144E-4,2.3882707E-4,-1.2517629E-4,6.615252E-5,-8.227096E-4,2.4691492E-4,-3.5530586E-5,-4.7242182E-4,1.2513286E-4,-2.3900821E-4,1.8990622E-4],"split_indices":[7,0,5,5,3,7,0,3,5,3,3,0,0,7,5,3,5,5,5,0,3,3,7,0,0,0,0,0,0,0,0,0,0,0,0,0,0],"split_type":[0,0,0,0,0,0,0,0,0,0,0,0,0,0,0,0,0,0,0,0,0,0,0,0,0,0,0,0,0,0,0,0,0,0,0,0,0],"sum_hessian":[3.74E2,1E1,3.64E2,1.79E2,1.85E2,1.69E2,1E1,2.5E1,1.6E2,1.12E2,5.7E1,1.3E1,1.2E1,4.5E1,1.15E2,6.7E1,4.5E1,2.8E1,2.9E1,1.8E1,2.7E1,2.4E1,9.1E1,5.5E1,1.2E1,1.4E1,3.1E1,1E1,1.8E1,1.5E1,1.4E1,1E1,1.7E1,1.4E1,1E1,1.6E1,7.5E1],"tree_param":{"num_deleted":"0","num_feature":"10","num_nodes":"37","size_leaf_vector":"1"}},{"base_weights":[-1.6832715E-4,-1.9364917E-3,4.03411E-4,-4.022407E-3,1.5358826E-3,-7.417095E-4,1.4269383E-3,-2.322743E-3,-9.145559E-4,7.1711827E-4,-9.651253E-4,-2.7962183E-4,-5.938231E-4,7.8772195E-4,9.128416E-4,-3.0231258E-4,-6.7899865E-4,1.3879368E-4,-3.3888844E-4,-1.0999412E-3,8.291647E-4,2.3209298E-4,2.5064116E-3,3.3897528E-4,-2.0858082E-3,-3.0005036E-4,-3.3360993E-4,2.7926487E-3,-7.810375E-4,1.3824445E-3,-2.2150797E-3,5.959126E-4,7.5864565E-4,9.997853E-5,-4.9228844E-4,-1.8400667E-4,1.0113832E-4,-4.274401E-5,4.8809015E-4,-2.0777753E-4,7.708286E-5,5.073688E-5,5.041194E-4,4.7662368E-5,-4.6961402E-4,-1.634939E-4,2.0159215E-4],"categories":[],"categories_nodes":[],"categories_segments":[],"categories_sizes":[],"default_left":[0,0,0,0,0,0,0,0,0,0,0,0,0,0,0,0,0,0,0,0,0,0,0,0,0,0,0,0,0,0,0,0,0,0,0,0,0,0,0,0,0,0,0,0,0,0,0],"id":37,"left_children":[1,3,5,7,9,11,13,15,-1,-1,17,19,-1,-1,21,23,-1,-1,-1,25,27,29,31,-1,33,35,-1,37,39,41,43,-1,45,-1,-1,-1,-1,-1,-1,-1,-1,-1,-1,-1,-1,-1,-1],"loss_changes":[3.889772E-4,6.8702723E-4,3.4212845E-4,5.095662E-4,5.267286E-4,3.3689052E-4,5.1522197E-4,4.2510906E-4,0E0,0E0,1.588266E-4,1.173356E-4,0E0,0E0,1.5563246E-4,2.2830165E-4,0E0,0E0,0E0,1.3510251E-4,1.7606953E-4,2.9020332E-4,2.634058E-4,0E0,2.143902E-4,1.1930352E-4,0E0,1.7820096E-4,6.655777E-5,2.2480245E-4,2.3142018E-4,0E0,9.767093E-5,0E0,0E0,0E0,0E0,0E0,0E0,0E0,0E0,0E0,0E0,0E0,0E0,0E0,0E0],"parents":[2147483647,0,0,1,1,2,2,3,3,4,4,5,5,6,6,7,7,10,10,11,11,14,14,15,15,19,19,20,20,21,21,22,22,24,24,25,25,27,27,28,28,29,29,30,30,32,32],"right_children":[2,4,6,8,10,12,14,16,-1,-1,18,20,-1,-1,22,24,-1,-1,-1,26,28,30,32,-1,34,36,-1,38,40,42,44,-1,46,-1,-1,-1,-1,-1,-1,-1,-1,-1,-1,-1,-1,-1,-1],"split_conditions":[-5.700516E-1,3.611219E-1,-2.6545823E-1,3.129108E-1,-6.448474E-1,-3.9230198E-1,-1.8519446E-1,1.2285684E0,-9.145559E-4,7.1711827E-4,4.9641767E-1,-8.9737946E-1,-5.938231E-4,7.8772195E-4,2.537038E-1,1.6732682E-2,-6.7899865E-4,1.3879368E-4,-3.3888844E-4,-1.0630126E0,3.553455E-1,1.6560082E-1,3.4750754E-1,3.3897528E-4,7.4166507E-1,-1.2980332E0,-3.3360993E-4,-1.3616495E-1,-5.8228934E-1,1.1536439E-1,8.7241834E-1,5.959126E-4,4.0594405E-1,9.997853E-5,-4.9228844E-4,-1.8400667E-4,1.0113832E-4,-4.274401E-5,4.8809015E-4,-2.0777753E-4,7.708286E-5,5.073688E-5,5.041194E-4,4.7662368E-5,-4.6961402E-4,-1.634939E-4,2.0159215E-4],"split_indices":[4,8,0,8,0,0,0,0,0,0,8,0,0,0,8,8,0,0,0,0,4,8,8,0,0,0,0,8,0,8,0,0,8,0,0,0,0,0,0,0,0,0,0,0,0,0,0],"split_type":[0,0,0,0,0,0,0,0,0,0,0,0,0,0,0,0,0,0,0,0,0,0,0,0,0,0,0,0,0,0,0,0,0,0,0,0,0,0,0,0,0,0,0,0,0,0,0],"sum_hessian":[3.83E2,9.3E1,2.9E2,5.8E1,3.5E1,1.37E2,1.53E2,4.5E1,1.3E1,1E1,2.5E1,1.27E2,1E1,1E1,1.43E2,3.2E1,1.3E1,1.3E1,1.2E1,7.3E1,5.4E1,1.01E2,4.2E1,1E1,2.2E1,5.5E1,1.8E1,2.4E1,3E1,6.9E1,3.2E1,1.3E1,2.9E1,1.1E1,1.1E1,2.5E1,3E1,1E1,1.4E1,1.6E1,1.4E1,5.7E1,1.2E1,1.6E1,1.6E1,1E1,1.9E1],"tree_param":{"num_deleted":"0","num_feature":"10","num_nodes":"47","size_leaf_vector":"1"}},{"base_weights":[2.4282222E-4,2.6019975E-3,-1.1143589E-4,7.3339447E-4,4.3982847E-4,-6.859019E-4,2.1854568E-4,-1.8382682E-4,3.2419822E-4,-3.309672E-5,4.0372487E-4,5.5857917E-4,-2.1774047E-3,-7.4340863E-4,1.5858574E-3,-6.556342E-4,-2.6981378E-4,3.6299407E-5,-8.320984E-4,4.4653806E-4,2.1365164E-5,2.2524109E-4,-1.9634046E-4],"categories":[],"categories_nodes":[],"categories_segments":[],"categories_sizes":[],"default_left":[0,0,0,0,0,0,0,0,0,0,0,0,0,0,0,0,0,0,0,0,0,0,0],"id":38,"left_children":[1,3,5,-1,7,-1,9,-1,-1,11,-1,13,15,17,19,-1,21,-1,-1,-1,-1,-1,-1],"loss_changes":[3.136988E-4,5.128402E-4,7.437112E-4,0E0,2.3804454E-4,0E0,3.0696767E-4,0E0,0E0,3.7549317E-4,0E0,3.114798E-4,5.4804474E-4,8.9023646E-4,5.262777E-4,0E0,2.0883934E-4,0E0,0E0,0E0,0E0,0E0,0E0],"parents":[2147483647,0,0,1,1,2,2,4,4,6,6,9,9,11,11,12,12,13,13,14,14,16,16],"right_children":[2,4,6,-1,8,-1,10,-1,-1,12,-1,14,16,18,20,-1,22,-1,-1,-1,-1,-1,-1],"split_conditions":[-1.0846244E0,-9.987411E-1,-9.8358697E-1,7.3339447E-4,-1.1299298E0,-6.859019E-4,1.7815555E0,-1.8382682E-4,3.2419822E-4,9.6583545E-1,4.0372487E-4,-2.7877805E-1,6.096439E-1,-3.9496118E-1,-4.2746302E-1,-6.556342E-4,1.286342E0,3.6299407E-5,-8.320984E-4,4.4653806E-4,2.1365164E-5,2.2524109E-4,-1.9634046E-4],"split_indices":[3,9,3,0,6,0,6,0,0,6,0,3,9,3,9,0,6,0,0,0,0,0,0],"split_type":[0,0,0,0,0,0,0,0,0,0,0,0,0,0,0,0,0,0,0,0,0,0,0],"sum_hessian":[3.74E2,4.8E1,3.26E2,1.4E1,3.4E1,1.4E1,3.12E2,1.9E1,1.5E1,2.94E2,1.8E1,2.31E2,6.3E1,1.02E2,1.29E2,1.8E1,4.5E1,9E1,1.2E1,4E1,8.9E1,1.8E1,2.7E1],"tree_param":{"num_deleted":"0","num_feature":"10","num_nodes":"23","size_leaf_vector":"1"}},{"base_weights":[3.0200815E-4,4.3049213E-3,-2.563152E-4,1.0904352E-3,1.4050232E-3,2.2203256E-4,-1.441483E-3,5.779854E-3,-6.249027E-4,-2.2367418E-3,8.456877E-4,1.174573E-3,-3.6101404E-3,7.191098E-4,3.6369896E-4,8.6835775E-5,-3.2431094E-3,4.6516344E-4,3.5746966E-3,3.113824E-3,-4.4882036E-4,-1.0867597E-3,-1.4671801E-3,-7.148408E-4,-1.3351635E-3,1.0127528E-3,-2.8405967E-3,2.4885373E-4,4.3010362E-4,1.0465112E-4,5.2628876E-4,9.194015E-5,-3.28485E-3,2.4638022E-4,-4.451501E-4,-2.7809438E-4,1.3426751E-4,-4.0840483E-4,-1.2586969E-4,-4.8001553E-4,-1.6413946E-4],"categories":[],"categories_nodes":[],"categories_segments":[],"categories_sizes":[],"default_left":[0,0,0,0,0,0,0,0,0,0,0,0,0,0,0,0,0,0,0,0,0,0,0,0,0,0,0,0,0,0,0,0,0,0,0,0,0,0,0,0,0],"id":39,"left_children":[1,3,5,-1,7,9,11,13,-1,15,17,19,21,-1,-1,-1,23,25,27,29,-1,-1,31,-1,33,35,37,-1,-1,-1,-1,-1,39,-1,-1,-1,-1,-1,-1,-1,-1],"loss_changes":[8.034396E-4,8.5293804E-4,1.7946753E-4,0E0,1.1249896E-3,3.4844616E-4,5.2051333E-4,4.0256942E-5,0E0,1.4737934E-4,1.8629737E-4,4.824272E-4,7.83546E-4,0E0,0E0,0E0,2.601518E-4,2.9250866E-4,7.3558767E-6,1.4164491E-4,0E0,0E0,1.7787112E-4,0E0,3.1916535E-4,1.9258406E-4,4.200422E-5,0E0,0E0,0E0,0E0,0E0,5.1395822E-5,0E0,0E0,0E0,0E0,0E0,0E0,0E0,0E0],"parents":[2147483647,0,0,1,1,2,2,4,4,5,5,6,6,7,7,9,9,10,10,11,11,12,12,16,16,17,17,18,18,19,19,22,22,24,24,25,25,26,26,32,32],"right_children":[2,4,6,-1,8,10,12,14,-1,16,18,20,22,-1,-1,-1,24,26,28,30,-1,-1,32,-1,34,36,38,-1,-1,-1,-1,-1,40,-1,-1,-1,-1,-1,-1,-1,-1],"split_conditions":[-7.4758977E-1,-7.0669675E-1,5.907861E-1,1.0904352E-3,3.4988874E-1,-7.8733987E-1,-1.9071011E-1,-4.2546132E-1,-6.249027E-4,-1.0486529E0,3.7873867E-1,8.766453E-1,-1.846755E-1,7.191098E-4,3.6369896E-4,8.6835775E-5,-7.11659E-1,2.9174992E-1,-2.642249E-1,-1.6392142E-1,-4.4882036E-4,-1.0867597E-3,4.2522904E-1,-7.148408E-4,-5.3364886E-3,-1.2670058E0,3.1777984E-1,2.4885373E-4,4.3010362E-4,1.0465112E-4,5.2628876E-4,9.194015E-5,3.5605466E-1,2.4638022E-4,-4.451501E-4,-2.7809438E-4,1.3426751E-4,-4.0840483E-4,-1.2586969E-4,-4.8001553E-4,-1.6413946E-4],"split_indices":[1,9,1,0,7,9,9,7,0,7,1,7,7,0,0,0,7,1,9,7,0,0,7,0,7,7,1,0,0,0,0,0,9,0,0,0,0,0,0,0,0],"split_type":[0,0,0,0,0,0,0,0,0,0,0,0,0,0,0,0,0,0,0,0,0,0,0,0,0,0,0,0,0,0,0,0,0,0,0,0,0,0,0,0,0],"sum_hessian":[3.58E2,4.3E1,3.15E2,1.2E1,3.1E1,2.25E2,9E1,2E1,1.1E1,4.5E1,1.8E2,4.1E1,4.9E1,1E1,1E1,1.1E1,3.4E1,1.59E2,2.1E1,3.1E1,1E1,1E1,3.9E1,1E1,2.4E1,1.37E2,2.2E1,1.1E1,1E1,1.7E1,1.4E1,1.7E1,2.2E1,1.1E1,1.3E1,1.1E1,1.26E2,1.1E1,1.1E1,1E1,1.2E1],"tree_param":{"num_deleted":"0","num_feature":"10","num_nodes":"41","size_leaf_vector":"1"}},{"base_weights":[1.8385814E-5,6.4895296E-4,-1.7719429E-4,-5.284375E-4,2.5143453E-3,-2.3351252E-4,-8.144825E-4,4.083151E-3,8.312516E-4,9.733727E-4,-6.709131E-4,2.663496E-4,5.108079E-4,2.2568234E-4,-8.305503E-5,-3.587395E-5,7.620999E-4,-4.91391E-4,-3.7218872E-4,1.12801354E-4,-1.19749435E-4,-1.2206015E-4,1.4470237E-4],"categories":[],"categories_nodes":[],"categories_segments":[],"categories_sizes":[],"default_left":[0,0,0,0,0,0,0,0,0,0,0,0,0,0,0,0,0,0,0,0,0,0,0],"id":40,"left_children":[1,-1,3,5,7,9,-1,11,13,15,17,-1,-1,-1,-1,19,-1,-1,21,-1,-1,-1,-1],"loss_changes":[4.925835E-4,0E0,3.5206653E-4,7.521306E-4,1.10145105E-4,1.685228E-4,0E0,1.9668252E-5,5.6146848E-5,5.830003E-4,3.012686E-4,0E0,0E0,0E0,0E0,1.06700754E-4,0E0,0E0,3.5597716E-4,0E0,0E0,0E0,0E0],"parents":[2147483647,0,0,2,2,3,3,4,4,5,5,7,7,8,8,9,9,10,10,15,15,18,18],"right_children":[2,-1,4,6,8,10,-1,12,14,16,18,-1,-1,-1,-1,20,-1,-1,22,-1,-1,-1,-1],"split_conditions":[-1.5913787E0,6.4895296E-4,1.3509892E0,1.2549536E0,1.5550174E0,1.564578E-2,-8.144825E-4,4.62566E-1,1.6362214E0,2.4705838E-1,5.866273E-2,2.663496E-4,5.108079E-4,2.2568234E-4,-8.305503E-5,-2.0704596E-1,7.620999E-4,-4.91391E-4,-5.5610992E-2,1.12801354E-4,-1.19749435E-4,-1.2206015E-4,1.4470237E-4],"split_indices":[9,0,0,0,9,8,0,9,0,0,8,0,0,0,0,9,0,0,9,0,0,0,0],"split_type":[0,0,0,0,0,0,0,0,0,0,0,0,0,0,0,0,0,0,0,0,0,0,0],"sum_hessian":[3.8E2,1E1,3.7E2,3.28E2,4.2E1,3.17E2,1.1E1,2.1E1,2.1E1,8.4E1,2.33E2,1.1E1,1E1,1.1E1,1E1,7.4E1,1E1,1.4E1,2.19E2,3.7E1,3.7E1,1.49E2,7E1],"tree_param":{"num_deleted":"0","num_feature":"10","num_nodes":"23","size_leaf_vector":"1"}},{"base_weights":[4.5704094E-4,3.8353207E-3,-1.00214886E-4,7.192633E-4,1.5315491E-3,-5.8795966E-4,1.3656185E-4,-1.2996154E-4,3.0905674E-3,6.958245E-4,-1.6363333E-3,8.526996E-5,4.9372273E-4,3.4395818E-4,3.4163261E-3,-2.664464E-3,3.656731E-4,6.503816E-4,-2.445765E-4,5.070447E-4,5.488733E-5,-1.4665996E-3,-7.826942E-4,-1.1384572E-4,1.3657316E-4,-3.210999E-5,-3.656499E-4],"categories":[],"categories_nodes":[],"categories_segments":[],"categories_sizes":[],"default_left":[0,0,0,0,0,0,0,0,0,0,0,0,0,0,0,0,0,0,0,0,0,0,0,0,0,0,0],"id":41,"left_children":[1,3,5,-1,7,-1,9,-1,11,13,15,-1,-1,17,19,21,-1,23,-1,-1,-1,25,-1,-1,-1,-1,-1],"loss_changes":[6.7810813E-4,3.9932405E-4,4.3324693E-4,0E0,1.4657037E-4,0E0,2.976013E-4,0E0,8.6168715E-5,2.1707857E-4,4.0690438E-4,0E0,0E0,1.780497E-4,1.2715321E-4,3.7641317E-4,0E0,2.485859E-4,0E0,0E0,0E0,1.3007865E-4,0E0,0E0,0E0,0E0,0E0],"parents":[2147483647,0,0,1,1,2,2,4,4,6,6,8,8,9,9,10,10,13,13,14,14,15,15,17,17,21,21],"right_children":[2,4,6,-1,8,-1,10,-1,12,14,16,-1,-1,18,20,22,-1,24,-1,-1,-1,26,-1,-1,-1,-1,-1],"split_conditions":[-1.0819585E0,-5.937001E-1,-1.0117918E0,7.192633E-4,-5.517486E-1,-5.8795966E-4,8.91924E-1,-1.2996154E-4,-1.3809835E0,6.984953E-1,1.6977223E0,8.526996E-5,4.9372273E-4,1.4946173E0,3.6897352E-1,1.4657904E0,3.656731E-4,-4.301765E-1,-2.445765E-4,5.070447E-4,5.488733E-5,3.3122808E-1,-7.826942E-4,-1.1384572E-4,1.3657316E-4,-3.210999E-5,-3.656499E-4],"split_indices":[7,4,7,0,5,0,7,0,7,7,7,0,0,5,5,7,0,5,0,0,0,5,0,0,0,0,0],"split_type":[0,0,0,0,0,0,0,0,0,0,0,0,0,0,0,0,0,0,0,0,0,0,0,0,0,0,0],"sum_hessian":[3.59E2,5E1,3.09E2,1.9E1,3.1E1,1.1E1,2.98E2,1.1E1,2E1,2.27E2,7.1E1,1E1,1E1,2.02E2,2.5E1,6E1,1.1E1,1.83E2,1.9E1,1.5E1,1E1,5E1,1E1,5.3E1,1.3E2,3.4E1,1.6E1],"tree_param":{"num_deleted":"0","num_feature":"10","num_nodes":"27","size_leaf_vector":"1"}},{"base_weights":[-2.6330355E-5,5.3992346E-3,-3.7385587E-4,7.4582617E-4,2.696905E-4,-3.3836788E-4,-1.9191795E-4,3.1653873E-3,-4.1164135E-4,1.22884E-4,4.701256E-4,-5.115742E-4,-2.0764371E-4,2.6899446E-3,-4.956324E-4,-4.0710227E-5,7.385358E-4,6.593124E-5,-1.4354697E-4],"categories":[],"categories_nodes":[],"categories_segments":[],"categories_sizes":[],"default_left":[0,0,0,0,0,0,0,0,0,0,0,0,0,0,0,0,0,0,0],"id":42,"left_children":[1,3,5,-1,-1,-1,7,9,11,-1,-1,-1,13,15,17,-1,-1,-1,-1],"loss_changes":[7.204026E-4,1.13315415E-4,2.0013524E-4,0E0,0E0,0E0,2.521137E-4,5.9302547E-5,3.123565E-4,0E0,0E0,0E0,2.5835083E-4,4.235402E-4,3.1827966E-4,0E0,0E0,0E0,0E0],"parents":[2147483647,0,0,1,1,2,2,6,6,7,7,8,8,12,12,13,13,14,14],"right_children":[2,4,6,-1,-1,-1,8,10,12,-1,-1,-1,14,16,18,-1,-1,-1,-1],"split_conditions":[-1.5445335E0,-5.1252495E-2,-1.2284336E0,7.4582617E-4,2.696905E-4,-3.3836788E-4,-1.0819585E0,3.4784192E-1,-1.0087572E0,1.22884E-4,4.701256E-4,-5.115742E-4,-7.433358E-1,-8.189887E-1,9.68733E-2,-4.0710227E-5,7.385358E-4,6.593124E-5,-1.4354697E-4],"split_indices":[7,5,7,0,0,0,7,8,7,0,0,0,7,7,8,0,0,0,0],"split_type":[0,0,0,0,0,0,0,0,0,0,0,0,0,0,0,0,0,0,0],"sum_hessian":[3.8E2,2.2E1,3.58E2,1.1E1,1.1E1,1.9E1,3.39E2,2E1,3.19E2,1E1,1E1,1.2E1,3.07E2,2.7E1,2.8E2,1.7E1,1E1,1.27E2,1.53E2],"tree_param":{"num_deleted":"0","num_feature":"10","num_nodes":"19","size_leaf_vector":"1"}},{"base_weights":[5.845003E-5,9.736116E-4,-3.263444E-4,2.3224798E-4,-2.0491942E-3,-4.0078285E-4,4.2981288E-4,2.5915126E-3,-4.258049E-3,6.325442E-4,-3.758017E-4,-5.3651615E-6,5.743205E-4,-5.9279148E-3,-8.745886E-4,4.942805E-4,3.893112E-4,-8.108677E-3,-3.279277E-4,-1.728175E-4,8.970417E-6,-1.4894242E-5,2.4869325E-4,-3.486145E-4,-1.1704804E-3],"categories":[],"categories_nodes":[],"categories_segments":[],"categories_sizes":[],"default_left":[0,0,0,0,0,0,0,0,0,0,0,0,0,0,0,0,0,0,0,0,0,0,0,0,0],"id":43,"left_children":[1,-1,3,5,7,-1,9,11,13,15,-1,-1,-1,17,19,-1,21,23,-1,-1,-1,-1,-1,-1,-1],"loss_changes":[1.4150699E-3,0E0,3.4596704E-4,2.337081E-4,9.130918E-4,0E0,2.277988E-4,2.5057094E-4,3.3381092E-4,2.6586154E-4,0E0,0E0,0E0,1.9849837E-4,1.8144392E-5,0E0,2.7661317E-4,3.230254E-4,0E0,0E0,0E0,0E0,0E0,0E0,0E0],"parents":[2147483647,0,0,2,2,3,3,4,4,6,6,7,7,8,8,9,9,13,13,14,14,16,16,17,17],"right_children":[2,-1,4,6,8,-1,10,12,14,16,-1,-1,-1,18,20,-1,22,24,-1,-1,-1,-1,-1,-1,-1],"split_conditions":[-2.769798E0,9.736116E-4,5.8870775E-1,-1.0906172E0,-4.645621E-1,-4.0078285E-4,6.8657297E-1,-7.9023445E-1,1.3844074E0,-7.415078E-1,-3.758017E-4,-5.3651615E-6,5.743205E-4,5.0871797E-2,1.9204327E-1,4.942805E-4,4.370346E-1,-1.2685096E-1,-3.279277E-4,-1.728175E-4,8.970417E-6,-1.4894242E-5,2.4869325E-4,-3.486145E-4,-1.1704804E-3],"split_indices":[1,0,1,1,3,0,8,3,3,1,0,0,0,8,8,0,8,8,0,0,0,0,0,0,0],"split_type":[0,0,0,0,0,0,0,0,0,0,0,0,0,0,0,0,0,0,0,0,0,0,0,0,0],"sum_hessian":[3.71E2,1.3E1,3.58E2,2.71E2,8.7E1,1.1E1,2.6E2,2.8E1,5.9E1,2.49E2,1.1E1,1.6E1,1.2E1,3.9E1,2E1,1.2E1,2.37E2,2E1,1.9E1,1E1,1E1,1.9E2,4.7E1,1E1,1E1],"tree_param":{"num_deleted":"0","num_feature":"10","num_nodes":"25","size_leaf_vector":"1"}},{"base_weights":[-3.6178794E-4,2.1228043E-3,-9.320382E-4,8.7231875E-4,7.840623E-4,-4.21025E-3,-9.494252E-5,4.8241214E-4,-4.050936E-4,-9.4495283E-4,-1.5294306E-3,-1.8310171E-3,3.9498776E-4,-4.2108927E-4,8.277883E-4,-2.655442E-3,6.618179E-5,-5.757613E-4,-6.4486795E-4,2.8234886E-3,2.2380984E-5,2.8793372E-3,-2.4093255E-4,-7.6895594E-5,-5.3747155E-4,-2.1551105E-3,3.1742273E-4,1.1203689E-5,4.5357243E-4,5.745099E-4,-2.186813E-3,-2.9503866E-5,5.450601E-4,-8.834159E-5,-3.9909806E-4,3.3307052E-4,-5.0629574E-6,-5.3710176E-4,-4.7293765E-6],"categories":[],"categories_nodes":[],"categories_segments":[],"categories_sizes":[],"default_left":[0,0,0,0,0,0,0,0,0,0,0,0,0,0,0,0,0,0,0,0,0,0,0,0,0,0,0,0,0,0,0,0,0,0,0,0,0,0,0],"id":44,"left_children":[1,3,5,7,-1,9,11,-1,13,-1,15,17,19,-1,21,23,-1,25,-1,27,29,31,-1,-1,-1,33,-1,-1,-1,35,37,-1,-1,-1,-1,-1,-1,-1,-1],"loss_changes":[5.233754E-4,4.992654E-4,8.2285324E-4,3.0158582E-4,0E0,8.7147555E-4,2.0485655E-4,0E0,2.19145E-4,0E0,1.0601644E-4,3.115918E-4,1.7005345E-4,0E0,2.4280189E-4,1.4359367E-4,0E0,2.6574504E-4,0E0,1.2129688E-4,2.0129698E-4,1.8881606E-4,0E0,0E0,0E0,7.071227E-5,0E0,0E0,0E0,2.3320413E-4,2.3167732E-4,0E0,0E0,0E0,0E0,0E0,0E0,0E0,0E0],"parents":[2147483647,0,0,1,1,2,2,3,3,5,5,6,6,8,8,10,10,11,11,12,12,14,14,15,15,17,17,19,19,20,20,21,21,25,25,29,29,30,30],"right_children":[2,4,6,8,-1,10,12,-1,14,-1,16,18,20,-1,22,24,-1,26,-1,28,30,32,-1,-1,-1,34,-1,-1,-1,36,38,-1,-1,-1,-1,-1,-1,-1,-1],"split_conditions":[-9.780073E-1,-1.0836531E0,-4.1560888E-1,-1.3620939E0,7.840623E-4,3.9344594E-1,-5.8565915E-1,4.8241214E-4,-2.5133863E-1,-9.4495283E-4,-7.22205E-1,6.989195E-1,-3.172272E-1,-4.2108927E-4,2.9394764E-1,-1.465797E-1,6.618179E-5,8.150353E-1,-6.4486795E-4,-5.102635E-1,1.2435719E0,-1.2776467E0,-2.4093255E-4,-7.6895594E-5,-5.3747155E-4,-8.731569E-2,3.1742273E-4,1.1203689E-5,4.5357243E-4,-1.13834545E-1,1.5728042E0,-2.9503866E-5,5.450601E-4,-8.834159E-5,-3.9909806E-4,3.3307052E-4,-5.0629574E-6,-5.3710176E-4,-4.7293765E-6],"split_indices":[6,6,1,6,0,4,4,0,4,0,1,1,4,0,4,6,0,6,0,4,6,6,0,0,0,1,0,0,0,1,6,0,0,0,0,0,0,0,0],"split_type":[0,0,0,0,0,0,0,0,0,0,0,0,0,0,0,0,0,0,0,0,0,0,0,0,0,0,0,0,0,0,0,0,0,0,0,0,0,0,0],"sum_hessian":[3.67E2,6.8E1,2.99E2,5.7E1,1.1E1,6E1,2.39E2,1.3E1,4.4E1,1.9E1,4.1E1,5.2E1,1.87E2,1E1,3.4E1,2.7E1,1.4E1,4.2E1,1E1,2.4E1,1.63E2,2.1E1,1.3E1,1.7E1,1E1,3E1,1.2E1,1E1,1.4E1,1.31E2,3.2E1,1E1,1.1E1,1.9E1,1.1E1,2.3E1,1.08E2,1.2E1,2E1],"tree_param":{"num_deleted":"0","num_feature":"10","num_nodes":"39","size_leaf_vector":"1"}},{"base_weights":[7.4008865E-5,-8.205402E-4,3.7099927E-4,3.4937814E-3,6.4106665E-5,5.5682245E-3,-1.2364026E-5,2.443465E-4,-4.0349082E-4,3.3885156E-4,7.043101E-4,-2.7654282E-6,2.8567717E-3,1.1938423E-3,-4.0519953E-4,8.8344445E-4,-1.03799546E-4,-1.9370441E-4,2.1871745E-4,2.5245533E-4,-7.961119E-5],"categories":[],"categories_nodes":[],"categories_segments":[],"categories_sizes":[],"default_left":[0,0,0,0,0,0,0,0,0,0,0,0,0,0,0,0,0,0,0,0,0],"id":45,"left_children":[1,-1,3,5,7,9,-1,11,-1,-1,-1,13,15,17,19,-1,-1,-1,-1,-1,-1],"loss_changes":[9.5762435E-4,0E0,3.534104E-4,2.4849916E-4,2.546489E-4,4.668621E-5,0E0,2.0916981E-4,0E0,0E0,0E0,1.4350581E-4,6.831546E-4,2.5029262E-4,2.7174057E-4,0E0,0E0,0E0,0E0,0E0,0E0],"parents":[2147483647,0,0,2,2,3,3,4,4,5,5,7,7,11,11,12,12,13,13,14,14],"right_children":[2,-1,4,6,8,10,-1,12,-1,-1,-1,14,16,18,20,-1,-1,-1,-1,-1,-1],"split_conditions":[-1.5141387E0,-8.205402E-4,-1.1895853E0,1.8709758E-1,1.6364955E0,-6.0143894E-1,-1.2364026E-5,1.2378402E0,-4.0349082E-4,3.3885156E-4,7.043101E-4,-7.780718E-1,1.3237352E0,-1.2776467E0,-7.433358E-1,8.8344445E-4,-1.03799546E-4,-1.9370441E-4,2.1871745E-4,2.5245533E-4,-7.961119E-5],"split_indices":[2,0,7,2,7,6,0,7,0,0,0,6,7,6,7,0,0,0,0,0,0],"split_type":[0,0,0,0,0,0,0,0,0,0,0,0,0,0,0,0,0,0,0,0,0],"sum_hessian":[3.8E2,1.2E1,3.68E2,3.2E1,3.36E2,2E1,1.2E1,3.23E2,1.3E1,1E1,1E1,2.96E2,2.7E1,7.4E1,2.22E2,1E1,1.7E1,1.8E1,5.6E1,2.6E1,1.96E2],"tree_param":{"num_deleted":"0","num_feature":"10","num_nodes":"21","size_leaf_vector":"1"}},{"base_weights":[-2.9468525E-5,-1.7151779E-3,4.5966034E-4,-8.6278294E-4,5.3272648E-5,7.244611E-4,-2.175949E-3,-2.8313964E-3,2.3448488E-3,4.0401935E-4,3.445231E-3,-4.4691687E-6,-4.383267E-4,2.2749734E-4,-9.0773375E-4,3.7323502E-3,6.750282E-5,7.739078E-4,-3.2964167E-3,-2.755567E-5,7.05695E-4,4.7069998E-4,2.2852556E-4,2.951367E-3,6.0915627E-5,-7.724119E-4,1.9566671E-4,1.919568E-5,7.4838684E-4,-3.0289392E-4,7.3570234E-5],"categories":[],"categories_nodes":[],"categories_segments":[],"categories_sizes":[],"default_left":[0,0,0,0,0,0,0,0,0,0,0,0,0,0,0,0,0,0,0,0,0,0,0,0,0,0,0,0,0,0,0],"id":46,"left_children":[1,3,5,-1,7,9,11,13,15,17,19,-1,-1,-1,-1,21,-1,23,25,-1,-1,-1,-1,27,29,-1,-1,-1,-1,-1,-1],"loss_changes":[3.1163587E-4,1.0642612E-3,2.0606437E-4,0E0,4.6275952E-4,2.3139152E-4,1.3156449E-4,1.0461415E-3,8.709529E-5,3.310508E-4,3.9284528E-4,0E0,0E0,0E0,0E0,2.0199514E-5,0E0,3.398202E-4,5.481416E-4,0E0,0E0,0E0,0E0,6.94199E-4,3.6220267E-4,0E0,0E0,0E0,0E0,0E0,0E0],"parents":[2147483647,0,0,1,1,2,2,4,4,5,5,6,6,7,7,8,8,9,9,10,10,15,15,17,17,18,18,23,23,24,24],"right_children":[2,4,6,-1,8,10,12,14,16,18,20,-1,-1,-1,-1,22,-1,24,26,-1,-1,-1,-1,28,30,-1,-1,-1,-1,-1,-1],"split_conditions":[-8.091945E-1,1.5780945E-1,5.6018084E-1,-8.6278294E-4,-1.2667699E0,4.2344424E-1,-2.432698E-1,-1.0494094E0,-9.987411E-1,3.6862844E-1,-2.4012852E-1,-4.4691687E-6,-4.383267E-4,2.2749734E-4,-9.0773375E-4,-7.0616674E-1,6.750282E-5,-3.22101E-1,-3.1268921E-1,-2.755567E-5,7.05695E-4,4.7069998E-4,2.2852556E-4,-4.5335642E-1,-5.5610992E-2,-7.724119E-4,1.9566671E-4,1.919568E-5,7.4838684E-4,-3.0289392E-4,7.3570234E-5],"split_indices":[9,8,8,0,9,8,0,0,9,8,9,0,0,0,0,0,0,9,9,0,0,0,0,0,9,0,0,0,0,0,0],"split_type":[0,0,0,0,0,0,0,0,0,0,0,0,0,0,0,0,0,0,0,0,0,0,0,0,0,0,0,0,0,0,0],"sum_hessian":[3.76E2,8.4E1,2.92E2,1.6E1,6.8E1,2.66E2,2.6E1,3E1,3.8E1,2.39E2,2.7E1,1.4E1,1.2E1,1.7E1,1.3E1,2E1,1.8E1,2.18E2,2.1E1,1.4E1,1.3E1,1E1,1E1,5.3E1,1.65E2,1.1E1,1E1,3.4E1,1.9E1,2.9E1,1.36E2],"tree_param":{"num_deleted":"0","num_feature":"10","num_nodes":"31","size_leaf_vector":"1"}},{"base_weights":[-3.5583647E-4,6.790888E-4,-1.2022528E-3,3.685841E-4,5.2317604E-4,3.9712831E-4,-1.6424196E-3,-1.8908898E-4,2.1439234E-3,-2.4635626E-3,2.0416311E-3,3.3233082E-4,-1.5308376E-3,6.560056E-4,-8.4810134E-4,-3.7951223E-3,-4.7913895E-4,6.7981734E-4,-2.4571984E-5,-4.200482E-4,2.8771342E-4,3.4910016E-5,-3.3729614E-4,-2.3271388E-4,3.1947795E-5,-9.7348314E-4,-2.986362E-3,4.070646E-4,-1.7797103E-3,1.9815817E-4,-1.3204968E-4,-4.8409393E-6,-2.2574313E-4,1.516237E-4,-4.3469635E-4,-3.9308635E-4,-3.0345547E-5],"categories":[],"categories_nodes":[],"categories_segments":[],"categories_sizes":[],"default_left":[0,0,0,0,0,0,0,0,0,0,0,0,0,0,0,0,0,0,0,0,0,0,0,0,0,0,0,0,0,0,0,0,0,0,0,0,0],"id":47,"left_children":[1,3,5,7,-1,-1,9,11,13,15,17,19,21,-1,23,25,27,-1,29,31,-1,-1,-1,-1,-1,-1,33,-1,35,-1,-1,-1,-1,-1,-1,-1,-1],"loss_changes":[3.4419965E-4,2.5372172E-4,5.0571543E-4,1.6574522E-4,0E0,0E0,6.1005616E-4,9.005938E-5,5.491461E-4,4.315317E-4,3.7370156E-4,1.8312794E-4,1.3069638E-4,0E0,4.546949E-5,4.5583874E-4,4.1059704E-4,0E0,7.5620315E-5,5.0773662E-5,0E0,0E0,0E0,0E0,0E0,0E0,5.824173E-4,0E0,1.7224529E-4,0E0,0E0,0E0,0E0,0E0,0E0,0E0,0E0],"parents":[2147483647,0,0,1,1,2,2,3,3,6,6,7,7,8,8,9,9,10,10,11,11,12,12,14,14,15,15,16,16,18,18,19,19,26,26,28,28],"right_children":[2,4,6,8,-1,-1,10,12,14,16,18,20,22,-1,24,26,28,-1,30,32,-1,-1,-1,-1,-1,-1,34,-1,36,-1,-1,-1,-1,-1,-1,-1,-1],"split_conditions":[1.3887647E-1,1.1536439E-1,-1.2627583E0,7.58033E-1,5.2317604E-4,3.9712831E-4,5.5875075E-1,-5.9602395E-2,1.2877228E0,6.970561E-1,5.8659464E-1,-3.7650546E-1,-5.5405784E-2,6.560056E-4,1.5455805E0,1.8098271E-1,8.7241834E-1,6.7981734E-4,6.43718E-1,-5.4436487E-1,2.8771342E-4,3.4910016E-5,-3.3729614E-4,-2.3271388E-4,3.1947795E-5,-9.7348314E-4,2.8524935E-1,4.070646E-4,2.4499723E-1,1.9815817E-4,-1.3204968E-4,-4.8409393E-6,-2.2574313E-4,1.516237E-4,-4.3469635E-4,-3.9308635E-4,-3.0345547E-5],"split_indices":[8,8,0,3,0,0,8,0,0,0,8,0,8,0,0,8,0,0,8,0,0,0,0,0,0,0,8,0,8,0,0,0,0,0,0,0,0],"split_type":[0,0,0,0,0,0,0,0,0,0,0,0,0,0,0,0,0,0,0,0,0,0,0,0,0,0,0,0,0,0,0,0,0,0,0,0,0],"sum_hessian":[3.91E2,1.76E2,2.15E2,1.66E2,1E1,1.6E1,1.99E2,1.27E2,3.9E1,1.63E2,3.6E1,9.2E1,3.5E1,1.5E1,2.4E1,9.7E1,6.6E1,1E1,2.6E1,7.2E1,2E1,1.8E1,1.7E1,1E1,1.4E1,1E1,8.7E1,1.4E1,5.2E1,1E1,1.6E1,6.1E1,1.1E1,2.1E1,6.6E1,2E1,3.2E1],"tree_param":{"num_deleted":"0","num_feature":"10","num_nodes":"37","size_leaf_vector":"1"}},{"base_weights":[1.3973657E-4,-1.6846864E-4,3.1408558E-3,-4.88423E-4,-1.2853215E-5,6.943329E-4,3.153518E-4,5.858319E-4,-2.3036778E-4,-5.8581958E-5,1.2579946E-4,4.0414894E-4,-1.2221663E-3,2.0874185E-3,-1.0802468E-3,-4.4579743E-3,3.91189E-4,4.5861595E-4,1.12599104E-4,-2.3580034E-4,1.9612595E-4,-6.9251325E-4,-1.0953927E-4,1.5952945E-4,-3.2678148E-4],"categories":[],"categories_nodes":[],"categories_segments":[],"categories_sizes":[],"default_left":[0,0,0,0,0,0,0,0,0,0,0,0,0,0,0,0,0,0,0,0,0,0,0,0,0],"id":48,"left_children":[1,3,5,-1,7,-1,9,-1,11,-1,-1,13,15,17,19,21,23,-1,-1,-1,-1,-1,-1,-1,-1],"loss_changes":[3.5756393E-4,2.6259554E-4,3.979973E-4,0E0,4.4512845E-4,0E0,2.0166017E-5,0E0,2.0816716E-4,0E0,0E0,5.0697976E-4,6.751894E-4,2.2557002E-4,4.4460653E-4,3.6558672E-4,4.0507296E-4,0E0,0E0,0E0,0E0,0E0,0E0,0E0,0E0],"parents":[2147483647,0,0,1,1,2,2,4,4,6,6,8,8,11,11,12,12,13,13,14,14,15,15,16,16],"right_children":[2,4,6,-1,8,-1,10,-1,12,-1,-1,14,16,18,20,22,24,-1,-1,-1,-1,-1,-1,-1,-1],"split_conditions":[1.2378402E0,-2.104648E0,-1.495062E-1,-4.88423E-4,-1.5785403E0,6.943329E-4,1.5638235E0,5.858319E-4,2.6504153E-1,-5.8581958E-5,1.2579946E-4,-2.2090475E-1,-1.6392142E-1,-4.320102E-1,1.5427531E-1,7.7745074E-1,8.852353E-1,4.5861595E-4,1.12599104E-4,-2.3580034E-4,1.9612595E-4,-6.9251325E-4,-1.0953927E-4,1.5952945E-4,-3.2678148E-4],"split_indices":[7,7,1,0,2,0,7,0,1,0,0,7,7,1,1,1,7,0,0,0,0,0,0,0,0],"split_type":[0,0,0,0,0,0,0,0,0,0,0,0,0,0,0,0,0,0,0,0,0,0,0,0,0],"sum_hessian":[3.85E2,3.5E2,3.5E1,1E1,3.4E2,1.4E1,2.1E1,1.1E1,3.29E2,1.1E1,1E1,2.01E2,1.28E2,9.4E1,1.07E2,4.2E1,8.6E1,2.4E1,7E1,7.5E1,3.2E1,2.3E1,1.9E1,6.5E1,2.1E1],"tree_param":{"num_deleted":"0","num_feature":"10","num_nodes":"25","size_leaf_vector":"1"}},{"base_weights":[-2.6111206E-4,1.580966E-3,-7.04721E-4,-3.6381316E-4,3.408799E-3,-9.5617364E-4,-3.764108E-4,6.642394E-3,1.4813857E-3,1.12950875E-4,-1.6866667E-3,1.6495898E-4,1.0794397E-3,-1.1856033E-4,3.1710411E-3,-1.1382794E-4,3.4410437E-4,-4.0972076E-4,-4.470367E-3,4.8056946E-4,8.2701124E-5,-3.4112207E-4,8.949862E-5,4.8756987E-4,-3.203603E-4,-8.136896E-4,-1.0861866E-6,7.774758E-5,-1.08762855E-4,3.2857887E-4,-1.1837151E-4],"categories":[],"categories_nodes":[],"categories_segments":[],"categories_sizes":[],"default_left":[0,0,0,0,0,0,0,0,0,0,0,0,0,0,0,0,0,0,0,0,0,0,0,0,0,0,0,0,0,0,0],"id":49,"left_children":[1,3,5,-1,7,-1,9,11,13,15,17,-1,-1,-1,19,21,-1,23,25,-1,-1,-1,27,29,-1,-1,-1,-1,-1,-1,-1],"loss_changes":[3.1980747E-4,7.4727356E-4,9.311335E-4,0E0,3.4541113E-4,0E0,1.9575318E-4,4.3551798E-4,1.7197535E-4,1.720199E-4,2.932031E-4,0E0,0E0,0E0,8.8309534E-5,1.4387851E-4,0E0,1.5016795E-4,4.4297555E-4,0E0,0E0,0E0,1.6839974E-4,2.2209392E-4,0E0,0E0,0E0,0E0,0E0,0E0,0E0],"parents":[2147483647,0,0,1,1,2,2,4,4,6,6,7,7,8,8,9,9,10,10,14,14,15,15,17,17,18,18,22,22,23,23],"right_children":[2,4,6,-1,8,-1,10,12,14,16,18,-1,-1,-1,20,22,-1,24,26,-1,-1,-1,28,30,-1,-1,-1,-1,-1,-1,-1],"split_conditions":[-4.5717734E-1,-1.4443709E0,-3.7878388E-1,-3.6381316E-4,-5.9128267E-1,-9.5617364E-4,6.633287E-1,-9.4304687E-1,2.2972578E-1,1.9956428E0,9.0400326E-1,1.6495898E-4,1.0794397E-3,-1.1856033E-4,1.2166804E0,-1.110948E0,3.4410437E-4,1.7171994E0,8.394977E-1,4.8056946E-4,8.2701124E-5,-3.4112207E-4,2.3223385E-1,-6.8962324E-1,-3.203603E-4,-8.136896E-4,-1.0861866E-6,7.774758E-5,-1.08762855E-4,3.2857887E-4,-1.1837151E-4],"split_indices":[1,1,1,0,9,0,1,0,0,9,0,0,0,0,9,9,0,1,1,0,0,0,1,9,0,0,0,0,0,0,0],"split_type":[0,0,0,0,0,0,0,0,0,0,0,0,0,0,0,0,0,0,0,0,0,0,0,0,0,0,0,0,0,0,0],"sum_hessian":[3.89E2,7.5E1,3.14E2,1.9E1,5.6E1,1E1,3.04E2,2E1,3.6E1,2.22E2,8.2E1,1E1,1E1,1.4E1,2.2E1,2.09E2,1.3E1,5.7E1,2.5E1,1.2E1,1E1,1.1E1,1.98E2,4.4E1,1.3E1,1.3E1,1.2E1,1.25E2,7.3E1,1.6E1,2.8E1],"tree_param":{"num_deleted":"0","num_feature":"10","num_nodes":"31","size_leaf_vector":"1"}},{"base_weights":[-1.7616988E-4,-4.0674035E-4,3.3602205E-3,-7.651948E-4,-5.462969E-5,5.320778E-4,9.99303E-5,7.0325314E-4,-2.973732E-4,-2.0949396E-3,1.0617664E-4,3.0309055E-4,-7.1494543E-4,3.9188165E-4,-2.6865513E-3,-2.750738E-4,2.9350742E-4,8.017653E-6,4.7170013E-4,-7.243443E-4,9.179378E-5],"categories":[],"categories_nodes":[],"categories_segments":[],"categories_sizes":[],"default_left":[0,0,0,0,0,0,0,0,0,0,0,0,0,0,0,0,0,0,0,0,0],"id":50,"left_children":[1,3,5,-1,7,-1,-1,-1,9,11,13,15,-1,17,19,-1,-1,-1,-1,-1,-1],"loss_changes":[3.0632157E-4,9.1562525E-4,1.05538056E-4,0E0,5.9284735E-4,0E0,0E0,0E0,2.3743071E-4,7.49048E-4,2.1488903E-4,3.5904534E-4,0E0,3.3374532E-4,4.3201636E-4,0E0,0E0,0E0,0E0,0E0,0E0],"parents":[2147483647,0,0,1,1,2,2,4,4,8,8,9,9,10,10,11,11,13,13,14,14],"right_children":[2,4,6,-1,8,-1,-1,-1,10,12,14,16,-1,18,20,-1,-1,-1,-1,-1,-1],"split_conditions":[1.602112E0,-1.4443709E0,2.0712201E-1,-7.651948E-4,-1.0118754E0,5.320778E-4,9.99303E-5,7.0325314E-4,-2.960645E-1,-4.5717734E-1,1.2629677E0,-6.794974E-1,-7.1494543E-4,1.0590369E0,1.3509892E0,-2.750738E-4,2.9350742E-4,8.017653E-6,4.7170013E-4,-7.243443E-4,9.179378E-5],"split_indices":[0,1,1,0,1,0,0,0,1,1,0,0,0,0,0,0,0,0,0,0,0],"split_type":[0,0,0,0,0,0,0,0,0,0,0,0,0,0,0,0,0,0,0,0,0],"sum_hessian":[3.73E2,3.51E2,2.2E1,1.5E1,3.36E2,1.1E1,1.1E1,1E1,3.26E2,5.9E1,2.67E2,4.1E1,1.8E1,2.43E2,2.4E1,1.9E1,2.2E1,2.28E2,1.5E1,1E1,1.4E1],"tree_param":{"num_deleted":"0","num_feature":"10","num_nodes":"21","size_leaf_vector":"1"}},{"base_weights":[1.8679757E-4,4.526206E-3,-1.9159696E-4,-1.1649777E-5,6.9544284E-4,1.390872E-4,-3.5441206E-3,-2.9605923E-3,5.84518E-4,-7.5425126E-4,1.0249826E-5,-9.7373314E-4,-8.135862E-4,3.7219448E-4,4.5806877E-4,-3.4476E-4,1.0358167E-4,5.9340306E-4,-2.1685122E-3,-1.5769629E-5,1.5170834E-4,-1.1556005E-4,-2.84202E-4],"categories":[],"categories_nodes":[],"categories_segments":[],"categories_sizes":[],"default_left":[0,0,0,0,0,0,0,0,0,0,0,0,0,0,0,0,0,0,0,0,0,0,0],"id":51,"left_children":[1,3,5,-1,-1,7,9,11,13,-1,-1,15,-1,17,-1,-1,-1,19,21,-1,-1,-1,-1],"loss_changes":[6.3468236E-4,3.695549E-4,3.9516398E-4,0E0,0E0,4.5045564E-4,4.8440014E-4,4.261305E-4,2.453576E-4,0E0,0E0,1.6346268E-4,0E0,1.5415791E-4,0E0,0E0,0E0,1.8055002E-4,1.2451659E-5,0E0,0E0,0E0,0E0],"parents":[2147483647,0,0,1,1,2,2,5,5,6,6,7,7,8,8,11,11,13,13,17,17,18,18],"right_children":[2,4,6,-1,-1,8,10,12,14,-1,-1,16,-1,18,-1,-1,-1,20,22,-1,-1,-1,-1],"split_conditions":[-1.3809835E0,-2.104648E0,1.3237352E0,-1.1649777E-5,6.9544284E-4,-1.0087572E0,-3.4528822E-1,-1.0819585E0,1.1579602E0,-7.5425126E-4,1.0249826E-5,-1.2284336E0,-8.135862E-4,9.735888E-1,4.5806877E-4,-3.4476E-4,1.0358167E-4,2.0524597E-1,-3.0123302E-1,-1.5769629E-5,1.5170834E-4,-1.1556005E-4,-2.84202E-4],"split_indices":[7,7,7,0,0,7,6,7,7,0,0,7,0,7,0,0,0,7,6,0,0,0,0],"split_type":[0,0,0,0,0,0,0,0,0,0,0,0,0,0,0,0,0,0,0,0,0,0,0],"sum_hessian":[3.85E2,3E1,3.55E2,1.1E1,1.9E1,3.24E2,3.1E1,4E1,2.84E2,1.4E1,1.7E1,3E1,1E1,2.71E2,1.3E1,1.3E1,1.7E1,2.5E2,2.1E1,1.4E2,1.1E2,1E1,1.1E1],"tree_param":{"num_deleted":"0","num_feature":"10","num_nodes":"23","size_leaf_vector":"1"}},{"base_weights":[1.5504399E-4,3.0417643E-3,-3.844229E-4,6.6683855E-4,1.2281039E-3,-6.4492794E-3,4.715283E-5,-3.5838707E-4,2.920177E-3,-1.0830446E-3,-1.2517559E-4,-8.7374E-4,1.1823353E-3,6.20084E-4,-6.4871645E-5,-4.8116682E-4,-6.172797E-4,2.7683745E-3,5.87644E-4,-8.458211E-4,3.1655165E-4,1.0463863E-3,5.6273275E-4,3.8733814E-4,2.7402619E-5,3.1613505E-5,-3.2821656E-4,-2.3268649E-5,1.9431123E-4,-3.688345E-4,6.289978E-5],"categories":[],"categories_nodes":[],"categories_segments":[],"categories_sizes":[],"default_left":[0,0,0,0,0,0,0,0,0,0,0,0,0,0,0,0,0,0,0,0,0,0,0,0,0,0,0,0,0,0,0],"id":52,"left_children":[1,3,5,-1,7,9,11,-1,13,-1,-1,15,17,-1,-1,19,-1,21,23,25,-1,27,-1,-1,29,-1,-1,-1,-1,-1,-1],"loss_changes":[5.8359577E-4,3.933116E-4,8.2741666E-4,0E0,3.4922978E-4,4.8433017E-4,3.1046596E-4,0E0,3.8150005E-4,0E0,0E0,3.4570444E-4,1.2381929E-4,0E0,0E0,2.1089922E-4,0E0,1.7787295E-4,1.843402E-4,4.1259802E-4,0E0,2.9232067E-5,0E0,0E0,1.9986162E-4,0E0,0E0,0E0,0E0,0E0,0E0],"parents":[2147483647,0,0,1,1,2,2,4,4,5,5,6,6,8,8,11,11,12,12,15,15,17,17,18,18,19,19,21,21,24,24],"right_children":[2,4,6,-1,8,10,12,-1,14,-1,-1,16,18,-1,-1,20,-1,22,24,26,-1,28,-1,-1,30,-1,-1,-1,-1,-1,-1],"split_conditions":[-6.026629E-1,-4.2546132E-1,-4.1560888E-1,6.6683855E-4,-1.1956024E0,7.817189E-1,2.241143E-1,-3.5838707E-4,5.772588E-1,-1.0830446E-3,-1.2517559E-4,1.558029E0,5.670976E-1,6.20084E-4,-6.4871645E-5,8.436495E-1,-6.172797E-4,3.3424732E-1,-1.495062E-1,2.6504153E-1,3.1655165E-4,4.420845E-1,5.6273275E-4,3.8733814E-4,6.026819E-2,3.1613505E-5,-3.2821656E-4,-2.3268649E-5,1.9431123E-4,-3.688345E-4,6.289978E-5],